0.0
0.0
0.0
0.0
0.0
0.0
0.0
0.0
0.0
0.0
0.0
0.0
0.0
0.0
0.0
0.0
0.0
0.0
0.0
-9.15
0.0
0.0
0.0
0.0
-4.8
0.0
0.0
0.0
0.0
0.0
0.0
0.0
0.0
0.0
0.0
0.0
0.0
0.0
0.0
0.0
-4.82
0.0
0.0
0.0
0.0
0.0
0.0
0.0
0.0
0.0
0.0
0.0
0.0
0.0
0.0
0.0
0.0
0.0
0.0
0.0
0.0
0.0
0.0
0.0
0.0
0.0
0.0
0.0
0.0
0.0
0.0
0.0
0.0
0.0
0.0
0.0
0.0
0.0
0.0
-9.15
-4.81
0.0
0.0
0.0
0.0
0.0
0.0
-9.16
0.0
0.0
0.0
-4.94
0.0
-4.8
-4.88
-4.96
0.0
0.0
0.0
0.0
0.0
0.0
-4.94
-9.17
-9.11
0.0
0.0
0.0
0.0
0.0
0.0
-4.85
-4.89
-9.15
-9.14
0.0
0.0
0.0
0.0
0.0
-9.15
-9.18
0.0
0.0
0.0
0.0
0.0
0.0
0.0
-4.93
0.0
0.0
0.0
0.0
0.0
0.0
0.0
0.0
-4.85
0.0
0.0
0.0
0.0
0.0
-4.79
0.0
0.0
0.0
0.0
0.0
0.0
0.0
0.0
0.0
0.0
0.0
0.0
0.0
0.0
0.0
0.0
0.0
0.0
0.0
0.0
0.0
0.0
0.0
0.0
0.0
0.0
0.0
0.0
-4.9
0.0
0.0
0.0
0.0
0.0
0.0
0.0
0.0
0.0
0.0
0.0
0.0
0.0
-4.81
-9.12
0.0
0.0
0.0
-4.78
-4.76
0.0
0.0
-9.09
0.0
0.0
0.0
-4.9
0.0
-4.85
-4.82
-4.8
-4.9
-4.86
-4.98
0.0
0.0
0.0
0.0
-9.1
0.0
-9.12
0.0
0.0
-4.84
0.0
0.0
0.0
0.0
0.0
0.0
-9.13
-4.94
-9.14
0.0
0.0
0.0
0.0
-4.92
-4.95
0.0
-9.04
0.0
0.0
0.0
0.0
0.0
0.0
0.0
0.0
-4.96
0.0
0.0
0.0
0.0
0.0
0.0
0.0
-4.9
-4.86
0.0
0.0
0.0
0.0
0.0
0.0
0.0
0.0
0.0
0.0
0.0
0.0
0.0
0.0
0.0
0.0
0.0
0.0
0.0
0.0
0.0
0.0
0.0
0.0
0.0
0.0
0.0
0.0
0.0
0.0
0.0
0.0
0.0
0.0
0.0
-4.81
0.0
0.0
0.0
0.0
0.0
0.0
-4.86
0.0
-4.81
-9.11
0.0
0.0
0.0
0.0
0.0
0.0
-9.07
0.0
0.0
-4.93
0.0
0.0
0.0
0.0
0.0
-4.95
-4.95
-4.95
-4.84
-4.91
-9.06
0.0
0.0
-4.89
-9.1
-4.97
0.0
-4.94
-9.08
0.0
-4.95
0.0
0.0
-4.92
-4.81
0.0
-4.92
0.0
0.0
-4.92
0.0
0.0
0.0
0.0
-4.77
-9.12
-4.92
-9.1
-9.15
-9.15
0.0
0.0
0.0
0.0
-4.83
-4.91
-4.8
0.0
0.0
-9.05
-4.92
0.0
0.0
0.0
0.0
0.0
0.0
-4.86
-4.94
0.0
-4.94
0.0
0.0
0.0
0.0
0.0
0.0
-9.11
-4.87
0.0
0.0
0.0
0.0
0.0
-4.91
0.0
0.0
0.0
0.0
0.0
0.0
0.0
0.0
0.0
0.0
0.0
0.0
0.0
0.0
0.0
0.0
0.0
0.0
0.0
0.0
0.0
0.0
0.0
0.0
0.0
0.0
0.0
0.0
0.0
0.0
0.0
-9.07
0.0
-4.69
0.0
0.0
0.0
0.0
0.0
-9.12
-4.91
0.0
0.0
-4.95
0.0
0.0
0.0
0.0
0.0
0.0
0.0
0.0
-4.93
-4.91
-4.92
-9.11
0.0
0.0
0.0
0.0
-4.9
0.0
-9.15
-4.95
-4.93
-4.8
-4.88
0.0
0.0
0.0
0.0
0.0
0.0
-4.93
0.0
-5.61
-4.87
-4.84
-4.89
-4.94
-9.05
-9.06
-9.09
-4.95
-9.1
0.0
0.0
0.0
-4.95
-4.93
-4.92
-9.1
-9.1
-4.96
0.0
0.0
0.0
0.0
0.0
-4.93
-9.0796090179
-4.91
-9.07
-4.99
-4.84
0.0
-4.95
0.0
-4.85
-5.59
-9.11
-4.99
-9.13
0.0
0.0
0.0
-4.91
-9.1
-4.85
0.0
-4.82
-4.86
0.0
0.0
0.0
0.0
0.0
-4.92
-4.89
0.0
0.0
0.0
0.0
0.0
0.0
0.0
0.0
0.0
0.0
0.0
0.0
0.0
0.0
0.0
0.0
0.0
0.0
0.0
0.0
0.0
0.0
0.0
0.0
0.0
0.0
0.0
0.0
0.0
0.0
0.0
0.0
0.0
0.0
0.0
-4.9
0.0
0.0
0.0
0.0
0.0
0.0
0.0
-4.9
0.0
-4.9
0.0
-4.85
0.0
0.0
0.0
0.0
0.0
0.0
-9.06
-4.81
0.0
-4.86
-9.15
-4.76
0.0
0.0
0.0
0.0
0.0
-4.95
0.0
-9.12
0.0
-9.14
0.0
0.0
0.0
-9.07
-5.64
0.0
-9.04999999983
-9.12
-9.11
0.0
0.0
0.0
0.0
-4.93
-9.12
-9.09
0.0
0.0
-9.11
0.0
-5.68
-9.05999978162
-9.05
-9.09
-9.02999999988
0.0
-9.09
0.0
-5.65
0.0
0.0
-9.08
-4.9
-9.12
-7.86
0.0
0.0
0.0
-9.11
-4.93
-4.75
-4.9
-8.6699
0.0
0.0
0.0
0.0
-4.95
0.0
-4.93
-9.12
0.0
0.0
0.0
0.0
0.0
0.0
0.0
-4.9
0.0
0.0
0.0
0.0
0.0
0.0
0.0
0.0
0.0
0.0
0.0
0.0
0.0
0.0
0.0
0.0
0.0
0.0
0.0
0.0
0.0
0.0
0.0
0.0
0.0
0.0
0.0
0.0
0.0
0.0
0.0
0.0
0.0
0.0
0.0
0.0
0.0
0.0
0.0
0.0
0.0
0.0
0.0
0.0
0.0
-3.8
0.0
0.0
0.0
0.0
0.0
0.0
0.0
0.0
-8.70193
0.0
-4.87
-9.02
0.0
0.0
0.0
0.0
0.0
-8.792351
-4.91
-8.18
-8.43
-4.96
-9.18
0.0
0.0
0.0
0.0
-9.07
-9.16
-4.89
-9.08999999994
-4.94
0.0
0.0
0.0
0.0
0.0
0.0
-9.12
-9.17031109896
-9.02999999996
0.0
0.0
0.0
0.0
-4.92
-9.08
-4.83
0.0
-8.477
-9.08
0.0
0.0
-4.83
-8.7676457
0.0
-9.02667670694
-3.76
0.0
0.0
0.0
-4.91
-9.08
-9.04
-9.13
-5.68
-4.85
0.0
0.0
0.0
0.0
-4.94
-5.65
-8.87235199
-9.11
-9.2
0.0
0.0
0.0
0.0
-4.89
0.0
0.0
0.0
0.0
0.0
0.0
0.0
0.0
0.0
-4.95
0.0
0.0
0.0
0.0
0.0
0.0
0.0
0.0
0.0
0.0
0.0
0.0
0.0
0.0
0.0
0.0
0.0
0.0
0.0
0.0
0.0
0.0
0.0
0.0
0.0
0.0
0.0
0.0
0.0
0.0
0.0
0.0
0.0
0.0
0.0
0.0
0.0
0.0
-4.79
0.0
0.0
0.0
-4.81
0.0
0.0
0.0
0.0
0.0
0.0
0.0
-5.69
-4.82
-4.87
-8.789646393
-9.11
0.0
0.0
0.0
-4.74
0.0
0.0
-5.67
0.0
0.0
-4.87
0.0
0.0
0.0
-9.09
-4.77
-9.07999998202
-8.8617524751
-4.89
-9.1299945883
0.0
0.0
0.0
-4.81
0.0
-4.65
-4.91
-4.97
-4.86
-4.87
0.0
-4.94
-9.15
0.0
0.0
-5.69
-9.05999999119
-9.02
0.0
0.0
-4.98
-9.13999999383
-4.79
-9.03
-9.19
-4.97
0.0
0.0
0.0
0.0
-4.97
-4.93
-9.07
-9.14
0.0
0.0
0.0
0.0
-9.11
-4.94
-4.91
-4.96
-4.95
0.0
0.0
0.0
0.0
-4.89
0.0
-4.89
0.0
0.0
0.0
0.0
0.0
0.0
0.0
0.0
0.0
0.0
0.0
0.0
0.0
0.0
0.0
0.0
0.0
0.0
0.0
0.0
0.0
0.0
0.0
0.0
0.0
0.0
0.0
0.0
0.0
0.0
0.0
0.0
0.0
0.0
0.0
0.0
0.0
-9.1
-9.14999999997
0.0
0.0
0.0
0.0
0.0
0.0
0.0
0.0
0.0
-9.12999999998
0.0
-3.86
0.0
0.0
0.0
0.0
0.0
0.0
-9.05999999568
0.0
0.0
-4.89
-5.76
-9.12999999999
0.0
0.0
0.0
0.0
-4.94
0.0
-4.94
-4.96
-9.04999621181
0.0
0.0
0.0
0.0
0.0
0.0
-4.95
-4.9
-4.82
-4.97
-9.12999999999
0.0
0.0
-9.05999999698
-5.66
-9.13321776927
-4.97
0.0
-9.07999999788
0.0
0.0
0.0
0.0
-4.87
-4.82
-4.9
-9.08999734827
-4.97
-4.88
-5.0
0.0
0.0
0.0
0.0
-4.9
-9.10999814379
-9.12
0.0
-4.87
-9.10999999999
0.0
0.0
-4.96
-9.11999999852
-4.86
-4.94
-5.66
0.0
0.0
0.0
0.0
0.0
-4.94
-9.12
0.0
-4.87
0.0
0.0
0.0
0.0
0.0
0.0
-4.83
-4.85
0.0
0.0
0.0
0.0
0.0
0.0
0.0
0.0
0.0
0.0
0.0
0.0
0.0
0.0
0.0
0.0
0.0
0.0
0.0
0.0
0.0
0.0
0.0
0.0
0.0
0.0
0.0
0.0
0.0
0.0
0.0
0.0
0.0
0.0
0.0
0.0
0.0
0.0
0.0
0.0
0.0
0.0
0.0
0.0
0.0
0.0
0.0
0.0
0.0
-9.16999870065
0.0
0.0
0.0
0.0
0.0
-4.76
0.0
-9.14767369486
0.0
-9.13022673257
0.0
0.0
0.0
0.0
0.0
0.0
0.0
-9.1
-4.83
-3.73
-9.09
-9.15
0.0
0.0
-5.65
0.0
-9.1561587128
-9.1683715864
0.0
-9.13972631253
0.0
0.0
0.0
-9.08999909046
-4.81
0.0
-4.98
-4.92
0.0
0.0
0.0
0.0
0.0
0.0
0.0
-4.88
-4.94
0.0
-4.92
0.0
0.0
0.0
0.0
0.0
0.0
-9.11
0.0
-9.06
-9.08999936332
0.0
0.0
0.0
0.0
0.0
-4.87
0.0
-3.79
0.0
-9.13980841877
0.0
0.0
0.0
0.0
0.0
0.0
-4.97
-4.94
0.0
0.0
0.0
0.0
0.0
0.0
-3.78
-3.85
0.0
0.0
0.0
0.0
0.0
0.0
0.0
0.0
0.0
0.0
0.0
0.0
0.0
0.0
0.0
0.0
0.0
0.0
0.0
0.0
0.0
0.0
0.0
0.0
0.0
0.0
0.0
0.0
0.0
0.0
0.0
0.0
0.0
0.0
0.0
0.0
0.0
0.0
-3.8
0.0
-9.15
0.0
0.0
0.0
0.0
0.0
0.0
0.0
0.0
-9.16999955432
0.0
0.0
0.0
0.0
0.0
0.0
-9.16999968803
0.0
-3.78
0.0
-9.15
-9.12
0.0
0.0
0.0
-3.78
-9.11525243849
-4.82
-9.12886011048
0.0
-4.86
0.0
0.0
0.0
-3.82
-5.68
-3.78
0.0
-9.18920207734
0.0
0.0
0.0
0.0
0.0
0.0
-4.76
0.0
-9.15986589314
0.0
0.0
-4.81
0.0
0.0
0.0
0.0
-9.13999999896
-4.86
-3.8
0.0
0.0
0.0
0.0
-3.75
-3.76
-3.84
-9.13999999927
0.0
0.0
0.0
0.0
0.0
0.0
-3.81
0.0
-9.13999999949
0.0
0.0
0.0
0.0
0.0
0.0
0.0
0.0
0.0
0.0
0.0
-3.8
0.0
0.0
0.0
0.0
0.0
0.0
0.0
0.0
0.0
0.0
0.0
0.0
0.0
0.0
0.0
0.0
0.0
0.0
0.0
0.0
0.0
0.0
0.0
0.0
0.0
0.0
0.0
0.0
0.0
0.0
-9.11
0.0
0.0
0.0
0.0
0.0
0.0
-3.8
0.0
0.0
0.0
0.0
0.0
0.0
-3.83
0.0
0.0
0.0
0.0
0.0
0.0
0.0
-4.9
-9.1799061252
0.0
0.0
0.0
0.0
0.0
0.0
-3.83
0.0
-4.85
-9.18944145414
0.0
0.0
0.0
0.0
0.0
-3.83
-3.79
0.0
-9.17993428764
0.0
0.0
0.0
0.0
0.0
-3.86
0.0
-4.87
0.0
0.0
0.0
0.0
0.0
0.0
0.0
0.0
-9.17999999964
-9.13999999975
0.0
0.0
0.0
0.0
0.0
0.0
0.0
0.0
0.0
0.0
0.0
0.0
0.0
0.0
0.0
0.0
0.0
0.0
0.0
0.0
0.0
0.0
0.0
0.0
0.0
0.0
-3.87
0.0
0.0
0.0
0.0
0.0
0.0
0.0
0.0
-3.83
0.0
0.0
-9.15995400135
0.0
0.0
0.0
0.0
0.0
-9.13
0.0
0.0
0.0
0.0
0.0
-3.67
-9.17996780094
0.0
0.0
0.0
0.0
0.0
0.0
-3.88
0.0
0.0
0.0
0.0
0.0
0.0
-9.09997746066
0.0
0.0
-3.78
0.0
0.0
0.0
0.0
0.0
0.0
0.0
0.0
0.0
0.0
