0.0
0.0
0.0
0.0
0.0
0.0
0.0
0.0
-3.29
0.0
0.0
-3.27
-3.31
-3.25
-3.26
-3.26
0.0
-4.18
0.0
-9.0799999633
0.0
0.0
-3.25
-3.23
-4.24
-3.29
-3.29
0.0
0.0
0.0
0.0
-4.22
0.0
-3.33
-4.2
0.0
0.0
0.0
0.0
-4.18
-4.25
0.0
0.0
0.0
-4.17
-3.27
0.0
0.0
-3.22
0.0
0.0
0.0
0.0
0.0
0.0
0.0
0.0
0.0
0.0
0.0
0.0
0.0
0.0
0.0
0.0
0.0
0.0
-3.26
0.0
0.0
0.0
0.0
0.0
0.0
0.0
0.0
0.0
-3.28
0.0
-9.03999997431
0.0
0.0
0.0
0.0
-3.31
0.0
0.0
-9.08999999994
-4.22
0.0
0.0
-9.08
0.0
-4.18
-4.46
-9.11
-4.19
0.0
0.0
-3.28
-4.24
-4.18
-4.47
-9.04999999996
-8.97999998202
0.0
0.0
0.0
0.0
0.0
0.0
-4.37
-9.05
-9.05999998741
-9.02999226901
0.0
0.0
-3.25
-3.29
-4.19
-9.03999999119
-9.08999999997
-3.27
0.0
0.0
0.0
0.0
0.0
0.0
-9.08
-3.3
-3.3
-3.25
0.0
0.0
-3.25
0.0
0.0
-4.22
-3.28
0.0
0.0
0.0
0.0
-4.17
0.0
0.0
0.0
0.0
0.0
0.0
0.0
0.0
0.0
0.0
0.0
0.0
0.0
0.0
-3.23
0.0
0.0
0.0
0.0
0.0
0.0
0.0
-3.23
0.0
0.0
0.0
0.0
0.0
-4.4
0.0
0.0
0.0
0.0
0.0
0.0
0.0
0.0
0.0
0.0
0.0
0.0
0.0
-4.27
-9.0099945883
0.0
0.0
0.0
-4.17
0.0
0.0
0.0
-8.93525243849
-3.26
0.0
0.0
-9.07
-3.23
0.0
-4.34
0.0
-4.51
-4.33
-9.18
0.0
0.0
0.0
0.0
-8.96999999998
0.0
-8.98999621181
0.0
-3.29
-4.24
0.0
0.0
0.0
0.0
-3.31
0.0
-9.03999999383
-9.09
-9.04999734827
0.0
0.0
0.0
0.0
-9.09
-9.11
0.0
-8.88999814379
0.0
0.0
0.0
0.0
0.0
0.0
0.0
-3.27
-9.11
-3.29
0.0
0.0
0.0
-3.24
0.0
0.0
-9.03
-4.29
-3.35
0.0
0.0
0.0
0.0
0.0
-3.26
0.0
0.0
0.0
0.0
-3.29
0.0
0.0
0.0
0.0
0.0
0.0
0.0
0.0
0.0
0.0
0.0
0.0
0.0
0.0
0.0
0.0
0.0
0.0
0.0
0.0
0.0
0.0
-3.23
0.0
0.0
0.0
0.0
0.0
0.0
0.0
-4.44
0.0
-4.29
-9.02999999999
0.0
0.0
0.0
0.0
0.0
0.0
-8.96999999999
-3.28
-4.18
-4.52
0.0
0.0
0.0
0.0
0.0
-9.14
-9.09
-4.55
-4.48
-4.45
-8.9596090179
0.0
0.0
-4.4
-9.01
-9.16
0.0
-9.11
-8.93972631253
0.0
-9.1
0.0
0.0
-4.52
-4.39
0.0
-4.52
0.0
0.0
-4.51
0.0
0.0
-3.29
0.0
-4.29
-8.98999999999
-8.9
-8.99980841877
-9.03999999568
-9.05986589314
0.0
0.0
0.0
0.0
-4.28
-4.56
-4.22
0.0
0.0
-8.9199061252
-4.57
0.0
0.0
0.0
0.0
0.0
0.0
-4.42
-9.11
0.0
-9.1
0.0
0.0
0.0
0.0
0.0
0.0
-9.03
-4.41
0.0
0.0
0.0
0.0
0.0
-4.2
0.0
0.0
0.0
0.0
0.0
0.0
0.0
0.0
0.0
0.0
0.0
0.0
0.0
0.0
0.0
0.0
0.0
0.0
0.0
0.0
0.0
0.0
0.0
0.0
0.0
0.0
0.0
0.0
0.0
0.0
0.0
-8.91
0.0
0.0
0.0
0.0
0.0
0.0
0.0
-9.01
-4.5
0.0
0.0
-4.53
0.0
0.0
0.0
0.0
0.0
0.0
0.0
0.0
-8.96
-8.89
-4.52
-9.02999870065
0.0
0.0
0.0
0.0
-9.08
0.0
-9.03999999698
-9.03
-9.11
-4.26
-4.4
0.0
0.0
0.0
0.0
-4.16
0.0
-8.97
0.0
-8.99
-4.35
-4.38
-4.49
-8.97
-8.90999909046
-8.92999936332
-8.93993428764
-8.98
-8.97
0.0
0.0
0.0
-4.53
-9.1
-4.52
-8.98999955432
-8.97
-4.57
0.0
0.0
0.0
0.0
0.0
-9.11
-8.87022673257
-4.51
-8.93995400135
-9.15
0.0
0.0
-9.09
0.0
-4.39
-4.55
-9.01996780094
-4.56
-9.05999999788
0.0
0.0
0.0
-4.5
-8.91999999852
0.0
0.0
0.0
-4.19
0.0
0.0
0.0
0.0
0.0
-4.49
-4.44
0.0
0.0
0.0
0.0
0.0
0.0
0.0
-3.26
0.0
0.0
0.0
0.0
0.0
0.0
0.0
0.0
0.0
0.0
0.0
0.0
0.0
0.0
0.0
0.0
0.0
0.0
0.0
0.0
0.0
0.0
0.0
0.0
0.0
0.0
0.0
-4.51
0.0
0.0
0.0
0.0
0.0
0.0
0.0
-4.5
-3.29
-4.5
0.0
-4.4
0.0
0.0
0.0
0.0
0.0
0.0
-8.97
0.0
0.0
-4.5
-9.12944145414
0.0
0.0
0.0
0.0
0.0
0.0
-9.0
0.0
-9.01
0.0
-9.06
0.0
0.0
0.0
-8.89
-8.98
0.0
-8.95
-8.97997746066
-9.02999968803
0.0
0.0
0.0
-3.3
-4.51
-9.07
-8.95999999896
0.0
0.0
-9.0161587128
0.0
-8.96
-8.88999978162
-8.98
-9.01998422246
-8.94
0.0
-8.98999984713
0.0
-8.93
0.0
0.0
-8.98999989299
-8.98
-8.9899999251
-7.73
0.0
0.0
0.0
-9.03
-9.13
-4.41
-9.09
-8.652351
0.0
0.0
0.0
0.0
-4.58
-3.28
-9.09
-9.04
0.0
0.0
0.0
0.0
0.0
0.0
0.0
-4.43
0.0
0.0
0.0
0.0
0.0
0.0
0.0
0.0
0.0
0.0
0.0
0.0
0.0
0.0
0.0
0.0
0.0
0.0
0.0
0.0
0.0
0.0
0.0
0.0
0.0
0.0
0.0
0.0
0.0
0.0
0.0
0.0
0.0
0.0
0.0
0.0
0.0
0.0
0.0
0.0
0.0
0.0
0.0
0.0
0.0
-4.39
0.0
-4.19
0.0
0.0
0.0
0.0
0.0
0.0
-8.6476457
0.0
-4.52
-8.99667670694
0.0
0.0
0.0
0.0
0.0
-8.73235199
-9.08
-8.02
-8.33
-4.58
-9.06031109896
0.0
0.0
0.0
0.0
-9.0
-9.15998895572
-9.0
-8.99
-9.09
0.0
0.0
0.0
0.0
0.0
0.0
-8.95999999949
-9.09
-8.92
0.0
0.0
0.0
0.0
-9.07
-9.02
0.0
0.0
-8.377
-9.00321776927
0.0
0.0
0.0
-8.689646393
0.0
-8.94
0.0
-3.31
0.0
0.0
-4.51
-9.01
-8.95
-9.01
-8.97
-4.47
0.0
0.0
0.0
0.0
-4.51
-8.9
-8.7417524751
-9.01999999975
-9.11767369486
0.0
0.0
0.0
0.0
-4.49
0.0
0.0
0.0
0.0
0.0
0.0
0.0
0.0
0.0
-4.53
0.0
0.0
0.0
0.0
0.0
0.0
0.0
0.0
0.0
0.0
0.0
0.0
0.0
0.0
0.0
0.0
0.0
0.0
0.0
0.0
0.0
0.0
0.0
0.0
0.0
0.0
0.0
0.0
0.0
0.0
0.0
0.0
0.0
0.0
0.0
0.0
0.0
0.0
0.0
0.0
0.0
-4.44
0.0
0.0
0.0
0.0
0.0
0.0
0.0
0.0
-8.94
0.0
-4.45
-8.4599
-9.08
0.0
0.0
0.0
-4.42
0.0
0.0
-8.99
-3.26
0.0
-8.99
0.0
0.0
0.0
-9.02
-4.47
-8.97
-8.57193
-9.02
-9.04
0.0
0.0
0.0
-4.36
0.0
0.0
-9.05
-4.56
-4.52
-4.5
0.0
-8.91
-9.01
0.0
0.0
-8.97
-8.98
-8.9983715864
0.0
0.0
-4.57
-9.07
-4.5
-8.89999999991
-9.15886011048
-4.53
0.0
0.0
0.0
0.0
-8.93
-4.52
-8.97
-9.05920207734
0.0
0.0
0.0
0.0
-9.05
-4.51
-4.51
-4.54
-4.56
0.0
0.0
0.0
0.0
-4.49
0.0
-4.5
0.0
0.0
0.0
0.0
0.0
0.0
0.0
0.0
0.0
0.0
0.0
0.0
0.0
0.0
0.0
0.0
0.0
0.0
0.0
0.0
0.0
0.0
0.0
0.0
0.0
0.0
0.0
0.0
0.0
0.0
0.0
0.0
0.0
0.0
0.0
0.0
0.0
-9.04
-9.03
0.0
0.0
0.0
0.0
0.0
0.0
0.0
0.0
0.0
-9.07
0.0
-4.48
0.0
0.0
0.0
0.0
0.0
0.0
-8.94
0.0
0.0
-8.99
-9.07
-9.02
0.0
0.0
0.0
0.0
-4.52
0.0
-4.51
-8.93
-8.96
0.0
0.0
0.0
0.0
0.0
0.0
-8.92
-4.5
-4.46
-4.57
-9.07
0.0
0.0
-8.95
-8.96
-9.01
-4.58
0.0
-9.03
0.0
0.0
0.0
0.0
-4.49
-4.5
-4.52
-8.97
-4.54
-9.01
-4.59
0.0
0.0
0.0
0.0
-4.53
-9.04
-9.03
0.0
-8.94
-9.01
0.0
0.0
-4.49
-9.02
-4.51
-4.54
-8.95
0.0
0.0
0.0
0.0
0.0
-4.49
-8.99
0.0
-8.95
0.0
0.0
0.0
0.0
0.0
0.0
-4.49
-4.39
0.0
0.0
0.0
0.0
0.0
0.0
0.0
0.0
0.0
0.0
0.0
0.0
0.0
0.0
0.0
0.0
0.0
0.0
0.0
0.0
0.0
0.0
0.0
0.0
0.0
0.0
0.0
0.0
0.0
0.0
0.0
0.0
0.0
0.0
0.0
0.0
0.0
0.0
0.0
0.0
0.0
0.0
0.0
0.0
0.0
0.0
0.0
0.0
0.0
-9.02
0.0
0.0
0.0
0.0
0.0
-4.5
0.0
-9.03
0.0
-9.05
0.0
0.0
0.0
0.0
0.0
0.0
0.0
-9.04
-4.45
0.0
-8.94
-9.07
0.0
0.0
-8.92
0.0
-9.09
-9.05
0.0
-9.01
0.0
0.0
0.0
-8.97
-4.49
0.0
-4.54
-9.02
0.0
0.0
0.0
0.0
0.0
0.0
0.0
-8.99
-4.53
0.0
-4.51
0.0
0.0
0.0
0.0
0.0
0.0
-9.04
0.0
-8.92
-9.01
0.0
0.0
0.0
0.0
0.0
-4.5
0.0
0.0
0.0
-9.06
0.0
0.0
0.0
0.0
0.0
0.0
-4.5
-4.47
0.0
0.0
0.0
0.0
0.0
0.0
0.0
-4.42
0.0
0.0
0.0
0.0
0.0
0.0
0.0
0.0
0.0
0.0
0.0
0.0
0.0
0.0
0.0
0.0
0.0
0.0
0.0
0.0
0.0
0.0
0.0
0.0
0.0
0.0
0.0
0.0
0.0
0.0
0.0
0.0
0.0
0.0
0.0
0.0
0.0
0.0
0.0
0.0
-9.05
0.0
0.0
0.0
0.0
0.0
0.0
0.0
0.0
-9.05
0.0
0.0
0.0
0.0
0.0
0.0
-9.01
0.0
0.0
0.0
-9.09
-9.06
0.0
0.0
0.0
-4.39
-8.99
-8.95
-9.0
0.0
0.0
0.0
0.0
0.0
-4.42
-8.86
0.0
0.0
-9.05
0.0
0.0
0.0
0.0
0.0
0.0
-4.45
0.0
-9.04
0.0
0.0
-4.45
0.0
0.0
0.0
0.0
-9.01
-8.95
0.0
0.0
0.0
0.0
0.0
0.0
0.0
-4.44
-9.03
0.0
0.0
0.0
0.0
0.0
0.0
-4.39
0.0
-9.03
0.0
0.0
0.0
0.0
0.0
0.0
0.0
0.0
0.0
0.0
0.0
-4.39
0.0
0.0
0.0
0.0
0.0
0.0
0.0
0.0
0.0
0.0
0.0
0.0
0.0
0.0
0.0
0.0
0.0
0.0
0.0
0.0
0.0
0.0
0.0
0.0
0.0
0.0
0.0
0.0
0.0
0.0
-9.04
0.0
0.0
0.0
0.0
0.0
0.0
-4.41
0.0
0.0
0.0
0.0
0.0
0.0
0.0
0.0
0.0
0.0
0.0
0.0
0.0
0.0
-4.5
-9.02
0.0
0.0
0.0
0.0
0.0
0.0
0.0
0.0
-4.39
-9.04
0.0
0.0
0.0
0.0
0.0
-4.38
-4.4
0.0
-9.01
0.0
0.0
0.0
0.0
0.0
-4.44
0.0
-4.46
0.0
0.0
0.0
0.0
0.0
0.0
0.0
0.0
-9.05
-9.03
0.0
0.0
0.0
0.0
0.0
0.0
0.0
0.0
0.0
0.0
0.0
0.0
0.0
0.0
0.0
0.0
0.0
0.0
0.0
0.0
0.0
0.0
0.0
0.0
0.0
0.0
0.0
0.0
0.0
0.0
0.0
0.0
0.0
0.0
0.0
0.0
0.0
0.0
-9.01
0.0
0.0
0.0
0.0
0.0
-9.07
0.0
0.0
0.0
0.0
0.0
0.0
-9.05
0.0
0.0
0.0
0.0
0.0
0.0
-4.42
0.0
0.0
0.0
0.0
0.0
0.0
-9.0
0.0
0.0
-4.38
0.0
0.0
0.0
0.0
0.0
0.0
0.0
0.0
0.0
0.0
