0.0
0.0
0.0
0.0
0.0
0.0
0.0
0.0
-3.54
0.0
0.0
-3.53
-3.54
-3.48
-3.49
-3.51
0.0
-3.56
0.0
-8.27
-3.53
0.0
0.0
0.0
-3.59
-3.55
0.0
0.0
0.0
0.0
0.0
-3.64
0.0
-3.56
-3.56
0.0
0.0
0.0
0.0
-3.55
-3.6
0.0
0.0
0.0
-3.55
0.0
0.0
0.0
0.0
0.0
0.0
0.0
0.0
0.0
0.0
0.0
0.0
0.0
0.0
0.0
0.0
0.0
0.0
0.0
0.0
0.0
0.0
0.0
0.0
0.0
0.0
0.0
0.0
0.0
0.0
0.0
0.0
-3.53
0.0
-8.29999999964
-3.59
0.0
0.0
0.0
-3.57
0.0
0.0
-8.27
-3.59
0.0
0.0
-3.66
0.0
-3.6
-3.64
-3.68
-3.57
0.0
0.0
-3.55
-3.58
-3.57
-3.61
-8.27
-8.26
0.0
0.0
0.0
0.0
0.0
0.0
-3.59
-3.66
-8.28
-8.28999998202
0.0
0.0
0.0
-3.53
-3.57
-8.29999999975
-8.29999999983
-3.56
0.0
0.0
0.0
0.0
0.0
0.0
-3.64
-3.57
-3.55
0.0
0.0
0.0
0.0
0.0
0.0
-3.58
-3.54
0.0
0.0
0.0
0.0
-3.6
0.0
0.0
0.0
0.0
0.0
0.0
0.0
0.0
0.0
0.0
0.0
0.0
0.0
0.0
0.0
0.0
0.0
0.0
0.0
0.0
0.0
0.0
-3.52
0.0
0.0
0.0
0.0
0.0
-3.63
0.0
0.0
0.0
0.0
0.0
0.0
0.0
0.0
0.0
0.0
0.0
-3.55
0.0
-3.59
-8.28999998741
0.0
0.0
0.0
-3.61
-3.59
0.0
-3.54
-8.25999621181
0.0
0.0
0.0
-3.63
0.0
-3.6
-3.6
-3.59
-3.62
-3.61
-3.72
0.0
0.0
0.0
0.0
-8.25
0.0
-8.28999999119
0.0
-3.56
-3.6
0.0
0.0
0.0
0.0
-3.57
0.0
-8.27999999988
-3.66
-8.29999734827
0.0
0.0
0.0
0.0
-3.66
-3.67
0.0
-8.22999999383
0.0
0.0
0.0
0.0
0.0
0.0
0.0
-3.56
-3.68
-3.55
0.0
0.0
0.0
-3.5
0.0
0.0
-3.65
-3.59
-3.54
0.0
0.0
0.0
0.0
0.0
-3.52
0.0
0.0
0.0
0.0
-3.56
0.0
0.0
0.0
0.0
0.0
0.0
0.0
0.0
0.0
0.0
0.0
0.0
0.0
0.0
0.0
0.0
0.0
0.0
0.0
0.0
0.0
0.0
-3.56
-3.57
0.0
0.0
0.0
0.0
0.0
0.0
-3.6
0.0
-3.64
-8.29999999991
0.0
0.0
0.0
0.0
0.0
0.0
-8.23
-3.54
-3.56
-3.63
0.0
0.0
0.0
0.0
0.0
-3.69
-3.65
-3.65
-3.59
-3.63
-8.25999814379
0.0
0.0
-3.61
-8.28
-3.71
-3.52
-3.68
-8.25999870065
0.0
-3.66
0.0
0.0
-3.62
-3.6
-3.43
-3.62
-3.51
0.0
-3.62
0.0
0.0
-3.56
0.0
-3.59
-8.25999999994
-3.63
-8.27999909046
-8.28999999568
-8.31999936332
0.0
0.0
0.0
0.0
-3.62
-3.63
-3.6
0.0
0.0
-8.25999955432
-3.63
0.0
0.0
0.0
0.0
0.0
0.0
-3.6
-3.66
0.0
-3.66
0.0
0.0
0.0
0.0
0.0
0.0
-8.27999999996
-3.63
0.0
0.0
0.0
0.0
0.0
-3.62
0.0
0.0
0.0
0.0
0.0
0.0
0.0
0.0
0.0
0.0
0.0
0.0
0.0
0.0
0.0
0.0
0.0
0.0
0.0
0.0
0.0
0.0
0.0
0.0
0.0
0.0
0.0
0.0
0.0
0.0
0.0
-8.23
0.0
-3.58
0.0
0.0
0.0
0.0
0.0
-8.29
-3.64
0.0
0.0
-3.64
0.0
0.0
0.0
0.0
0.0
0.0
0.0
0.0
-3.64
-3.64
-3.63
-8.28999999698
0.0
0.0
0.0
0.0
-3.65
0.0
-8.29999999997
-3.64
-3.67
-3.58
-3.63
0.0
0.0
0.0
0.0
-3.61
0.0
-3.65
-3.53
-3.67
-3.62
-3.61
-3.62
-3.64
-8.22999999788
-8.25999968803
-8.25999978162
-3.67
-8.27999999998
0.0
0.0
0.0
-3.64
-3.68
-3.62
-8.25999999999
-8.25999999999
-3.65
-3.57
0.0
0.0
0.0
0.0
-3.67
-9.04022673257
-3.64
-8.25999989299
-3.73
-3.61
0.0
-3.66
0.0
-3.61
-3.65
-8.2799999251
-3.66
-8.29
0.0
0.0
0.0
-3.62
-8.23999999999
-3.59
0.0
-3.57
-3.62
0.0
0.0
0.0
0.0
0.0
-3.63
-3.62
0.0
0.0
0.0
0.0
0.0
0.0
0.0
0.0
0.0
0.0
0.0
0.0
0.0
0.0
0.0
0.0
0.0
0.0
0.0
0.0
0.0
0.0
0.0
0.0
0.0
0.0
0.0
0.0
0.0
0.0
0.0
0.0
0.0
0.0
0.0
-3.62
0.0
0.0
0.0
0.0
0.0
0.0
0.0
-3.62
-3.56
-3.63
0.0
-3.62
0.0
0.0
0.0
0.0
0.0
0.0
-8.23
-3.6
-3.45
-3.65
-8.17
-3.58
0.0
0.0
0.0
0.0
0.0
-3.66
0.0
-8.22
-3.53
-8.26
0.0
0.0
0.0
-8.24
-3.65
0.0
-8.21
-8.25999994757
-8.2799999633
0.0
0.0
0.0
-3.56
-3.62
-8.28
-8.26
0.0
0.0
-8.16
0.0
-3.67
-9.0661587128
-8.2
-8.25999997431
-8.17
-3.44
-8.28999999896
0.0
-3.65
0.0
-3.53
-8.24999999927
-3.63
-8.26999999949
-7.92
0.0
0.0
0.0
-8.26
-3.69
-3.61
-3.64
-8.8876457
0.0
0.0
0.0
0.0
-3.63
-3.56
-3.66
-8.29
0.0
0.0
0.0
0.0
0.0
0.0
0.0
-3.61
0.0
0.0
0.0
0.0
0.0
0.0
0.0
0.0
0.0
0.0
0.0
0.0
0.0
0.0
0.0
0.0
0.0
0.0
0.0
0.0
0.0
0.0
0.0
0.0
0.0
0.0
0.0
0.0
0.0
0.0
0.0
0.0
0.0
0.0
0.0
0.0
0.0
0.0
0.0
0.0
0.0
0.0
0.0
0.0
0.0
-3.64
-3.61
-3.62
0.0
0.0
0.0
0.0
0.0
0.0
-8.87235199
0.0
-3.63
-8.16
-3.59
0.0
0.0
0.0
0.0
-8.949646393
-3.66
-8.21
-8.5
-3.65
-8.18
0.0
0.0
0.0
0.0
-8.22
-8.14
-3.69
-8.23
-3.66
0.0
0.0
0.0
0.0
0.0
0.0
-8.28
-8.26
-8.18
0.0
0.0
0.0
0.0
-3.64
-8.22
-3.61
0.0
-8.75193
-8.16
0.0
-3.52
-3.62
-8.9017524751
0.0
-8.2
-3.65
-3.6
0.0
-3.5
-3.63
-8.22
-8.19
-8.21
-3.73
-3.64
0.0
0.0
0.0
0.0
-3.63
-3.67
-8.882351
-8.3
-8.17
0.0
0.0
0.0
0.0
-3.62
0.0
0.0
0.0
0.0
0.0
0.0
0.0
0.0
0.0
-3.63
0.0
0.0
0.0
0.0
0.0
0.0
0.0
0.0
0.0
0.0
0.0
0.0
0.0
0.0
0.0
0.0
0.0
0.0
0.0
0.0
0.0
0.0
0.0
0.0
0.0
0.0
0.0
0.0
0.0
0.0
0.0
0.0
0.0
0.0
0.0
0.0
0.0
0.0
-3.56
-3.54
0.0
-3.63
-3.56
-3.6
0.0
0.0
0.0
0.0
0.0
0.0
-3.67
-3.61
-3.62
-8.567
-8.29
0.0
0.0
0.0
-3.63
-3.45
0.0
-3.69
-3.57
0.0
-3.68
0.0
0.0
0.0
-8.24
-3.66
-8.22
-8.7499
-3.73
-8.24
0.0
0.0
0.0
-3.6
0.0
-3.6
-3.65
-3.67
-3.66
-3.67
0.0
-3.65
-8.23
0.0
0.0
-3.7
-8.21
-8.13
0.0
0.0
-3.64
-8.24
-3.66
-8.21
-8.18
-3.65
0.0
-3.5
0.0
0.0
-3.65
-3.65
-8.25
-8.17
0.0
0.0
0.0
0.0
-8.22
-3.63
-3.63
-3.64
-3.64
0.0
0.0
0.0
0.0
-3.61
0.0
-3.62
-3.54
0.0
0.0
0.0
0.0
0.0
0.0
0.0
0.0
0.0
0.0
0.0
0.0
0.0
0.0
0.0
0.0
0.0
0.0
0.0
0.0
0.0
0.0
0.0
0.0
0.0
0.0
0.0
0.0
0.0
0.0
0.0
0.0
0.0
0.0
0.0
0.0
-8.25
-8.24
0.0
0.0
0.0
0.0
0.0
0.0
0.0
-3.57
-3.52
-8.22
0.0
-3.68
0.0
0.0
0.0
0.0
0.0
0.0
-8.19
-3.54
-3.46
-3.7
-8.22
-8.25
0.0
0.0
0.0
0.0
-3.64
0.0
-3.63
-3.66
-8.19
0.0
0.0
0.0
0.0
0.0
-3.53
-3.67
-3.63
-3.64
-3.65
-8.23
0.0
0.0
-8.19
-3.68
-8.23
-3.65
0.0
-8.24
0.0
0.0
0.0
-3.56
-3.64
-3.65
-3.63
-8.21
-3.66
-3.72
-3.66
0.0
0.0
0.0
-3.61
-3.62
-8.22
-8.23
0.0
-3.67
-8.22
0.0
0.0
-3.64
-8.21
-3.64
-3.64
-3.7
0.0
0.0
0.0
0.0
-3.64
-3.64
-8.24
0.0
-3.67
0.0
0.0
0.0
0.0
0.0
0.0
-3.65
-3.6
0.0
0.0
0.0
0.0
0.0
0.0
0.0
0.0
0.0
0.0
0.0
0.0
0.0
0.0
0.0
0.0
0.0
0.0
0.0
0.0
0.0
0.0
0.0
0.0
0.0
0.0
0.0
0.0
0.0
0.0
0.0
0.0
0.0
0.0
0.0
0.0
-3.59
-3.59
-3.58
0.0
0.0
0.0
0.0
0.0
0.0
0.0
0.0
0.0
0.0
-8.25
0.0
0.0
0.0
0.0
-3.64
-3.67
0.0
-8.22
-3.54
-8.22
0.0
0.0
0.0
0.0
0.0
0.0
-3.41
-8.24
-3.61
-3.62
-8.21
-8.24
-3.58
0.0
-3.69
0.0
-8.25
-8.22
0.0
-8.22
0.0
0.0
-3.62
-8.2
-3.62
0.0
-3.66
-3.72
0.0
0.0
0.0
0.0
0.0
-3.61
-3.63
-3.67
-3.63
0.0
-3.63
0.0
0.0
0.0
-3.59
-3.61
0.0
-8.24
0.0
-8.21
-8.23
0.0
0.0
0.0
0.0
0.0
-3.66
-3.61
-3.64
-3.63
-8.23
0.0
0.0
0.0
0.0
0.0
0.0
-3.64
-3.63
0.0
0.0
0.0
0.0
0.0
0.0
-3.63
-3.64
0.0
0.0
0.0
0.0
0.0
-3.59
-3.62
0.0
0.0
0.0
0.0
0.0
0.0
0.0
0.0
0.0
0.0
0.0
0.0
0.0
0.0
0.0
0.0
0.0
0.0
0.0
0.0
0.0
0.0
-3.57
0.0
0.0
0.0
0.0
0.0
0.0
0.0
0.0
-3.64
-3.5
-8.23
0.0
-3.57
0.0
0.0
0.0
0.0
0.0
0.0
-8.24
0.0
-3.63
0.0
0.0
0.0
-3.61
-8.24
0.0
-3.63
0.0
-8.24
-8.25
0.0
-3.56
0.0
-3.63
-8.21
-3.69
-8.22
-3.64
-3.61
0.0
0.0
0.0
-3.64
-3.67
-3.63
-3.46
-8.27
-3.6
-3.6
0.0
0.0
0.0
-3.58
-3.64
-3.57
-8.24
-3.58
-3.61
-3.62
0.0
0.0
0.0
0.0
-8.2
-3.65
-3.64
-3.61
-3.6
0.0
0.0
-3.62
-3.63
-3.65
-8.24
-3.61
0.0
-3.59
0.0
0.0
0.0
-3.63
0.0
-8.24
0.0
0.0
0.0
0.0
-3.59
0.0
-3.56
0.0
0.0
0.0
0.0
-3.64
-3.57
0.0
0.0
0.0
0.0
0.0
0.0
0.0
0.0
0.0
0.0
0.0
0.0
0.0
0.0
0.0
0.0
0.0
0.0
0.0
-3.53
0.0
0.0
0.0
0.0
0.0
0.0
0.0
0.0
0.0
-8.23
0.0
0.0
0.0
0.0
-3.49
0.0
-3.63
0.0
0.0
0.0
0.0
0.0
-3.61
-3.65
-3.59
-3.59
0.0
0.0
-3.58
0.0
0.0
-3.62
-8.25
-3.61
-3.61
0.0
0.0
0.0
0.0
-3.63
-3.61
-3.64
-8.26
0.0
0.0
0.0
0.0
-3.61
-3.65
-3.63
0.0
-8.26
0.0
0.0
0.0
0.0
0.0
-3.67
-3.58
-3.61
0.0
0.0
0.0
0.0
0.0
0.0
-3.55
0.0
-8.24
-8.22
-3.62
0.0
0.0
-3.56
0.0
-3.57
-3.57
-3.62
0.0
0.0
0.0
0.0
-3.55
0.0
0.0
0.0
0.0
0.0
0.0
0.0
0.0
0.0
0.0
0.0
0.0
0.0
-3.67
0.0
0.0
0.0
0.0
0.0
0.0
0.0
0.0
-3.66
-3.58
0.0
-8.23
0.0
0.0
-3.61
-3.61
-3.6
-8.23
0.0
0.0
-3.57
-3.58
0.0
-3.6
-8.25
0.0
0.0
-3.56
0.0
0.0
-3.6
-3.66
0.0
0.0
0.0
0.0
0.0
0.0
-8.21
0.0
0.0
-3.62
-3.61
-3.62
0.0
0.0
0.0
0.0
0.0
0.0
0.0
0.0
