0.0
0.0
0.0
0.0
0.0
0.0
0.0
0.0
0.0
0.0
0.0
0.0
0.0
0.0
0.0
0.0
0.0
0.0
0.0
-8.62
0.0
0.0
0.0
0.0
0.0
0.0
0.0
0.0
0.0
0.0
0.0
0.0
0.0
0.0
0.0
0.0
0.0
0.0
0.0
0.0
0.0
0.0
0.0
0.0
0.0
0.0
0.0
0.0
0.0
0.0
0.0
0.0
0.0
0.0
0.0
0.0
0.0
0.0
0.0
0.0
0.0
0.0
0.0
0.0
0.0
0.0
0.0
0.0
0.0
0.0
0.0
0.0
0.0
0.0
0.0
0.0
0.0
0.0
0.0
-8.60999999988
0.0
0.0
0.0
0.0
0.0
0.0
0.0
-8.66
0.0
0.0
0.0
-5.88
0.0
0.0
0.0
-5.91
0.0
0.0
0.0
0.0
0.0
0.0
0.0
-8.64
-8.58999999991
0.0
0.0
0.0
0.0
0.0
0.0
0.0
0.0
-8.62999999994
-8.60998895572
0.0
0.0
0.0
0.0
0.0
-8.6
-8.62
0.0
0.0
0.0
0.0
0.0
0.0
0.0
-5.73
0.0
0.0
0.0
0.0
0.0
0.0
0.0
0.0
0.0
0.0
0.0
0.0
0.0
0.0
0.0
0.0
0.0
0.0
0.0
0.0
0.0
0.0
0.0
0.0
0.0
0.0
0.0
0.0
0.0
0.0
0.0
0.0
0.0
0.0
0.0
0.0
0.0
0.0
0.0
0.0
0.0
0.0
0.0
0.0
0.0
0.0
0.0
0.0
0.0
0.0
0.0
0.0
0.0
0.0
0.0
0.0
0.0
0.0
-8.58999999996
0.0
0.0
0.0
0.0
0.0
0.0
0.0
-8.55993428764
0.0
0.0
0.0
0.0
0.0
0.0
0.0
0.0
0.0
0.0
-6.07
0.0
0.0
0.0
0.0
-8.58
0.0
-8.60999226901
0.0
0.0
0.0
0.0
0.0
0.0
0.0
0.0
0.0
-8.58
0.0
-8.59999955432
0.0
0.0
0.0
0.0
0.0
-5.91
0.0
-8.53999968803
0.0
0.0
0.0
0.0
0.0
0.0
0.0
0.0
-5.88
0.0
0.0
0.0
0.0
0.0
0.0
0.0
0.0
0.0
0.0
0.0
0.0
0.0
0.0
0.0
0.0
0.0
0.0
0.0
0.0
0.0
0.0
0.0
0.0
0.0
0.0
0.0
0.0
0.0
0.0
0.0
0.0
0.0
0.0
0.0
0.0
0.0
0.0
0.0
0.0
0.0
0.0
0.0
0.0
0.0
0.0
0.0
0.0
0.0
0.0
0.0
0.0
0.0
0.0
-8.58
0.0
0.0
0.0
0.0
0.0
0.0
-8.54999999997
0.0
0.0
0.0
0.0
0.0
0.0
0.0
0.0
-6.08
-5.92
-5.86
0.0
-5.79
-8.55999978162
0.0
0.0
0.0
-8.59
-6.08
0.0
0.0
-8.5499945883
0.0
-5.91
0.0
0.0
-5.77
0.0
0.0
0.0
0.0
0.0
0.0
0.0
0.0
0.0
0.0
0.0
-8.58999999998
-5.88
-8.60999621181
-8.59999984713
-8.60999734827
0.0
0.0
0.0
0.0
0.0
-5.91
0.0
0.0
0.0
-8.54999814379
-5.75
0.0
0.0
0.0
0.0
0.0
0.0
0.0
-5.81
0.0
-5.81
0.0
0.0
0.0
0.0
0.0
0.0
-8.58
0.0
0.0
0.0
0.0
0.0
0.0
0.0
0.0
0.0
0.0
0.0
0.0
0.0
0.0
0.0
0.0
0.0
0.0
0.0
0.0
0.0
0.0
0.0
0.0
0.0
0.0
0.0
0.0
0.0
0.0
0.0
0.0
0.0
0.0
0.0
0.0
0.0
0.0
-8.53
0.0
0.0
0.0
0.0
0.0
0.0
0.0
-8.57
0.0
0.0
0.0
-5.82
0.0
0.0
0.0
0.0
0.0
0.0
0.0
0.0
-5.92
-5.88
-5.8
-8.59999989299
0.0
0.0
0.0
0.0
-5.83
0.0
-8.58
0.0
-5.83
0.0
-5.75
0.0
0.0
0.0
0.0
0.0
0.0
-5.84
0.0
-5.91
-5.76
0.0
-5.82
-5.86
-8.5399999251
-8.55999994757
-8.56999870065
-5.92
-8.6
0.0
0.0
0.0
-5.83
-6.05
-5.75
-8.5799999633
-8.58999999999
-5.83
0.0
0.0
0.0
0.0
0.0
-5.98
-8.49972631253
-5.77
-8.53999997431
-6.11
0.0
0.0
-5.91
0.0
-5.72
-5.9
-8.57999998202
-5.79
-8.60999999999
0.0
0.0
0.0
0.0
-8.54
0.0
0.0
0.0
0.0
0.0
0.0
0.0
0.0
0.0
-5.82
-5.78
0.0
0.0
0.0
0.0
0.0
0.0
0.0
0.0
0.0
0.0
0.0
0.0
0.0
0.0
0.0
0.0
0.0
0.0
0.0
0.0
0.0
0.0
0.0
0.0
0.0
0.0
0.0
0.0
0.0
0.0
0.0
0.0
0.0
0.0
0.0
0.0
0.0
0.0
0.0
0.0
0.0
0.0
0.0
0.0
0.0
0.0
0.0
0.0
0.0
0.0
0.0
0.0
0.0
0.0
-8.56
0.0
0.0
-5.94
-8.60999999999
0.0
0.0
0.0
0.0
0.0
0.0
-5.96
0.0
-8.59
0.0
-8.62
0.0
0.0
0.0
-8.54
-5.91
0.0
-8.52
-8.59999998741
-8.59999999119
0.0
0.0
0.0
0.0
-5.72
-8.61
-8.57
0.0
0.0
-8.6196090179
0.0
-5.94
-8.55995400135
-8.55
-8.56999909046
-8.5
0.0
-8.59
0.0
-5.93
0.0
0.0
-8.55999999383
0.0
-8.59999999568
-7.58
0.0
0.0
0.0
-8.58
-6.07
-5.88
0.0
-8.559646393
0.0
0.0
0.0
0.0
-5.85
0.0
-5.93
-8.61
0.0
0.0
0.0
0.0
0.0
0.0
0.0
0.0
0.0
0.0
0.0
0.0
0.0
0.0
0.0
0.0
0.0
0.0
0.0
0.0
0.0
0.0
0.0
0.0
0.0
0.0
0.0
0.0
0.0
0.0
0.0
0.0
0.0
0.0
0.0
0.0
0.0
0.0
0.0
0.0
0.0
0.0
0.0
0.0
0.0
0.0
0.0
0.0
0.0
0.0
0.0
0.0
0.0
-5.95
-5.88
0.0
0.0
0.0
0.0
0.0
0.0
0.0
-8.3199
0.0
-5.8
-8.52980841877
-5.83
0.0
0.0
0.0
0.0
-8.5076457
-5.98
-7.88
-8.12
-5.9
-8.62986589314
0.0
0.0
0.0
0.0
-8.55
-8.64
-6.06
-8.57
-5.9
0.0
0.0
0.0
0.0
0.0
0.0
-8.57
-8.59
-8.5
0.0
0.0
0.0
0.0
-5.81
-8.56
0.0
0.0
-8.45235199
-8.5699061252
0.0
0.0
-5.78
-8.39193
0.0
-8.47
-5.96
0.0
0.0
0.0
-5.78
-8.55
-8.5
-8.59
-5.99
-5.97
0.0
0.0
0.0
0.0
-5.85
-5.95
-8.502351
-8.59
-8.65996780094
0.0
0.0
0.0
0.0
-5.72
0.0
0.0
0.0
0.0
0.0
0.0
0.0
0.0
0.0
-5.82
0.0
0.0
0.0
0.0
0.0
0.0
0.0
0.0
0.0
0.0
0.0
0.0
0.0
0.0
0.0
0.0
0.0
0.0
0.0
0.0
0.0
0.0
0.0
0.0
0.0
0.0
0.0
0.0
0.0
0.0
0.0
0.0
0.0
0.0
0.0
0.0
0.0
0.0
0.0
0.0
0.0
-5.87
0.0
-5.84
0.0
0.0
0.0
0.0
0.0
0.0
-5.98
0.0
-5.84
-8.207
-8.61
0.0
0.0
0.0
-5.92
0.0
0.0
-5.98
0.0
0.0
-6.0
0.0
0.0
0.0
-8.55
-5.96
-8.53999999698
-8.5317524751
-6.07
-8.57999999788
0.0
0.0
0.0
-5.84
0.0
0.0
-5.86
-5.92
-5.96
-6.03
0.0
-5.9
-8.59
0.0
0.0
-5.99
-8.53999999852
-8.49997746066
0.0
0.0
-5.86
-8.59
-5.99
-8.47
-8.67999999896
-5.9
0.0
0.0
0.0
0.0
-5.88
-5.8
-8.55
-8.59998422246
0.0
0.0
0.0
0.0
-8.55
-5.85
-5.83
-5.83
-5.87
0.0
0.0
0.0
0.0
-5.82
0.0
-5.8
0.0
0.0
0.0
0.0
0.0
0.0
0.0
0.0
0.0
0.0
0.0
0.0
0.0
0.0
0.0
0.0
0.0
0.0
0.0
0.0
0.0
0.0
0.0
0.0
0.0
0.0
0.0
0.0
0.0
0.0
0.0
0.0
0.0
0.0
0.0
0.0
0.0
-8.57
-8.6
0.0
0.0
0.0
0.0
0.0
0.0
0.0
0.0
0.0
-8.59
0.0
-6.01
0.0
0.0
0.0
0.0
0.0
0.0
-8.51
0.0
0.0
-6.08
-8.68
-8.59
0.0
0.0
0.0
0.0
-5.87
0.0
-5.91
-5.88
-8.51
0.0
0.0
0.0
0.0
0.0
0.0
-5.87
-5.94
-5.98
-5.92
-8.6
0.0
0.0
-8.53
-5.96
-8.59999999927
-5.89
0.0
-8.57999999949
0.0
0.0
0.0
-5.8
-5.95
-5.95
-5.9
-8.53
-5.9
-6.05
-5.92
0.0
0.0
0.0
-5.86
-5.86
-8.57
-8.56
0.0
-6.04
-8.59
0.0
0.0
-5.84
-8.55
-5.96
-5.83
-6.0
0.0
0.0
0.0
0.0
-5.93
-5.82
-8.59
0.0
-5.98
0.0
0.0
0.0
0.0
0.0
0.0
-5.97
-5.77
0.0
0.0
0.0
0.0
0.0
0.0
0.0
0.0
0.0
0.0
0.0
0.0
0.0
0.0
0.0
0.0
0.0
0.0
0.0
0.0
0.0
0.0
0.0
0.0
0.0
0.0
0.0
0.0
0.0
0.0
0.0
0.0
0.0
0.0
0.0
0.0
-5.88
-5.78
0.0
0.0
0.0
0.0
0.0
0.0
0.0
0.0
0.0
0.0
0.0
-8.62
0.0
0.0
0.0
0.0
-5.95
-6.01
0.0
-8.61
0.0
-8.58999936332
0.0
0.0
0.0
0.0
0.0
0.0
0.0
-8.6
-5.86
-5.93
-8.54
-8.63
-5.84
0.0
-5.95
0.0
-8.59999999964
-8.61
0.0
-8.59999999975
0.0
0.0
-5.93
-8.56
-5.91
0.0
-5.84
-6.07
0.0
0.0
0.0
0.0
0.0
-5.89
-5.87
-6.01
-5.87
0.0
-5.87
0.0
0.0
0.0
-5.87
-5.91
0.0
-8.61
0.0
-8.49
-8.57
0.0
0.0
0.0
0.0
0.0
-5.98
-5.91
-5.93
-5.91
-8.57
0.0
0.0
0.0
0.0
0.0
0.0
-5.85
-5.83
0.0
0.0
0.0
0.0
0.0
0.0
-5.93
-5.96
0.0
0.0
0.0
0.0
0.0
-5.84
-5.92
0.0
0.0
0.0
0.0
0.0
0.0
0.0
0.0
0.0
0.0
0.0
0.0
0.0
0.0
0.0
0.0
0.0
0.0
0.0
0.0
0.0
0.0
-5.86
0.0
0.0
0.0
0.0
0.0
0.0
0.0
0.0
-5.93
0.0
-8.6
0.0
-5.86
0.0
0.0
0.0
0.0
0.0
0.0
-8.61
0.0
-5.93
0.0
0.0
0.0
-5.89
-8.62
0.0
-5.95
0.0
-8.63
-8.61
0.0
-5.87
0.0
-5.94
-8.57999999983
-6.02
-8.59
-5.93
-5.78
0.0
0.0
0.0
-5.97
-5.94
-5.95
0.0
-8.63
-5.83
0.0
0.0
0.0
0.0
-5.85
-5.95
0.0
-8.58
0.0
-5.93
-5.95
0.0
0.0
0.0
0.0
-8.57
-5.97
-5.94
-5.9
-5.82
0.0
0.0
-5.92
-5.93
-5.97
-8.58
0.0
0.0
-5.88
0.0
0.0
0.0
-5.96
0.0
-8.58
0.0
0.0
0.0
0.0
-5.88
0.0
-5.77
0.0
0.0
0.0
0.0
-5.95
-5.71
0.0
0.0
0.0
0.0
0.0
0.0
0.0
0.0
0.0
0.0
0.0
0.0
0.0
0.0
0.0
0.0
0.0
0.0
0.0
0.0
0.0
0.0
0.0
0.0
0.0
0.0
0.0
0.0
0.0
-8.59
0.0
0.0
0.0
0.0
0.0
0.0
-5.95
0.0
0.0
0.0
0.0
0.0
-5.91
-5.95
-5.88
-5.88
0.0
0.0
-5.88
0.0
0.0
-5.86
-8.59
-5.92
-5.92
0.0
0.0
0.0
0.0
-5.96
-5.91
-5.85
-8.63
0.0
0.0
0.0
0.0
-5.9
-5.97
-5.94
0.0
-8.63
0.0
0.0
0.0
0.0
0.0
-5.99
-5.86
-5.84
0.0
0.0
0.0
0.0
0.0
0.0
0.0
0.0
-8.6
-8.57
-5.91
0.0
0.0
-5.83
0.0
-5.85
-5.84
-5.9
0.0
0.0
0.0
0.0
0.0
0.0
0.0
0.0
0.0
0.0
0.0
0.0
0.0
0.0
0.0
0.0
0.0
0.0
-6.01
0.0
0.0
0.0
0.0
0.0
0.0
0.0
0.0
-5.97
-5.85
0.0
-8.57
0.0
0.0
-5.85
-5.91
-5.88
-8.61
0.0
0.0
-5.76
-5.85
0.0
-5.92
-8.62
0.0
0.0
-5.84
0.0
0.0
-5.81
-5.97
0.0
0.0
0.0
0.0
0.0
0.0
-8.54
0.0
0.0
-5.93
-5.91
-5.91
0.0
0.0
0.0
0.0
0.0
0.0
0.0
0.0
