0.0
0.0
0.0
0.0
0.0
0.0
0.0
0.0
0.0
0.0
0.0
0.0
0.0
0.0
0.0
0.0
0.0
-7.12
0.0
-8.36
0.0
0.0
0.0
0.0
-7.18
0.0
0.0
0.0
0.0
0.0
0.0
-7.23
0.0
-7.07
-7.13
0.0
0.0
0.0
0.0
0.0
-7.19
0.0
0.0
0.0
0.0
0.0
0.0
0.0
0.0
0.0
0.0
0.0
0.0
0.0
0.0
0.0
0.0
0.0
0.0
0.0
0.0
0.0
0.0
0.0
0.0
0.0
0.0
0.0
0.0
0.0
0.0
0.0
0.0
0.0
0.0
0.0
0.0
0.0
0.0
-8.38999999975
0.0
0.0
0.0
0.0
-7.12
0.0
0.0
-8.35
-7.16
0.0
0.0
-7.27
0.0
-7.18
-7.24
-7.3
-7.14
0.0
0.0
-7.11
-7.13
-7.12
0.0
-8.33
-8.35
0.0
0.0
0.0
0.0
0.0
0.0
0.0
-7.25
-8.35
-8.37999984713
0.0
0.0
0.0
0.0
-7.15
-8.38999999983
-8.36
-7.13
0.0
0.0
0.0
0.0
0.0
0.0
-7.25
-7.14
0.0
0.0
0.0
0.0
0.0
0.0
0.0
-7.14
0.0
0.0
0.0
0.0
0.0
-7.16
0.0
0.0
0.0
0.0
0.0
0.0
0.0
0.0
0.0
0.0
0.0
0.0
0.0
0.0
0.0
0.0
0.0
0.0
0.0
0.0
0.0
0.0
0.0
0.0
0.0
0.0
0.0
0.0
-7.22
0.0
0.0
0.0
0.0
0.0
0.0
0.0
0.0
0.0
0.0
0.0
0.0
0.0
-7.18
-8.34
0.0
0.0
0.0
-7.2
0.0
0.0
0.0
-8.35999989299
0.0
0.0
0.0
-7.23
0.0
0.0
-7.16
0.0
-7.18
-7.19
-7.32
0.0
0.0
0.0
0.0
-8.33
0.0
-8.36
0.0
-7.09
-7.16
0.0
0.0
0.0
0.0
-7.12
0.0
-8.35
-7.27
-8.36999999988
0.0
0.0
0.0
0.0
-7.26
-7.29
0.0
-8.34999999991
0.0
0.0
0.0
0.0
0.0
0.0
0.0
-7.12
-7.29
0.0
0.0
0.0
0.0
0.0
0.0
0.0
-7.24
-7.18
-7.11
0.0
0.0
0.0
0.0
0.0
0.0
0.0
0.0
0.0
0.0
-7.1
0.0
0.0
0.0
0.0
0.0
0.0
0.0
0.0
0.0
0.0
0.0
0.0
0.0
0.0
0.0
0.0
0.0
0.0
0.0
0.0
0.0
0.0
0.0
0.0
0.0
0.0
0.0
0.0
0.0
0.0
-7.19
0.0
-7.23
-8.33
0.0
0.0
0.0
0.0
0.0
0.0
-8.33
0.0
-7.14
-7.23
0.0
0.0
0.0
0.0
0.0
-7.3
-7.25
-7.24
0.0
-7.09
-8.34
0.0
0.0
-7.23
-8.32
-7.31
0.0
-7.29
-8.33
0.0
-7.27
0.0
0.0
-7.19
0.0
0.0
-7.17
0.0
0.0
-7.1
0.0
0.0
-7.11
0.0
-7.16
-8.35
-7.23
-8.35
-8.35
-8.35
0.0
0.0
0.0
0.0
-7.22
-7.24
-7.18
0.0
0.0
-8.34999999994
-7.1
0.0
0.0
0.0
0.0
0.0
0.0
0.0
-7.28
0.0
-7.28
0.0
0.0
0.0
0.0
0.0
0.0
-8.33
-7.19
0.0
0.0
0.0
0.0
0.0
-7.22
0.0
0.0
0.0
0.0
0.0
0.0
0.0
0.0
0.0
0.0
0.0
0.0
0.0
0.0
0.0
0.0
0.0
0.0
0.0
0.0
0.0
0.0
0.0
0.0
0.0
0.0
0.0
0.0
0.0
0.0
0.0
-8.35
0.0
0.0
0.0
0.0
0.0
0.0
0.0
-8.32
-7.24
0.0
0.0
-7.2
0.0
0.0
0.0
0.0
0.0
0.0
0.0
0.0
-7.25
-7.24
-7.19
-8.35
0.0
0.0
0.0
0.0
-7.27
0.0
-8.33
-7.25
-7.28
-7.12
0.0
0.0
0.0
0.0
0.0
-7.17
0.0
-7.26
0.0
-7.27
0.0
-7.2
-7.19
-7.24
-8.32
-8.32
-8.34
-7.25
-8.34
0.0
0.0
0.0
-7.21
-7.3
-7.24
-8.35
-8.35
-7.26
-7.12
0.0
0.0
0.0
0.0
-7.26
-8.3383715864
-7.19
-8.34
-7.32
0.0
0.0
-7.25
0.0
-7.15
-7.24
-8.3799999251
-7.21
-8.35
0.0
0.0
0.0
-7.21
-8.36
0.0
0.0
0.0
-7.21
0.0
0.0
0.0
0.0
0.0
-7.18
0.0
0.0
0.0
0.0
0.0
0.0
0.0
0.0
0.0
0.0
0.0
0.0
0.0
0.0
0.0
0.0
0.0
0.0
0.0
0.0
0.0
0.0
0.0
0.0
0.0
0.0
0.0
0.0
0.0
0.0
0.0
0.0
0.0
0.0
0.0
0.0
-7.18
0.0
0.0
0.0
0.0
0.0
0.0
0.0
-7.17
0.0
-7.16
0.0
0.0
0.0
0.0
0.0
0.0
0.0
0.0
-8.34
0.0
0.0
-7.24
-8.31
0.0
0.0
0.0
0.0
0.0
0.0
-7.28
0.0
-8.34
0.0
-8.36
0.0
0.0
0.0
-8.32
-7.25
0.0
-8.33999994757
-8.36
-8.36999999996
0.0
0.0
0.0
-7.11
-7.22
-8.34
-8.33
0.0
0.0
-8.33
0.0
-7.27
-8.36999226901
-8.34999999997
-8.36999999998
-8.3199999633
0.0
-8.33
0.0
-7.26
0.0
0.0
-8.33
-7.25
-8.36
-7.26
0.0
0.0
0.0
-8.33
-7.3
-7.19
-7.24
-8.162351
0.0
0.0
0.0
0.0
-7.21
0.0
-7.27
-8.36
0.0
0.0
0.0
0.0
0.0
0.0
0.0
-7.15
0.0
0.0
0.0
0.0
0.0
0.0
0.0
0.0
0.0
0.0
0.0
0.0
0.0
0.0
0.0
0.0
0.0
0.0
0.0
0.0
0.0
0.0
0.0
0.0
0.0
0.0
0.0
0.0
0.0
0.0
0.0
0.0
0.0
0.0
0.0
0.0
0.0
0.0
0.0
0.0
0.0
0.0
0.0
0.0
0.0
-7.23
-7.09
-7.22
0.0
0.0
0.0
0.0
0.0
0.0
-8.1576457
0.0
-7.07
-8.29
0.0
0.0
0.0
0.0
0.0
-8.20235199
-7.25
-7.55
-7.78
-7.24
-8.32
0.0
0.0
0.0
0.0
-8.35999997431
-8.22
-7.32
-8.37886011048
-7.28
0.0
0.0
0.0
0.0
0.0
0.0
-8.34
-8.39920207734
-8.32999999999
0.0
0.0
0.0
0.0
-7.24
-8.3699945883
0.0
0.0
-7.907
-8.31
0.0
0.0
0.0
-8.199646393
0.0
-8.33944145414
-7.21
-7.17
0.0
0.0
-7.17
-8.35999998202
-8.33999998741
-8.34
-7.34
-7.25
0.0
0.0
0.0
0.0
-7.18
-7.27
-8.2317524751
-8.34
-8.31
0.0
0.0
0.0
0.0
-7.16
0.0
0.0
0.0
0.0
0.0
0.0
0.0
0.0
0.0
-7.19
0.0
0.0
0.0
0.0
0.0
0.0
0.0
0.0
0.0
0.0
0.0
0.0
0.0
0.0
0.0
0.0
0.0
0.0
0.0
0.0
0.0
0.0
0.0
0.0
0.0
0.0
0.0
0.0
0.0
0.0
0.0
0.0
0.0
0.0
0.0
0.0
0.0
0.0
0.0
0.0
0.0
-7.16
0.0
0.0
0.0
0.0
0.0
0.0
0.0
0.0
-7.29
0.0
0.0
-8.0099
-8.36
0.0
0.0
0.0
-7.2
0.0
0.0
-7.31
-7.11
0.0
-7.27
0.0
0.0
0.0
-8.36
-7.26
-8.3596090179
-8.10193
-7.32
-8.37022673257
0.0
0.0
0.0
-7.15
0.0
0.0
-7.24
-7.24
-7.25
-7.27
0.0
-7.23
-8.36
0.0
0.0
-7.3
-8.37972631253
-8.29
0.0
0.0
-7.24
-8.36999621181
-7.26
-8.31
-8.29
-7.22
0.0
0.0
0.0
0.0
-7.25
-7.2
-8.34
-8.33
0.0
0.0
0.0
0.0
-8.35
-7.18
-7.16
-7.2
-7.23
0.0
0.0
0.0
0.0
-7.16
0.0
0.0
0.0
0.0
0.0
0.0
0.0
0.0
0.0
0.0
0.0
0.0
0.0
0.0
0.0
0.0
0.0
0.0
0.0
0.0
0.0
0.0
0.0
0.0
0.0
0.0
0.0
0.0
0.0
0.0
0.0
0.0
0.0
0.0
0.0
0.0
0.0
0.0
0.0
-8.36999999999
-8.36999999999
0.0
0.0
0.0
0.0
0.0
0.0
0.0
0.0
0.0
-8.37999999119
0.0
-7.29
0.0
0.0
0.0
0.0
0.0
0.0
-8.33999999383
0.0
0.0
-7.31
-7.42
-8.39980841877
0.0
0.0
0.0
0.0
-7.21
0.0
-7.22
-7.24
-8.35986589314
0.0
0.0
0.0
0.0
0.0
0.0
-7.24
-7.23
-7.22
-7.25
-8.36
0.0
0.0
-8.33999999568
-7.29
-8.3599061252
-7.23
0.0
-8.3761587128
0.0
0.0
0.0
0.0
-7.23
-7.26
-7.21
-8.35993428764
-7.23
-7.31
-7.23
0.0
0.0
0.0
-7.17
-7.19
-8.37995400135
-8.37
0.0
-7.28
-8.32
0.0
0.0
-7.08
-8.35999999698
-7.25
-7.2
-7.32
0.0
0.0
0.0
0.0
-7.14
0.0
-8.32
0.0
-7.26
0.0
0.0
0.0
0.0
0.0
0.0
-7.26
0.0
0.0
0.0
0.0
0.0
0.0
0.0
0.0
0.0
0.0
0.0
0.0
0.0
0.0
0.0
0.0
0.0
0.0
0.0
0.0
0.0
0.0
0.0
0.0
0.0
0.0
0.0
0.0
0.0
0.0
0.0
0.0
0.0
0.0
0.0
0.0
0.0
0.0
0.0
0.0
0.0
0.0
0.0
0.0
0.0
0.0
0.0
0.0
0.0
0.0
-8.38999734827
0.0
0.0
0.0
0.0
-7.19
-7.28
0.0
-8.37996780094
0.0
-8.38031109896
0.0
0.0
0.0
0.0
0.0
0.0
0.0
-8.37999999788
0.0
-7.17
-8.34999814379
-7.42
-7.11
0.0
-7.28
0.0
-8.38321776927
-8.40525243849
0.0
-8.38667670694
0.0
0.0
-7.18
-8.34999870065
-7.22
0.0
-7.21
-7.33
0.0
0.0
0.0
0.0
0.0
-7.15
-7.17
-7.28
-7.07
0.0
-7.1
0.0
0.0
0.0
-7.11
-7.12
0.0
-8.37999999852
0.0
-8.34999909046
-8.37997746066
0.0
0.0
0.0
0.0
0.0
-7.25
-7.13
-7.17
-7.14
-8.37998422246
0.0
0.0
0.0
0.0
0.0
0.0
-7.19
0.0
0.0
0.0
0.0
0.0
0.0
0.0
-7.19
-7.25
0.0
0.0
0.0
0.0
0.0
-7.04
-7.14
0.0
0.0
0.0
0.0
0.0
0.0
0.0
0.0
0.0
0.0
0.0
0.0
0.0
0.0
0.0
0.0
0.0
0.0
0.0
0.0
0.0
0.0
0.0
0.0
0.0
0.0
0.0
0.0
0.0
0.0
0.0
-7.18
0.0
-8.37
0.0
0.0
0.0
0.0
0.0
0.0
0.0
0.0
-8.38999936332
0.0
-7.14
0.0
0.0
0.0
-7.1
-8.38999955432
0.0
-7.14
0.0
-7.43
-8.32
0.0
0.0
0.0
-7.17
-8.37998895572
-7.28
-8.36767369486
0.0
0.0
0.0
0.0
0.0
-7.26
-7.29
-7.07
0.0
-8.38999968803
0.0
0.0
0.0
0.0
0.0
-6.96
-7.23
0.0
-8.38999978162
0.0
-7.11
-7.21
0.0
0.0
0.0
0.0
-8.37999999896
-7.25
-7.18
0.0
0.0
0.0
0.0
-7.15
-7.11
-7.26
-8.37999999927
0.0
0.0
0.0
0.0
0.0
0.0
-7.24
0.0
-8.37
0.0
0.0
0.0
0.0
-7.11
0.0
0.0
0.0
0.0
0.0
0.0
-7.2
0.0
0.0
0.0
0.0
0.0
0.0
0.0
0.0
0.0
0.0
0.0
0.0
0.0
0.0
0.0
0.0
0.0
0.0
0.0
0.0
0.0
0.0
0.0
0.0
0.0
0.0
0.0
0.0
0.0
0.0
-8.3
0.0
0.0
0.0
0.0
0.0
0.0
-7.18
0.0
0.0
0.0
0.0
0.0
0.0
-7.2
-6.98
0.0
0.0
0.0
0.0
0.0
0.0
-7.19
-8.37
-7.16
0.0
0.0
0.0
0.0
0.0
-7.22
-7.12
0.0
-8.32
0.0
0.0
0.0
0.0
-7.12
-7.2
-7.18
0.0
-8.25
0.0
0.0
0.0
0.0
0.0
-7.28
0.0
-7.07
0.0
0.0
0.0
0.0
0.0
0.0
0.0
0.0
-8.32
-8.36
-7.17
0.0
0.0
0.0
0.0
0.0
0.0
-7.12
0.0
0.0
0.0
0.0
0.0
0.0
0.0
0.0
0.0
0.0
0.0
0.0
0.0
0.0
0.0
0.0
0.0
0.0
-7.27
0.0
0.0
0.0
0.0
0.0
0.0
0.0
0.0
-7.22
0.0
0.0
-8.37999999949
0.0
0.0
0.0
-7.13
-6.98
-7.4
0.0
0.0
0.0
-7.04
0.0
-7.12
-8.31
0.0
0.0
0.0
0.0
0.0
0.0
-7.27
0.0
0.0
0.0
0.0
0.0
0.0
-8.35999999964
0.0
0.0
-7.19
-7.13
0.0
0.0
0.0
0.0
0.0
0.0
0.0
0.0
0.0
