0.0
0.0
0.0
0.0
0.0
0.0
0.0
0.0
-1.52
0.0
0.0
-1.74
-1.79
0.0
0.0
-1.71
0.0
-1.78
0.0
-8.06
-1.82
0.0
0.0
0.0
-1.83
-1.79
-1.54
0.0
0.0
0.0
0.0
-1.85
0.0
-1.79
-1.8
0.0
0.0
0.0
0.0
-1.54
-1.86
0.0
0.0
0.0
-1.84
0.0
0.0
0.0
0.0
0.0
0.0
0.0
0.0
0.0
0.0
0.0
0.0
0.0
0.0
0.0
0.0
0.0
0.0
0.0
0.0
0.0
0.0
0.0
0.0
0.0
0.0
0.0
0.0
0.0
0.0
0.0
0.0
-1.72
0.0
-8.11999984713
-1.91
0.0
0.0
0.0
-1.81
0.0
0.0
-8.0
-1.79
0.0
0.0
-5.62
0.0
-1.83
-1.86
-1.95
-1.8
0.0
0.0
-1.81
-1.82
-1.82
-1.93
-8.02
-7.96
0.0
0.0
0.0
0.0
0.0
0.0
-1.9
-1.9
-8.09999989299
-8.07998422246
0.0
0.0
0.0
-1.71
-1.78
-8.1199999251
-8.13999994757
-1.75
0.0
0.0
0.0
0.0
0.0
0.0
-1.92
-1.84
-1.61
0.0
0.0
0.0
0.0
0.0
0.0
-1.81
0.0
0.0
0.0
0.0
0.0
-1.86
0.0
0.0
0.0
0.0
0.0
0.0
0.0
0.0
0.0
0.0
0.0
0.0
0.0
0.0
0.0
0.0
0.0
0.0
0.0
0.0
0.0
0.0
-1.63
0.0
0.0
0.0
0.0
0.0
-1.88
0.0
0.0
0.0
0.0
0.0
0.0
0.0
0.0
0.0
0.0
0.0
-1.87
0.0
-1.84
-8.0399999633
0.0
0.0
0.0
-1.85
-1.91
0.0
-1.87
-7.99998895572
0.0
0.0
0.0
-1.89
0.0
-1.89
-1.87
-1.9
-1.95
-1.86
-5.66
0.0
0.0
0.0
0.0
-8.00999999788
-1.62
-8.06999734827
0.0
-1.79
-1.87
0.0
0.0
0.0
0.0
-1.78
-1.6
-8.05999997431
-1.9
-8.07999226901
0.0
0.0
0.0
0.0
-1.92
-5.62
0.0
-7.94999814379
0.0
0.0
0.0
0.0
0.0
0.0
0.0
-1.77
-5.61
-1.82
0.0
0.0
0.0
0.0
0.0
0.0
-1.88
-1.84
-1.72
0.0
0.0
0.0
0.0
0.0
-1.58
0.0
0.0
0.0
0.0
-1.83
0.0
0.0
0.0
0.0
0.0
0.0
0.0
0.0
0.0
0.0
0.0
0.0
0.0
0.0
0.0
0.0
0.0
0.0
0.0
0.0
0.0
0.0
-1.84
-1.91
0.0
0.0
0.0
0.0
0.0
0.0
-1.86
0.0
-1.84
-8.04999999852
0.0
0.0
0.0
0.0
0.0
0.0
-7.96999999999
0.0
-1.85
-1.91
0.0
0.0
0.0
0.0
0.0
-5.66
-5.62
-5.62
-1.91
-1.93
-7.99999998202
0.0
0.0
-1.88
-8.05999999964
-5.67
-1.73
-1.94
-8.0199945883
0.0
-5.63
0.0
0.0
-1.93
-1.9
-1.72
-5.49
-1.73
0.0
-1.94
0.0
0.0
-1.74
0.0
-1.84
-8.03999998741
-5.61
-8.02999870065
-8.05999999119
-8.10999909046
0.0
0.0
0.0
0.0
-1.82
-5.6
-1.86
0.0
0.0
-7.98993428764
-2.0
0.0
0.0
0.0
-1.67
0.0
0.0
-1.9
-5.49
0.0
-5.49
0.0
0.0
0.0
0.0
0.0
0.0
-8.02999999896
-1.85
0.0
0.0
0.0
0.0
0.0
-1.82
0.0
0.0
0.0
0.0
0.0
0.0
0.0
0.0
0.0
0.0
0.0
0.0
0.0
0.0
0.0
0.0
0.0
0.0
0.0
0.0
0.0
0.0
0.0
0.0
0.0
0.0
0.0
0.0
0.0
0.0
0.0
-7.97999999975
0.0
-1.92
0.0
0.0
0.0
0.0
0.0
-8.0
-1.9
-1.58
0.0
-5.58
0.0
0.0
0.0
0.0
0.0
0.0
0.0
-1.77
-5.63
-5.59
-1.96
-8.03999999383
0.0
0.0
0.0
0.0
-5.52
0.0
-8.04999999999
-1.94
-5.53
-1.87
-1.94
0.0
0.0
0.0
0.0
-1.84
0.0
-5.57
-1.77
-6.52
-1.93
-1.84
-5.53
-5.6
-7.95999999568
-7.98999936332
-7.98999955432
-6.48
-7.97999999996
0.0
0.0
0.0
-5.53
-5.62
-1.89
-7.98999999991
-7.97999999997
-1.95
-1.79
0.0
0.0
0.0
0.0
-5.63
-8.56022673257
-1.95
-7.98999968803
-5.69
-1.92
0.0
-5.63
0.0
-1.9
-7.34
-8.04995400135
-1.98
-8.03
0.0
0.0
0.0
-1.89
-8.01999999698
-1.92
0.0
-1.89
-1.84
0.0
0.0
0.0
0.0
0.0
-5.59
-1.94
0.0
0.0
0.0
0.0
0.0
0.0
0.0
0.0
0.0
0.0
0.0
0.0
0.0
0.0
0.0
0.0
0.0
0.0
0.0
0.0
0.0
0.0
0.0
0.0
0.0
0.0
0.0
0.0
0.0
0.0
0.0
0.0
0.0
0.0
0.0
-1.95
0.0
0.0
0.0
0.0
0.0
0.0
0.0
-1.93
-1.76
-1.94
0.0
-1.92
0.0
0.0
0.0
0.0
0.0
0.0
-7.99999999983
-1.92
-1.7
-5.64
-7.29
-1.9
0.0
0.0
0.0
0.0
0.0
-6.45
0.0
-7.7
-1.77
-7.68
0.0
0.0
0.0
-7.98999999927
-7.33
0.0
-7.81
-8.05980841877
-8.07986589314
0.0
0.0
0.0
-1.81
-1.91
-7.73
-7.94
0.0
0.0
-7.35
0.0
-7.37
-8.5661587128
-7.68
-8.0599061252
-7.63
-1.76
-7.95
0.0
-7.34
0.0
-1.78
-8.04996780094
-1.9
-7.99999999988
-7.39
0.0
0.0
0.0
-8.04999999949
-5.62
-5.5
-1.87
-8.322351
0.0
0.0
0.0
0.0
-5.6
-1.7
-5.62
-8.07
0.0
0.0
0.0
0.0
0.0
0.0
0.0
-1.91
0.0
0.0
0.0
0.0
0.0
0.0
0.0
0.0
-1.67
0.0
0.0
0.0
0.0
0.0
0.0
0.0
0.0
0.0
0.0
0.0
0.0
0.0
0.0
0.0
0.0
0.0
0.0
0.0
0.0
-1.87
0.0
0.0
0.0
0.0
0.0
0.0
0.0
0.0
0.0
0.0
0.0
0.0
0.0
0.0
0.0
-5.63
-1.81
-1.83
-1.89
0.0
0.0
0.0
0.0
0.0
-8.2976457
0.0
-1.95
-7.26
-1.8
0.0
0.0
0.0
0.0
-8.38235199
-5.62
-7.69
-7.98
-5.63
-7.34
0.0
0.0
0.0
0.0
-7.63
-7.28
-5.61
-7.7
-5.62
-1.59
0.0
0.0
0.0
0.0
-1.62
-7.97999999998
-7.73
-7.59
0.0
0.0
0.0
0.0
-1.9
-7.84
-1.88
0.0
-8.007
-7.29
0.0
-1.79
-1.9
-8.339646393
-1.64
-7.73
-5.64
-1.83
0.0
-1.76
-1.96
-7.69
-7.84
-7.69
-7.42
-5.65
0.0
0.0
-1.62
0.0
-5.55
-7.39
-8.4117524751
-8.08997746066
-7.28
0.0
0.0
0.0
0.0
-1.93
0.0
0.0
0.0
0.0
0.0
0.0
0.0
0.0
0.0
-5.61
0.0
0.0
0.0
0.0
0.0
0.0
0.0
0.0
0.0
0.0
0.0
0.0
0.0
0.0
0.0
0.0
0.0
0.0
0.0
0.0
0.0
0.0
0.0
0.0
0.0
0.0
0.0
0.0
0.0
0.0
0.0
0.0
0.0
0.0
0.0
0.0
0.0
0.0
-1.88
-1.87
-1.9
-5.56
-1.9
-1.8
0.0
0.0
0.0
0.0
0.0
0.0
-7.42
-1.92
-1.94
-8.1099
-8.0
0.0
0.0
0.0
-5.62
-1.61
-1.54
-7.38
-1.82
0.0
-5.67
0.0
0.0
0.0
-7.69
-5.67
-7.69
-8.24193
-5.68
-7.74
0.0
0.0
0.0
-5.55
-1.69
-1.93
-1.9
-5.65
-5.63
-5.67
0.0
-6.52
-7.75
0.0
-1.65
-7.37
-7.67
-7.25
0.0
0.0
-6.47
-7.71
-5.64
-7.90999999994
-7.29
-5.65
0.0
-1.73
0.0
0.0
-5.66
-5.59
-7.97999999999
-7.3
0.0
0.0
0.0
0.0
-7.67
-5.57
-1.92
-5.62
-6.49
0.0
0.0
0.0
0.0
-1.93
0.0
-1.94
-1.71
0.0
0.0
0.0
0.0
0.0
0.0
0.0
0.0
0.0
0.0
0.0
0.0
0.0
0.0
0.0
0.0
0.0
0.0
0.0
0.0
0.0
0.0
0.0
0.0
0.0
0.0
0.0
0.0
0.0
0.0
0.0
0.0
0.0
0.0
0.0
0.0
-7.7
-7.74
0.0
0.0
0.0
0.0
0.0
0.0
0.0
-1.93
-1.89
-7.73
0.0
-5.7
0.0
0.0
0.0
0.0
0.0
0.0
-7.64
-1.87
-1.71
-5.65
-7.39
-7.73
0.0
0.0
0.0
0.0
-5.62
0.0
-5.61
-6.41
-7.77
0.0
0.0
0.0
0.0
0.0
-1.76
-5.66
-5.62
-5.65
-6.42
-7.72
0.0
0.0
-7.66
-7.4
-7.65
-6.44
0.0
-7.71
0.0
0.0
0.0
-1.75
-5.64
-5.64
-5.61
-7.67
-5.64
-5.7
-5.66
0.0
0.0
0.0
-5.55
-5.57
-7.68
-7.68
0.0
-5.65
-7.7
0.0
0.0
-5.39
-7.66
-5.65
-5.56
-7.38
0.0
0.0
0.0
0.0
-5.63
-5.63
-7.71
-1.63
-5.66
0.0
0.0
0.0
0.0
0.0
0.0
-5.67
-1.93
0.0
0.0
0.0
0.0
0.0
0.0
0.0
-1.86
0.0
0.0
0.0
0.0
0.0
0.0
0.0
0.0
0.0
0.0
0.0
0.0
0.0
0.0
0.0
0.0
0.0
0.0
0.0
0.0
0.0
0.0
0.0
0.0
0.0
0.0
0.0
0.0
-1.75
-1.8
-1.9
0.0
0.0
0.0
0.0
0.0
0.0
0.0
0.0
0.0
0.0
-7.74
0.0
0.0
0.0
0.0
-5.65
-5.69
-1.63
-7.73
-1.85
-7.76
0.0
0.0
0.0
0.0
0.0
0.0
-1.69
-7.72
-5.56
-5.58
-7.72
-7.78
-1.78
0.0
-7.38
0.0
-7.67
-7.72
0.0
-7.7
0.0
0.0
-5.64
-7.69
-5.62
0.0
-5.65
-5.71
0.0
0.0
0.0
0.0
0.0
-5.57
-5.54
-5.66
-5.45
0.0
-5.58
0.0
0.0
0.0
-1.77
-1.76
-1.54
-7.73
0.0
-7.7
-7.71
0.0
0.0
0.0
0.0
0.0
-5.69
-5.54
-5.52
-1.82
-7.78
0.0
0.0
0.0
0.0
0.0
0.0
-5.63
-5.52
0.0
0.0
0.0
0.0
0.0
0.0
-5.6
-5.66
0.0
0.0
0.0
0.0
0.0
-1.73
-1.78
0.0
0.0
0.0
0.0
0.0
0.0
0.0
0.0
0.0
0.0
0.0
0.0
0.0
0.0
0.0
0.0
0.0
0.0
0.0
0.0
0.0
0.0
-1.73
0.0
0.0
0.0
0.0
0.0
0.0
0.0
0.0
-5.65
-1.61
-7.73
0.0
-1.69
0.0
0.0
0.0
0.0
0.0
0.0
-7.76
0.0
-5.56
0.0
0.0
0.0
-1.79
-7.72
0.0
-5.57
0.0
-7.39
-7.76
0.0
0.0
0.0
-5.57
-7.73
-5.69
-7.73
-1.84
-1.91
0.0
0.0
0.0
-5.67
-7.39
-1.8
-1.7
-7.78
-1.91
-1.72
0.0
0.0
0.0
-1.76
-5.65
-1.83
-7.74
-1.74
-5.5
-5.66
0.0
0.0
0.0
0.0
-7.7
-5.66
-5.66
-1.74
-1.9
0.0
0.0
-5.55
-5.63
-5.67
-7.74
-1.9
0.0
-1.78
0.0
0.0
0.0
-5.66
0.0
-7.71
0.0
0.0
0.0
0.0
-1.73
0.0
-1.68
0.0
0.0
0.0
0.0
-5.63
-1.7
0.0
0.0
0.0
0.0
0.0
0.0
0.0
0.0
0.0
0.0
0.0
0.0
0.0
0.0
0.0
0.0
0.0
0.0
0.0
-1.71
0.0
0.0
0.0
0.0
0.0
0.0
0.0
0.0
0.0
-7.77
0.0
0.0
0.0
0.0
-1.67
0.0
-5.6
0.0
0.0
0.0
0.0
0.0
-1.73
-5.63
-1.76
-1.74
0.0
0.0
-1.72
-1.63
0.0
-5.61
-7.74
-5.56
-1.75
0.0
0.0
0.0
0.0
-5.66
-1.77
-1.94
-7.83
0.0
0.0
0.0
0.0
-1.8
-5.64
-5.61
0.0
-7.83
0.0
0.0
0.0
0.0
0.0
-5.65
-1.78
-5.53
0.0
0.0
0.0
0.0
0.0
0.0
-1.68
0.0
-7.38
-7.73
-5.6
0.0
0.0
-1.7
0.0
-1.71
-1.71
-1.81
0.0
0.0
0.0
0.0
0.0
0.0
0.0
0.0
0.0
0.0
0.0
0.0
0.0
0.0
0.0
0.0
0.0
0.0
-5.69
0.0
0.0
0.0
0.0
0.0
0.0
0.0
0.0
-5.66
-1.7
0.0
-7.69
0.0
0.0
-1.77
-5.56
-1.77
-7.37
0.0
0.0
-1.68
-1.73
0.0
-5.47
-7.72
0.0
0.0
0.0
0.0
0.0
-1.92
-5.69
0.0
0.0
0.0
0.0
0.0
0.0
-7.71
0.0
0.0
-5.62
-5.55
-1.77
0.0
0.0
0.0
0.0
0.0
0.0
0.0
0.0
