0.0
0.0
0.0
0.0
0.0
0.0
0.0
0.0
0.0
0.0
0.0
0.0
-6.88
-6.98
0.0
0.0
0.0
0.0
0.0
0.0
0.0
0.0
0.0
0.0
0.0
0.0
-6.84
0.0
0.0
0.0
0.0
0.0
0.0
-6.98
0.0
0.0
0.0
0.0
0.0
0.0
0.0
0.0
0.0
0.0
0.0
0.0
0.0
0.0
0.0
0.0
0.0
0.0
0.0
0.0
0.0
0.0
0.0
0.0
0.0
0.0
0.0
0.0
0.0
0.0
0.0
0.0
0.0
0.0
0.0
0.0
-6.98
0.0
0.0
0.0
0.0
0.0
-6.93
0.0
0.0
-6.98
-7.98
0.0
0.0
0.0
0.0
0.0
-6.88
0.0
-8.04999999975
0.0
0.0
-6.91
0.0
-7.96
0.0
0.0
-8.05999989299
0.0
0.0
0.0
0.0
0.0
-7.95
0.0
-7.8799999251
0.0
0.0
0.0
0.0
0.0
0.0
0.0
-7.0
-7.24
-6.85
0.0
0.0
0.0
0.0
0.0
-8.02
-7.96999999983
-7.96999999988
0.0
0.0
0.0
0.0
0.0
0.0
-6.94
-6.97
-7.95999994757
0.0
0.0
0.0
0.0
0.0
0.0
0.0
0.0
0.0
0.0
0.0
0.0
0.0
0.0
0.0
0.0
0.0
0.0
0.0
0.0
0.0
0.0
0.0
0.0
0.0
0.0
0.0
0.0
0.0
0.0
0.0
0.0
0.0
0.0
0.0
-6.97
0.0
0.0
0.0
0.0
0.0
0.0
0.0
0.0
-6.95
0.0
-7.9599999633
0.0
0.0
0.0
0.0
0.0
0.0
0.0
-7.92999999991
-6.98
-7.03
0.0
0.0
-6.97
-6.97
-7.99
-6.94
-7.98999999994
0.0
0.0
-7.05
0.0
0.0
0.0
-6.91
0.0
-7.02
0.0
-7.0
-7.05
0.0
0.0
-6.9
0.0
0.0
0.0
0.0
0.0
-7.1
0.0
0.0
0.0
0.0
0.0
0.0
-7.0
-7.96999999996
-7.01
-6.99
-7.96999734827
0.0
0.0
0.0
-6.98
0.0
-7.02
-6.99
0.0
0.0
0.0
0.0
0.0
0.0
0.0
-6.99
0.0
0.0
-7.98999999997
0.0
0.0
0.0
0.0
0.0
0.0
-6.88
-8.02
0.0
0.0
0.0
0.0
0.0
0.0
0.0
0.0
0.0
0.0
0.0
0.0
0.0
0.0
0.0
0.0
0.0
0.0
0.0
0.0
0.0
0.0
0.0
0.0
0.0
0.0
0.0
0.0
0.0
0.0
0.0
0.0
0.0
-6.98
0.0
0.0
0.0
0.0
0.0
0.0
0.0
-7.92
0.0
-7.94999999998
-7.96999999999
0.0
0.0
0.0
0.0
-6.99
-7.96999999999
0.0
-7.92999999999
-7.95999997431
-6.96
-7.95999998202
0.0
0.0
0.0
-6.96
0.0
-7.11
0.0
-7.2
-7.91999998741
-7.14
-7.94999814379
0.0
-6.97
0.0
-6.97
-8.0
-7.93999999119
-7.01
-7.93998895572
-7.0
0.0
0.0
0.0
-7.97
-7.02
-7.04
-7.95999226901
-7.03
0.0
0.0
0.0
0.0
0.0
0.0
-7.22
0.0
-7.02
-7.0
-7.02
0.0
0.0
0.0
0.0
0.0
-6.95
-6.97
-7.97999999383
-7.93999999568
-7.7
0.0
0.0
0.0
0.0
0.0
0.0
-6.99
-7.96
-7.24
0.0
0.0
0.0
0.0
0.0
0.0
-6.88
-6.93
-7.03
-7.01
0.0
0.0
0.0
0.0
-6.96
0.0
0.0
0.0
0.0
0.0
0.0
0.0
0.0
0.0
0.0
0.0
0.0
0.0
0.0
0.0
0.0
0.0
0.0
0.0
0.0
0.0
0.0
0.0
0.0
0.0
0.0
0.0
0.0
0.0
0.0
0.0
0.0
0.0
-6.91
0.0
0.0
0.0
0.0
0.0
0.0
0.0
0.0
0.0
-6.98
-6.99
-8.03
0.0
0.0
0.0
0.0
-6.9
0.0
-7.0
0.0
-7.7
-7.97
0.0
0.0
0.0
0.0
0.0
-7.99
0.0
-7.06
-7.99999999698
-6.92
0.0
-6.97
0.0
0.0
0.0
-6.99
-7.95
-6.95
-7.98999870065
-7.9599945883
-7.93999999788
-7.96999909046
0.0
-7.02
-7.96
-7.95999999852
-6.99
0.0
-7.06
-7.98999936332
0.0
0.0
0.0
-6.96
-7.02
0.0
-7.76
-7.01
0.0
-8.00999955432
0.0
0.0
0.0
-6.96
-7.89999999896
-7.94
-6.99
-7.06
-7.24
0.0
0.0
0.0
-6.98
-7.06
-7.93999999927
0.0
-6.94
-7.02
0.0
0.0
0.0
-7.02
0.0
-7.97
0.0
-7.01
0.0
0.0
0.0
0.0
0.0
-6.97
-7.95
-6.97
-6.88
0.0
0.0
0.0
0.0
0.0
0.0
-6.98
0.0
0.0
0.0
0.0
0.0
0.0
0.0
0.0
0.0
0.0
0.0
0.0
0.0
0.0
0.0
0.0
0.0
0.0
0.0
0.0
0.0
0.0
0.0
0.0
0.0
0.0
0.0
0.0
-7.99
-6.94
0.0
0.0
0.0
0.0
0.0
-7.01
-7.96
-7.01
0.0
-6.99
-6.97
0.0
0.0
0.0
0.0
0.0
-7.96
-7.04
-7.97
0.0
-7.06
-7.96
0.0
0.0
0.0
0.0
-7.17
-8.0
0.0
-8.4017524751
-6.92
-7.04
0.0
0.0
0.0
0.0
-6.96
-6.99
0.0
0.0
-6.98
0.0
0.0
0.0
0.0
-6.94
-7.93999999949
0.0
-7.02
-7.78
-7.95
0.0
-6.97
-7.0
-7.97
-7.02
-8.1599
-7.89999621181
0.0
0.0
-6.97
0.0
0.0
0.0
-7.89999999964
-7.98999978162
-7.96
0.0
0.0
-6.87
-7.01
0.0
-6.79
-7.06
-7.94
0.0
0.0
0.0
0.0
-6.94
-7.91
-6.96
-6.92
0.0
0.0
0.0
0.0
0.0
-6.92
-7.0
-8.03
0.0
0.0
0.0
0.0
0.0
0.0
0.0
0.0
0.0
0.0
0.0
0.0
0.0
0.0
0.0
0.0
0.0
0.0
0.0
0.0
0.0
0.0
0.0
0.0
0.0
0.0
0.0
0.0
0.0
0.0
0.0
0.0
0.0
0.0
0.0
0.0
0.0
-6.99
0.0
0.0
0.0
0.0
0.0
0.0
0.0
0.0
-8.25193
0.0
0.0
0.0
0.0
0.0
-6.96
0.0
-7.97
-6.99
-7.94999984713
-6.91
-7.92
0.0
0.0
0.0
0.0
-6.98
-7.02
0.0
-7.97
-8.302351
0.0
0.0
0.0
0.0
-6.9
-8.3376457
-8.36235199
-7.0
-7.95
-7.0
-7.08
0.0
0.0
0.0
0.0
0.0
-7.94
-7.9
-7.02
-6.96
0.0
0.0
-7.0
-8.419646393
0.0
-6.97
-7.01
0.0
-7.76
0.0
-6.99
0.0
0.0
-7.93
-7.96
-7.73
0.0
0.0
0.0
0.0
-6.97
0.0
-7.97
-7.0
0.0
0.0
0.0
0.0
0.0
0.0
-6.97
-7.73
-7.95
-7.04
0.0
0.0
0.0
0.0
0.0
0.0
0.0
0.0
0.0
0.0
0.0
0.0
0.0
0.0
0.0
0.0
-6.96
0.0
0.0
0.0
0.0
0.0
0.0
0.0
0.0
0.0
0.0
0.0
0.0
0.0
0.0
0.0
0.0
0.0
0.0
0.0
0.0
0.0
0.0
0.0
0.0
0.0
0.0
0.0
-6.83
0.0
0.0
-7.0
0.0
0.0
0.0
0.0
0.0
0.0
0.0
0.0
-7.96
0.0
-7.02
0.0
0.0
0.0
0.0
0.0
0.0
-7.04
0.0
-7.85
-7.88
-7.86
0.0
0.0
0.0
-7.86
-7.0
0.0
0.0
-7.23
-7.97
-7.99
0.0
0.0
0.0
-6.99
0.0
-7.02
-7.01
-8.5761587128
-7.05
0.0
0.0
0.0
0.0
-7.03
0.0
-7.92
-7.87
-7.88
-8.107
0.0
0.0
-7.02
-6.97
-6.95
-7.27
-7.97
-7.95
0.0
-6.95
0.0
-7.15
-7.97
-7.97
-6.98
-7.87
0.0
0.0
0.0
0.0
-6.96
-7.94
0.0
0.0
0.0
0.0
0.0
0.0
-6.98
-7.29
0.0
-7.92
-7.71
0.0
0.0
0.0
0.0
-6.96
0.0
-7.79
-7.91
0.0
0.0
0.0
0.0
0.0
0.0
0.0
0.0
0.0
0.0
0.0
0.0
0.0
0.0
0.0
0.0
0.0
0.0
0.0
0.0
0.0
0.0
0.0
0.0
0.0
0.0
0.0
0.0
0.0
0.0
0.0
0.0
0.0
0.0
0.0
0.0
0.0
0.0
0.0
-6.99
0.0
0.0
0.0
0.0
0.0
0.0
0.0
-7.91
-7.04
0.0
-7.26
0.0
0.0
0.0
0.0
0.0
0.0
0.0
-7.87
-6.99
0.0
-7.9
0.0
0.0
0.0
0.0
0.0
0.0
-6.97
-7.23
-7.03
-6.99
-7.03
0.0
0.0
0.0
0.0
-7.02
0.0
-7.02
-6.98
-7.93
-6.98
-6.94
-7.73
-7.03
-6.97
0.0
-7.88
-6.87
-7.97
0.0
0.0
0.0
0.0
0.0
0.0
-7.87
-7.93
-6.98
-6.99
0.0
0.0
0.0
0.0
-7.02
-7.94
-7.08
-6.95
-7.81
0.0
0.0
0.0
-7.0
0.0
-7.25
-6.98
0.0
-7.86
0.0
0.0
0.0
0.0
0.0
0.0
-7.82
-7.87
0.0
0.0
0.0
0.0
0.0
-7.86
0.0
0.0
0.0
0.0
0.0
0.0
0.0
0.0
0.0
0.0
0.0
0.0
0.0
0.0
0.0
0.0
0.0
0.0
0.0
0.0
0.0
0.0
0.0
0.0
0.0
0.0
0.0
0.0
0.0
0.0
0.0
0.0
0.0
0.0
0.0
0.0
0.0
0.0
0.0
-7.73
0.0
0.0
0.0
0.0
0.0
0.0
0.0
0.0
-6.97
0.0
-7.74
0.0
0.0
0.0
0.0
0.0
0.0
-7.02
0.0
0.0
0.0
-7.74
0.0
0.0
0.0
0.0
0.0
0.0
0.0
-7.03
-6.99
-6.99
-6.9
0.0
0.0
-6.99
-7.87
0.0
-6.99
0.0
-7.13
-6.95
0.0
0.0
0.0
-7.79
-7.02
0.0
0.0
0.0
-7.91
0.0
0.0
0.0
-6.94
-6.92
-6.96
0.0
0.0
-6.99
-7.89
0.0
0.0
0.0
-6.88
0.0
-7.73
0.0
-6.9
0.0
0.0
-6.9
0.0
0.0
0.0
0.0
0.0
-6.96
-7.85
0.0
-7.04
0.0
0.0
0.0
0.0
0.0
0.0
-7.93
0.0
-7.89
0.0
0.0
0.0
0.0
0.0
0.0
0.0
0.0
0.0
0.0
0.0
0.0
0.0
0.0
0.0
0.0
0.0
0.0
0.0
0.0
0.0
0.0
0.0
0.0
0.0
0.0
0.0
0.0
0.0
0.0
0.0
0.0
0.0
0.0
0.0
0.0
0.0
0.0
0.0
0.0
0.0
0.0
0.0
0.0
0.0
0.0
0.0
0.0
0.0
0.0
0.0
0.0
0.0
0.0
0.0
0.0
0.0
0.0
0.0
0.0
0.0
0.0
0.0
-7.89
0.0
0.0
0.0
0.0
-6.97
0.0
0.0
0.0
-7.83
0.0
-7.0
-7.88
-7.03
0.0
0.0
0.0
0.0
0.0
0.0
-7.79
-7.75
-6.98
-6.95
-7.0
0.0
0.0
0.0
0.0
0.0
0.0
-7.84
-7.93
-7.77
0.0
0.0
0.0
0.0
0.0
0.0
0.0
-7.09
0.0
0.0
0.0
0.0
0.0
0.0
0.0
-6.9
0.0
0.0
0.0
0.0
0.0
0.0
0.0
0.0
0.0
0.0
0.0
0.0
0.0
0.0
0.0
0.0
0.0
0.0
0.0
0.0
0.0
0.0
0.0
0.0
0.0
0.0
0.0
0.0
0.0
0.0
0.0
0.0
0.0
0.0
0.0
0.0
0.0
0.0
0.0
0.0
0.0
0.0
0.0
0.0
0.0
0.0
0.0
0.0
0.0
0.0
0.0
0.0
0.0
0.0
0.0
0.0
0.0
0.0
0.0
0.0
0.0
0.0
0.0
0.0
0.0
0.0
0.0
-7.85
-7.73
0.0
0.0
0.0
0.0
0.0
0.0
0.0
0.0
0.0
0.0
0.0
0.0
0.0
0.0
0.0
-6.94
0.0
0.0
0.0
0.0
0.0
0.0
0.0
0.0
-7.85
0.0
0.0
0.0
0.0
0.0
0.0
-7.77
0.0
0.0
-7.85
0.0
0.0
0.0
0.0
0.0
0.0
-7.76
0.0
0.0
0.0
0.0
0.0
0.0
0.0
0.0
0.0
0.0
0.0
0.0
0.0
0.0
0.0
0.0
0.0
0.0
0.0
0.0
0.0
0.0
0.0
0.0
0.0
0.0
0.0
0.0
0.0
0.0
0.0
0.0
0.0
0.0
0.0
0.0
0.0
0.0
0.0
0.0
0.0
0.0
0.0
0.0
0.0
-7.77
0.0
0.0
0.0
0.0
0.0
-7.76
0.0
0.0
0.0
0.0
0.0
0.0
0.0
0.0
0.0
0.0
0.0
0.0
0.0
0.0
-8.43
0.0
0.0
0.0
0.0
0.0
0.0
0.0
0.0
0.0
0.0
0.0
0.0
0.0
