0.0
0.0
0.0
0.0
0.0
0.0
0.0
0.0
0.0
0.0
0.0
0.0
0.0
0.0
0.0
0.0
0.0
0.0
0.0
-3.18
0.0
0.0
0.0
0.0
0.0
0.0
0.0
0.0
0.0
0.0
0.0
0.0
0.0
0.0
0.0
0.0
0.0
0.0
0.0
0.0
0.0
0.0
0.0
0.0
0.0
0.0
0.0
0.0
0.0
0.0
0.0
0.0
0.0
0.0
0.0
0.0
0.0
0.0
0.0
0.0
0.0
0.0
0.0
0.0
0.0
0.0
0.0
0.0
0.0
0.0
0.0
0.0
0.0
0.0
0.0
0.0
0.0
0.0
0.0
-3.22
0.0
0.0
0.0
0.0
0.0
0.0
0.0
-3.18
0.0
0.0
0.0
-0.3
0.0
0.0
0.0
-0.15
0.0
0.0
0.0
0.0
0.0
0.0
0.0
-3.21
-3.18
0.0
0.0
0.0
0.0
0.0
0.0
0.0
0.0
-3.22
-3.19
0.0
0.0
0.0
0.0
0.0
-3.22
-3.21
0.0
0.0
0.0
0.0
0.0
0.0
0.0
0.0
0.0
0.0
0.0
0.0
0.0
0.0
0.0
0.0
0.0
0.0
0.0
0.0
0.0
0.0
0.0
0.0
0.0
0.0
0.0
0.0
0.0
0.0
0.0
0.0
0.0
0.0
0.0
0.0
0.0
0.0
0.0
0.0
0.0
0.0
0.0
0.0
0.0
0.0
0.0
0.0
0.0
0.0
0.0
0.0
0.0
0.0
0.0
0.0
0.0
0.0
0.0
0.0
0.0
0.0
0.0
0.0
0.0
0.0
-3.2
0.0
0.0
0.0
0.0
0.0
0.0
0.0
-3.22
0.0
0.0
0.0
0.0
0.0
0.0
0.0
0.0
-0.18
0.0
-0.36
0.0
0.0
0.0
0.0
-3.18
0.0
-3.2
0.0
0.0
0.0
0.0
0.0
0.0
0.0
0.0
0.0
-3.21
0.0
-3.2
0.0
0.0
0.0
0.0
0.0
-0.33
0.0
-3.18
0.0
0.0
0.0
0.0
0.0
0.0
0.0
0.0
-0.24
0.0
0.0
0.0
0.0
0.0
0.0
0.0
0.0
0.0
0.0
0.0
0.0
0.0
0.0
0.0
0.0
0.0
0.0
0.0
0.0
0.0
0.0
0.0
0.0
0.0
0.0
0.0
0.0
0.0
0.0
0.0
0.0
0.0
0.0
0.0
0.0
0.0
0.0
0.0
0.0
0.0
0.0
0.0
0.0
0.0
0.0
0.0
0.0
0.0
0.0
0.0
0.0
0.0
0.0
-3.2
0.0
0.0
0.0
0.0
0.0
0.0
-3.2
0.0
0.0
0.0
0.0
0.0
0.0
0.0
0.0
-0.35
-0.3
-0.32
-0.11
-0.21
-3.2
0.0
0.0
0.0
-3.18
-0.38
0.0
0.0
-3.23
0.0
-0.17
0.0
0.0
-0.25
0.0
0.0
-0.22
0.0
0.0
-0.18
0.0
0.0
0.0
0.0
0.0
-3.19
-0.27
-3.23
-3.21
-3.23
0.0
0.0
0.0
0.0
0.0
-0.29
0.0
0.0
0.0
-3.19
-0.22
0.0
0.0
0.0
0.0
0.0
0.0
0.0
-0.34
0.0
-0.23
0.0
0.0
0.0
0.0
0.0
0.0
-3.19
0.0
0.0
0.0
0.0
0.0
0.0
0.0
0.0
0.0
0.0
0.0
0.0
0.0
0.0
0.0
0.0
0.0
0.0
0.0
0.0
0.0
0.0
0.0
0.0
0.0
0.0
0.0
0.0
0.0
0.0
0.0
0.0
0.0
0.0
0.0
0.0
0.0
0.0
-3.22
0.0
0.0
0.0
0.0
0.0
0.0
0.0
-3.18
0.0
0.0
0.0
-0.27
0.0
0.0
0.0
0.0
0.0
0.0
0.0
0.0
-0.32
-0.31
-0.25
-3.19
0.0
0.0
0.0
0.0
-0.12
0.0
-3.2
0.0
-0.16
0.0
-0.19
0.0
0.0
0.0
0.0
0.0
0.0
-0.27
0.0
-0.34
-0.2
0.0
-0.25
-0.31
-3.21
-3.22
-3.19
-0.33
-3.18
0.0
0.0
0.0
-0.25
-0.37
-0.15
-3.2
-3.21
-0.22
0.0
0.0
0.0
0.0
0.0
-0.33
-3.24
-0.25
-3.19
-0.36
-0.18
0.0
-0.31
0.0
-0.2
-0.32
-3.23
-0.23
-3.2
0.0
0.0
0.0
0.0
-3.18
-0.19
0.0
0.0
0.0
0.0
0.0
0.0
0.0
0.0
-0.25
-0.21
0.0
0.0
0.0
0.0
0.0
0.0
0.0
0.0
0.0
0.0
0.0
0.0
0.0
0.0
0.0
0.0
0.0
0.0
0.0
0.0
0.0
0.0
0.0
0.0
0.0
0.0
0.0
0.0
0.0
0.0
0.0
0.0
0.0
0.0
0.0
-0.16
0.0
0.0
0.0
0.0
0.0
0.0
0.0
-0.16
0.0
-0.21
0.0
0.0
0.0
0.0
0.0
0.0
0.0
0.0
-3.19
0.0
0.0
-0.3
-3.09
-0.17
0.0
0.0
0.0
0.0
0.0
-0.33
0.0
-3.26
0.0
-3.35
0.0
0.0
0.0
-3.19
-0.34
0.0
-3.3
-3.21
-3.23
0.0
0.0
0.0
0.0
-0.12
-3.2
-3.22
0.0
0.0
-3.17
0.0
-0.34
-3.19
-3.27
-3.23
-3.27
0.0
-3.19
0.0
-0.32
0.0
0.0
-3.2
0.0
-3.21
-7.7
0.0
0.0
0.0
-3.19
-0.35
-0.27
0.0
-8.592351
0.0
0.0
0.0
0.0
-0.27
0.0
-0.31
-3.2
0.0
0.0
0.0
0.0
0.0
0.0
0.0
-0.21
0.0
0.0
0.0
0.0
0.0
0.0
0.0
0.0
0.0
0.0
0.0
0.0
0.0
0.0
0.0
0.0
0.0
0.0
0.0
0.0
0.0
0.0
0.0
0.0
0.0
0.0
0.0
0.0
0.0
0.0
0.0
0.0
0.0
0.0
0.0
0.0
0.0
0.0
0.0
0.0
0.0
0.0
0.0
0.0
0.0
-0.3
-0.23
0.0
0.0
0.0
0.0
0.0
0.0
0.0
-8.6076457
0.0
-0.22
-3.16
0.0
0.0
0.0
0.0
0.0
-8.63235199
-0.32
-7.98
-8.23
-0.31
-2.27
0.0
0.0
0.0
0.0
-3.29
-2.23
-0.35
-3.3
-0.31
0.0
0.0
0.0
0.0
0.0
0.0
-3.18
-3.33
-3.29
0.0
0.0
0.0
0.0
-0.19
-3.32
-0.18
0.0
-8.337
-3.15
0.0
0.0
-0.22
-8.649646393
0.0
-3.27
-0.31
0.0
0.0
0.0
-0.21
-3.29
-3.3
-3.29
-3.13
-0.3
0.0
0.0
0.0
0.0
-0.26
-3.06
-8.6817524751
-3.2
-2.26
0.0
0.0
0.0
0.0
-0.16
0.0
0.0
0.0
0.0
0.0
0.0
0.0
0.0
0.0
-0.29
0.0
0.0
0.0
0.0
0.0
0.0
0.0
0.0
0.0
0.0
0.0
0.0
0.0
0.0
0.0
0.0
0.0
0.0
0.0
0.0
0.0
0.0
0.0
0.0
0.0
0.0
0.0
0.0
0.0
0.0
0.0
0.0
0.0
0.0
0.0
0.0
0.0
0.0
-0.13
0.0
0.0
-0.26
-0.15
-0.25
0.0
0.0
0.0
0.0
0.0
0.0
-0.35
-0.22
-0.24
-8.4199
-3.21
0.0
0.0
0.0
-0.28
0.0
0.0
-3.13
0.0
0.0
-0.38
0.0
0.0
0.0
-3.27
-0.35
-3.3
-8.53193
-0.42
-3.33
0.0
0.0
0.0
-0.24
0.0
-0.21
-0.21
-0.32
-0.32
-0.31
0.0
-0.31
-3.31
0.0
0.0
-3.13
-3.3
-3.23
0.0
0.0
-0.33
-3.32
-0.34
-3.23
-0.58
-0.32
0.0
0.0
0.0
0.0
-0.32
-0.27
-3.18
-3.17
0.0
0.0
0.0
0.0
-3.31
-0.26
-0.22
-0.29
-0.33
0.0
0.0
0.0
0.0
-0.23
0.0
-0.21
0.0
0.0
0.0
0.0
0.0
0.0
0.0
0.0
0.0
0.0
0.0
0.0
0.0
0.0
0.0
0.0
0.0
0.0
0.0
0.0
0.0
0.0
0.0
0.0
0.0
0.0
0.0
0.0
0.0
0.0
0.0
0.0
0.0
0.0
0.0
0.0
0.0
-3.32
-3.35
0.0
0.0
0.0
0.0
0.0
0.0
0.0
-0.14
0.0
-3.32
0.0
-0.36
0.0
0.0
0.0
0.0
0.0
0.0
-3.28
0.0
0.0
-0.38
-3.32
-3.31
0.0
0.0
0.0
0.0
-0.3
0.0
-0.3
-0.33
-3.31
0.0
0.0
0.0
0.0
0.0
0.0
-0.33
-0.31
-0.31
-0.32
-3.31
0.0
0.0
-3.3
-3.13
-8.68886011048
-0.33
0.0
-3.32
0.0
0.0
0.0
-0.16
-0.3
-0.32
-0.31
-3.31
-0.3
-0.36
-0.32
0.0
0.0
0.0
-0.27
-0.25
-3.31
-3.3
0.0
-0.37
-3.31
0.0
0.0
-0.24
-3.32
-0.32
-0.28
-3.11
0.0
0.0
0.0
0.0
-0.31
-0.23
-3.28
0.0
-0.35
0.0
0.0
0.0
0.0
0.0
0.0
-0.33
-0.21
0.0
0.0
0.0
0.0
0.0
0.0
0.0
0.0
0.0
0.0
0.0
0.0
0.0
0.0
0.0
0.0
0.0
0.0
0.0
0.0
0.0
0.0
0.0
0.0
0.0
0.0
0.0
0.0
0.0
0.0
0.0
0.0
0.0
0.0
0.0
0.0
-0.22
-0.21
-0.09
0.0
0.0
0.0
0.0
0.0
0.0
0.0
0.0
0.0
0.0
-3.34
0.0
0.0
0.0
0.0
-0.28
-0.35
0.0
-8.76031109896
0.0
-8.77022673257
0.0
0.0
0.0
0.0
0.0
0.0
0.0
-3.27
-0.24
-0.28
-3.29
-3.38
-0.24
0.0
-3.11
0.0
-8.7761587128
-8.72667670694
0.0
-3.35
0.0
0.0
-0.29
-8.67980841877
-0.29
0.0
-0.27
-0.42
0.0
0.0
0.0
0.0
0.0
-0.26
-0.27
-0.35
-0.25
0.0
-0.27
0.0
0.0
0.0
-0.24
-0.27
0.0
-3.31
0.0
-3.3
-3.31
0.0
0.0
0.0
0.0
0.0
-0.34
-0.27
-0.29
-0.27
-3.34
0.0
0.0
0.0
0.0
0.0
0.0
-0.31
-0.26
0.0
0.0
0.0
0.0
0.0
0.0
-0.28
-0.3
0.0
0.0
0.0
0.0
0.0
-0.23
-0.28
0.0
0.0
0.0
0.0
0.0
0.0
0.0
0.0
0.0
0.0
0.0
0.0
0.0
0.0
0.0
0.0
0.0
0.0
0.0
0.0
0.0
0.0
-0.23
0.0
0.0
0.0
0.0
0.0
0.0
0.0
0.0
-0.29
0.0
-3.32
0.0
0.0
0.0
0.0
0.0
0.0
0.0
0.0
-3.35
0.0
-0.29
0.0
0.0
0.0
-0.26
-3.33
0.0
-0.3
0.0
-3.35
-3.29
0.0
-0.22
0.0
-0.28
-8.74321776927
-0.37
-3.33
-0.31
-0.19
0.0
0.0
0.0
-0.31
-3.12
-0.31
0.0
-3.37
-0.22
-0.09
0.0
0.0
0.0
-0.22
-0.31
-0.16
-3.34
-0.08
-0.29
-0.3
0.0
0.0
0.0
0.0
-3.32
-0.34
-0.3
-0.27
-0.21
0.0
0.0
-0.28
-0.28
-0.3
-3.32
-0.23
0.0
-0.24
0.0
0.0
0.0
-0.31
0.0
-3.32
0.0
0.0
0.0
0.0
-0.24
0.0
-0.08
0.0
0.0
0.0
0.0
-0.28
-0.04
0.0
0.0
0.0
0.0
0.0
0.0
0.0
0.0
0.0
0.0
0.0
0.0
0.0
0.0
0.0
0.0
0.0
0.0
0.0
0.0
0.0
0.0
0.0
0.0
0.0
0.0
0.0
0.0
0.0
-3.3
0.0
0.0
0.0
0.0
0.0
0.0
-0.3
0.0
0.0
0.0
0.0
0.0
-0.26
-0.31
-0.2
-0.21
0.0
0.0
-0.2
0.0
0.0
-0.28
-3.33
-0.28
-0.27
0.0
0.0
0.0
0.0
-0.32
-0.27
-0.26
-3.29
0.0
0.0
0.0
0.0
-0.26
-0.3
-0.3
0.0
-3.3
0.0
0.0
0.0
0.0
0.0
-0.35
-0.24
-0.25
0.0
0.0
0.0
0.0
0.0
0.0
0.0
0.0
-3.34
-3.31
-0.28
0.0
0.0
-0.21
0.0
-0.24
-0.22
-0.29
0.0
0.0
0.0
0.0
-0.09
0.0
0.0
0.0
0.0
0.0
0.0
0.0
0.0
0.0
0.0
0.0
0.0
0.0
-0.35
0.0
0.0
0.0
0.0
0.0
0.0
0.0
0.0
-0.32
0.0
0.0
-3.33
0.0
0.0
-0.24
-0.26
-0.23
-3.34
0.0
0.0
0.0
-0.23
0.0
-0.27
-3.32
0.0
0.0
-0.21
0.0
0.0
-0.24
-0.33
0.0
0.0
0.0
0.0
0.0
0.0
-3.27
0.0
0.0
-0.27
-0.28
-0.27
0.0
0.0
0.0
0.0
0.0
0.0
0.0
0.0
