0.0
0.0
0.0
0.0
-6.09
0.0
0.0
0.0
0.0
0.0
-6.1
-6.15
-6.09
-6.2
0.0
-6.09
-6.08
0.0
0.0
-5.89
-5.83
0.0
0.0
0.0
0.0
0.0
-6.15
0.0
0.0
0.0
0.0
0.0
0.0
-6.18
-5.84
0.0
0.0
0.0
-6.11
0.0
0.0
0.0
0.0
0.0
0.0
0.0
0.0
0.0
0.0
0.0
0.0
0.0
0.0
0.0
0.0
0.0
0.0
0.0
0.0
0.0
0.0
-6.1
0.0
0.0
0.0
0.0
0.0
-6.09
0.0
0.0
-6.15
0.0
0.0
0.0
0.0
0.0
-6.15
0.0
-6.14
-6.2
-8.75999999975
0.0
0.0
0.0
0.0
0.0
-6.09
0.0
-8.80999814379
0.0
0.0
-6.12
0.0
-8.75999999983
-6.12
0.0
-8.80999870065
0.0
0.0
0.0
0.0
-6.13
-8.73
0.0
-8.69886011048
0.0
0.0
0.0
0.0
0.0
0.0
0.0
-5.75
-6.2
-6.14
0.0
0.0
0.0
0.0
0.0
-8.81999999988
-8.76999909046
-8.76999936332
0.0
0.0
0.0
0.0
0.0
-5.81
-6.17
-5.69
-8.74999955432
-5.87
0.0
0.0
0.0
0.0
0.0
-6.12
0.0
0.0
0.0
0.0
0.0
0.0
0.0
0.0
0.0
0.0
0.0
0.0
0.0
0.0
0.0
0.0
0.0
0.0
0.0
0.0
0.0
0.0
0.0
0.0
0.0
0.0
-5.61
0.0
-6.16
0.0
0.0
0.0
0.0
0.0
0.0
-6.12
0.0
-5.57
-5.83
-8.72999968803
0.0
0.0
0.0
0.0
0.0
0.0
0.0
-8.70999978162
-6.15
-6.07
0.0
0.0
-6.13
-6.17
-8.75
-5.19
-8.76999984713
0.0
-5.83
-6.28
0.0
-6.13
0.0
-6.13
0.0
-6.23
0.0
-6.16
-6.02
0.0
0.0
-6.14
0.0
0.0
0.0
0.0
-5.83
-6.26
0.0
0.0
0.0
-5.81
0.0
-6.12
-5.78
-8.74999989299
-6.1
-6.03
-8.74525243849
0.0
0.0
-6.07
-6.18
0.0
-6.17
-6.23
0.0
0.0
0.0
0.0
0.0
0.0
0.0
-6.18
0.0
-5.83
-8.77999999991
0.0
0.0
-5.88
0.0
0.0
0.0
-6.13
-8.77
0.0
0.0
0.0
0.0
0.0
0.0
0.0
0.0
0.0
0.0
0.0
0.0
0.0
0.0
0.0
0.0
0.0
0.0
0.0
0.0
0.0
0.0
0.0
0.0
-5.81
0.0
0.0
0.0
0.0
0.0
0.0
-6.09
0.0
-6.18
0.0
0.0
0.0
0.0
0.0
0.0
0.0
-8.69999999994
0.0
-8.7299999251
-8.75999999996
0.0
0.0
0.0
0.0
-6.17
-8.71999999997
0.0
-8.70999994757
-8.7499999633
-5.68
-8.75920207734
0.0
0.0
0.0
-6.15
0.0
-6.07
-5.65
-6.22
-8.74667670694
-6.22
-8.73944145414
0.0
-6.15
0.0
-5.6
-8.77999999998
-8.68999997431
-5.92
-8.70022673257
-6.19
0.0
0.0
0.0
-8.75999999999
-5.86
-6.24
-8.72767369486
-6.08
0.0
0.0
0.0
0.0
0.0
0.0
-6.24
0.0
-6.01
-6.19
-6.02
0.0
0.0
0.0
0.0
0.0
-5.7
-5.72
-8.7396090179
-8.71972631253
-6.22
-6.16
0.0
0.0
0.0
0.0
0.0
-6.22
-8.73
-6.19
0.0
0.0
0.0
0.0
0.0
0.0
-6.14
-6.18
-6.2
-6.01
0.0
0.0
0.0
0.0
-5.71
0.0
0.0
0.0
0.0
0.0
0.0
0.0
0.0
0.0
0.0
0.0
0.0
0.0
0.0
0.0
0.0
0.0
0.0
0.0
0.0
0.0
0.0
0.0
0.0
0.0
0.0
0.0
0.0
0.0
0.0
0.0
0.0
0.0
-6.12
0.0
0.0
0.0
0.0
0.0
0.0
0.0
0.0
0.0
-6.16
-5.71
-8.79999999999
0.0
0.0
0.0
0.0
-6.11
0.0
-6.16
0.0
-6.27
-8.73999999999
0.0
0.0
0.0
0.0
0.0
-8.75
0.0
-6.25
-8.75980841877
-6.14
0.0
-6.16
0.0
0.0
-6.11
-6.18
-8.7
-5.77
-8.71986589314
-8.7261587128
-8.7283715864
-8.7399061252
-6.11
-6.21
-8.71
-8.75993428764
-6.17
0.0
-6.18
-8.75995400135
0.0
0.0
0.0
-6.17
-6.2
-5.77
-8.76
-6.1
0.0
-8.75996780094
0.0
0.0
0.0
-5.86
-8.69997746066
-8.71
-6.2
-6.23
-6.2
-5.66
0.0
0.0
-6.15
-6.2
-8.69998422246
0.0
-5.75
-6.23
0.0
0.0
0.0
-6.23
0.0
-8.72999998202
0.0
-5.86
0.0
0.0
0.0
0.0
0.0
-5.71
-8.72
-6.21
-5.58
0.0
0.0
0.0
0.0
0.0
0.0
-6.19
0.0
0.0
0.0
0.0
0.0
0.0
0.0
0.0
0.0
0.0
0.0
0.0
0.0
0.0
0.0
0.0
0.0
0.0
0.0
0.0
0.0
0.0
0.0
0.0
0.0
0.0
-5.19
-6.08
-8.74
-5.72
0.0
0.0
0.0
0.0
0.0
-5.79
-8.71
-5.87
-6.07
-6.17
-5.63
0.0
0.0
0.0
0.0
0.0
-8.73
-6.2
-8.7
0.0
-6.22
-8.74
0.0
0.0
0.0
0.0
-6.24
-8.74
0.0
-8.432351
-6.15
-5.76
0.0
0.0
0.0
0.0
-6.15
-6.15
-5.49
0.0
-5.8
0.0
0.0
0.0
0.0
-6.17
-8.71998895572
0.0
-6.18
-8.82
-8.71999226901
0.0
-6.18
-6.22
-8.7
-6.2
-8.03
-8.67031109896
0.0
0.0
-5.89
0.0
-6.12
0.0
-8.6999945883
-8.73999621181
-8.72
0.0
0.0
-6.13
-6.24
0.0
-6.17
-5.88
-8.70999998741
0.0
0.0
0.0
0.0
-5.58
-8.66999999119
-6.17
-6.18
0.0
0.0
0.0
0.0
0.0
-5.73
-6.22
-8.74
0.0
0.0
0.0
0.0
0.0
0.0
0.0
0.0
0.0
0.0
0.0
0.0
0.0
0.0
0.0
0.0
0.0
0.0
0.0
0.0
0.0
0.0
0.0
0.0
0.0
0.0
0.0
0.0
0.0
0.0
0.0
0.0
0.0
0.0
0.0
0.0
0.0
-6.02
0.0
0.0
0.0
0.0
0.0
0.0
0.0
0.0
-8.4376457
0.0
0.0
0.0
0.0
0.0
-5.73
0.0
-8.72999999383
-6.04
-8.70999999568
-5.62
-8.72
0.0
0.0
0.0
0.0
-5.75
-6.22
0.0
-8.72999999698
-8.217
0.0
0.0
0.0
0.0
-5.43
-8.48235199
-8.499646393
-6.03
-8.69
-5.9
-6.06
0.0
0.0
0.0
0.0
0.0
-8.66
-8.68
-6.23
-6.23
0.0
0.0
-5.84
-8.5117524751
0.0
-6.18
-5.78
0.0
-7.57
0.0
-6.01
0.0
0.0
-8.72
-8.75
-8.8
0.0
0.0
0.0
0.0
-6.13
0.0
-8.75
-6.03
-6.11
0.0
0.0
0.0
0.0
0.0
-5.87
-8.79
-8.74
-6.23
0.0
0.0
0.0
0.0
0.0
0.0
0.0
0.0
0.0
0.0
0.0
0.0
0.0
0.0
0.0
0.0
-5.71
0.0
0.0
0.0
0.0
0.0
0.0
0.0
0.0
0.0
0.0
0.0
0.0
0.0
0.0
0.0
0.0
0.0
0.0
0.0
0.0
0.0
0.0
0.0
0.0
0.0
0.0
0.0
-5.5
0.0
0.0
-5.85
0.0
0.0
0.0
0.0
0.0
0.0
-6.09
0.0
-8.76
0.0
-5.8
0.0
0.0
0.0
0.0
0.0
0.0
-6.25
0.0
-8.74
-8.8
-8.75
0.0
0.0
0.0
-8.77
-6.06
0.0
0.0
-8.72
-8.73
-8.3199
0.0
0.0
0.0
-6.23
-6.17
-6.11
-6.09
-8.73321776927
-6.25
0.0
0.0
0.0
0.0
-6.24
-6.13
-8.67999734827
-8.76
-8.79
-7.85
0.0
0.0
-6.09
-5.69
-6.13
-6.23
-8.72999999896
-8.76
0.0
-6.22
0.0
-6.18
-8.7
-8.68999999927
-5.73
-8.77
0.0
0.0
0.0
0.0
-6.22
-8.72
0.0
0.0
0.0
0.0
0.0
0.0
-5.79
-6.2
0.0
-8.71
-8.79
0.0
0.0
0.0
0.0
-5.71
0.0
-8.79
-8.72
0.0
0.0
0.0
0.0
0.0
0.0
0.0
0.0
0.0
0.0
0.0
0.0
0.0
0.0
0.0
0.0
0.0
0.0
0.0
0.0
0.0
0.0
0.0
0.0
0.0
0.0
0.0
0.0
0.0
0.0
0.0
0.0
0.0
0.0
0.0
0.0
0.0
0.0
0.0
-5.88
0.0
0.0
0.0
0.0
0.0
-6.1
-6.2
-8.72
-6.27
-6.14
-6.05
0.0
0.0
0.0
0.0
-6.12
-6.1
0.0
-8.67
-5.81
-6.17
-8.8
0.0
0.0
0.0
0.0
0.0
-6.15
-6.25
-6.19
-6.1
-6.25
-6.26
0.0
0.0
0.0
0.0
-6.22
0.0
-6.02
-6.24
-8.74999999949
-5.76
-6.18
-8.78
-6.26
-6.24
0.0
-8.68
-5.59
-8.76
0.0
0.0
0.0
-6.15
0.0
0.0
-8.72
-8.78
-6.25
-5.97
0.0
0.0
0.0
0.0
-6.11
-8.73
-6.23
-6.21
-8.79
-6.18
0.0
0.0
-6.26
0.0
-6.22
-6.21
0.0
-8.8
0.0
0.0
0.0
0.0
-5.25
0.0
-8.77
-8.78
-6.16
0.0
0.0
0.0
0.0
-8.79
-6.09
0.0
0.0
0.0
0.0
0.0
0.0
0.0
0.0
0.0
0.0
0.0
0.0
0.0
0.0
0.0
0.0
0.0
0.0
0.0
0.0
0.0
0.0
0.0
0.0
0.0
0.0
0.0
0.0
0.0
0.0
0.0
0.0
0.0
0.0
0.0
0.0
0.0
-6.06
-8.81
0.0
0.0
0.0
0.0
0.0
0.0
0.0
0.0
-5.94
-6.16
-8.82
0.0
0.0
0.0
0.0
0.0
-6.15
-6.24
-6.08
0.0
0.0
-8.81
0.0
0.0
0.0
0.0
0.0
0.0
0.0
-6.23
-5.7
-6.23
-6.18
-6.17
0.0
-6.06
-8.7
0.0
-5.99
-6.15
-6.35
-5.23
0.0
0.0
0.0
-8.82
-6.24
0.0
-6.24
0.0
-8.80999999964
0.0
0.0
0.0
-5.24
-5.73
-5.6
0.0
0.0
-6.05
-8.78
0.0
0.0
0.0
-6.24
0.0
-8.8
0.0
-6.17
-6.13
0.0
-5.67
0.0
0.0
0.0
0.0
0.0
-5.93
-8.77
0.0
-6.28
-6.18
0.0
0.0
0.0
0.0
-6.16
-8.72
-5.2
-8.77
0.0
0.0
0.0
0.0
0.0
0.0
0.0
-6.22
0.0
0.0
0.0
0.0
0.0
0.0
0.0
0.0
0.0
0.0
0.0
0.0
0.0
0.0
0.0
0.0
0.0
0.0
0.0
0.0
0.0
0.0
0.0
0.0
0.0
0.0
0.0
0.0
0.0
0.0
0.0
0.0
0.0
0.0
0.0
0.0
-6.04
-6.09
-6.12
0.0
-6.07
0.0
0.0
0.0
0.0
-6.12
0.0
0.0
-6.21
0.0
0.0
0.0
0.0
0.0
-6.24
-8.73
0.0
0.0
0.0
-5.21
-5.96
0.0
-6.06
0.0
-8.8
0.0
-6.29
-8.79
-5.8
0.0
0.0
0.0
0.0
0.0
0.0
-8.76
-8.81
-5.97
-5.76
-5.73
0.0
0.0
-6.08
0.0
-6.13
-6.21
-8.79
-8.76
-8.81
-6.27
0.0
0.0
0.0
0.0
0.0
0.0
-6.3
-6.15
0.0
0.0
0.0
0.0
-6.12
0.0
-6.23
0.0
0.0
-6.06
0.0
0.0
0.0
0.0
0.0
-6.21
0.0
-6.1
0.0
0.0
0.0
0.0
0.0
0.0
0.0
0.0
0.0
0.0
-6.03
0.0
0.0
0.0
0.0
0.0
0.0
0.0
0.0
0.0
0.0
0.0
0.0
0.0
0.0
0.0
0.0
0.0
0.0
0.0
0.0
-6.16
0.0
0.0
0.0
0.0
0.0
0.0
0.0
0.0
0.0
0.0
0.0
0.0
0.0
0.0
-6.23
0.0
-5.29
0.0
0.0
0.0
0.0
-6.2
0.0
-6.12
-8.81
-8.8
0.0
-6.08
0.0
0.0
-6.14
0.0
-6.14
-6.18
0.0
0.0
-6.12
-6.14
-6.13
-6.07
0.0
-5.72
0.0
0.0
0.0
0.0
-6.08
-6.17
-6.11
0.0
-8.82
-6.16
0.0
0.0
-6.04
0.0
0.0
-8.82
-6.12
-6.21
-8.8
0.0
0.0
0.0
0.0
-6.2
0.0
-8.82
0.0
-6.22
0.0
0.0
0.0
0.0
0.0
0.0
-6.27
0.0
0.0
0.0
-6.05
0.0
0.0
0.0
0.0
0.0
0.0
0.0
0.0
0.0
0.0
0.0
0.0
0.0
0.0
0.0
0.0
0.0
0.0
0.0
0.0
0.0
-6.05
0.0
0.0
0.0
-6.06
-6.09
0.0
-6.07
-6.14
-6.14
0.0
-8.83
0.0
0.0
-6.1
-6.1
0.0
-8.81
0.0
0.0
-6.07
0.0
-6.15
0.0
0.0
0.0
0.0
0.0
-8.65
-8.7
-8.68
0.0
-8.83193
0.0
0.0
0.0
0.0
-8.66
0.0
0.0
0.0
0.0
-8.74
0.0
0.0
-8.64
