0.0
0.0
0.0
0.0
0.0
0.0
0.0
0.0
0.0
0.0
0.0
-2.0
-2.0
-2.11
0.0
0.0
0.0
0.0
0.0
0.0
0.0
0.0
0.0
0.0
0.0
0.0
-2.09
0.0
0.0
0.0
0.0
0.0
0.0
-2.1
0.0
0.0
0.0
0.0
0.0
0.0
0.0
0.0
0.0
0.0
0.0
0.0
0.0
0.0
0.0
0.0
0.0
0.0
0.0
0.0
0.0
0.0
0.0
0.0
0.0
0.0
0.0
0.0
0.0
0.0
0.0
0.0
0.0
0.0
0.0
0.0
-2.07
0.0
0.0
0.0
0.0
0.0
-2.06
0.0
-2.08
-2.12
-9.03
0.0
0.0
0.0
0.0
0.0
-2.02
0.0
-9.05
0.0
0.0
-2.04
0.0
-9.02
0.0
0.0
-9.03
0.0
0.0
0.0
0.0
0.0
-9.0
0.0
-9.01
0.0
0.0
0.0
0.0
0.0
0.0
0.0
-2.12
-2.17
-2.02
0.0
0.0
0.0
0.0
0.0
-9.04
-9.04
-9.03
0.0
0.0
0.0
0.0
0.0
0.0
-2.06
-2.05
-9.01
0.0
0.0
0.0
0.0
0.0
0.0
0.0
0.0
0.0
0.0
0.0
0.0
0.0
0.0
0.0
0.0
0.0
0.0
0.0
0.0
0.0
0.0
0.0
0.0
0.0
0.0
0.0
0.0
0.0
0.0
0.0
0.0
0.0
0.0
0.0
-2.09
0.0
0.0
0.0
0.0
0.0
0.0
0.0
0.0
0.0
0.0
-9.05
0.0
0.0
0.0
0.0
0.0
0.0
0.0
-9.02
-2.08
-2.17
0.0
0.0
-2.08
-2.09
-9.03
0.0
-9.05
0.0
0.0
-2.18
0.0
0.0
0.0
-2.04
0.0
-2.17
0.0
-2.11
-2.11
0.0
0.0
-2.02
0.0
0.0
0.0
0.0
0.0
-2.16
0.0
0.0
0.0
0.0
0.0
0.0
-2.13
-9.01
-2.15
-2.05
-9.02
0.0
0.0
0.0
-2.07
0.0
-2.17
-2.13
0.0
0.0
0.0
0.0
0.0
0.0
0.0
-2.08
0.0
0.0
-9.02
0.0
0.0
0.0
0.0
0.0
0.0
-2.01
-9.01
0.0
0.0
0.0
0.0
0.0
0.0
0.0
0.0
0.0
0.0
0.0
0.0
0.0
0.0
0.0
0.0
0.0
0.0
0.0
0.0
0.0
0.0
0.0
0.0
0.0
0.0
0.0
0.0
0.0
0.0
0.0
0.0
0.0
-2.11
0.0
0.0
0.0
0.0
0.0
0.0
0.0
-9.02
0.0
-9.03
-9.02
0.0
0.0
0.0
0.0
-2.1
-9.03
0.0
-9.03
-9.02
0.0
-9.02
0.0
0.0
0.0
-2.08
0.0
-2.16
0.0
-2.16
-9.03999999999
-2.18
-9.01
0.0
-2.1
0.0
-2.13
-9.03
-9.0
-2.11
-8.99995400135
-2.11
0.0
0.0
0.0
-9.02
-2.14
-2.19
-9.01999999999
-2.17
0.0
0.0
0.0
0.0
0.0
0.0
-2.17
0.0
-2.17
-2.13
-2.17
0.0
0.0
0.0
0.0
0.0
-2.04
-2.03
-9.01
-9.02
-2.19
0.0
0.0
0.0
0.0
0.0
0.0
-2.14
-8.99
-2.17
0.0
0.0
0.0
0.0
0.0
0.0
-2.03
-2.08
-2.13
-2.14
0.0
0.0
0.0
0.0
-2.07
0.0
0.0
0.0
0.0
0.0
0.0
0.0
0.0
0.0
0.0
0.0
0.0
0.0
0.0
0.0
0.0
0.0
0.0
0.0
0.0
0.0
0.0
0.0
0.0
0.0
0.0
0.0
0.0
0.0
0.0
0.0
0.0
0.0
-2.06
0.0
0.0
0.0
0.0
0.0
0.0
0.0
0.0
0.0
-2.11
-2.08
-9.03
0.0
0.0
0.0
0.0
-2.05
0.0
-2.11
0.0
-3.1
-9.03
0.0
0.0
0.0
0.0
0.0
-9.0
0.0
-2.19
-9.02
-2.01
0.0
-2.09
0.0
0.0
-1.98
-2.1
-8.99
-2.03
-9.03
-9.01996780094
-9.03
-9.01
0.0
-2.14
-9.0
-9.04999998741
-2.09
0.0
-2.17
-9.04
0.0
0.0
0.0
-2.1
-2.15
0.0
-2.23
-2.15
0.0
-9.02
0.0
0.0
0.0
-2.06
-8.94
-9.02
-2.12
-2.17
-2.18
0.0
0.0
0.0
-2.09
-2.17
-8.99
0.0
-2.04
-2.13
0.0
0.0
0.0
-2.14
0.0
-9.03
0.0
-2.11
0.0
0.0
0.0
0.0
0.0
-2.01
-9.03
-2.1
0.0
0.0
0.0
0.0
0.0
0.0
0.0
-2.09
0.0
0.0
0.0
0.0
0.0
0.0
0.0
0.0
0.0
0.0
0.0
0.0
0.0
0.0
0.0
0.0
0.0
0.0
0.0
0.0
0.0
0.0
0.0
0.0
0.0
0.0
0.0
0.0
-9.03
-2.02
0.0
0.0
0.0
0.0
0.0
-2.13
-9.02
-2.15
0.0
-2.1
0.0
0.0
0.0
0.0
0.0
0.0
-9.01
-2.15
-9.03
0.0
-2.14
-9.03
0.0
0.0
0.0
0.0
-2.16
-9.04
0.0
-8.37
-2.07
0.0
0.0
0.0
0.0
0.0
-2.07
-2.12
0.0
0.0
-2.08
0.0
0.0
0.0
0.0
-2.1
-9.0
0.0
-2.12
-8.98
-9.04
0.0
-2.12
-2.15
-9.03
-2.15
-8.477
-8.95998422246
0.0
0.0
-2.05
0.0
-2.0
0.0
-9.0
-9.02
-9.00999999119
0.0
0.0
-2.02
-2.18
0.0
-2.05
-2.2
-9.00999999383
0.0
0.0
0.0
0.0
0.0
-8.94
-2.1
-2.08
0.0
0.0
0.0
0.0
0.0
0.0
-2.1
-9.0
0.0
0.0
0.0
0.0
0.0
0.0
0.0
0.0
0.0
0.0
0.0
0.0
0.0
0.0
0.0
0.0
0.0
0.0
0.0
0.0
0.0
0.0
0.0
0.0
0.0
0.0
0.0
0.0
0.0
0.0
0.0
0.0
0.0
0.0
0.0
0.0
0.0
-2.08
0.0
0.0
0.0
0.0
0.0
0.0
0.0
0.0
-8.692351
0.0
0.0
0.0
0.0
0.0
-2.02
0.0
-9.03
-2.09
-9.00999999568
-2.01
-8.96
0.0
0.0
0.0
0.0
-1.96
-2.17
0.0
-9.02999999698
-8.67193
0.0
0.0
0.0
0.0
0.0
-8.7276457
-8.77235199
-2.16
-8.98999999852
-2.06
-2.17
0.0
0.0
0.0
0.0
0.0
-8.98
-8.93998895572
-2.14
-2.13
0.0
0.0
-2.14
-8.779646393
0.0
-2.1
-2.09
0.0
-7.88
0.0
-2.13
0.0
0.0
-8.95999226901
-9.02
-8.98999999896
0.0
0.0
0.0
0.0
-2.07
0.0
-8.96999999927
-2.13
0.0
0.0
0.0
0.0
0.0
0.0
-2.03
-8.97
-9.02
-2.13
0.0
0.0
0.0
0.0
0.0
0.0
0.0
0.0
0.0
0.0
0.0
0.0
0.0
0.0
0.0
0.0
-2.05
0.0
0.0
0.0
0.0
0.0
0.0
0.0
0.0
0.0
0.0
0.0
0.0
0.0
0.0
0.0
0.0
0.0
0.0
0.0
0.0
0.0
0.0
0.0
0.0
0.0
0.0
0.0
0.0
0.0
0.0
-2.12
0.0
0.0
0.0
0.0
0.0
0.0
0.0
0.0
-8.98
0.0
-2.13
0.0
0.0
0.0
0.0
0.0
0.0
-2.19
0.0
-8.9599945883
-8.99999621181
-8.97
0.0
0.0
0.0
-8.95
-2.14
0.0
0.0
-2.16
-9.02
-8.6399
0.0
0.0
0.0
-2.16
-2.05
-2.17
-2.09
-9.00999999949
-2.22
0.0
0.0
0.0
0.0
-2.19
-2.01
-8.92999999964
-8.95999734827
-8.99999814379
-8.13
0.0
0.0
-2.15
0.0
-2.07
-2.19
-8.98999999975
-8.99999870065
0.0
-2.11
0.0
-2.16
-9.01
-8.98
0.0
-8.99999909046
0.0
0.0
0.0
0.0
-2.18
-9.01
0.0
0.0
0.0
0.0
0.0
0.0
-2.03
-2.19
0.0
-8.93
-8.97
0.0
0.0
0.0
0.0
-2.07
0.0
-8.96
-8.94
0.0
0.0
0.0
0.0
0.0
0.0
0.0
0.0
0.0
0.0
0.0
0.0
0.0
0.0
0.0
0.0
0.0
0.0
0.0
0.0
0.0
0.0
0.0
0.0
0.0
0.0
0.0
0.0
0.0
0.0
0.0
0.0
0.0
0.0
0.0
0.0
0.0
0.0
0.0
-2.07
0.0
0.0
0.0
0.0
0.0
0.0
-2.06
-8.94
-2.21
0.0
-2.21
0.0
0.0
0.0
0.0
0.0
0.0
0.0
-8.93667670694
-2.08
0.0
-8.97999936332
0.0
0.0
0.0
0.0
0.0
0.0
-2.19
-2.16
-2.16
-2.16
-2.21
0.0
0.0
0.0
0.0
-2.17
0.0
-2.17
-2.18
-8.9617524751
0.0
-2.1
-8.96
-2.19
-2.13
0.0
-8.95022673257
0.0
-8.9696090179
0.0
0.0
0.0
0.0
0.0
0.0
-8.95767369486
-8.99999955432
-2.2
-2.11
0.0
0.0
0.0
0.0
-2.14
-8.96972631253
-2.18
-2.08
-8.96999999983
0.0
0.0
0.0
-2.18
0.0
-2.19
-2.11
0.0
-8.97999968803
0.0
0.0
0.0
0.0
0.0
0.0
-8.97
-8.98
0.0
0.0
0.0
0.0
0.0
-8.96999999988
0.0
0.0
0.0
0.0
0.0
0.0
0.0
0.0
0.0
0.0
0.0
0.0
0.0
0.0
0.0
0.0
0.0
0.0
0.0
0.0
0.0
0.0
0.0
0.0
0.0
0.0
0.0
0.0
0.0
0.0
0.0
0.0
0.0
0.0
0.0
0.0
0.0
0.0
0.0
-9.00999999991
0.0
0.0
0.0
0.0
0.0
0.0
0.0
0.0
-2.12
0.0
-9.0
0.0
0.0
0.0
0.0
0.0
0.0
-2.18
0.0
0.0
0.0
-9.0183715864
0.0
0.0
0.0
0.0
0.0
0.0
0.0
-2.2
0.0
-2.13
0.0
0.0
0.0
-2.13
-8.94980841877
0.0
-2.08
0.0
-8.88
0.0
0.0
0.0
0.0
-9.0
-2.14
0.0
-2.08
0.0
-8.9961587128
0.0
0.0
0.0
0.0
-2.01
0.0
0.0
0.0
-2.07
-8.99999978162
0.0
0.0
0.0
-2.04
0.0
-8.99
0.0
0.0
0.0
0.0
0.0
0.0
0.0
0.0
0.0
0.0
-2.04
-8.98986589314
0.0
-2.21
0.0
0.0
0.0
0.0
0.0
0.0
-8.95999984713
0.0
-8.98
0.0
0.0
0.0
0.0
0.0
0.0
0.0
0.0
0.0
0.0
0.0
0.0
0.0
0.0
0.0
0.0
0.0
0.0
0.0
0.0
0.0
0.0
0.0
0.0
0.0
0.0
0.0
0.0
0.0
0.0
0.0
0.0
0.0
0.0
0.0
0.0
0.0
0.0
0.0
0.0
0.0
0.0
0.0
0.0
0.0
0.0
0.0
0.0
0.0
0.0
0.0
0.0
0.0
0.0
0.0
0.0
-2.06
0.0
0.0
0.0
0.0
0.0
0.0
-8.97886011048
0.0
0.0
0.0
0.0
-2.08
0.0
0.0
0.0
-8.98
0.0
-2.22
-8.97999989299
-2.16
0.0
0.0
0.0
0.0
0.0
0.0
-8.96999999994
-9.0399999251
-2.03
-2.02
-2.13
0.0
0.0
0.0
0.0
0.0
-2.09
-8.99999994757
-8.98031109896
-9.0099061252
-2.19
0.0
0.0
0.0
0.0
0.0
0.0
-3.19
0.0
0.0
0.0
0.0
0.0
0.0
0.0
-2.07
0.0
0.0
0.0
0.0
0.0
0.0
0.0
0.0
0.0
0.0
0.0
0.0
0.0
0.0
0.0
0.0
0.0
0.0
0.0
0.0
0.0
0.0
0.0
0.0
0.0
0.0
0.0
0.0
0.0
0.0
0.0
0.0
0.0
0.0
0.0
0.0
0.0
0.0
0.0
0.0
0.0
0.0
0.0
0.0
0.0
0.0
0.0
0.0
0.0
0.0
0.0
0.0
0.0
0.0
0.0
0.0
0.0
0.0
0.0
0.0
0.0
0.0
0.0
0.0
0.0
0.0
0.0
-8.9999999633
-8.99999997431
0.0
0.0
0.0
0.0
0.0
0.0
0.0
0.0
0.0
0.0
0.0
0.0
0.0
0.0
0.0
0.0
0.0
0.0
0.0
0.0
0.0
0.0
0.0
0.0
-9.00993428764
0.0
0.0
0.0
0.0
0.0
0.0
-9.00999999996
0.0
0.0
-8.98999999997
0.0
0.0
0.0
0.0
0.0
0.0
-9.00999999998
0.0
0.0
0.0
0.0
0.0
0.0
0.0
0.0
-2.2
0.0
0.0
0.0
0.0
0.0
0.0
0.0
0.0
0.0
0.0
0.0
0.0
0.0
0.0
0.0
0.0
0.0
0.0
0.0
0.0
0.0
0.0
0.0
0.0
0.0
0.0
0.0
0.0
0.0
0.0
0.0
0.0
0.0
0.0
0.0
0.0
-9.01999998202
0.0
0.0
0.0
0.0
0.0
-9.02999999999
0.0
0.0
0.0
0.0
0.0
0.0
0.0
0.0
0.0
0.0
0.0
0.0
0.0
0.0
-5.87
0.0
0.0
0.0
0.0
0.0
0.0
0.0
0.0
0.0
0.0
0.0
0.0
0.0
