0.0
0.0
0.0
0.0
0.0
0.0
0.0
0.0
0.0
0.0
0.0
0.0
0.0
0.0
0.0
0.0
0.0
0.0
0.0
0.0
0.0
0.0
0.0
0.0
0.0
0.0
0.0
0.0
0.0
0.0
0.0
0.0
0.0
-3.78
0.0
0.0
0.0
0.0
0.0
0.0
0.0
0.0
0.0
0.0
0.0
0.0
0.0
0.0
0.0
0.0
0.0
0.0
0.0
0.0
0.0
0.0
0.0
0.0
0.0
0.0
0.0
0.0
0.0
0.0
0.0
0.0
0.0
0.0
0.0
0.0
0.0
0.0
0.0
0.0
0.0
0.0
0.0
0.0
0.0
-3.91
-7.15
0.0
0.0
0.0
0.0
0.0
0.0
0.0
-7.19
0.0
0.0
0.0
0.0
-7.14
0.0
0.0
-7.16
0.0
0.0
0.0
0.0
0.0
-7.12
0.0
-7.1
0.0
0.0
0.0
0.0
0.0
0.0
0.0
-5.56
-5.58
0.0
0.0
0.0
0.0
0.0
0.0
-7.21
-7.18
-7.15
0.0
0.0
0.0
0.0
0.0
0.0
0.0
-5.56
-7.16
0.0
0.0
0.0
0.0
0.0
0.0
0.0
0.0
0.0
0.0
0.0
0.0
0.0
0.0
0.0
0.0
0.0
0.0
0.0
0.0
0.0
0.0
0.0
0.0
0.0
0.0
0.0
0.0
0.0
0.0
0.0
0.0
0.0
0.0
0.0
0.0
0.0
0.0
0.0
0.0
0.0
0.0
0.0
0.0
-5.52
0.0
-7.16
0.0
0.0
0.0
0.0
0.0
0.0
0.0
-7.12
0.0
-5.6
0.0
0.0
-3.8
-3.75
-7.16
-5.45
-7.18
0.0
0.0
-5.49
0.0
0.0
0.0
0.0
0.0
-5.49
0.0
-3.92
-5.57
0.0
0.0
0.0
0.0
0.0
0.0
0.0
0.0
-5.5
0.0
0.0
0.0
0.0
0.0
0.0
-5.58
-7.16
-5.58
-5.52
-7.16999999988
0.0
0.0
0.0
0.0
0.0
-5.61
0.0
0.0
0.0
0.0
0.0
0.0
0.0
0.0
-3.84
0.0
0.0
-7.18
0.0
0.0
0.0
0.0
0.0
0.0
0.0
-7.17
0.0
0.0
0.0
0.0
0.0
0.0
0.0
0.0
0.0
0.0
0.0
0.0
0.0
0.0
0.0
0.0
0.0
0.0
0.0
0.0
0.0
0.0
0.0
0.0
0.0
0.0
0.0
0.0
0.0
0.0
0.0
0.0
0.0
0.0
0.0
0.0
0.0
0.0
0.0
0.0
0.0
-7.09
0.0
-7.12
-7.15
0.0
0.0
0.0
0.0
-3.88
-7.12
0.0
-7.12
-7.16999999991
-5.43
-7.16999999994
0.0
0.0
0.0
-3.74
0.0
-5.61
0.0
-5.57
-7.10999999996
-5.6
-7.12999999997
0.0
-3.79
0.0
-5.6
-7.15
-7.1
-5.58
-7.10999999788
-3.76
0.0
0.0
0.0
-7.15
-5.59
-5.53
-7.11999999852
-5.59
0.0
0.0
0.0
0.0
0.0
0.0
-5.57
0.0
-5.6
-5.48
-5.59
0.0
0.0
0.0
0.0
0.0
-5.51
-5.49
-7.12999999998
-7.1
-7.1
0.0
0.0
0.0
0.0
0.0
0.0
-5.44
-7.15
-5.62
0.0
0.0
0.0
0.0
0.0
0.0
0.0
-3.74
-5.51
-5.59
0.0
0.0
0.0
0.0
-5.56
0.0
0.0
0.0
0.0
0.0
0.0
0.0
0.0
0.0
0.0
0.0
0.0
0.0
0.0
0.0
0.0
0.0
0.0
0.0
0.0
0.0
0.0
0.0
0.0
0.0
0.0
0.0
0.0
0.0
0.0
0.0
0.0
0.0
0.0
0.0
0.0
0.0
0.0
0.0
0.0
0.0
0.0
0.0
-5.45
-5.55
-7.19
0.0
0.0
0.0
0.0
0.0
0.0
-5.5
0.0
-7.1
-7.15
0.0
0.0
0.0
0.0
0.0
-7.13
0.0
-5.54
-7.16999999999
0.0
0.0
-3.86
0.0
0.0
0.0
-5.44
-7.09
-5.52
-7.12999999999
-7.11999999896
-7.08999999999
-7.17
0.0
-5.52
-7.13
-7.15
-3.85
0.0
-5.62
-7.17
0.0
0.0
0.0
-3.83
-5.48
0.0
-5.59
-5.56
0.0
-7.17
0.0
0.0
0.0
-5.52
-7.03
-7.15
-5.47
-5.53
-5.61
-3.82
0.0
0.0
-5.45
-5.61
-7.1
0.0
-5.51
-5.44
0.0
0.0
0.0
-5.48
0.0
-7.16
0.0
-5.58
0.0
0.0
0.0
0.0
0.0
-5.55
-7.14
-5.43
-5.48
0.0
0.0
0.0
0.0
0.0
0.0
-5.43
0.0
0.0
0.0
0.0
0.0
0.0
0.0
0.0
0.0
0.0
0.0
0.0
0.0
0.0
0.0
0.0
0.0
0.0
0.0
0.0
0.0
0.0
0.0
0.0
0.0
0.0
-5.51
0.0
-7.15
-5.52
0.0
0.0
0.0
0.0
0.0
-5.58
-7.14
-5.62
0.0
0.0
-5.51
0.0
0.0
0.0
0.0
0.0
-7.14
-5.54
-7.15
0.0
-5.52
-7.15
0.0
0.0
0.0
0.0
-5.55
-7.14
0.0
-8.34
-3.83
-5.58
0.0
0.0
0.0
0.0
-5.48
-5.45
-3.81
0.0
-5.55
0.0
0.0
0.0
0.0
-3.76
-7.09
0.0
-5.47
-7.1
-7.15
0.0
-5.43
-5.52
-7.13
-5.52
-8.447
-6.99999999927
0.0
0.0
-5.49
0.0
0.0
0.0
-7.07
-7.13
-9.16031109896
0.0
0.0
0.0
-5.53
0.0
0.0
-5.64
-9.16321776927
0.0
0.0
0.0
0.0
-5.49
-7.02
-5.41
-3.82
0.0
0.0
0.0
0.0
0.0
-5.5
-3.96
-7.13
0.0
0.0
0.0
0.0
0.0
0.0
0.0
0.0
0.0
0.0
0.0
0.0
0.0
0.0
0.0
0.0
0.0
0.0
0.0
0.0
0.0
0.0
0.0
0.0
0.0
0.0
0.0
0.0
-3.86
0.0
0.0
0.0
0.0
0.0
0.0
0.0
0.0
-5.55
0.0
0.0
0.0
0.0
0.0
0.0
0.0
0.0
-8.692351
0.0
0.0
0.0
0.0
0.0
-5.52
0.0
-7.12
-5.53
-7.1
-5.5
-7.0
0.0
0.0
0.0
0.0
-5.56
-5.51
0.0
-9.15667670694
-8.65193
0.0
0.0
0.0
0.0
-5.46
-8.7476457
-8.77235199
-5.57
-9.11767369486
-5.57
-5.62
0.0
0.0
0.0
0.0
0.0
-9.04886011048
-6.98
-5.51
-5.5
0.0
0.0
-5.56
-8.789646393
0.0
-5.44
-5.58
0.0
-7.84
0.0
-5.57
0.0
0.0
-7.01
-9.1983715864
-7.1
0.0
0.0
0.0
0.0
-3.92
0.0
-7.05
-5.57
-3.85
0.0
0.0
0.0
0.0
0.0
-5.55
-7.08
-9.14920207734
-5.44
0.0
0.0
0.0
0.0
0.0
0.0
-5.49
0.0
0.0
0.0
0.0
0.0
0.0
0.0
0.0
0.0
-5.52
0.0
0.0
0.0
0.0
0.0
0.0
0.0
0.0
0.0
0.0
0.0
0.0
0.0
0.0
0.0
0.0
0.0
0.0
0.0
0.0
0.0
0.0
0.0
0.0
0.0
0.0
0.0
-5.48
0.0
0.0
-5.59
0.0
0.0
0.0
0.0
0.0
0.0
-3.93
0.0
-7.05
-3.81
-5.56
0.0
0.0
0.0
0.0
0.0
0.0
-5.54
0.0
-7.0
-7.08
-7.05
0.0
0.0
0.0
-7.03
-5.59
0.0
0.0
-5.56
-9.12944145414
-8.6099
0.0
0.0
0.0
-5.51
-3.95
-5.59
-5.58
-7.11
-5.55
0.0
0.0
0.0
0.0
-5.55
-5.5
-9.04022673257
-7.0
-7.05
-8.1
0.0
0.0
-5.57
-5.56
-3.9
-5.64
-9.1361587128
-7.03
0.0
-5.48
0.0
-5.61
-7.09
-9.12525243849
-5.53
-7.02
0.0
0.0
0.0
0.0
-5.49
-9.0996090179
0.0
0.0
0.0
0.0
0.0
0.0
-5.52
-5.61
0.0
-6.96
-7.1
0.0
0.0
0.0
0.0
-5.52
0.0
-7.07
-6.99
0.0
0.0
0.0
0.0
0.0
0.0
0.0
0.0
0.0
0.0
0.0
0.0
0.0
0.0
0.0
0.0
0.0
0.0
0.0
0.0
0.0
0.0
0.0
0.0
0.0
0.0
0.0
0.0
0.0
-3.9
0.0
0.0
0.0
0.0
0.0
0.0
0.0
0.0
0.0
-5.54
0.0
0.0
0.0
0.0
0.0
-3.94
-5.44
-6.99
-5.54
-3.94
-5.63
0.0
0.0
0.0
0.0
-3.94
0.0
0.0
-6.99
-5.59
-3.96
-7.09
0.0
0.0
0.0
0.0
0.0
-3.94
-5.51
-5.61
-5.57
-5.53
-5.52
0.0
0.0
0.0
0.0
-5.5
0.0
-5.59
-5.54
-7.03999999949
-5.52
-5.46
-7.04
-5.55
-5.52
0.0
-6.99999999964
-5.4
-7.03999999975
0.0
0.0
0.0
-3.92
0.0
0.0
-7.01
-7.04
-5.5
-5.54
0.0
0.0
0.0
0.0
-5.57
-7.02
-5.63
-5.46
-7.06
-3.9
0.0
0.0
-5.55
0.0
-5.63
-5.52
0.0
-7.05
0.0
0.0
0.0
0.0
-5.45
0.0
-7.05
-7.04
-3.94
0.0
0.0
0.0
0.0
-7.05
0.0
0.0
0.0
0.0
0.0
0.0
0.0
0.0
0.0
0.0
0.0
0.0
0.0
0.0
0.0
0.0
0.0
0.0
0.0
0.0
0.0
0.0
0.0
0.0
0.0
0.0
0.0
0.0
0.0
0.0
0.0
0.0
0.0
0.0
0.0
0.0
0.0
0.0
-3.93
-7.09
0.0
0.0
0.0
0.0
0.0
0.0
0.0
0.0
-5.56
-3.98
-7.09
0.0
0.0
0.0
0.0
0.0
-3.98
-5.51
-3.8
0.0
0.0
-7.09
-3.83
0.0
0.0
0.0
0.0
0.0
0.0
-5.56
-5.56
-5.53
-3.98
-3.96
0.0
-5.58
-6.98
0.0
-5.58
-3.86
-5.53
-5.54
0.0
0.0
0.0
-7.09
-5.53
0.0
-5.45
0.0
-7.05999999983
0.0
0.0
0.0
-5.5
-5.48
-5.51
0.0
0.0
-5.55
-7.07
0.0
0.0
0.0
-3.98
0.0
-7.08
0.0
-4.0
-3.89
0.0
-5.5
0.0
0.0
0.0
0.0
-5.5
-5.5
-7.08
0.0
-5.53
-3.85
0.0
0.0
0.0
0.0
-3.92
-7.0
-5.47
-7.08
0.0
0.0
0.0
0.0
0.0
0.0
0.0
-3.96
0.0
0.0
0.0
0.0
0.0
0.0
0.0
0.0
0.0
0.0
0.0
0.0
0.0
0.0
0.0
0.0
0.0
0.0
0.0
0.0
0.0
0.0
0.0
0.0
0.0
0.0
0.0
0.0
0.0
0.0
0.0
0.0
0.0
0.0
0.0
0.0
-3.77
-3.93
-3.93
0.0
-3.8
0.0
0.0
0.0
0.0
0.0
0.0
0.0
-4.03
0.0
0.0
0.0
0.0
0.0
-3.98
-7.0
0.0
0.0
0.0
-5.43
-5.55
0.0
-3.77
0.0
-7.07
0.0
-5.53
-7.05
-5.59
-3.92
0.0
0.0
0.0
0.0
0.0
-7.05
-7.12
-5.52
-5.54
-5.59
0.0
0.0
0.0
0.0
-3.99
-3.98
-7.06
-7.01
-7.08
-4.02
0.0
0.0
0.0
0.0
0.0
0.0
-5.57
-3.95
0.0
0.0
0.0
0.0
0.0
0.0
-5.47
0.0
0.0
0.0
0.0
0.0
0.0
0.0
0.0
-3.96
-3.85
-3.87
0.0
0.0
0.0
0.0
0.0
0.0
0.0
0.0
0.0
0.0
0.0
0.0
0.0
0.0
0.0
0.0
0.0
0.0
0.0
0.0
0.0
0.0
0.0
0.0
0.0
0.0
0.0
0.0
0.0
0.0
0.0
-3.95
0.0
0.0
0.0
0.0
0.0
0.0
0.0
0.0
0.0
0.0
0.0
0.0
0.0
0.0
-3.99
0.0
-5.51
-5.47
0.0
0.0
0.0
-3.95
-3.89
-3.84
-7.06
-7.07
0.0
0.0
0.0
0.0
-3.84
0.0
-3.87
-3.87
0.0
0.0
-3.77
-3.87
-3.95
0.0
0.0
-5.52
0.0
0.0
0.0
0.0
-3.92
-3.94
-3.82
0.0
-7.09
-3.99
0.0
0.0
0.0
0.0
0.0
-7.11
-3.96
-3.98
-7.07
0.0
0.0
0.0
0.0
-3.95
0.0
-7.11
0.0
-3.99
0.0
0.0
0.0
0.0
0.0
0.0
-5.5
0.0
0.0
0.0
0.0
0.0
0.0
0.0
0.0
0.0
0.0
0.0
0.0
0.0
0.0
0.0
0.0
0.0
0.0
0.0
0.0
0.0
0.0
0.0
0.0
0.0
-3.78
0.0
0.0
0.0
0.0
-3.82
0.0
0.0
-3.89
-3.9
-3.89
-7.11
0.0
0.0
0.0
0.0
0.0
-7.11
0.0
0.0
-3.93
0.0
-3.96
0.0
0.0
0.0
0.0
0.0
0.0
-8.90996780094
-8.98993428764
0.0
-9.1717524751
0.0
0.0
0.0
0.0
0.0
0.0
0.0
0.0
0.0
-9.0599061252
0.0
0.0
-8.91995400135
