-6.66
0.0
0.0
-6.62
-6.7
-6.57
-6.66
0.0
0.0
0.0
-6.73
-6.81
-6.82
-6.88
-6.67
-6.76
-6.78
-6.68
0.0
-6.72
-6.75
0.0
0.0
0.0
0.0
-6.35
-6.88
0.0
0.0
-6.59
0.0
0.0
0.0
-6.87
-6.71
0.0
-6.48
0.0
-6.74
-6.48
0.0
0.0
0.0
0.0
0.0
0.0
0.0
-6.67
-6.64
0.0
0.0
0.0
0.0
0.0
0.0
0.0
0.0
0.0
0.0
0.0
-6.63
-6.76
0.0
0.0
0.0
0.0
0.0
-6.72
-6.59
0.0
-6.88
-6.61
0.0
0.0
0.0
-6.63
-6.87
-6.7
-6.85
-6.87
-9.03
0.0
0.0
0.0
0.0
0.0
-6.8
-6.55
-9.07
0.0
0.0
-6.87
0.0
-9.01
-6.77
0.0
-9.06
0.0
0.0
0.0
0.0
-6.76
-8.98
-6.79
-8.9499999251
0.0
0.0
0.0
0.0
-6.54
-6.7
0.0
-6.91
-6.94
-6.79
0.0
0.0
0.0
0.0
0.0
-9.07
-9.0399061252
-9.02
0.0
0.0
0.0
0.0
0.0
-6.68
-6.87
-6.89
-9.01993428764
-6.69
0.0
0.0
0.0
0.0
0.0
-6.73
0.0
0.0
0.0
0.0
0.0
0.0
0.0
0.0
0.0
0.0
0.0
0.0
0.0
0.0
0.0
0.0
0.0
0.0
0.0
-6.65
0.0
0.0
0.0
0.0
0.0
0.0
-6.67
0.0
-6.88
0.0
0.0
0.0
0.0
0.0
-6.66
-6.77
-6.74
-6.87
-6.73
-9.01995400135
0.0
0.0
0.0
0.0
0.0
0.0
0.0
-8.97996780094
-6.86
-6.88
0.0
0.0
-6.85
-6.85
-9.0
-6.84
-9.01
0.0
-6.77
-6.96
0.0
-6.67
0.0
-6.8
-6.36
-6.9
0.0
-6.86
-6.87
0.0
0.0
-6.81
0.0
0.0
-6.57
-6.6
-6.7
-6.96
-6.37
0.0
0.0
-6.71
0.0
-6.78
-6.87
-9.0
-6.86
-6.86
-9.00999994757
0.0
0.0
-6.75
-6.85
-6.67
-6.91
-6.91
0.0
0.0
0.0
0.0
0.0
0.0
0.0
-6.83
-6.7
-6.79
-9.03
0.0
0.0
-6.67
-6.72
0.0
0.0
-6.79
-9.04
0.0
0.0
-6.63
0.0
0.0
0.0
0.0
0.0
0.0
0.0
0.0
0.0
0.0
0.0
0.0
0.0
0.0
0.0
0.0
0.0
0.0
0.0
0.0
0.0
-6.72
0.0
0.0
0.0
0.0
0.0
0.0
-6.67
0.0
-6.9
0.0
0.0
0.0
0.0
0.0
-6.66
0.0
-8.96
0.0
-9.0
-9.03
0.0
0.0
0.0
-6.54
-6.85
-9.01997746066
-6.57
-8.99998422246
-9.0099999633
-6.85
-9.02999997431
0.0
0.0
0.0
-6.83
0.0
-6.89
-6.69
-6.94
-8.99321776927
-6.93
-9.01998895572
0.0
-6.85
0.0
-6.87
-9.02
-8.96999998202
-6.88
-8.9717524751
-6.89
0.0
0.0
0.0
-8.99
-6.89
-6.93
-8.99999226901
-6.88
-6.56
0.0
0.0
0.0
0.0
0.0
-6.94
-6.51
-6.91
-6.91
-6.91
0.0
0.0
0.0
-6.62
0.0
-6.83
-6.84
-9.00999998741
-8.96999999119
-6.96
-6.72
0.0
0.0
0.0
-6.43
-6.57
-6.9
-8.99
-6.91
0.0
-6.65
0.0
0.0
0.0
0.0
-6.77
-6.8
-6.88
-6.89
0.0
0.0
0.0
0.0
-6.86
0.0
0.0
0.0
0.0
0.0
0.0
0.0
0.0
0.0
0.0
0.0
0.0
0.0
0.0
0.0
0.0
0.0
0.0
0.0
0.0
0.0
0.0
0.0
0.0
0.0
0.0
0.0
0.0
0.0
0.0
0.0
0.0
0.0
-6.83
0.0
0.0
0.0
0.0
0.0
0.0
-6.45
0.0
0.0
-6.86
-6.9
-9.08999999383
0.0
0.0
0.0
0.0
-6.85
0.0
-6.87
-6.56
-8.98
-9.00999999568
-6.69
0.0
0.0
0.0
0.0
-9.0
-6.42
-6.95
-9.0599945883
-6.82
-6.64
-6.88
0.0
0.0
-6.77
-6.85
-8.98
-6.82
-8.99999621181
-8.9761587128
-8.98525243849
-9.01999734827
-6.79
-6.9
-8.99
-9.04667670694
-6.87
-6.45
-6.89
-9.03999814379
0.0
0.0
0.0
-6.85
-6.91
-6.7
-8.67
-6.88
-6.58
-9.04767369486
0.0
0.0
-6.55
-6.84
-8.9683715864
-8.97
-6.87
-6.96
-6.92
-6.74
0.0
-6.45
-6.86
-6.92
-8.96999999698
0.0
-6.82
-6.91
0.0
0.0
0.0
-6.92
-6.37
-9.03999870065
0.0
-6.87
0.0
0.0
0.0
0.0
0.0
-6.83
-9.01999909046
-6.86
-6.82
0.0
0.0
0.0
0.0
0.0
0.0
-6.85
0.0
0.0
0.0
0.0
0.0
0.0
0.0
0.0
0.0
0.0
0.0
0.0
0.0
0.0
0.0
0.0
0.0
0.0
0.0
0.0
0.0
0.0
0.0
0.0
0.0
0.0
-6.81
-6.68
-9.02
-6.85
0.0
0.0
0.0
0.0
0.0
-6.91
-9.0
-6.9
-6.75
-6.9
-6.85
0.0
0.0
0.0
0.0
0.0
-8.99
-6.93
-9.00999999788
0.0
-6.92
-9.02999999852
0.0
0.0
0.0
-6.48
-6.93
-9.00999999896
-6.52
-8.627
-6.79
-6.93
0.0
0.0
0.0
0.0
-6.81
-6.83
-6.69
-6.53
-6.87
0.0
0.0
-6.55
-6.54
-6.84
-8.98886011048
-6.62
-6.88
-9.06
-8.99999936332
0.0
-6.85
-6.88
-8.96
-6.82
-8.6899
-8.94031109896
-6.3
0.0
-6.83
0.0
-6.75
-6.61
-8.94920207734
-9.00944145414
-8.95
0.0
0.0
-6.77
-6.91
0.0
-6.76
-6.97
-8.97
0.0
0.0
0.0
0.0
-6.82
-8.9696090179
-6.84
-6.77
0.0
0.0
0.0
0.0
0.0
-6.81
-6.91
-9.0
0.0
0.0
0.0
0.0
0.0
0.0
0.0
0.0
0.0
0.0
0.0
0.0
0.0
0.0
0.0
0.0
0.0
0.0
0.0
0.0
0.0
0.0
0.0
0.0
0.0
0.0
0.0
0.0
-6.81
0.0
0.0
0.0
0.0
0.0
0.0
0.0
0.0
-6.86
0.0
0.0
0.0
0.0
0.0
0.0
0.0
0.0
-8.862351
0.0
-6.36
0.0
0.0
0.0
-6.85
0.0
-9.01999968803
-6.85
-8.97999978162
-6.84
-8.98
0.0
0.0
0.0
0.0
-6.86
-6.84
0.0
-9.01
-8.80193
0.0
0.0
0.0
0.0
-6.8
-8.8976457
-8.92235199
-6.85
-8.94
-6.86
-6.91
0.0
0.0
-6.57
-6.64
-6.64
-8.92
-8.96999999983
-6.9
-6.78
0.0
0.0
-6.89
-8.939646393
-6.43
-6.79
-6.92
-6.67
-8.02
0.0
-6.87
-6.57
-6.67
-9.00999999991
-9.04
-9.07
0.0
0.0
-6.6
0.0
-6.8
-6.53
-9.04
-6.86
-6.73
0.0
0.0
0.0
0.0
0.0
-6.83
-9.05
-8.99
-6.92
0.0
0.0
0.0
0.0
0.0
-6.44
-6.81
-6.45
0.0
0.0
0.0
0.0
0.0
0.0
0.0
0.0
-6.85
0.0
0.0
0.0
0.0
0.0
0.0
0.0
0.0
0.0
0.0
0.0
0.0
0.0
0.0
0.0
0.0
0.0
0.0
0.0
0.0
0.0
0.0
0.0
0.0
0.0
0.0
0.0
-6.83
0.0
0.0
-6.88
0.0
0.0
0.0
0.0
0.0
-6.61
-6.77
-6.43
-8.99
-6.74
-6.9
0.0
0.0
0.0
0.0
0.0
0.0
-6.83
-6.59
-9.02999999994
-9.08999999996
-9.0
0.0
0.0
0.0
-9.03
-6.86
-6.69
-6.59
-6.93
-8.96
-8.3
0.0
0.0
0.0
-6.81
-6.8
-6.88
-6.88
-9.00022673257
-6.85
0.0
0.0
-6.58
0.0
-6.82
-6.81
-8.91
-8.99
-9.03
-8.49
0.0
-6.59
-6.88
-6.87
-6.83
-6.93
-8.98
-9.0
0.0
-6.81
-6.42
-6.91
-8.98999999997
-8.97
-6.83
-9.02
0.0
-6.35
0.0
-6.62
-6.8
-8.97
0.0
-6.64
0.0
0.0
0.0
0.0
-6.8
-6.94
0.0
-8.95
-9.06
0.0
0.0
0.0
0.0
-6.87
0.0
-9.06
-9.03
0.0
0.0
0.0
0.0
0.0
0.0
0.0
0.0
0.0
0.0
0.0
0.0
0.0
0.0
0.0
0.0
0.0
0.0
0.0
0.0
0.0
0.0
0.0
0.0
0.0
0.0
0.0
0.0
0.0
-6.79
0.0
0.0
0.0
0.0
0.0
0.0
0.0
0.0
-6.67
-6.84
0.0
0.0
0.0
0.0
0.0
-6.75
-6.78
-8.99
-6.84
-6.78
-6.93
0.0
0.0
0.0
0.0
-6.78
-6.72
-6.63
-8.96999999998
-6.91
-6.78
-9.06999999999
0.0
0.0
0.0
0.0
0.0
-6.77
-6.81
-6.89
-6.88
-6.85
-6.83
0.0
0.0
0.0
0.0
-6.82
-6.65
-6.89
-6.84
-9.03999989299
-6.84
-6.79
-9.03
-6.81
-6.82
0.0
-8.96999999999
-6.81
-9.02999999999
0.0
0.0
0.0
-6.76
0.0
-6.66
-8.98
-9.02
-6.82
-6.85
0.0
0.0
0.0
0.0
-6.87
-9.01
-6.92
-6.8
-9.04
-6.78
0.0
0.0
-6.84
0.0
-6.96
-6.84
0.0
-9.07
0.0
0.0
0.0
0.0
-6.79
0.0
-9.04
-9.04
-6.78
0.0
0.0
0.0
0.0
-9.05
-6.71
0.0
0.0
0.0
0.0
0.0
0.0
0.0
0.0
0.0
0.0
0.0
0.0
0.0
0.0
0.0
0.0
0.0
0.0
0.0
0.0
0.0
0.0
0.0
0.0
0.0
0.0
0.0
0.0
0.0
0.0
0.0
0.0
0.0
0.0
0.0
0.0
0.0
-6.76
-9.06
0.0
0.0
0.0
0.0
0.0
0.0
0.0
0.0
-6.87
-6.78
-9.1
0.0
0.0
0.0
0.0
0.0
-6.77
-6.84
-6.73
0.0
-6.33
-9.06
-6.75
0.0
0.0
0.0
0.0
0.0
0.0
-6.83
-6.88
-6.83
-6.82
-6.77
0.0
-6.85
-8.95
0.0
-6.9
-6.77
-6.87
-6.87
0.0
0.0
0.0
-9.07
-6.85
0.0
-6.78
0.0
-9.05
0.0
0.0
0.0
-6.81
-6.86
-6.82
0.0
0.0
-6.8
-9.04
0.0
0.0
0.0
-6.8
-6.69
-9.08
-6.51
-6.83
-6.77
0.0
-6.83
0.0
0.0
0.0
0.0
-6.83
-6.83
-9.05
-6.63
-6.82
-6.77
0.0
0.0
0.0
0.0
-6.76
-9.0
-6.82
-9.04
0.0
0.0
0.0
0.0
0.0
0.0
0.0
-6.79
0.0
0.0
0.0
0.0
0.0
0.0
0.0
0.0
0.0
0.0
0.0
0.0
0.0
0.0
0.0
0.0
0.0
0.0
0.0
0.0
0.0
-6.64
0.0
0.0
0.0
0.0
0.0
0.0
0.0
0.0
0.0
0.0
0.0
0.0
0.0
0.0
-6.74
-6.78
-6.75
0.0
-6.73
0.0
0.0
0.0
0.0
-6.75
0.0
0.0
-6.81
0.0
0.0
-6.71
0.0
0.0
-6.8
-8.99
0.0
-6.65
0.0
-6.8
-6.88
0.0
-6.76
0.0
-9.05
0.0
-6.82
-9.04
-6.9
-6.81
0.0
0.0
0.0
0.0
0.0
-9.01
-9.08
-6.85
-6.85
-6.91
0.0
0.0
-6.72
0.0
-6.79
-6.8
-9.04
-9.01
-9.06
-6.81
0.0
0.0
0.0
0.0
0.0
0.0
-6.85
-6.79
0.0
0.0
0.0
0.0
-6.73
0.0
-6.79
0.0
0.0
-6.71
0.0
0.0
0.0
0.0
0.0
-6.77
-6.77
-6.76
0.0
0.0
0.0
0.0
0.0
0.0
0.0
0.0
0.0
0.0
-6.68
0.0
0.0
0.0
0.0
0.0
0.0
0.0
0.0
0.0
0.0
0.0
0.0
0.0
0.0
0.0
0.0
0.0
0.0
0.0
0.0
-6.77
0.0
0.0
0.0
0.0
0.0
0.0
0.0
0.0
0.0
0.0
0.0
0.0
0.0
0.0
-6.79
0.0
-6.8
-6.79
0.0
0.0
0.0
-6.76
-6.74
-6.73
-9.04
-9.06
0.0
-6.71
0.0
0.0
-6.73
0.0
-6.76
-6.77
0.0
0.0
-6.73
-6.76
-6.76
-6.76
0.0
-6.84
0.0
0.0
0.0
0.0
-6.78
-6.77
-6.74
0.0
-9.07
-6.8
0.0
0.0
-6.67
0.0
0.0
-9.09
-6.77
-6.8
-9.07
0.0
0.0
0.0
0.0
-6.75
0.0
-9.11
-6.67
-6.78
0.0
0.0
-6.64
0.0
0.0
0.0
-6.82
0.0
0.0
0.0
-6.71
0.0
0.0
0.0
0.0
0.0
0.0
0.0
0.0
0.0
0.0
0.0
0.0
0.0
0.0
0.0
0.0
0.0
0.0
0.0
0.0
0.0
-6.72
0.0
0.0
0.0
-6.72
-6.75
0.0
-6.7
-6.75
-6.76
-6.75
-9.11
0.0
0.0
-6.71
-6.73
0.0
-9.11
-6.68
0.0
-6.73
0.0
-6.79
0.0
0.0
0.0
0.0
0.0
-6.69
0.0
0.0
0.0
-6.56
0.0
0.0
0.0
0.0
0.0
0.0
0.0
0.0
0.0
0.0
0.0
0.0
0.0
