-0.99
0.0
0.0
-0.91
-1.08
-0.86
-0.95
0.0
0.0
0.0
-1.05
-1.11
-1.08
-1.21
-0.98
-1.01
-1.06
-0.97
0.0
-1.05
-0.97
0.0
0.0
0.0
0.0
0.0
-1.08
0.0
0.0
-0.91
0.0
0.0
0.0
-1.16
-1.03
0.0
0.0
0.0
-1.06
0.0
0.0
0.0
0.0
0.0
0.0
0.0
0.0
-1.02
-1.0
0.0
0.0
0.0
0.0
0.0
0.0
0.0
0.0
0.0
0.0
0.0
-0.91
-1.09
0.0
0.0
0.0
0.0
0.0
-1.05
-0.88
0.0
-1.16
-0.89
0.0
0.0
0.0
-0.92
-1.14
-1.01
-1.08
-1.18
-6.81
0.0
0.0
0.0
0.0
0.0
-1.04
-0.76
-6.81
0.0
0.0
-1.1
0.0
-6.77
-1.05
0.0
-6.79
0.0
0.0
0.0
0.0
-1.02
-6.75
-0.92
-6.81999999788
0.0
0.0
0.0
0.0
-0.91
-0.96
0.0
-0.95
-1.1
-1.09
0.0
0.0
0.0
0.0
0.0
-6.8
-6.85999999852
-6.8
0.0
0.0
0.0
0.0
0.0
-1.04
-1.13
-0.93
-6.83999999896
-1.02
0.0
0.0
0.0
0.0
0.0
-1.11
0.0
0.0
0.0
0.0
0.0
0.0
0.0
0.0
0.0
0.0
0.0
0.0
0.0
0.0
0.0
0.0
0.0
0.0
0.0
-0.94
0.0
0.0
0.0
0.0
0.0
0.0
-0.97
0.0
-1.16
0.0
0.0
0.0
0.0
0.0
-0.95
-1.06
-0.96
-0.95
-1.0
-6.76
0.0
0.0
0.0
0.0
0.0
0.0
0.0
-6.80999999991
-1.14
-1.0
0.0
0.0
-1.11
-1.16
-6.76
-0.93
-6.75
0.0
-0.99
-1.28
0.0
-1.08
0.0
-1.05
0.0
-1.23
0.0
-1.15
-1.03
0.0
0.0
-1.09
0.0
0.0
0.0
-0.78
-1.02
-1.27
0.0
0.0
0.0
-0.97
0.0
-1.1
-0.99
-6.79
-1.1
-1.04
-6.84999998741
0.0
0.0
-1.04
-1.2
-0.93
-1.09
-1.22
0.0
0.0
0.0
0.0
0.0
0.0
0.0
-1.17
-0.98
-1.0
-6.79
0.0
0.0
-1.05
-0.92
0.0
0.0
-1.06
-6.77
0.0
0.0
-0.94
0.0
0.0
0.0
0.0
0.0
0.0
0.0
0.0
0.0
0.0
0.0
0.0
0.0
0.0
0.0
0.0
0.0
0.0
0.0
0.0
0.0
-0.99
0.0
0.0
0.0
0.0
0.0
0.0
-1.04
0.0
-1.16
0.0
0.0
0.0
0.0
0.0
-1.03
0.0
-6.8
0.0
-6.77
-6.81
0.0
0.0
0.0
0.0
-1.17
-6.82
-0.93
-6.80999999994
-6.84
-0.94
-6.78
0.0
0.0
0.0
-1.07
0.0
-1.09
-0.89
-1.24
-6.84999999119
-1.08
-6.83999999927
0.0
-1.15
0.0
-0.92
-6.79
-6.77
-0.98
-6.8199999251
-1.11
0.0
0.0
0.0
-6.76
-1.0
-1.24
-6.83999999949
-1.05
0.0
0.0
0.0
0.0
0.0
0.0
-1.29
0.0
-1.0
-1.21
-0.98
0.0
0.0
0.0
-0.87
0.0
-0.95
-0.97
-6.77
-6.78
-1.19
-1.15
0.0
0.0
0.0
0.0
0.0
-1.19
-6.76
-1.15
0.0
-0.85
0.0
0.0
0.0
0.0
-1.09
-1.11
-1.18
-1.01
0.0
0.0
0.0
0.0
-0.96
0.0
0.0
0.0
0.0
0.0
0.0
0.0
0.0
0.0
0.0
0.0
0.0
0.0
0.0
0.0
0.0
0.0
0.0
0.0
0.0
0.0
0.0
0.0
0.0
0.0
0.0
0.0
0.0
0.0
0.0
0.0
0.0
0.0
-1.04
0.0
0.0
0.0
0.0
0.0
0.0
0.0
0.0
0.0
-1.13
-0.95
-6.81
0.0
0.0
0.0
0.0
-1.05
0.0
-1.18
-0.79
-1.25
-6.8
-0.85
0.0
0.0
0.0
0.0
-6.78
0.0
-1.27
-6.84999999996
-1.08
-0.81
-1.16
0.0
0.0
-1.08
-1.13
-6.75
-0.95
-6.76
-6.84999968803
-6.8
-6.84
-1.11
-1.21
-6.79
-6.83999999964
-1.19
0.0
-1.12
-6.79
0.0
0.0
0.0
-1.14
-1.22
-0.93
-1.45
-1.04
-0.7
-6.75
0.0
0.0
0.0
-0.99
-7.5517524751
-6.74
-1.19
-1.26
-1.12
-0.9
0.0
0.0
-1.16
-1.1
-6.80999999998
0.0
-0.95
-1.21
0.0
0.0
0.0
-1.24
0.0
-6.84
0.0
-1.0
0.0
0.0
0.0
0.0
0.0
-0.95
-6.82
-1.19
-0.94
0.0
0.0
0.0
0.0
0.0
0.0
-1.17
0.0
0.0
0.0
0.0
0.0
0.0
0.0
0.0
0.0
0.0
0.0
0.0
0.0
0.0
0.0
0.0
0.0
0.0
0.0
0.0
0.0
0.0
0.0
0.0
0.0
0.0
-0.89
-1.05
-6.84
-0.93
0.0
0.0
0.0
0.0
0.0
-0.94
-6.81
-0.98
-0.99
-1.18
-0.93
0.0
0.0
0.0
0.0
0.0
-6.78
-1.24
-6.79
0.0
-1.24
-6.76
0.0
0.0
0.0
0.0
-1.25
-6.75
-0.63
-6.8
-1.11
-0.97
0.0
0.0
0.0
0.0
-1.03
-1.16
-0.88
0.0
-1.01
0.0
0.0
-0.68
-0.64
-1.11
-6.83999994757
-0.76
-1.2
-6.87
-6.81
0.0
-1.13
-1.18
-6.78
-1.07
-6.93
-7.5083715864
0.0
0.0
-0.96
0.0
-1.05
-0.75
-6.79999999983
-6.82
-7.56886011048
0.0
0.0
-1.11
-1.26
0.0
-1.08
-1.03
-7.56321776927
0.0
0.0
0.0
0.0
-0.93
-7.5196090179
-1.14
-1.07
0.0
0.0
0.0
0.0
0.0
-0.93
-1.19
-6.8
0.0
0.0
0.0
0.0
0.0
0.0
0.0
0.0
0.0
0.0
0.0
0.0
0.0
0.0
0.0
0.0
0.0
0.0
0.0
0.0
0.0
0.0
0.0
0.0
0.0
0.0
0.0
0.0
-0.8
0.0
0.0
0.0
0.0
0.0
0.0
0.0
0.0
-0.96
0.0
0.0
0.0
0.0
0.0
0.0
0.0
0.0
-7.332351
0.0
0.0
0.0
0.0
0.0
-0.96
0.0
-6.84999999568
-0.97
-6.84999978162
-0.93
-6.81
0.0
0.0
0.0
0.0
-0.97
-1.12
0.0
-6.82
-7.117
0.0
0.0
0.0
0.0
-0.91
-7.38235199
-7.4076457
-1.04
-7.47996780094
-0.98
-1.07
0.0
0.0
-0.8
-0.79
-0.82
-6.78
-6.81
-1.22
-1.04
0.0
0.0
-0.95
-7.439646393
0.0
-1.12
-0.97
-0.87
-6.47
0.0
-0.97
-0.72
-0.86
-6.83
-6.86
-6.83
0.0
0.0
-0.78
0.0
-1.07
0.0
-6.84
-1.02
-0.99
0.0
0.0
0.0
0.0
0.0
-0.97
-6.82
-6.87999997431
-1.22
0.0
0.0
0.0
0.0
0.0
0.0
-0.9
0.0
0.0
0.0
0.0
0.0
0.0
0.0
0.0
0.0
-0.93
0.0
0.0
0.0
0.0
0.0
0.0
0.0
0.0
0.0
0.0
0.0
0.0
0.0
0.0
0.0
0.0
0.0
0.0
0.0
0.0
0.0
0.0
0.0
0.0
0.0
0.0
0.0
-0.91
0.0
0.0
-0.96
0.0
0.0
0.0
0.0
0.0
0.0
-0.94
0.0
-6.77
-0.83
-0.98
0.0
0.0
0.0
0.0
0.0
0.0
-1.09
-0.78
-6.83
-6.85
-6.79
0.0
0.0
0.0
-6.84
-0.99
-0.86
-0.76
-1.36
-6.82
-7.2399
0.0
0.0
0.0
-1.08
-1.01
-1.06
-1.02
-7.50993428764
-1.13
0.0
0.0
-0.76
0.0
-1.09
-1.0
-7.54022673257
-6.86
-6.81
-7.31193
0.0
-0.73
-0.99
-0.93
-1.03
-1.08
-7.5761587128
-6.8
0.0
-1.08
0.0
-1.03
-6.77
-7.51995400135
-0.96
-6.83
0.0
0.0
0.0
-0.81
-1.1
-6.84
0.0
-0.83
0.0
0.0
0.0
0.0
-0.96
-0.98
0.0
-6.76
-6.83
0.0
0.0
0.0
0.0
-0.96
0.0
-6.85
-6.83
0.0
0.0
0.0
0.0
0.0
0.0
0.0
0.0
0.0
0.0
0.0
0.0
0.0
0.0
0.0
0.0
0.0
0.0
0.0
0.0
0.0
0.0
0.0
0.0
0.0
0.0
0.0
0.0
0.0
-0.87
0.0
0.0
0.0
0.0
0.0
0.0
0.0
0.0
-0.78
-0.96
0.0
0.0
0.0
0.0
0.0
-0.96
-1.02
-6.8
-1.15
-1.0
-1.0
0.0
0.0
0.0
0.0
-0.99
-0.96
-0.79
-6.8
-0.96
-0.99
-6.85
0.0
0.0
0.0
0.0
0.0
-0.98
-1.13
-1.02
-1.02
-1.1
-1.12
0.0
0.0
0.0
0.0
-1.12
-0.81
-1.04
-1.09
-6.84
-0.94
-1.05
-6.8
-1.16
-1.07
0.0
-6.81
-0.89
-6.86
0.0
0.0
0.0
-0.97
0.0
-0.84
-6.81
-6.81
-1.1
-0.98
0.0
0.0
0.0
0.0
-0.99
-6.81
-1.11
-1.1
-6.85
-0.99
0.0
0.0
-1.14
0.0
-1.03
-1.08
0.0
-6.87
0.0
0.0
0.0
0.0
-0.92
0.0
-6.82
-6.81
-0.97
0.0
0.0
0.0
0.0
-6.84
-0.94
0.0
0.0
0.0
0.0
0.0
0.0
0.0
0.0
0.0
0.0
0.0
0.0
0.0
0.0
0.0
0.0
0.0
0.0
0.0
0.0
0.0
0.0
0.0
0.0
0.0
0.0
0.0
0.0
0.0
0.0
0.0
0.0
0.0
0.0
0.0
0.0
0.0
-0.95
-6.82
0.0
0.0
0.0
0.0
0.0
0.0
0.0
0.0
-0.97
-0.98
-6.83
0.0
0.0
0.0
0.0
0.0
-1.0
-1.1
-0.9
0.0
0.0
-6.85
-0.82
0.0
0.0
0.0
0.0
0.0
0.0
-1.1
-0.95
-1.08
-1.03
-0.99
0.0
-1.01
-6.79
0.0
-0.96
-1.02
-1.26
-0.93
0.0
0.0
0.0
-6.83
-1.1
0.0
-1.05
0.0
-6.86
0.0
0.0
0.0
-0.89
-0.96
-0.94
0.0
0.0
-0.98
-6.84
0.0
0.0
0.0
-1.08
-0.84
-6.83
0.0
-1.03
-0.93
0.0
-0.91
0.0
0.0
0.0
0.0
-0.88
-0.98
-6.84
-0.8
-1.1
-1.0
0.0
0.0
0.0
0.0
-0.99
-6.83
-0.92
-6.82
0.0
0.0
0.0
0.0
0.0
0.0
0.0
-1.02
0.0
0.0
0.0
0.0
0.0
0.0
0.0
0.0
0.0
0.0
0.0
0.0
0.0
0.0
0.0
0.0
0.0
0.0
0.0
0.0
0.0
0.0
0.0
0.0
0.0
0.0
0.0
0.0
0.0
0.0
0.0
0.0
0.0
0.0
0.0
0.0
-0.87
-0.94
-0.96
0.0
-0.89
0.0
0.0
0.0
0.0
-0.94
0.0
0.0
-1.03
0.0
0.0
0.0
0.0
0.0
-0.97
-6.85
0.0
0.0
0.0
-0.89
-0.99
0.0
-0.87
0.0
-6.82
0.0
-1.12
-6.82
-0.96
-0.88
0.0
0.0
0.0
0.0
0.0
-6.81
-6.81
-0.98
-0.94
-0.95
0.0
0.0
-0.94
0.0
-0.99
-1.04
-6.85
-6.84
-6.85
-1.09
0.0
0.0
0.0
0.0
0.0
0.0
-1.16
-0.98
0.0
0.0
0.0
0.0
-0.95
0.0
-1.06
0.0
0.0
-0.83
0.0
0.0
0.0
0.0
0.0
-1.01
-0.83
-0.89
0.0
0.0
0.0
0.0
0.0
0.0
0.0
0.0
0.0
0.0
-0.83
0.0
0.0
0.0
0.0
0.0
0.0
0.0
0.0
0.0
0.0
0.0
0.0
0.0
0.0
0.0
0.0
0.0
0.0
0.0
0.0
-0.99
0.0
0.0
0.0
0.0
0.0
0.0
0.0
0.0
0.0
0.0
0.0
0.0
0.0
0.0
-1.03
0.0
-0.91
-0.87
0.0
0.0
0.0
-0.97
-0.86
-0.91
-6.85
-6.82
0.0
-0.83
0.0
0.0
-0.99
0.0
-0.93
-0.98
0.0
0.0
-0.94
-0.95
-0.97
-0.91
0.0
-0.93
0.0
0.0
0.0
0.0
-0.95
-0.98
-0.91
0.0
-6.85
-0.98
0.0
0.0
-0.79
0.0
0.0
-6.83
-0.94
-1.03
-6.84
0.0
0.0
0.0
0.0
-0.98
0.0
-6.82
0.0
-1.04
0.0
0.0
0.0
0.0
0.0
0.0
-1.07
0.0
0.0
0.0
-0.84
0.0
0.0
0.0
0.0
0.0
0.0
0.0
0.0
0.0
0.0
0.0
0.0
0.0
0.0
0.0
0.0
0.0
0.0
0.0
0.0
0.0
-0.79
0.0
0.0
0.0
-0.89
-0.87
0.0
-0.82
-0.95
-0.96
-0.9
-6.83
0.0
0.0
-0.81
-0.85
0.0
-6.81
0.0
0.0
-0.92
0.0
-0.96
0.0
0.0
0.0
0.0
0.0
-5.91
-6.07
-6.02
0.0
-6.81
0.0
0.0
0.0
0.0
-5.96
0.0
0.0
0.0
0.0
-6.09
0.0
0.0
-6.0
