0.0
0.0
0.0
0.0
0.0
0.0
0.0
0.0
0.0
0.0
0.0
0.0
-1.08
-1.11
0.0
-0.99
-1.06
0.0
0.0
0.0
0.0
0.0
0.0
0.0
0.0
0.0
-1.03
0.0
0.0
0.0
0.0
0.0
0.0
-1.13
0.0
0.0
0.0
0.0
0.0
0.0
0.0
0.0
0.0
0.0
0.0
0.0
0.0
0.0
0.0
0.0
0.0
0.0
0.0
0.0
0.0
0.0
0.0
0.0
0.0
0.0
0.0
-1.01
0.0
0.0
0.0
0.0
0.0
0.0
0.0
0.0
-1.12
0.0
0.0
0.0
0.0
0.0
-1.09
0.0
-1.09
-1.14
-8.42
0.0
0.0
0.0
0.0
0.0
-1.04
0.0
-8.47
0.0
0.0
-1.08
0.0
-8.42
-0.93
0.0
-8.45
0.0
0.0
0.0
0.0
-1.02
-8.43
-1.03
-8.39
0.0
0.0
0.0
0.0
0.0
0.0
0.0
-1.2
-5.52
-1.04
0.0
0.0
0.0
0.0
0.0
-8.46
-8.46
-8.43
0.0
0.0
0.0
0.0
0.0
0.0
-1.1
-1.2
-8.44
0.0
0.0
0.0
0.0
0.0
0.0
0.0
0.0
0.0
0.0
0.0
0.0
0.0
0.0
0.0
0.0
0.0
0.0
0.0
0.0
0.0
0.0
0.0
0.0
0.0
0.0
0.0
0.0
0.0
0.0
0.0
0.0
0.0
0.0
0.0
-1.13
0.0
0.0
0.0
0.0
0.0
0.0
-1.06
-1.02
-1.16
0.0
-8.43
0.0
0.0
0.0
0.0
0.0
0.0
0.0
-8.39
-1.13
-1.23
0.0
0.0
-1.11
-1.11
-8.43
-1.11
-8.45
0.0
-1.11
-1.16
0.0
0.0
0.0
-1.09
0.0
-1.17
0.0
-1.14
-1.19
0.0
0.0
-1.07
0.0
0.0
0.0
0.0
0.0
-1.18
0.0
0.0
0.0
0.0
0.0
-1.02
-1.18
-8.41
-1.2
-1.13
-8.4
0.0
0.0
-1.06
-1.1
0.0
-1.25
-1.13
0.0
0.0
0.0
0.0
0.0
0.0
0.0
-1.13
0.0
0.0
-8.47
0.0
0.0
0.0
0.0
0.0
0.0
-1.08
-8.45
0.0
0.0
0.0
0.0
0.0
0.0
0.0
0.0
0.0
0.0
0.0
0.0
0.0
0.0
0.0
0.0
0.0
0.0
0.0
0.0
0.0
0.0
0.0
0.0
0.0
0.0
0.0
0.0
0.0
0.0
0.0
0.0
0.0
-1.13
0.0
0.0
0.0
0.0
0.0
0.0
0.0
-8.38
0.0
-8.39
-8.43
0.0
0.0
0.0
0.0
-1.14
-8.4
0.0
-8.39
-8.44
-1.13
-8.44
0.0
0.0
0.0
-1.1
0.0
-1.24
-0.96
-5.55
-8.38
-1.25
-8.4
0.0
-1.14
0.0
-1.21
-8.45
-8.4
-1.2
-8.37999999998
-1.14
0.0
0.0
0.0
-8.41
-1.21
-1.19
-8.41
-1.23
0.0
0.0
0.0
0.0
0.0
0.0
-5.58
0.0
-1.24
-1.17
-1.23
0.0
0.0
0.0
0.0
0.0
-1.14
-1.13
-8.4
-8.4
-5.58
0.0
0.0
0.0
0.0
0.0
0.0
-1.14
-8.4
-1.24
0.0
0.0
0.0
0.0
0.0
0.0
-1.04
-1.09
-1.15
-1.22
0.0
0.0
0.0
0.0
-1.16
0.0
0.0
0.0
0.0
0.0
0.0
0.0
0.0
0.0
0.0
0.0
0.0
0.0
0.0
0.0
0.0
0.0
0.0
0.0
0.0
0.0
0.0
0.0
0.0
0.0
0.0
0.0
0.0
0.0
0.0
0.0
0.0
0.0
-1.1
0.0
0.0
0.0
0.0
0.0
0.0
0.0
0.0
0.0
-1.14
-1.18
-8.46
0.0
0.0
0.0
0.0
-1.07
0.0
-1.14
0.0
-5.74
-8.44
-0.93
0.0
0.0
0.0
0.0
-8.42
0.0
-5.57
-8.44
-1.1
0.0
-1.15
0.0
0.0
-1.05
-1.12
-8.39
-1.16
-8.42
-8.39
-8.39
-8.42
-1.0
-1.14
-8.4
-8.42
-1.11
0.0
-1.24
-8.45
0.0
0.0
0.0
-1.13
-1.13
-0.99
-5.72
-1.19
0.0
-8.47
0.0
0.0
0.0
-1.13
-8.35
-8.4
-1.12
-5.56
-5.52
-1.02
0.0
0.0
-1.13
-1.24
-8.38
0.0
-1.15
-1.16
0.0
0.0
0.0
-1.14
0.0
-8.43
0.0
-1.2
0.0
0.0
0.0
0.0
0.0
-1.16
-8.4
-1.11
-1.13
0.0
0.0
0.0
0.0
0.0
0.0
-1.11
0.0
0.0
0.0
0.0
0.0
0.0
0.0
0.0
0.0
0.0
0.0
0.0
0.0
0.0
0.0
0.0
0.0
0.0
0.0
0.0
0.0
0.0
0.0
0.0
0.0
0.0
-1.16
0.0
-8.41
-1.16
0.0
0.0
0.0
0.0
0.0
-1.21
-8.42
-1.23
0.0
-1.13
-1.14
0.0
0.0
0.0
0.0
0.0
-8.4
-1.18
-8.41
0.0
-1.16
-8.43
0.0
0.0
0.0
0.0
-5.57
-8.41
0.0
-7.797
-1.1
-1.2
0.0
0.0
0.0
0.0
-1.11
-1.12
-0.9
0.0
-1.16
0.0
0.0
0.0
0.0
-1.1
-8.38
0.0
-1.14
-8.49999226901
-8.44
0.0
-1.12
-1.14
-8.41
-1.14
-7.8599
-8.27999999999
0.0
0.0
-1.13
0.0
-1.01
0.0
-8.36
-8.41
-8.43999999999
0.0
0.0
-1.06
-1.16
0.0
-1.06
-1.25
-8.41999999999
0.0
0.0
0.0
0.0
-1.12
-8.36
-1.12
-1.09
0.0
0.0
0.0
0.0
0.0
-1.12
-1.14
-8.44
0.0
0.0
0.0
0.0
0.0
0.0
0.0
0.0
0.0
0.0
0.0
0.0
0.0
0.0
0.0
0.0
0.0
0.0
0.0
0.0
0.0
0.0
0.0
0.0
0.0
0.0
0.0
0.0
-1.07
0.0
0.0
0.0
0.0
0.0
0.0
0.0
0.0
-1.17
0.0
0.0
0.0
0.0
0.0
0.0
0.0
0.0
-7.992351
0.0
0.0
0.0
0.0
0.0
-1.14
0.0
-8.39
-1.16
-8.41
-1.13
-8.4
0.0
0.0
0.0
0.0
-1.17
-1.14
0.0
-8.44999994757
-7.97193
0.0
0.0
0.0
0.0
-1.11
-8.0676457
-8.07235199
-1.19
-8.4099999633
-1.19
-1.25
0.0
0.0
0.0
0.0
0.0
-8.38999997431
-8.40525243849
-1.15
-1.14
0.0
0.0
-1.22
-8.109646393
0.0
-1.12
-1.22
0.0
-7.13
0.0
-1.19
0.0
0.0
-8.40667670694
-8.48999998202
-8.5199945883
0.0
0.0
0.0
0.0
-1.12
0.0
-8.45999621181
-1.2
0.0
0.0
0.0
0.0
0.0
0.0
-1.17
-8.5
-8.46
-1.15
0.0
0.0
0.0
0.0
0.0
0.0
-1.12
0.0
0.0
0.0
0.0
0.0
0.0
0.0
0.0
0.0
-1.16
0.0
0.0
0.0
0.0
0.0
0.0
0.0
0.0
0.0
0.0
0.0
0.0
0.0
0.0
0.0
0.0
0.0
0.0
0.0
0.0
0.0
0.0
0.0
0.0
0.0
0.0
0.0
-1.11
0.0
0.0
-1.2
0.0
0.0
0.0
0.0
0.0
0.0
-0.97
0.0
-8.44999998741
-1.0
-1.19
0.0
0.0
0.0
0.0
0.0
0.0
-1.17
0.0
-8.42767369486
-8.4683715864
-8.48999999119
0.0
0.0
0.0
-8.44
-1.22
0.0
0.0
-5.56
-8.44
-7.45
0.0
0.0
0.0
-1.14
-1.07
-1.22
-1.18
-8.42
-1.16
0.0
0.0
0.0
0.0
-1.17
-1.1
-8.34886011048
-8.42920207734
-8.45999734827
-7.64
0.0
0.0
-1.19
-1.15
-1.11
-1.26
-8.43999814379
-8.4117524751
0.0
-1.13
0.0
-1.24
-8.41
-8.44999999383
-1.16
-8.46944145414
0.0
0.0
0.0
0.0
-1.1
-8.44
0.0
0.0
0.0
0.0
0.0
0.0
-1.15
-1.49
0.0
-8.40999999568
-8.52999999698
0.0
0.0
0.0
0.0
-1.14
0.0
-8.5
-8.38999999788
0.0
0.0
0.0
0.0
0.0
0.0
0.0
0.0
0.0
0.0
0.0
0.0
0.0
0.0
0.0
0.0
0.0
0.0
0.0
0.0
0.0
0.0
0.0
0.0
0.0
0.0
0.0
0.0
0.0
-1.08
0.0
0.0
0.0
0.0
0.0
0.0
0.0
0.0
0.0
-1.15
0.0
0.0
0.0
0.0
0.0
-0.95
-1.07
-8.40999999852
-1.16
-1.05
-1.47
0.0
0.0
0.0
0.0
-1.04
0.0
0.0
-8.39999870065
-1.2
-1.04
-8.4696090179
0.0
0.0
0.0
0.0
0.0
-1.03
-1.12
-1.24
-1.2
-1.18
-1.17
0.0
0.0
0.0
0.0
-1.12
0.0
-1.21
-1.17
-8.44022673257
-1.15
-1.09
-8.52
-1.14
-1.15
0.0
-8.3661587128
-1.11
-8.45031109896
0.0
0.0
0.0
-0.96
0.0
0.0
-8.40972631253
-8.46980841877
-1.15
-1.18
0.0
0.0
0.0
0.0
-1.23
-8.43999909046
-1.26
-1.12
-8.46986589314
-1.04
0.0
0.0
-1.15
0.0
-1.27
-1.17
0.0
-8.4699061252
0.0
0.0
0.0
0.0
-1.07
0.0
-8.46
-8.46999999896
-0.98
0.0
0.0
0.0
0.0
-8.44
0.0
0.0
0.0
0.0
0.0
0.0
0.0
0.0
0.0
0.0
0.0
0.0
0.0
0.0
0.0
0.0
0.0
0.0
0.0
0.0
0.0
0.0
0.0
0.0
0.0
0.0
0.0
0.0
0.0
0.0
0.0
0.0
0.0
0.0
0.0
0.0
0.0
0.0
-0.96
-8.54999999927
0.0
0.0
0.0
0.0
0.0
0.0
0.0
0.0
-1.18
-0.99
-8.56999999949
0.0
0.0
0.0
0.0
0.0
-1.02
-1.18
0.0
0.0
0.0
-8.52993428764
0.0
0.0
0.0
0.0
0.0
0.0
0.0
-1.16
-1.19
-1.16
-1.08
-0.92
0.0
-1.18
-8.37999936332
0.0
-1.2
0.0
-5.44
-1.19
0.0
0.0
0.0
-8.50999999964
-1.12
0.0
-1.08
0.0
-8.47321776927
0.0
0.0
0.0
-1.1
-1.13
-1.13
0.0
0.0
-1.16
-8.48995400135
0.0
0.0
0.0
-1.08
0.0
-8.55
0.0
-1.07
-1.02
0.0
-1.11
0.0
0.0
0.0
0.0
-1.12
-1.13
-8.47999955432
0.0
-1.14
0.0
0.0
0.0
0.0
0.0
-1.02
-8.38999999975
-1.11
-8.46999999983
0.0
0.0
0.0
0.0
0.0
0.0
0.0
-1.02
0.0
0.0
0.0
0.0
0.0
0.0
0.0
0.0
0.0
0.0
0.0
0.0
0.0
0.0
0.0
0.0
0.0
0.0
0.0
0.0
0.0
0.0
0.0
0.0
0.0
0.0
0.0
0.0
0.0
0.0
0.0
0.0
0.0
0.0
0.0
0.0
0.0
0.0
0.0
0.0
0.0
0.0
0.0
0.0
0.0
0.0
0.0
0.0
-1.05
0.0
0.0
0.0
0.0
0.0
-1.06
-8.39999968803
0.0
0.0
0.0
-1.09
-1.17
0.0
0.0
0.0
-8.46999999988
0.0
-1.15
-8.46996780094
-1.22
-1.1
0.0
0.0
0.0
0.0
0.0
-8.48999999991
-8.55999978162
-1.14
-1.16
-1.22
0.0
0.0
0.0
0.0
-1.05
-1.06
-8.48997746066
-8.42998422246
-8.55999984713
-1.06
0.0
0.0
0.0
0.0
0.0
0.0
-1.19
0.0
0.0
0.0
0.0
0.0
0.0
0.0
-1.11
0.0
0.0
0.0
0.0
0.0
0.0
0.0
0.0
-0.97
-1.03
0.0
0.0
0.0
0.0
0.0
0.0
0.0
0.0
0.0
0.0
0.0
0.0
0.0
0.0
0.0
0.0
0.0
0.0
0.0
0.0
0.0
0.0
0.0
0.0
0.0
0.0
0.0
0.0
0.0
0.0
0.0
0.0
0.0
0.0
0.0
0.0
0.0
0.0
0.0
0.0
0.0
0.0
0.0
0.0
0.0
0.0
0.0
-1.06
0.0
-1.11
-1.09
0.0
0.0
0.0
0.0
-1.03
0.0
-8.49999989299
-8.54999999994
0.0
0.0
0.0
0.0
0.0
0.0
0.0
0.0
0.0
0.0
0.0
0.0
0.0
0.0
0.0
-1.13
0.0
0.0
0.0
0.0
0.0
0.0
0.0
0.0
-8.48998895572
-1.02
0.0
0.0
0.0
0.0
0.0
-8.52999999996
0.0
-1.06
-8.50999999997
0.0
0.0
0.0
0.0
-0.84
0.0
-8.5599999251
0.0
-1.07
0.0
0.0
0.0
0.0
0.0
0.0
-1.14
0.0
0.0
0.0
0.0
0.0
0.0
0.0
0.0
0.0
0.0
0.0
0.0
0.0
0.0
0.0
0.0
0.0
0.0
0.0
0.0
0.0
0.0
0.0
0.0
0.0
0.0
0.0
0.0
0.0
0.0
0.0
0.0
0.0
0.0
0.0
-1.04
-8.56
0.0
0.0
0.0
0.0
0.0
-8.53
0.0
0.0
0.0
0.0
0.0
0.0
0.0
0.0
0.0
0.0
0.0
0.0
0.0
0.0
-5.2
0.0
0.0
0.0
0.0
0.0
0.0
0.0
0.0
0.0
0.0
0.0
0.0
0.0
