0.0
0.0
0.0
0.0
0.0
0.0
0.0
0.0
0.0
0.0
-5.6
-5.72
-5.72
-5.94
0.0
-5.67
-5.68
0.0
0.0
-5.61
-5.61
0.0
0.0
0.0
0.0
0.0
-5.77
0.0
0.0
0.0
0.0
0.0
0.0
-5.83
-5.66
0.0
0.0
0.0
-5.65
0.0
0.0
0.0
0.0
0.0
0.0
0.0
0.0
0.0
0.0
0.0
0.0
0.0
0.0
0.0
0.0
0.0
0.0
0.0
0.0
0.0
0.0
-5.69
0.0
0.0
0.0
0.0
0.0
-5.67
0.0
0.0
-5.78
0.0
0.0
0.0
0.0
0.0
-5.77
-5.55
-5.72
-5.88
-6.39999999927
0.0
0.0
0.0
0.0
0.0
-5.71
0.0
-6.43999999949
0.0
0.0
-5.71
0.0
-6.39
-5.72
0.0
-6.41999999964
0.0
0.0
0.0
0.0
-5.73
-6.35
-5.61
-6.3599999633
0.0
0.0
0.0
0.0
0.0
0.0
0.0
-5.69
-5.93
-5.8
0.0
0.0
0.0
0.0
0.0
-6.43
-6.39999999975
-6.41999999983
0.0
0.0
0.0
0.0
0.0
0.0
-5.78
-5.67
-6.37999999988
0.0
0.0
0.0
0.0
0.0
0.0
-5.63
0.0
0.0
0.0
0.0
0.0
0.0
0.0
0.0
0.0
0.0
0.0
0.0
0.0
0.0
0.0
0.0
0.0
0.0
0.0
0.0
0.0
0.0
0.0
0.0
0.0
0.0
0.0
0.0
-5.81
0.0
0.0
0.0
0.0
0.0
0.0
-5.76
-5.59
-5.68
-5.64
-6.39
0.0
0.0
0.0
0.0
0.0
0.0
0.0
-6.35999999991
-5.83
-5.83
0.0
0.0
-5.81
-5.74
-6.4
-5.65
-6.41999999994
0.0
-5.66
-6.16
0.0
0.0
0.0
-5.74
0.0
-5.98
0.0
-5.91
-5.77
0.0
0.0
-5.72
0.0
0.0
0.0
0.0
-5.59
-6.16
0.0
0.0
0.0
-5.61
0.0
-5.71
-5.72
-6.39999999996
-5.97
-5.77
-6.38999998202
0.0
0.0
-5.69
-5.83
0.0
-5.86
-5.85
0.0
0.0
0.0
0.0
0.0
0.0
0.0
-5.88
0.0
-5.7
-6.41
0.0
0.0
0.0
-5.56
0.0
0.0
-5.69
-6.42
0.0
0.0
0.0
0.0
0.0
0.0
0.0
0.0
0.0
0.0
0.0
0.0
0.0
0.0
0.0
0.0
0.0
0.0
0.0
0.0
0.0
0.0
0.0
0.0
-5.61
0.0
0.0
0.0
0.0
0.0
0.0
0.0
0.0
-5.85
0.0
0.0
0.0
0.0
0.0
0.0
0.0
-6.34
0.0
-6.37
-6.38
0.0
0.0
0.0
0.0
-5.83
-6.36
0.0
-6.35
-6.39999999997
-5.67
-6.37999999998
0.0
0.0
0.0
-5.78
0.0
-5.93
-5.63
-6.14
-6.36999998741
-6.09
-6.37999999999
0.0
-5.82
0.0
-5.67
-6.4
-6.35
-5.77
-6.3699999251
-5.78
0.0
0.0
0.0
-6.36
-5.72
-6.14
-6.38999999119
-5.84
0.0
0.0
0.0
0.0
0.0
0.0
-6.17
0.0
-5.89
-6.0
-5.91
0.0
0.0
0.0
0.0
0.0
-5.67
-5.68
-6.37999999999
-6.35999999999
-6.13
-5.58
0.0
0.0
0.0
0.0
0.0
-6.03
-6.36
-6.09
0.0
-5.4
0.0
0.0
0.0
0.0
-5.72
-5.82
-6.02
-5.76
0.0
0.0
0.0
0.0
-5.71
0.0
0.0
0.0
0.0
0.0
0.0
0.0
0.0
0.0
0.0
0.0
0.0
0.0
0.0
0.0
0.0
0.0
0.0
0.0
0.0
0.0
0.0
0.0
0.0
0.0
0.0
0.0
0.0
0.0
0.0
0.0
0.0
0.0
-5.83
0.0
0.0
0.0
0.0
0.0
0.0
0.0
0.0
0.0
-5.95
-5.72
-6.42
0.0
0.0
0.0
0.0
-5.71
0.0
-5.98
0.0
-6.14
-6.37
-5.53
0.0
0.0
0.0
0.0
-6.37
0.0
-6.17
-6.39
-5.73
0.0
-5.9
0.0
0.0
-5.72
-5.94
-6.36
-5.69
-6.38
-6.36999994757
-6.34999999383
-6.38
-5.62
-6.1
-6.36
-6.38999999568
-5.82
0.0
-5.99
-6.38
0.0
0.0
0.0
-5.83
-6.13
-5.62
-6.35
-6.08
0.0
-6.4
0.0
0.0
0.0
-5.71
-6.34999999698
-6.36
-5.93
-6.17
-6.14
-5.62
0.0
0.0
-5.87
-6.08
-6.35
0.0
-5.7
-6.08
0.0
0.0
0.0
-6.13
0.0
-6.38
0.0
-5.75
0.0
0.0
0.0
0.0
0.0
-5.71
-6.37
-5.99
-5.65
0.0
0.0
0.0
0.0
0.0
0.0
-5.79
0.0
0.0
0.0
0.0
0.0
0.0
0.0
0.0
0.0
0.0
0.0
0.0
0.0
0.0
0.0
0.0
0.0
0.0
0.0
0.0
0.0
0.0
0.0
0.0
0.0
0.0
-5.63
-5.61
-6.38
-5.68
0.0
0.0
0.0
0.0
0.0
-5.72
-6.35
-5.72
-5.66
-5.73
-5.68
0.0
0.0
0.0
0.0
0.0
-6.35
-6.07
-6.36
0.0
-6.1
-6.36
0.0
0.0
0.0
0.0
-6.15
-6.38
0.0
-8.6
-5.75
-5.67
0.0
0.0
0.0
0.0
-6.04
-5.97
-5.63
0.0
-5.76
0.0
0.0
0.0
0.0
-5.76
-6.34
0.0
-6.03
-6.34
-6.37
0.0
-6.0
-5.97
-6.34
-6.11
-8.02
-6.31999997431
0.0
0.0
-5.71
0.0
-5.71
0.0
-6.32
-6.36999999788
-6.37
0.0
0.0
-5.77
-6.16
0.0
-5.8
-5.86
-6.37
0.0
0.0
0.0
0.0
-5.65
-6.32
-5.94
-5.98
0.0
0.0
0.0
0.0
0.0
-5.66
-6.06
-6.39
0.0
0.0
0.0
0.0
0.0
0.0
0.0
0.0
0.0
0.0
0.0
0.0
0.0
0.0
0.0
0.0
0.0
0.0
0.0
0.0
0.0
0.0
0.0
0.0
0.0
0.0
0.0
0.0
-5.55
0.0
0.0
0.0
0.0
0.0
0.0
0.0
0.0
-5.76
0.0
0.0
0.0
0.0
0.0
0.0
0.0
0.0
-8.922351
0.0
0.0
0.0
0.0
0.0
-5.69
0.0
-6.37
-5.72
-6.36
-5.68
-6.29
0.0
0.0
0.0
0.0
-5.68
-6.17
0.0
-6.37
-8.727
0.0
0.0
0.0
0.0
-5.68
-9.01235199
-8.9776457
-5.93
-6.34
-5.75
-5.9
0.0
0.0
0.0
0.0
0.0
-6.32
-6.3
-6.13
-6.14
0.0
0.0
-5.89
-9.029646393
0.0
-5.96
-5.69
-5.59
-8.36
0.0
-5.73
0.0
-5.56
-6.29
-6.42
-6.3
0.0
0.0
0.0
0.0
-5.97
0.0
-6.34
-5.8
-5.73
0.0
0.0
0.0
0.0
0.0
-5.72
-6.32
-6.39
-6.12
0.0
0.0
0.0
0.0
0.0
0.0
-5.62
0.0
0.0
0.0
0.0
0.0
0.0
0.0
0.0
0.0
-5.74
0.0
0.0
0.0
0.0
0.0
0.0
0.0
0.0
0.0
0.0
0.0
0.0
0.0
0.0
0.0
0.0
0.0
0.0
0.0
0.0
0.0
0.0
0.0
0.0
0.0
0.0
0.0
-5.65
0.0
0.0
-5.72
0.0
0.0
0.0
0.0
0.0
0.0
-5.73
0.0
-6.31
-5.54
-5.73
0.0
0.0
0.0
0.0
0.0
0.0
-6.16
0.0
-6.29
-6.33
-6.3
0.0
0.0
0.0
-6.3
-6.0
-5.51
0.0
-6.25
-6.35
-8.8299
0.0
0.0
0.0
-6.16
-6.1
-6.05
-5.97
-6.36999999852
-6.2
0.0
0.0
0.0
0.0
-6.18
-6.08
-6.32999999896
-6.28
-6.31
-8.86193
0.0
0.0
-6.0
-5.67
-5.79
-5.94
-6.38
-6.29
0.0
-6.15
0.0
-6.1
-6.35
-6.37
-5.77
-6.29
0.0
0.0
0.0
0.0
-6.17
-6.35
0.0
0.0
0.0
0.0
0.0
0.0
-5.72
-6.08
0.0
-6.26
-6.32
0.0
0.0
0.0
0.0
-5.71
0.0
-6.33
-6.31
0.0
0.0
0.0
0.0
0.0
0.0
0.0
0.0
0.0
0.0
0.0
0.0
0.0
0.0
0.0
0.0
0.0
0.0
0.0
0.0
0.0
0.0
0.0
0.0
0.0
0.0
0.0
0.0
0.0
-5.6
0.0
0.0
0.0
0.0
0.0
0.0
0.0
0.0
0.0
-5.71
0.0
0.0
0.0
0.0
0.0
-5.85
-6.12
-6.29
-6.19
-6.06
-5.98
0.0
0.0
0.0
0.0
-6.03
-5.61
0.0
-6.31
-5.7
-6.09
-6.31
0.0
0.0
0.0
0.0
0.0
-6.03
-6.23
-6.02
-5.97
-6.16
-6.22
0.0
0.0
0.0
0.0
-6.16
0.0
-6.08
-6.17
-6.31
-5.7
-6.09
-6.3
-6.18
-6.17
0.0
-6.28
-5.65
-6.32
0.0
0.0
0.0
-6.06
0.0
-5.56
-6.29
-6.31
-6.16
-5.81
0.0
0.0
0.0
0.0
-6.08
-6.31
-6.14
-6.13
-6.33
-6.06
0.0
0.0
-6.16
0.0
-6.1
-6.17
0.0
-6.31
0.0
0.0
0.0
0.0
-5.64
0.0
-6.3
-6.29
-6.04
0.0
0.0
0.0
0.0
-6.32
-5.73
0.0
0.0
0.0
0.0
0.0
0.0
0.0
0.0
0.0
0.0
0.0
0.0
0.0
0.0
0.0
0.0
0.0
0.0
0.0
0.0
0.0
0.0
0.0
0.0
0.0
0.0
0.0
0.0
0.0
0.0
0.0
0.0
0.0
0.0
0.0
0.0
0.0
-5.71
-6.31
0.0
0.0
0.0
0.0
0.0
0.0
0.0
0.0
-5.73
-6.08
-6.34
0.0
0.0
0.0
0.0
0.0
-6.02
-6.17
-5.55
0.0
0.0
-6.34
0.0
0.0
0.0
0.0
0.0
0.0
0.0
-6.18
-5.72
-6.14
-6.07
-6.08
0.0
-5.93
-6.27
0.0
-5.77
-6.08
-6.25
-5.64
0.0
0.0
0.0
-6.33
-6.16
0.0
-6.14
0.0
-6.33
0.0
0.0
0.0
-5.66
-5.7
-5.69
0.0
0.0
-5.96
-6.33
0.0
0.0
0.0
-6.15
0.0
-6.32
0.0
-6.06
-5.84
0.0
-5.68
0.0
0.0
0.0
0.0
-5.63
-5.72
-6.31
-5.5
-6.18
-6.11
0.0
0.0
0.0
0.0
-6.07
-6.31
-5.66
-6.31
0.0
0.0
0.0
0.0
0.0
0.0
0.0
-6.11
0.0
0.0
0.0
0.0
0.0
0.0
0.0
0.0
0.0
0.0
0.0
0.0
0.0
0.0
0.0
0.0
0.0
0.0
0.0
0.0
0.0
0.0
0.0
0.0
0.0
0.0
0.0
0.0
0.0
0.0
0.0
0.0
0.0
0.0
0.0
0.0
-5.59
-5.72
-6.05
0.0
0.0
0.0
0.0
0.0
0.0
-5.6
0.0
0.0
-6.13
0.0
0.0
0.0
0.0
0.0
-6.12
-6.32
0.0
0.0
0.0
-5.66
-5.73
0.0
-5.52
0.0
-6.33
0.0
-6.19
-6.32
-5.73
-5.61
0.0
0.0
0.0
0.0
0.0
-6.31
-6.34
-5.72
-5.72
-5.69
0.0
0.0
0.0
0.0
-5.97
-6.12
-6.31
-6.32
-6.34
-6.19
0.0
0.0
0.0
0.0
0.0
0.0
-6.24
-6.1
0.0
0.0
0.0
0.0
-5.61
0.0
-6.14
0.0
0.0
0.0
0.0
0.0
0.0
0.0
0.0
-6.09
-5.57
-5.66
0.0
0.0
0.0
0.0
0.0
0.0
0.0
0.0
0.0
0.0
0.0
0.0
0.0
0.0
0.0
0.0
0.0
0.0
0.0
0.0
0.0
0.0
0.0
0.0
0.0
0.0
0.0
0.0
0.0
0.0
0.0
-6.06
0.0
0.0
0.0
0.0
0.0
0.0
0.0
0.0
0.0
0.0
0.0
0.0
0.0
0.0
-6.13
0.0
-5.68
-5.61
0.0
0.0
0.0
-6.07
-5.57
0.0
-6.32
-6.31
0.0
-5.61
0.0
0.0
-5.92
0.0
-6.08
-5.86
0.0
0.0
0.0
-6.06
-6.04
-5.61
0.0
-5.69
0.0
0.0
0.0
0.0
-5.73
-6.07
-5.77
0.0
-6.36
-6.08
0.0
0.0
0.0
0.0
0.0
-6.34
-6.05
-6.12
-6.33
0.0
0.0
0.0
0.0
-6.08
0.0
-6.34
0.0
-6.12
0.0
0.0
0.0
0.0
0.0
0.0
-6.19
0.0
0.0
0.0
-5.67
0.0
0.0
0.0
0.0
0.0
0.0
0.0
0.0
0.0
0.0
0.0
0.0
0.0
0.0
0.0
0.0
0.0
0.0
0.0
0.0
0.0
0.0
0.0
0.0
0.0
0.0
-5.64
0.0
0.0
-5.63
-6.06
-5.6
-6.33
0.0
0.0
-5.74
0.0
0.0
-6.33
0.0
0.0
-6.08
0.0
-6.11
0.0
0.0
0.0
0.0
0.0
-5.74
0.0
-5.79
0.0
-7.87997746066
0.0
0.0
0.0
0.0
0.0
0.0
0.0
0.0
0.0
-6.11
0.0
0.0
-5.73
