0.0
0.0
0.0
0.0
0.0
0.0
0.0
0.0
0.0
0.0
0.0
0.0
0.0
0.0
0.0
0.0
0.0
0.0
0.0
0.0
0.0
0.0
0.0
0.0
0.0
0.0
0.0
0.0
0.0
0.0
0.0
0.0
0.0
0.0
0.0
0.0
0.0
0.0
0.0
0.0
0.0
0.0
0.0
0.0
0.0
0.0
0.0
0.0
0.0
0.0
0.0
0.0
0.0
0.0
0.0
0.0
0.0
0.0
0.0
0.0
0.0
0.0
0.0
0.0
0.0
0.0
0.0
0.0
0.0
0.0
0.0
0.0
0.0
0.0
0.0
0.0
0.0
0.0
0.0
0.0
-8.03
0.0
0.0
0.0
0.0
0.0
0.0
0.0
-8.03
0.0
0.0
0.0
0.0
-8.0
0.0
0.0
-8.04
0.0
0.0
0.0
0.0
0.0
-7.99
0.0
-8.01
0.0
0.0
0.0
0.0
0.0
0.0
0.0
-0.24
-0.31
0.0
0.0
0.0
0.0
0.0
0.0
-8.03
-8.04
-8.03
0.0
0.0
0.0
0.0
0.0
0.0
0.0
-0.22
-8.02
0.0
0.0
0.0
0.0
0.0
0.0
0.0
0.0
0.0
0.0
0.0
0.0
0.0
0.0
0.0
0.0
0.0
0.0
0.0
0.0
0.0
0.0
0.0
0.0
0.0
0.0
0.0
0.0
0.0
0.0
0.0
0.0
0.0
0.0
0.0
0.0
0.0
0.0
0.0
0.0
0.0
0.0
0.0
0.0
-0.18
0.0
-8.0
0.0
0.0
0.0
0.0
0.0
0.0
0.0
-8.01
0.0
-0.24
0.0
0.0
0.0
0.0
-8.01
-0.13
-8.03
0.0
0.0
0.0
0.0
0.0
0.0
0.0
0.0
0.0
0.0
0.0
-0.25
0.0
0.0
0.0
0.0
0.0
0.0
0.0
0.0
-0.07
0.0
0.0
0.0
0.0
0.0
0.0
-0.25
-8.02
-0.26
-0.25
-8.02
0.0
0.0
0.0
0.0
0.0
-0.29
0.0
0.0
0.0
0.0
0.0
0.0
0.0
0.0
0.0
0.0
0.0
-8.03
0.0
0.0
0.0
0.0
0.0
0.0
0.0
-8.01
0.0
0.0
0.0
0.0
0.0
0.0
0.0
0.0
0.0
0.0
0.0
0.0
0.0
0.0
0.0
0.0
0.0
0.0
0.0
0.0
0.0
0.0
0.0
0.0
0.0
0.0
0.0
0.0
0.0
0.0
0.0
0.0
0.0
0.0
0.0
0.0
0.0
0.0
0.0
0.0
0.0
-7.99
0.0
-7.98
-7.99
0.0
0.0
0.0
0.0
0.0
-8.0
0.0
-8.0
-8.01
-0.16
-8.01
0.0
0.0
0.0
0.0
0.0
-0.26
0.0
-0.24
-8.01
-0.33
-8.01
0.0
0.0
0.0
-0.26
-8.01
-8.0
-0.24
-8.03
0.0
0.0
0.0
0.0
-7.98
-0.25
-0.23
-8.03
-0.27
0.0
0.0
0.0
0.0
0.0
0.0
-0.23
0.0
-0.28
0.0
-0.26
0.0
0.0
0.0
0.0
0.0
-0.2
-0.17
-7.99
-7.99
-0.37
0.0
0.0
0.0
0.0
0.0
0.0
0.0
-7.99
-0.32
0.0
0.0
0.0
0.0
0.0
0.0
0.0
0.0
-0.17
-0.25
0.0
0.0
0.0
0.0
-0.23
0.0
0.0
0.0
0.0
0.0
0.0
0.0
0.0
0.0
0.0
0.0
0.0
0.0
0.0
0.0
0.0
0.0
0.0
0.0
0.0
0.0
0.0
0.0
0.0
0.0
0.0
0.0
0.0
0.0
0.0
0.0
0.0
0.0
0.0
0.0
0.0
0.0
0.0
0.0
0.0
0.0
0.0
0.0
0.0
-0.24
-8.01
0.0
0.0
0.0
0.0
0.0
0.0
-0.11
0.0
-0.36
-8.0
0.0
0.0
0.0
0.0
0.0
-7.98
0.0
-0.23
-8.0
0.0
0.0
0.0
0.0
0.0
0.0
-0.05
-7.97
-0.15
-7.99
-8.03
-8.0
-8.01
0.0
-0.17
-7.99
-8.03
0.0
0.0
-0.3
-8.01
0.0
0.0
0.0
0.0
-0.14
0.0
-0.27
-0.29
0.0
-7.99
0.0
0.0
0.0
-0.21
-8.66
-7.99
0.0
-0.21
-0.34
-0.05
0.0
0.0
0.0
-0.31
-7.98
0.0
-0.18
-0.13
0.0
0.0
0.0
-0.13
0.0
-8.0
0.0
-0.26
0.0
0.0
0.0
0.0
0.0
-0.22
-8.0
0.0
-0.13
0.0
0.0
0.0
0.0
0.0
0.0
0.0
0.0
0.0
0.0
0.0
0.0
0.0
0.0
0.0
0.0
0.0
0.0
0.0
0.0
0.0
0.0
0.0
0.0
0.0
0.0
0.0
0.0
0.0
0.0
0.0
0.0
0.0
-0.15
0.0
-7.99
-0.2
0.0
0.0
0.0
0.0
0.0
-0.27
-7.98
-0.26
0.0
0.0
-0.19
0.0
0.0
0.0
0.0
0.0
-7.98
-0.21
-7.99
0.0
-0.18
-7.99
0.0
0.0
0.0
0.0
-0.22
-7.99
0.0
-9.0599
0.0
-0.24
0.0
0.0
0.0
0.0
-0.2
-0.11
-0.04
0.0
-0.25
0.0
0.0
0.0
0.0
0.0
-7.99
0.0
-0.15
-9.44999999788
-8.0
0.0
-0.1
-0.04
-7.99
-0.21
-9.11193
-8.69
0.0
0.0
-0.23
0.0
0.0
0.0
-7.99
-8.0
-9.39
0.0
0.0
0.0
-0.22
0.0
0.0
-0.32
-9.49999968803
0.0
0.0
0.0
0.0
-0.17
-8.64
0.0
0.0
0.0
0.0
0.0
0.0
0.0
-0.16
-0.07
-7.98
0.0
0.0
0.0
0.0
0.0
0.0
0.0
0.0
0.0
0.0
0.0
0.0
0.0
0.0
0.0
0.0
0.0
0.0
0.0
0.0
0.0
0.0
0.0
0.0
0.0
0.0
0.0
0.0
-0.12
0.0
0.0
0.0
0.0
0.0
0.0
0.0
0.0
-0.21
0.0
0.0
0.0
0.0
0.0
0.0
0.0
0.0
-9.152351
0.0
0.0
0.0
0.0
0.0
-0.2
0.0
-7.99
-0.22
-8.0
-0.17
-9.40999999852
0.0
0.0
0.0
0.0
-0.2
-0.22
0.0
-9.51999978162
-8.31
0.0
0.0
0.0
0.0
-0.13
-9.2276457
-9.23235199
-0.24
-9.47999984713
-0.27
-0.27
0.0
0.0
0.0
0.0
0.0
-9.44999999896
-9.41999989299
-0.14
-0.23
0.0
0.0
-0.25
-9.249646393
0.0
-0.09
-0.27
0.0
-8.59
0.0
-0.24
0.0
0.0
-9.38998895572
-7.83
-9.42999999927
0.0
0.0
0.0
0.0
-0.04
0.0
-9.4199999251
-0.25
-0.08
0.0
0.0
0.0
0.0
0.0
-0.25
-9.41999999988
-9.47999994757
0.0
0.0
0.0
0.0
0.0
0.0
0.0
-0.17
0.0
0.0
0.0
0.0
0.0
0.0
0.0
0.0
0.0
-0.2
0.0
0.0
0.0
0.0
0.0
0.0
0.0
0.0
0.0
0.0
0.0
0.0
0.0
0.0
0.0
0.0
0.0
0.0
0.0
0.0
0.0
0.0
0.0
0.0
0.0
0.0
0.0
-0.16
0.0
0.0
-0.25
0.0
0.0
0.0
0.0
0.0
0.0
-0.14
0.0
-9.40999999949
0.0
-0.24
0.0
0.0
0.0
0.0
0.0
0.0
-0.26
0.0
-9.3999999633
-9.41999997431
-9.43999999991
0.0
0.0
0.0
-9.41999998202
-0.24
0.0
0.0
-0.23
-7.85
-8.8
0.0
0.0
0.0
-0.23
-0.17
-0.32
-0.24
-8.04
-0.26
0.0
0.0
0.0
0.0
-0.24
-0.21
-9.46321776927
-9.40999226901
-9.4299945883
-8.947
0.0
0.0
-0.26
-0.21
0.0
-0.35
-9.47944145414
-9.42999621181
0.0
-0.23
0.0
-0.32
-7.94
-9.4996090179
-0.21
-9.42999734827
0.0
0.0
0.0
0.0
-0.23
-9.44999999964
0.0
0.0
0.0
0.0
0.0
0.0
-0.24
-0.35
0.0
-9.39999999994
-9.40999999999
0.0
0.0
0.0
0.0
-0.23
0.0
-9.44
-9.39999998741
0.0
0.0
0.0
0.0
0.0
0.0
0.0
0.0
0.0
0.0
0.0
0.0
0.0
0.0
0.0
0.0
0.0
0.0
0.0
0.0
0.0
0.0
0.0
0.0
0.0
0.0
0.0
0.0
0.0
-0.15
0.0
0.0
0.0
0.0
0.0
0.0
0.0
0.0
-0.06
-0.24
0.0
0.0
0.0
0.0
0.0
-0.14
-0.21
-9.40999999975
-0.24
-0.15
-0.35
0.0
0.0
0.0
0.0
-0.17
-0.04
0.0
-9.41972631253
-0.26
-0.18
-9.42999814379
0.0
0.0
0.0
0.0
0.0
-0.14
-0.25
-0.32
-0.24
-0.22
-0.25
0.0
0.0
0.0
0.0
-0.22
0.0
-0.27
-0.25
-9.44525243849
-0.2
-0.21
-9.42999999999
-0.26
-0.23
0.0
-9.3917524751
-0.12
-9.40999870065
0.0
0.0
0.0
-0.15
0.0
0.0
-9.40667670694
-9.41999999119
-0.21
-0.22
0.0
0.0
0.0
0.0
-0.27
-9.43980841877
-0.32
-0.2
-9.41999999383
-0.14
0.0
0.0
-0.23
0.0
-0.33
-0.23
0.0
-9.43986589314
0.0
0.0
0.0
0.0
-0.15
0.0
-9.41999999996
-9.40999999983
-0.16
0.0
0.0
0.0
0.0
-9.43999999568
-0.1
0.0
0.0
0.0
0.0
0.0
0.0
0.0
0.0
0.0
0.0
0.0
0.0
0.0
0.0
0.0
0.0
0.0
0.0
0.0
0.0
0.0
0.0
0.0
0.0
0.0
0.0
0.0
0.0
0.0
0.0
0.0
0.0
0.0
0.0
0.0
0.0
0.0
-0.16
-9.44999909046
0.0
0.0
0.0
0.0
0.0
0.0
0.0
0.0
-0.24
-0.18
-7.79
0.0
0.0
0.0
0.0
0.0
-0.17
-0.22
-0.09
0.0
0.0
-9.46767369486
-0.13
0.0
0.0
0.0
0.0
0.0
0.0
-0.26
-0.23
-0.22
-0.19
-0.17
0.0
-0.24
-9.3999061252
0.0
-0.24
-0.16
-0.32
-0.18
0.0
0.0
0.0
-9.40999999999
-0.22
0.0
-0.19
0.0
-9.44022673257
0.0
0.0
0.0
-0.17
-0.2
-0.19
0.0
0.0
-0.21
-9.41999999698
0.0
0.0
0.0
-0.2
0.0
-9.42
0.0
-0.22
-0.17
0.0
-0.18
0.0
0.0
0.0
0.0
-0.16
-0.21
-9.43993428764
0.0
-0.27
-0.14
0.0
0.0
0.0
0.0
-0.13
-9.40999936332
-0.19
-9.43
0.0
0.0
0.0
0.0
0.0
0.0
0.0
-0.18
0.0
0.0
0.0
0.0
0.0
0.0
0.0
0.0
0.0
0.0
0.0
0.0
0.0
0.0
0.0
0.0
0.0
0.0
0.0
0.0
0.0
-0.02
0.0
0.0
0.0
0.0
0.0
0.0
0.0
0.0
0.0
0.0
0.0
0.0
0.0
0.0
-0.07
-0.16
-0.13
0.0
-0.13
0.0
0.0
0.0
0.0
-0.07
0.0
0.0
-0.22
0.0
0.0
-0.07
0.0
0.0
-0.2
-9.41995400135
0.0
0.0
0.0
-0.17
-0.22
0.0
-0.08
0.0
-9.46999955432
0.0
-0.26
-9.4483715864
-0.28
-0.18
0.0
0.0
0.0
0.0
0.0
-9.41999999997
-9.52886011048
-0.22
-0.22
-0.26
0.0
0.0
-0.08
0.0
-0.19
-0.2
-9.44920207734
-9.4261587128
-9.41999999998
-0.23
0.0
0.0
0.0
0.0
0.0
0.0
-0.29
-0.19
0.0
0.0
0.0
0.0
-0.04
0.0
-0.19
0.0
0.0
-0.07
0.0
0.0
0.0
0.0
0.0
-0.16
-0.08
-0.14
0.0
0.0
0.0
0.0
0.0
0.0
0.0
0.0
0.0
0.0
0.0
0.0
0.0
0.0
0.0
0.0
0.0
0.0
0.0
0.0
0.0
0.0
0.0
0.0
0.0
0.0
0.0
0.0
0.0
0.0
0.0
-0.17
0.0
0.0
0.0
0.0
0.0
0.0
0.0
0.0
0.0
0.0
0.0
0.0
0.0
0.0
-0.18
0.0
-0.17
-0.15
0.0
0.0
0.0
-0.16
-0.12
-0.11
-9.47996780094
-9.44
0.0
-0.08
0.0
0.0
-0.11
0.0
-0.13
-0.17
0.0
0.0
-0.12
-0.12
-0.14
-0.11
0.0
-0.22
0.0
0.0
0.0
0.0
-0.15
-0.16
-0.15
0.0
-9.49031109896
-0.2
0.0
0.0
-0.04
0.0
0.0
-9.47997746066
-0.18
-0.19
-9.43
0.0
0.0
0.0
0.0
-0.16
-0.06
-9.47998422246
-0.06
-0.19
0.0
0.0
-0.03
0.0
0.0
0.0
-0.24
0.0
0.0
0.0
-0.09
0.0
0.0
0.0
0.0
0.0
0.0
0.0
0.0
0.0
0.0
0.0
0.0
0.0
0.0
0.0
0.0
0.0
0.0
0.0
0.0
0.0
-0.1
0.0
0.0
0.0
-0.09
-0.12
0.0
-0.07
-0.13
-0.14
-0.12
-9.43
0.0
0.0
-0.09
-0.09
0.0
-8.58
0.0
0.0
-0.12
0.0
-0.18
0.0
0.0
0.0
0.0
0.0
-5.2
-5.21
-5.24
0.0
-9.4
0.0
0.0
0.0
0.0
-5.2
0.0
0.0
0.0
0.0
-5.28
0.0
0.0
-5.23
