0.0
0.0
0.0
0.0
0.0
0.0
0.0
0.0
0.0
0.0
0.0
0.0
0.0
-6.56
0.0
0.0
0.0
0.0
0.0
0.0
0.0
0.0
0.0
0.0
0.0
0.0
0.0
0.0
0.0
0.0
0.0
0.0
0.0
-6.64
0.0
0.0
0.0
0.0
0.0
0.0
0.0
0.0
0.0
0.0
0.0
0.0
0.0
0.0
0.0
0.0
0.0
0.0
0.0
0.0
0.0
0.0
0.0
0.0
0.0
0.0
0.0
0.0
0.0
0.0
0.0
0.0
0.0
0.0
0.0
0.0
-6.57
0.0
0.0
0.0
0.0
0.0
0.0
0.0
0.0
-6.63
-8.31
0.0
0.0
0.0
0.0
0.0
0.0
0.0
-8.29
0.0
0.0
0.0
0.0
-8.32
0.0
0.0
-8.39
0.0
0.0
0.0
0.0
0.0
-8.28
-6.52
-8.26
0.0
0.0
0.0
0.0
0.0
0.0
0.0
-6.72
-8.11
0.0
0.0
0.0
0.0
0.0
0.0
-8.33
-8.31
-8.29
0.0
0.0
0.0
0.0
0.0
0.0
-6.54
-6.7
-8.31
0.0
0.0
0.0
0.0
0.0
0.0
0.0
0.0
0.0
0.0
0.0
0.0
0.0
0.0
0.0
0.0
0.0
0.0
0.0
0.0
0.0
0.0
0.0
0.0
0.0
0.0
0.0
0.0
0.0
0.0
0.0
0.0
0.0
0.0
0.0
-6.65
0.0
0.0
0.0
0.0
0.0
0.0
0.0
0.0
-6.67
0.0
-8.29
0.0
0.0
0.0
0.0
0.0
0.0
0.0
-8.22
-6.57
-6.76
0.0
0.0
-6.53
-6.56
-8.32
-6.63
-8.34
0.0
0.0
-6.7
0.0
0.0
0.0
-6.54
0.0
-6.68
0.0
-6.65
-6.72
0.0
0.0
0.0
0.0
0.0
0.0
0.0
0.0
-6.69
0.0
0.0
0.0
0.0
0.0
0.0
-6.7
-8.33
-6.73
-6.68
-8.29
0.0
0.0
0.0
-6.54
0.0
-8.09
-6.57
0.0
0.0
0.0
0.0
0.0
0.0
0.0
-6.57
0.0
0.0
-8.3
0.0
0.0
0.0
0.0
0.0
0.0
0.0
-8.29
0.0
0.0
0.0
0.0
0.0
0.0
0.0
0.0
0.0
0.0
0.0
0.0
0.0
0.0
0.0
0.0
0.0
0.0
0.0
0.0
0.0
0.0
0.0
0.0
0.0
0.0
0.0
0.0
0.0
0.0
0.0
0.0
0.0
-6.61
0.0
0.0
0.0
0.0
0.0
0.0
0.0
-8.32
0.0
-8.31
-8.3
0.0
0.0
0.0
0.0
-6.64
-8.29
0.0
-8.28
-8.31
-6.65
-8.27
0.0
0.0
0.0
-6.44
0.0
-8.06
0.0
-8.25
-8.22
-8.11
-8.26
0.0
-6.6
0.0
-6.75
-8.29
-8.22
-6.73
-8.29
-6.59
0.0
0.0
0.0
-8.32
-6.74
-8.17
-8.36999998202
-6.74
0.0
0.0
0.0
0.0
0.0
0.0
-8.26
0.0
-6.76
-6.69
-6.73
0.0
0.0
0.0
0.0
0.0
-6.67
-6.65
-8.3
-8.24
-8.15
0.0
0.0
0.0
0.0
0.0
0.0
-6.63
-8.3
-8.06
0.0
0.0
0.0
0.0
0.0
0.0
0.0
-6.59
-6.69
-6.7
0.0
0.0
0.0
0.0
-6.7
0.0
0.0
0.0
0.0
0.0
0.0
0.0
0.0
0.0
0.0
0.0
0.0
0.0
0.0
0.0
0.0
0.0
0.0
0.0
0.0
0.0
0.0
0.0
0.0
0.0
0.0
0.0
0.0
0.0
0.0
0.0
0.0
0.0
0.0
0.0
0.0
0.0
0.0
0.0
0.0
0.0
0.0
0.0
-6.66
-6.72
-8.31
0.0
0.0
0.0
0.0
0.0
0.0
-6.68
0.0
-8.18
-8.31
0.0
0.0
0.0
0.0
0.0
-8.34
0.0
-8.26
-8.3
-6.56
0.0
-6.65
0.0
0.0
0.0
-6.62
-8.31
-6.64
-8.29
-8.35999734827
-8.25
-8.3
0.0
-6.66
-8.28
-8.38999998741
-6.59
0.0
-6.77
-8.32
0.0
0.0
0.0
-6.64
-6.67
-6.48
-8.21
-6.73
0.0
-8.31
0.0
0.0
0.0
-6.67
-8.45031109896
-8.27
-6.63
-8.25
-8.16
-6.48
0.0
0.0
-6.66
-8.14
-8.26
0.0
-6.68
-6.68
0.0
0.0
0.0
-8.24
0.0
-8.3
0.0
-6.71
0.0
0.0
0.0
0.0
0.0
-6.67
-8.35
-6.6
-6.66
0.0
0.0
0.0
0.0
0.0
0.0
-6.6
0.0
0.0
0.0
0.0
0.0
0.0
0.0
0.0
0.0
0.0
0.0
0.0
0.0
0.0
0.0
0.0
0.0
0.0
0.0
0.0
0.0
0.0
0.0
0.0
0.0
0.0
-6.67
0.0
-8.27
-6.68
0.0
0.0
0.0
0.0
0.0
-6.76
-8.2
-6.74
0.0
0.0
-6.66
0.0
0.0
0.0
0.0
0.0
-8.26
-8.25
-8.27
0.0
-6.68
-8.3
0.0
0.0
0.0
0.0
-8.23
-8.27
0.0
-8.0499
-6.57
-6.75
0.0
0.0
0.0
0.0
-6.63
-6.64
-6.46
0.0
-6.7
0.0
0.0
0.0
0.0
-6.56
-8.34999999119
0.0
-6.67
-8.54995400135
-8.24
0.0
-6.63
-6.68
-8.28
-6.68
-8.08193
-8.38022673257
0.0
0.0
-6.68
0.0
0.0
0.0
-8.32999999568
-8.40996780094
-8.19
0.0
0.0
0.0
-6.68
0.0
-6.53
-6.79
-8.22
0.0
0.0
0.0
0.0
-6.64
-8.45321776927
-6.61
-6.56
0.0
0.0
0.0
0.0
0.0
-6.64
-6.64
-8.3
0.0
0.0
0.0
0.0
0.0
0.0
0.0
0.0
0.0
0.0
0.0
0.0
0.0
0.0
0.0
0.0
0.0
0.0
0.0
0.0
0.0
0.0
0.0
0.0
0.0
0.0
0.0
0.0
-6.59
0.0
0.0
0.0
0.0
0.0
0.0
0.0
0.0
-6.7
0.0
0.0
0.0
0.0
0.0
0.0
0.0
0.0
-8.1776457
0.0
0.0
0.0
0.0
0.0
-6.67
0.0
-8.36
-6.68
-8.36999999698
-6.64
-8.45999999994
0.0
0.0
0.0
0.0
-6.67
-6.66
0.0
-8.2
-8.152351
0.0
0.0
0.0
0.0
-6.62
-8.229646393
-8.22235199
-6.71
-8.22
-6.73
-8.07
0.0
0.0
0.0
0.0
0.0
-8.24
-8.40999999852
-6.67
-6.66
0.0
0.0
-6.73
-8.2817524751
0.0
-6.6
-6.76
0.0
-7.59
0.0
-6.72
0.0
0.0
-8.51920207734
-8.23
-8.52999999896
0.0
0.0
0.0
0.0
-6.58
0.0
-8.47999999997
-6.72
0.0
0.0
0.0
0.0
0.0
0.0
-6.68
-8.51999999998
-8.19
-6.66
0.0
0.0
0.0
0.0
0.0
0.0
-6.64
0.0
0.0
0.0
0.0
0.0
0.0
0.0
0.0
0.0
-6.67
0.0
0.0
0.0
0.0
0.0
0.0
0.0
0.0
0.0
0.0
0.0
0.0
0.0
0.0
0.0
0.0
0.0
0.0
0.0
0.0
0.0
0.0
0.0
0.0
0.0
0.0
0.0
-6.63
0.0
0.0
-6.7
0.0
0.0
0.0
0.0
0.0
0.0
0.0
0.0
-8.45999999999
0.0
-6.73
0.0
0.0
0.0
0.0
0.0
0.0
-6.73
0.0
-8.51944145414
-8.5796090179
-8.49
0.0
0.0
0.0
-8.51
-6.7
0.0
0.0
-8.25
-8.21
-7.83
0.0
0.0
0.0
-6.67
-6.59
-6.78
-6.73
-8.4761587128
-6.7
0.0
0.0
0.0
0.0
-6.71
-6.62
-8.34
-8.49999870065
-8.49999909046
-7.957
0.0
0.0
-6.72
-6.67
-6.62
-8.11
-8.22
-8.47999936332
0.0
-6.63
0.0
-8.1
-8.40999999927
-8.19
-6.67
-8.49999955432
0.0
0.0
0.0
0.0
-6.63
-8.19
0.0
0.0
0.0
0.0
0.0
0.0
-6.67
-6.78
0.0
-8.43
-8.53
0.0
0.0
0.0
0.0
-6.65
0.0
-8.51
-8.45999999999
0.0
0.0
0.0
0.0
0.0
0.0
0.0
0.0
0.0
0.0
0.0
0.0
0.0
0.0
0.0
0.0
0.0
0.0
0.0
0.0
0.0
0.0
0.0
0.0
0.0
0.0
0.0
0.0
0.0
-6.59
0.0
0.0
0.0
0.0
0.0
0.0
0.0
0.0
0.0
-6.68
0.0
0.0
0.0
0.0
0.0
0.0
-6.52
-8.44999999949
-6.68
-6.57
-8.08
0.0
0.0
0.0
0.0
-6.57
0.0
0.0
-8.48525243849
-6.74
-6.54
-8.55972631253
0.0
0.0
0.0
0.0
0.0
0.0
-6.64
-6.79
-6.74
-6.66
-6.64
0.0
0.0
0.0
0.0
-6.66
0.0
-6.74
-6.67
-8.52667670694
-6.67
-6.61
-8.56
-6.68
-6.65
0.0
-8.48767369486
-6.64
-8.48998422246
0.0
0.0
0.0
-6.48
0.0
0.0
-8.46998895572
-8.49999968803
-6.65
-6.68
0.0
0.0
0.0
0.0
-6.73
-8.5383715864
-8.11
-6.64
-8.53999978162
-6.52
0.0
0.0
-6.69
0.0
-8.1
-6.66
0.0
-8.54980841877
0.0
0.0
0.0
0.0
-6.59
0.0
-8.52
-8.53999999999
0.0
0.0
0.0
0.0
0.0
-8.49
0.0
0.0
0.0
0.0
0.0
0.0
0.0
0.0
0.0
0.0
0.0
0.0
0.0
0.0
0.0
0.0
0.0
0.0
0.0
0.0
0.0
0.0
0.0
0.0
0.0
0.0
0.0
0.0
0.0
0.0
0.0
0.0
0.0
0.0
0.0
0.0
0.0
0.0
0.0
-8.57
0.0
0.0
0.0
0.0
0.0
0.0
0.0
0.0
-6.74
0.0
-8.52
0.0
0.0
0.0
0.0
0.0
-6.52
-6.65
0.0
0.0
0.0
-8.55999984713
0.0
0.0
0.0
0.0
0.0
0.0
0.0
-6.7
-6.71
-6.68
-6.61
0.0
0.0
-6.73
-8.43999989299
0.0
-6.74
0.0
-6.76
-6.67
0.0
0.0
0.0
-8.56
-6.65
0.0
-6.62
0.0
-8.5199061252
0.0
0.0
0.0
-6.64
-6.67
-6.64
0.0
0.0
-6.68
-8.4999999251
0.0
0.0
0.0
-6.58
0.0
-8.57
0.0
-6.61
0.0
0.0
-6.64
0.0
0.0
0.0
0.0
-6.63
-6.67
-8.54999999964
0.0
-6.66
0.0
0.0
0.0
0.0
0.0
0.0
-8.46
-6.63
-8.43
0.0
0.0
0.0
0.0
0.0
0.0
0.0
0.0
0.0
0.0
0.0
0.0
0.0
0.0
0.0
0.0
0.0
0.0
0.0
0.0
0.0
0.0
0.0
0.0
0.0
0.0
0.0
0.0
0.0
0.0
0.0
0.0
0.0
0.0
0.0
0.0
0.0
0.0
0.0
0.0
0.0
0.0
0.0
0.0
0.0
0.0
0.0
0.0
0.0
0.0
0.0
0.0
0.0
0.0
0.0
0.0
-6.6
0.0
0.0
0.0
0.0
0.0
-6.6
-8.52886011048
0.0
-6.48
0.0
-6.61
-6.69
0.0
0.0
0.0
-8.54
0.0
-6.66
-8.50999999975
-6.75
-6.64
0.0
0.0
0.0
0.0
0.0
-8.52999999983
-8.62
-6.67
-6.66
-6.75
0.0
0.0
0.0
0.0
-6.54
-6.55
-8.55993428764
-8.46999226901
-8.56999999988
-6.5
0.0
0.0
0.0
0.0
0.0
0.0
-6.75
0.0
0.0
0.0
0.0
0.0
0.0
0.0
-6.61
0.0
0.0
0.0
0.0
0.0
0.0
0.0
0.0
0.0
-6.55
0.0
0.0
0.0
0.0
0.0
0.0
0.0
0.0
0.0
0.0
0.0
0.0
0.0
0.0
0.0
0.0
0.0
0.0
0.0
0.0
0.0
0.0
0.0
0.0
0.0
0.0
0.0
0.0
0.0
0.0
0.0
0.0
0.0
0.0
0.0
0.0
0.0
0.0
0.0
0.0
0.0
0.0
0.0
0.0
0.0
0.0
0.0
0.0
0.0
-6.63
-6.63
0.0
0.0
0.0
0.0
-6.55
0.0
-8.5299945883
-8.56
0.0
0.0
0.0
0.0
0.0
0.0
0.0
0.0
0.0
0.0
0.0
0.0
0.0
0.0
0.0
-6.65
0.0
0.0
0.0
0.0
0.0
0.0
0.0
0.0
-8.56999621181
-6.55
0.0
0.0
0.0
0.0
0.0
-8.61999994757
0.0
-6.53
-8.5599999633
0.0
0.0
0.0
0.0
0.0
0.0
-8.61
0.0
-6.6
0.0
0.0
0.0
0.0
0.0
0.0
-6.63
0.0
0.0
0.0
0.0
0.0
0.0
0.0
0.0
0.0
0.0
0.0
0.0
0.0
0.0
0.0
0.0
0.0
0.0
0.0
0.0
0.0
0.0
0.0
0.0
0.0
0.0
0.0
0.0
0.0
0.0
0.0
0.0
0.0
0.0
0.0
-6.58
-8.59
0.0
0.0
0.0
0.0
0.0
-8.61999997431
0.0
0.0
0.0
0.0
0.0
0.0
0.0
0.0
0.0
0.0
0.0
0.0
0.0
0.0
-8.22
0.0
0.0
0.0
0.0
0.0
0.0
0.0
0.0
0.0
0.0
0.0
0.0
0.0
