0.0
0.0
0.0
0.0
-4.82
0.0
-4.54
0.0
0.0
0.0
-4.85
-4.88
-4.88
-4.95
-4.58
-4.83
-4.86
-4.64
0.0
-4.73
-4.84
0.0
0.0
0.0
0.0
0.0
-4.87
0.0
0.0
0.0
0.0
0.0
0.0
-4.9
-4.82
0.0
0.0
0.0
-4.84
0.0
0.0
0.0
0.0
0.0
0.0
0.0
0.0
-4.81
0.0
0.0
0.0
0.0
0.0
0.0
0.0
0.0
0.0
0.0
0.0
0.0
0.0
-4.87
0.0
0.0
0.0
0.0
0.0
-4.82
0.0
0.0
-4.88
0.0
0.0
0.0
0.0
-4.54
-4.88
-4.77
-4.9
-4.94
-5.43
0.0
0.0
0.0
0.0
0.0
-4.87
0.0
-5.45
0.0
0.0
-4.86
0.0
-5.4
-4.85
0.0
-5.43
0.0
0.0
0.0
0.0
-4.83
-5.39
0.0
-5.41999999788
0.0
0.0
0.0
0.0
0.0
-4.75
0.0
-4.95
-5.19
-4.85
0.0
0.0
0.0
0.0
0.0
-5.44
-5.42999999996
-5.4
0.0
0.0
0.0
0.0
0.0
-4.82
-4.88
-4.9
-5.42999999997
-4.65
0.0
0.0
0.0
0.0
0.0
-4.86
0.0
0.0
0.0
0.0
0.0
0.0
0.0
0.0
0.0
0.0
0.0
0.0
0.0
0.0
0.0
0.0
0.0
0.0
0.0
0.0
0.0
0.0
0.0
0.0
0.0
0.0
-4.61
0.0
-4.92
0.0
0.0
0.0
0.0
0.0
-4.85
-4.85
-4.82
-4.89
-4.84
-5.41
0.0
0.0
0.0
0.0
0.0
0.0
0.0
-5.4
-4.91
-4.95
0.0
0.0
-4.88
-4.9
-5.4
-4.83
-5.44
0.0
-4.86
-5.17
0.0
-4.84
0.0
-4.85
0.0
-5.18
0.0
-4.95
-4.94
0.0
0.0
-4.86
0.0
0.0
0.0
0.0
-4.69
-5.19
0.0
0.0
0.0
-4.8
0.0
-4.86
-4.91
-5.42
-4.96
-4.9
-5.40999999998
0.0
0.0
-4.82
-4.87
-4.59
-4.99
-4.97
0.0
0.0
0.0
0.0
0.0
0.0
0.0
-4.9
-4.57
-4.85
-5.43
0.0
0.0
-4.62
-4.8
0.0
0.0
-4.86
-5.41
0.0
0.0
0.0
0.0
0.0
0.0
0.0
0.0
0.0
0.0
0.0
0.0
0.0
0.0
0.0
0.0
0.0
0.0
0.0
0.0
0.0
0.0
0.0
0.0
-4.82
0.0
0.0
0.0
0.0
0.0
0.0
-4.82
0.0
-4.93
0.0
0.0
0.0
0.0
0.0
-4.75
0.0
-5.38
0.0
-5.41
-5.41
0.0
0.0
0.0
0.0
-4.9
-5.41
0.0
-5.4
-5.42
-4.85
-5.42
0.0
0.0
0.0
-4.84
0.0
-4.99
-4.5
-5.31
-5.40999999999
-5.25
-5.4
0.0
-4.91
0.0
-4.93
-5.39
-5.37
-4.94
-5.41999999852
-4.92
0.0
0.0
0.0
-5.4
-4.96
-4.99
-5.41999999896
-4.97
0.0
0.0
0.0
0.0
0.0
0.0
-5.31
0.0
-4.98
-4.99
-4.94
0.0
0.0
0.0
0.0
0.0
-4.87
-4.88
-5.42
-5.4
-5.23
-4.88
0.0
0.0
0.0
0.0
0.0
-4.97
-5.4
-5.12
0.0
0.0
0.0
0.0
0.0
0.0
-4.87
-4.85
-4.92
-4.94
0.0
0.0
0.0
0.0
-4.92
0.0
0.0
0.0
0.0
0.0
0.0
0.0
0.0
0.0
0.0
0.0
0.0
0.0
0.0
0.0
0.0
0.0
0.0
0.0
0.0
0.0
0.0
0.0
0.0
0.0
0.0
0.0
0.0
0.0
0.0
0.0
0.0
0.0
-4.88
0.0
0.0
0.0
0.0
0.0
0.0
0.0
0.0
0.0
-4.93
-4.92
-5.41
0.0
0.0
0.0
0.0
-4.87
0.0
-4.92
0.0
-5.32
-5.4
0.0
0.0
0.0
0.0
0.0
-5.39
0.0
-5.22
-5.41
-4.89
0.0
-4.91
0.0
0.0
-4.85
-4.91
-5.39
-4.88
-5.4
-5.41999999927
-5.4
-5.41
-4.89
-4.92
-5.4
-5.42
-4.93
0.0
-4.96
-5.4
0.0
0.0
0.0
-4.9
-4.92
-4.77
-5.35
-4.92
0.0
-5.4
0.0
0.0
0.0
-4.89
-5.42999998202
-5.4
-4.91
-5.22
-5.01
-4.76
0.0
0.0
-4.89
-5.01
-5.4
0.0
-4.86
-4.93
0.0
0.0
0.0
-5.13
0.0
-5.41
0.0
-4.94
0.0
0.0
0.0
0.0
0.0
-4.89
-5.4
-4.91
0.0
0.0
0.0
0.0
0.0
0.0
0.0
-4.88
0.0
0.0
0.0
0.0
0.0
0.0
0.0
0.0
0.0
0.0
0.0
0.0
0.0
0.0
0.0
0.0
0.0
0.0
0.0
0.0
0.0
0.0
0.0
0.0
0.0
0.0
0.0
-4.82
-5.4
-4.88
0.0
0.0
0.0
0.0
0.0
-4.94
-5.4
-4.96
-4.83
-4.92
-4.84
0.0
0.0
0.0
0.0
0.0
-5.39
-5.17
-5.4
0.0
-4.95
-5.39
0.0
0.0
0.0
0.0
-5.27
-5.39
0.0
-8.4199
-4.88
-4.96
0.0
0.0
0.0
0.0
-4.87
-4.88
0.0
0.0
-4.91
0.0
0.0
0.0
0.0
-4.85
-5.40999999999
0.0
-5.16
-5.43
-5.4
0.0
-4.89
-4.93
-5.37
-4.88
-7.95
-5.38999998741
0.0
0.0
-4.84
0.0
-4.84
0.0
-5.38
-5.42
-5.41
0.0
0.0
-4.83
-4.95
0.0
-4.84
-4.95
-5.4
0.0
0.0
0.0
0.0
0.0
-5.38
-4.89
-4.85
0.0
0.0
0.0
0.0
0.0
-4.81
-4.92
-5.39
0.0
0.0
0.0
0.0
0.0
0.0
0.0
0.0
0.0
0.0
0.0
0.0
0.0
0.0
0.0
0.0
0.0
0.0
0.0
0.0
0.0
0.0
0.0
0.0
0.0
0.0
0.0
0.0
0.0
0.0
0.0
0.0
0.0
0.0
0.0
0.0
0.0
-4.91
0.0
0.0
0.0
0.0
0.0
0.0
0.0
0.0
-8.522351
0.0
0.0
0.0
0.0
0.0
-4.9
0.0
-5.41
-4.9
-5.40999999999
-4.85
-5.4
0.0
0.0
0.0
0.0
-4.91
-4.89
0.0
-5.4
-8.48193
0.0
0.0
0.0
0.0
0.0
-8.5576457
-8.58235199
-4.93
-5.39
-4.91
-5.0
0.0
0.0
0.0
0.0
0.0
-5.38
-5.41
-4.93
-4.85
0.0
0.0
-4.92
-8.619646393
0.0
-4.87
-4.94
0.0
-7.69
0.0
-4.92
0.0
0.0
-5.43999999949
-5.4
-5.43
0.0
0.0
0.0
0.0
-4.87
0.0
-5.44
-4.93
-4.77
0.0
0.0
0.0
0.0
0.0
-4.91
-5.41
-5.4
-4.93
0.0
0.0
0.0
0.0
0.0
0.0
0.0
0.0
0.0
0.0
0.0
0.0
0.0
0.0
0.0
0.0
-4.88
0.0
0.0
0.0
0.0
0.0
0.0
0.0
0.0
0.0
0.0
0.0
0.0
0.0
0.0
0.0
0.0
0.0
0.0
0.0
0.0
0.0
0.0
0.0
0.0
0.0
0.0
0.0
0.0
0.0
0.0
-4.93
0.0
0.0
0.0
0.0
0.0
0.0
-4.78
0.0
-5.4
0.0
-4.94
0.0
0.0
0.0
0.0
0.0
0.0
-4.9
0.0
-5.45999999964
-5.45
-5.39
0.0
0.0
0.0
-5.45
-4.92
0.0
0.0
-5.31
-5.38
-8.2
0.0
0.0
0.0
-4.87
-4.83
-4.98
-4.94
-5.41999999975
-4.9
0.0
0.0
0.0
0.0
-4.88
-4.85
-5.39
-5.43
-5.41
-8.327
0.0
0.0
-4.92
-4.9
-4.88
-4.99
-5.41
-5.41
0.0
-4.86
0.0
-5.21
-5.37
-5.39
-4.93
-5.42
0.0
0.0
0.0
0.0
-4.87
-5.38
0.0
0.0
0.0
0.0
0.0
0.0
-4.83
-4.98
0.0
-5.38
-5.41
0.0
0.0
0.0
0.0
-4.9
0.0
-5.41
-5.42
0.0
0.0
0.0
0.0
0.0
0.0
0.0
0.0
0.0
0.0
0.0
0.0
0.0
0.0
0.0
0.0
0.0
0.0
0.0
0.0
0.0
0.0
0.0
0.0
0.0
0.0
0.0
0.0
0.0
0.0
0.0
0.0
0.0
0.0
0.0
0.0
0.0
0.0
0.0
-4.9
0.0
0.0
0.0
0.0
0.0
-4.78
-4.82
-5.42
-4.89
-4.8
-5.01
0.0
0.0
0.0
0.0
-4.82
0.0
0.0
-5.42999999119
-4.94
-4.81
-5.45
0.0
0.0
0.0
0.0
0.0
-4.82
-4.88
-4.97
-4.95
-4.89
-4.87
0.0
0.0
0.0
0.0
-4.86
0.0
-4.97
-4.87
-5.44999999383
-4.52
-4.85
-5.4
-4.88
-4.86
0.0
-5.42999999568
-4.71
-5.45999999983
0.0
0.0
0.0
-4.8
0.0
0.0
-5.43999999988
-5.44
-4.87
-4.88
0.0
0.0
0.0
0.0
-4.93
-5.42
-5.0
-4.85
-5.41
-4.81
0.0
0.0
-4.88
0.0
-4.98
-4.9
0.0
-5.45999999991
0.0
0.0
0.0
0.0
0.0
0.0
-5.39
-5.42
-4.79
0.0
0.0
0.0
0.0
-5.47
0.0
0.0
0.0
0.0
0.0
0.0
0.0
0.0
0.0
0.0
0.0
0.0
0.0
0.0
0.0
0.0
0.0
0.0
0.0
0.0
0.0
0.0
0.0
0.0
0.0
0.0
0.0
0.0
0.0
0.0
0.0
0.0
0.0
0.0
0.0
0.0
0.0
0.0
-4.78
-5.44
0.0
0.0
0.0
0.0
0.0
0.0
0.0
0.0
-4.94
-4.8
-5.41
0.0
0.0
0.0
0.0
0.0
-4.81
-4.86
0.0
0.0
0.0
-5.44
0.0
0.0
0.0
0.0
0.0
0.0
0.0
-4.88
-4.92
-4.88
-4.85
-4.77
0.0
-4.92
-5.43999999994
0.0
-4.92
-4.75
-4.94
0.0
0.0
0.0
0.0
-5.42
-4.89
0.0
-4.85
0.0
-5.45
0.0
0.0
0.0
-4.81
-4.89
-4.75
0.0
0.0
-4.86
-5.42
0.0
0.0
0.0
-4.84
0.0
-5.42
0.0
-4.85
-4.67
0.0
0.0
0.0
0.0
0.0
0.0
0.0
-4.88
-5.44
0.0
-4.87
-4.8
0.0
0.0
0.0
0.0
-4.8
-5.44
0.0
-5.41
0.0
0.0
0.0
0.0
0.0
0.0
0.0
-4.8
0.0
0.0
0.0
0.0
0.0
0.0
0.0
0.0
0.0
0.0
0.0
0.0
0.0
0.0
0.0
0.0
0.0
0.0
0.0
0.0
0.0
0.0
0.0
0.0
0.0
0.0
0.0
0.0
0.0
0.0
0.0
0.0
0.0
0.0
0.0
0.0
0.0
-4.79
-4.72
0.0
0.0
0.0
0.0
0.0
0.0
0.0
0.0
0.0
-4.84
0.0
0.0
0.0
0.0
0.0
-4.83
-5.44999999698
0.0
0.0
0.0
0.0
-4.91
0.0
0.0
0.0
-5.43
0.0
-4.88
-5.43
-4.96
0.0
0.0
0.0
0.0
0.0
0.0
-5.4
-5.45
-4.9
-4.86
-4.95
0.0
0.0
0.0
0.0
-4.84
-4.84
-5.45
-5.43
-5.45
-4.85
0.0
0.0
0.0
0.0
0.0
0.0
-4.91
-4.81
0.0
0.0
0.0
0.0
0.0
0.0
-4.84
0.0
0.0
0.0
0.0
0.0
0.0
0.0
0.0
-4.72
0.0
0.0
0.0
0.0
0.0
0.0
0.0
0.0
0.0
0.0
0.0
0.0
0.0
0.0
0.0
0.0
0.0
0.0
0.0
0.0
0.0
0.0
0.0
0.0
0.0
0.0
0.0
0.0
0.0
0.0
0.0
0.0
0.0
-4.78
0.0
0.0
0.0
0.0
0.0
0.0
0.0
0.0
0.0
0.0
0.0
0.0
0.0
0.0
-4.84
0.0
0.0
0.0
0.0
0.0
0.0
0.0
0.0
0.0
-5.44
-5.42
0.0
0.0
0.0
0.0
0.0
0.0
0.0
-4.76
0.0
0.0
0.0
0.0
-4.76
0.0
0.0
0.0
0.0
0.0
0.0
0.0
-4.75
-4.79
0.0
0.0
-5.45
-4.83
0.0
0.0
0.0
0.0
0.0
-5.42
0.0
-4.82
-5.44
0.0
0.0
0.0
0.0
-4.78
0.0
-5.45
0.0
-4.82
0.0
0.0
0.0
0.0
0.0
0.0
-4.86
0.0
0.0
0.0
0.0
0.0
0.0
0.0
0.0
0.0
0.0
0.0
0.0
0.0
0.0
0.0
0.0
0.0
0.0
0.0
0.0
0.0
0.0
0.0
0.0
0.0
0.0
0.0
0.0
0.0
0.0
0.0
0.0
0.0
0.0
-4.74
0.0
-5.45
0.0
0.0
0.0
0.0
0.0
-5.38
0.0
0.0
0.0
0.0
0.0
0.0
0.0
0.0
0.0
0.0
0.0
0.0
0.0
0.0
-5.43
0.0
0.0
0.0
0.0
0.0
0.0
0.0
0.0
0.0
0.0
0.0
0.0
0.0
