0.0
0.0
0.0
0.0
0.0
0.0
0.0
0.0
0.0
0.0
0.0
0.0
0.0
-8.48
0.0
0.0
0.0
0.0
0.0
0.0
0.0
0.0
0.0
0.0
0.0
0.0
0.0
0.0
0.0
0.0
0.0
0.0
0.0
-8.47
0.0
0.0
0.0
0.0
0.0
0.0
0.0
0.0
0.0
0.0
0.0
0.0
0.0
0.0
0.0
0.0
0.0
0.0
0.0
0.0
0.0
0.0
0.0
0.0
0.0
0.0
0.0
0.0
0.0
0.0
0.0
0.0
0.0
0.0
0.0
0.0
-8.42
0.0
0.0
0.0
0.0
0.0
-8.41
0.0
-8.38
-8.49
-9.17
0.0
0.0
0.0
0.0
0.0
0.0
0.0
-9.14
0.0
0.0
-8.36
0.0
-9.16
0.0
0.0
-9.13
0.0
0.0
0.0
0.0
0.0
-9.13
0.0
-9.1
0.0
0.0
0.0
0.0
0.0
0.0
0.0
-8.34
-8.55
0.0
0.0
0.0
0.0
0.0
0.0
-9.14
-9.21
-9.13
0.0
0.0
0.0
0.0
0.0
0.0
-8.42
0.0
-9.19
0.0
0.0
0.0
0.0
0.0
0.0
0.0
0.0
0.0
0.0
0.0
0.0
0.0
0.0
0.0
0.0
0.0
0.0
0.0
0.0
0.0
0.0
0.0
0.0
0.0
0.0
0.0
0.0
0.0
0.0
0.0
0.0
0.0
0.0
0.0
-8.47
0.0
0.0
0.0
0.0
0.0
0.0
0.0
0.0
0.0
0.0
-9.16
0.0
0.0
0.0
0.0
0.0
0.0
0.0
-9.13
-8.43
-8.48
0.0
0.0
-8.45
-8.47
-9.17
0.0
-9.13
0.0
0.0
-8.59
0.0
0.0
0.0
0.0
0.0
-8.51
0.0
-8.49
-8.46
0.0
0.0
0.0
0.0
0.0
0.0
0.0
0.0
-8.6
0.0
0.0
0.0
0.0
0.0
0.0
-8.41
-9.16
-8.5
-8.45
-9.17999999999
0.0
0.0
0.0
-8.46
0.0
-8.5
-8.5
0.0
0.0
0.0
0.0
0.0
0.0
0.0
-8.48
0.0
0.0
-9.11
0.0
0.0
0.0
0.0
0.0
0.0
0.0
-9.19
0.0
0.0
0.0
0.0
0.0
0.0
0.0
0.0
0.0
0.0
0.0
0.0
0.0
0.0
0.0
0.0
0.0
0.0
0.0
0.0
0.0
0.0
0.0
0.0
0.0
0.0
0.0
0.0
0.0
0.0
0.0
0.0
0.0
-8.52
0.0
0.0
0.0
0.0
0.0
0.0
0.0
-9.12
0.0
-9.15
-9.18
0.0
0.0
0.0
0.0
-8.49
-9.15
0.0
-9.13
-9.17
0.0
-9.13
0.0
0.0
0.0
-8.44
0.0
-8.47
0.0
-8.58
-9.13999999999
-8.54
-9.12
0.0
-8.45
0.0
0.0
-9.19
-9.12
-8.43
-9.11999968803
-8.5
0.0
0.0
0.0
-9.19
-8.47
-8.57
-9.12999999896
-8.5
0.0
0.0
0.0
0.0
0.0
0.0
-8.59
0.0
-8.47
-8.51
-8.48
0.0
0.0
0.0
0.0
0.0
0.0
0.0
-9.13
-9.13
-8.59
0.0
0.0
0.0
0.0
0.0
0.0
-8.53
-9.15
-8.57
0.0
0.0
0.0
0.0
0.0
0.0
0.0
-8.41
-8.52
-8.45
0.0
0.0
0.0
0.0
0.0
0.0
0.0
0.0
0.0
0.0
0.0
0.0
0.0
0.0
0.0
0.0
0.0
0.0
0.0
0.0
0.0
0.0
0.0
0.0
0.0
0.0
0.0
0.0
0.0
0.0
0.0
0.0
0.0
0.0
0.0
0.0
0.0
0.0
-8.34
0.0
0.0
0.0
0.0
0.0
0.0
0.0
0.0
0.0
-8.48
0.0
-9.21
0.0
0.0
0.0
0.0
-8.35
0.0
-8.48
0.0
-8.84
-9.2
0.0
0.0
0.0
0.0
0.0
-9.18
0.0
-8.58
-9.19999999999
0.0
0.0
-8.5
0.0
0.0
0.0
-8.44
-9.12
0.0
-9.17
-9.12999999927
-9.13
-9.14
0.0
-8.56
-9.12
-9.18
-8.45
0.0
-8.51
-9.19
0.0
0.0
0.0
-8.46
-8.56
0.0
-8.58
-8.43
0.0
-9.19
0.0
0.0
0.0
0.0
-9.06
-9.13
-8.52
-8.56
-8.55
0.0
0.0
0.0
-8.46
-8.53
-9.08
0.0
0.0
-8.53
0.0
0.0
0.0
-8.58
0.0
-9.19
0.0
-8.42
0.0
0.0
0.0
0.0
0.0
0.0
-9.12
-8.47
0.0
0.0
0.0
0.0
0.0
0.0
0.0
-8.46
0.0
0.0
0.0
0.0
0.0
0.0
0.0
0.0
0.0
0.0
0.0
0.0
0.0
0.0
0.0
0.0
0.0
0.0
0.0
0.0
0.0
0.0
0.0
0.0
0.0
0.0
0.0
0.0
-9.14
0.0
0.0
0.0
0.0
0.0
0.0
-8.42
-9.16
-8.35
0.0
-8.47
0.0
0.0
0.0
0.0
0.0
0.0
-9.13
-8.57
-9.13
0.0
-8.55
-9.18
0.0
0.0
0.0
0.0
-8.58
-9.17
0.0
-8.487
-8.37
0.0
0.0
0.0
0.0
0.0
-8.42
-8.48
0.0
0.0
-8.39
0.0
0.0
0.0
0.0
-8.41
-9.1
0.0
-8.53
-9.20999999949
-9.15
0.0
-8.51
-8.52
-9.13
-8.42
-8.5099
-9.03999978162
0.0
0.0
0.0
0.0
0.0
0.0
-9.08
-9.13
-9.14
0.0
0.0
0.0
-8.56
0.0
0.0
-8.5
-9.13
0.0
0.0
0.0
0.0
0.0
-9.05
-8.48
-8.35
0.0
0.0
0.0
0.0
0.0
0.0
-8.51
-9.17
0.0
0.0
0.0
0.0
0.0
0.0
0.0
0.0
0.0
0.0
0.0
0.0
0.0
0.0
0.0
0.0
0.0
0.0
0.0
0.0
0.0
0.0
0.0
0.0
0.0
0.0
0.0
0.0
0.0
0.0
0.0
0.0
0.0
0.0
0.0
0.0
0.0
-8.35
0.0
0.0
0.0
0.0
0.0
0.0
0.0
0.0
-8.652351
0.0
0.0
0.0
0.0
0.0
0.0
0.0
-9.13
-8.36
-9.13
0.0
-9.12999999964
0.0
0.0
0.0
0.0
0.0
-8.42
0.0
-9.18
-8.66193
0.0
0.0
0.0
0.0
0.0
-8.7476457
-8.77235199
-8.43
-9.13
-8.4
-8.5
0.0
0.0
0.0
0.0
0.0
-9.1
-9.0899061252
-8.54
-8.39
0.0
0.0
-8.4
-8.769646393
0.0
-8.41
0.0
0.0
-7.84
0.0
-8.41
0.0
0.0
-9.11667670694
-9.2
-9.19999984713
0.0
0.0
0.0
0.0
-8.38
0.0
-9.15999989299
-8.41
0.0
0.0
0.0
0.0
0.0
0.0
0.0
-9.20999999975
-9.15
-8.55
0.0
0.0
0.0
0.0
0.0
0.0
0.0
0.0
0.0
0.0
0.0
0.0
0.0
0.0
0.0
0.0
0.0
0.0
0.0
0.0
0.0
0.0
0.0
0.0
0.0
0.0
0.0
0.0
0.0
0.0
0.0
0.0
0.0
0.0
0.0
0.0
0.0
0.0
0.0
0.0
0.0
0.0
0.0
0.0
0.0
0.0
0.0
-8.41
0.0
0.0
0.0
0.0
0.0
0.0
0.0
0.0
-9.1999999251
0.0
-8.36
0.0
0.0
0.0
0.0
0.0
0.0
-8.45
0.0
-9.14993428764
-9.20995400135
-9.18
0.0
0.0
0.0
-9.17999994757
-8.43
0.0
0.0
-8.58
-9.15
-8.18
0.0
0.0
0.0
-8.4
0.0
-8.5
-8.42
-9.09
-8.44
0.0
0.0
0.0
0.0
-8.42
0.0
-9.05
-9.13767369486
-9.18996780094
-8.31
0.0
0.0
-8.48
0.0
-8.39
-8.53
-9.13
-9.1583715864
0.0
-8.38
0.0
-8.47
-9.13
-9.14
0.0
-9.18997746066
0.0
0.0
0.0
0.0
-8.35
-9.18
0.0
0.0
0.0
0.0
0.0
0.0
0.0
-8.58
0.0
-9.10999999983
-9.22
0.0
0.0
0.0
0.0
-8.38
0.0
-9.17
-9.0999999633
0.0
0.0
0.0
0.0
0.0
0.0
0.0
0.0
0.0
0.0
0.0
0.0
0.0
0.0
0.0
0.0
0.0
0.0
0.0
0.0
0.0
0.0
0.0
0.0
0.0
0.0
0.0
0.0
0.0
0.0
0.0
0.0
0.0
0.0
0.0
0.0
0.0
0.0
0.0
0.0
0.0
0.0
0.0
0.0
0.0
0.0
0.0
-9.10999999988
-8.5
0.0
-8.51
0.0
0.0
0.0
0.0
0.0
0.0
0.0
-9.0761587128
0.0
0.0
-9.19886011048
0.0
0.0
0.0
0.0
0.0
0.0
-8.39
-8.51
-8.48
-8.42
-8.42
0.0
0.0
0.0
0.0
-8.44
0.0
-8.48
-8.43
-9.1517524751
0.0
-8.36
-9.21
-8.46
-8.38
0.0
-9.08022673257
0.0
-9.15920207734
0.0
0.0
0.0
0.0
0.0
0.0
-9.10031109896
-9.14998422246
-8.32
-8.38
0.0
0.0
0.0
0.0
-8.4
-9.17944145414
-8.53
-8.36
-9.17999997431
0.0
0.0
0.0
-8.42
0.0
-8.56
-8.4
0.0
-9.1796090179
0.0
0.0
0.0
0.0
0.0
0.0
-9.18
-9.18999999991
0.0
0.0
0.0
0.0
0.0
-9.19999998202
0.0
0.0
0.0
0.0
0.0
0.0
0.0
0.0
0.0
0.0
0.0
0.0
0.0
0.0
0.0
0.0
0.0
0.0
0.0
0.0
0.0
0.0
0.0
0.0
0.0
0.0
0.0
0.0
0.0
0.0
0.0
0.0
0.0
0.0
0.0
0.0
0.0
0.0
0.0
-9.23999998741
0.0
0.0
0.0
0.0
0.0
0.0
0.0
0.0
-8.39
0.0
-9.22999999994
0.0
0.0
0.0
0.0
0.0
0.0
-8.41
0.0
0.0
0.0
-9.24321776927
0.0
0.0
0.0
0.0
0.0
0.0
0.0
-8.43
0.0
-8.41
0.0
0.0
0.0
-8.45
-9.06998895572
0.0
-8.4
0.0
-8.56
0.0
0.0
0.0
0.0
-9.18999999996
-8.43
0.0
0.0
0.0
-9.15972631253
0.0
0.0
0.0
0.0
0.0
0.0
0.0
0.0
0.0
-9.16999226901
0.0
0.0
0.0
-8.27
0.0
-9.22
0.0
0.0
0.0
0.0
0.0
0.0
0.0
0.0
0.0
0.0
0.0
-9.2099945883
0.0
-8.43
0.0
0.0
0.0
0.0
0.0
0.0
-9.14999621181
0.0
-9.20999999997
0.0
0.0
0.0
0.0
0.0
0.0
0.0
-4.69
0.0
0.0
0.0
0.0
0.0
0.0
0.0
0.0
0.0
0.0
0.0
0.0
0.0
0.0
0.0
0.0
0.0
0.0
0.0
0.0
0.0
0.0
0.0
0.0
0.0
0.0
0.0
0.0
0.0
0.0
0.0
0.0
0.0
0.0
0.0
0.0
0.0
0.0
0.0
0.0
0.0
0.0
0.0
0.0
0.0
0.0
0.0
0.0
0.0
0.0
0.0
0.0
0.0
0.0
-4.72
-9.09980841877
0.0
0.0
0.0
0.0
-8.37
0.0
0.0
0.0
-9.18999999998
0.0
-8.44
-9.18999734827
0.0
0.0
0.0
0.0
0.0
0.0
0.0
-9.19999999119
-9.24999814379
0.0
0.0
-8.37
0.0
0.0
0.0
0.0
0.0
-4.74
-9.18999870065
-9.10525243849
-9.22999909046
-4.79
0.0
0.0
0.0
0.0
0.0
0.0
-8.55
0.0
0.0
0.0
0.0
0.0
0.0
0.0
-4.75
0.0
0.0
0.0
0.0
0.0
0.0
0.0
0.0
0.0
0.0
0.0
0.0
0.0
0.0
0.0
0.0
0.0
0.0
0.0
0.0
0.0
0.0
0.0
0.0
0.0
0.0
0.0
0.0
0.0
0.0
0.0
0.0
0.0
0.0
0.0
0.0
0.0
0.0
0.0
0.0
0.0
0.0
0.0
0.0
0.0
0.0
0.0
0.0
0.0
0.0
0.0
0.0
0.0
0.0
0.0
0.0
0.0
-4.72
0.0
0.0
0.0
0.0
0.0
0.0
0.0
0.0
0.0
-9.16999936332
-9.22999955432
0.0
0.0
0.0
0.0
0.0
0.0
0.0
0.0
0.0
0.0
0.0
0.0
0.0
0.0
0.0
0.0
0.0
0.0
0.0
0.0
0.0
0.0
0.0
0.0
-9.21986589314
0.0
0.0
0.0
0.0
0.0
0.0
-9.23999999383
0.0
0.0
-9.19999999568
0.0
0.0
0.0
0.0
0.0
0.0
-9.23999999698
0.0
-4.74
0.0
0.0
0.0
0.0
0.0
0.0
-4.81
0.0
0.0
0.0
0.0
0.0
0.0
0.0
0.0
0.0
0.0
0.0
0.0
0.0
0.0
0.0
0.0
0.0
0.0
0.0
0.0
0.0
0.0
0.0
0.0
0.0
0.0
0.0
0.0
0.0
0.0
0.0
0.0
0.0
0.0
0.0
0.0
-9.23999999788
0.0
0.0
0.0
0.0
0.0
-9.23999999852
0.0
0.0
0.0
0.0
0.0
0.0
0.0
0.0
0.0
0.0
0.0
0.0
0.0
0.0
-7.67
0.0
0.0
0.0
0.0
0.0
0.0
0.0
0.0
0.0
0.0
0.0
0.0
0.0
