0.0
0.0
0.0
0.0
0.0
0.0
0.0
0.0
0.0
0.0
0.0
0.0
0.0
-5.2
0.0
0.0
0.0
0.0
0.0
0.0
0.0
0.0
0.0
0.0
0.0
0.0
0.0
0.0
0.0
0.0
0.0
0.0
0.0
-5.21
0.0
0.0
0.0
0.0
0.0
0.0
0.0
0.0
0.0
0.0
0.0
0.0
0.0
0.0
0.0
0.0
0.0
0.0
0.0
0.0
0.0
0.0
0.0
0.0
0.0
0.0
0.0
0.0
0.0
0.0
0.0
0.0
0.0
0.0
0.0
0.0
0.0
0.0
0.0
0.0
0.0
0.0
0.0
0.0
0.0
-5.2
-8.9
0.0
0.0
0.0
0.0
0.0
0.0
0.0
-8.92
0.0
0.0
0.0
0.0
-8.88
0.0
0.0
-8.95
0.0
0.0
0.0
0.0
0.0
-8.89
0.0
-8.88
0.0
0.0
0.0
0.0
0.0
0.0
0.0
-5.25
-5.35
0.0
0.0
0.0
0.0
0.0
0.0
-8.91
-8.91
-8.89
0.0
0.0
0.0
0.0
0.0
0.0
0.0
-5.16
-8.9
0.0
0.0
0.0
0.0
0.0
0.0
0.0
0.0
0.0
0.0
0.0
0.0
0.0
0.0
0.0
0.0
0.0
0.0
0.0
0.0
0.0
0.0
0.0
0.0
0.0
0.0
0.0
0.0
0.0
0.0
0.0
0.0
0.0
0.0
0.0
-5.17
0.0
0.0
0.0
0.0
0.0
0.0
0.0
0.0
0.0
0.0
-8.9
0.0
0.0
0.0
0.0
0.0
0.0
0.0
-8.9
0.0
-5.29
0.0
0.0
0.0
-5.18
-8.91
0.0
-8.92
0.0
0.0
-5.32
0.0
0.0
0.0
0.0
0.0
-5.25
0.0
-5.25
-5.3
0.0
0.0
0.0
0.0
0.0
0.0
0.0
0.0
-5.34
0.0
0.0
0.0
0.0
0.0
0.0
-5.1
-8.89
-5.31
-5.24
-8.92
0.0
0.0
0.0
0.0
0.0
-5.31
-5.2
0.0
0.0
0.0
0.0
0.0
0.0
0.0
0.0
0.0
0.0
-8.9
0.0
0.0
0.0
0.0
0.0
0.0
0.0
-8.9
0.0
0.0
0.0
0.0
0.0
0.0
0.0
0.0
0.0
0.0
0.0
0.0
0.0
0.0
0.0
0.0
0.0
0.0
0.0
0.0
0.0
0.0
0.0
0.0
0.0
0.0
0.0
0.0
0.0
0.0
0.0
0.0
0.0
-5.22
0.0
0.0
0.0
0.0
0.0
0.0
0.0
-8.89
0.0
-8.9
-8.94
0.0
0.0
0.0
0.0
-5.24
-8.9
0.0
-8.9
-8.91
0.0
-8.92
0.0
0.0
0.0
0.0
0.0
-5.29
0.0
-5.36
-8.89
-5.37
-8.9
0.0
-5.17
0.0
0.0
-8.92
-8.91
-5.25
-8.89
0.0
0.0
0.0
0.0
-8.9
-5.27
-5.35
-8.93
-5.32
0.0
0.0
0.0
0.0
0.0
0.0
-5.38
0.0
-5.32
-5.26
-5.3
0.0
0.0
0.0
0.0
0.0
0.0
0.0
-8.92
-8.91
-5.36
0.0
0.0
0.0
0.0
0.0
0.0
-5.29
-8.87
-5.37
0.0
0.0
0.0
0.0
0.0
0.0
0.0
0.0
-5.29
-5.22
0.0
0.0
0.0
0.0
-5.17
0.0
0.0
0.0
0.0
0.0
0.0
0.0
0.0
0.0
0.0
0.0
0.0
0.0
0.0
0.0
0.0
0.0
0.0
0.0
0.0
0.0
0.0
0.0
0.0
0.0
0.0
0.0
0.0
0.0
0.0
0.0
0.0
0.0
0.0
0.0
0.0
0.0
0.0
0.0
0.0
0.0
0.0
0.0
-5.22
-5.19
-8.94
0.0
0.0
0.0
0.0
0.0
0.0
-5.23
0.0
-5.39
-8.92
0.0
0.0
0.0
0.0
0.0
-8.91
0.0
-5.39
-8.91
0.0
0.0
-5.2
0.0
0.0
0.0
-5.22
-8.9
0.0
-8.92
-8.9
-8.93
-8.89
0.0
-5.29
-8.89
-8.92
0.0
0.0
-5.33
-8.91
0.0
0.0
0.0
-5.21
-5.3
0.0
-7.23
-5.32
0.0
-8.94
0.0
0.0
0.0
-5.1
-8.89999999997
-8.87
-5.23
-5.37
-5.36
0.0
0.0
0.0
-5.16
-5.34
-8.88
0.0
0.0
-5.27
0.0
0.0
0.0
-5.3
0.0
-8.89
0.0
-5.24
0.0
0.0
0.0
0.0
0.0
0.0
-8.9
-5.22
0.0
0.0
0.0
0.0
0.0
0.0
0.0
-5.17
0.0
0.0
0.0
0.0
0.0
0.0
0.0
0.0
0.0
0.0
0.0
0.0
0.0
0.0
0.0
0.0
0.0
0.0
0.0
0.0
0.0
0.0
0.0
0.0
0.0
0.0
0.0
0.0
-8.9
0.0
0.0
0.0
0.0
0.0
0.0
-5.28
-8.9
-5.27
0.0
0.0
0.0
0.0
0.0
0.0
0.0
0.0
-8.89
-5.37
-8.91
0.0
-5.3
-8.9
0.0
0.0
0.0
0.0
-5.4
-8.93
0.0
-8.4399
0.0
0.0
0.0
0.0
0.0
0.0
-5.17
-5.18
0.0
0.0
-5.22
0.0
0.0
0.0
0.0
0.0
-8.91
0.0
-5.3
-9.01
-8.89
0.0
-5.19
-5.28
-8.89
-5.31
-8.47193
-8.88999936332
0.0
0.0
-5.25
0.0
0.0
0.0
-8.88
-8.93
-8.86999955432
0.0
0.0
0.0
-5.33
0.0
0.0
-5.35
-8.86999968803
0.0
0.0
0.0
0.0
0.0
-8.89
-5.16
0.0
0.0
0.0
0.0
0.0
0.0
0.0
-5.26
-8.92
0.0
0.0
0.0
0.0
0.0
0.0
0.0
0.0
0.0
0.0
0.0
0.0
0.0
0.0
0.0
0.0
0.0
0.0
0.0
0.0
0.0
0.0
0.0
0.0
0.0
0.0
0.0
0.0
0.0
0.0
0.0
0.0
0.0
0.0
0.0
0.0
0.0
-5.23
0.0
0.0
0.0
0.0
0.0
0.0
0.0
0.0
-8.5476457
0.0
0.0
0.0
0.0
0.0
0.0
0.0
-8.94
-5.22
-8.93
0.0
-8.95
0.0
0.0
0.0
0.0
0.0
-5.36
0.0
-8.89980841877
-8.562351
0.0
0.0
0.0
0.0
0.0
-8.639646393
-8.59235199
-5.3
-8.86999978162
0.0
-5.34
0.0
0.0
0.0
0.0
0.0
-8.86999984713
-8.89986589314
-5.3
-5.3
0.0
0.0
-5.28
-8.6517524751
0.0
-5.18
0.0
0.0
-7.97
0.0
-5.28
0.0
0.0
-8.9399061252
-8.92999989299
-9.0
0.0
0.0
0.0
0.0
-5.16
0.0
-8.9499999251
-5.28
0.0
0.0
0.0
0.0
0.0
0.0
-5.2
-9.01
-8.88999994757
-5.28
0.0
0.0
0.0
0.0
0.0
0.0
0.0
0.0
0.0
0.0
0.0
0.0
0.0
0.0
0.0
0.0
0.0
0.0
0.0
0.0
0.0
0.0
0.0
0.0
0.0
0.0
0.0
0.0
0.0
0.0
0.0
0.0
0.0
0.0
0.0
0.0
0.0
0.0
0.0
0.0
0.0
0.0
0.0
0.0
0.0
0.0
0.0
-5.24
0.0
0.0
0.0
0.0
0.0
0.0
0.0
0.0
-8.9899999633
0.0
-5.29
0.0
0.0
0.0
0.0
0.0
0.0
-5.35
0.0
-8.95993428764
-9.01995400135
-8.96
0.0
0.0
0.0
-8.97999999998
-5.3
0.0
0.0
-5.57
-8.90999997431
-8.22
0.0
0.0
0.0
-5.33
0.0
-5.32
-5.25
-8.9
-5.39
0.0
0.0
0.0
0.0
-5.37
-5.12
-8.80525243849
-8.92667670694
-8.97
-8.307
0.0
0.0
-5.3
0.0
0.0
-5.36
-8.87996780094
-8.95997746066
0.0
-5.31
0.0
-5.35
-8.94
-8.88999998202
0.0
-9.01998422246
0.0
0.0
0.0
0.0
-5.33
-8.88999998741
0.0
0.0
0.0
0.0
0.0
0.0
0.0
-5.35
0.0
-8.93
-9.01
0.0
0.0
0.0
0.0
-5.22
0.0
-8.99
-8.88999999119
0.0
0.0
0.0
0.0
0.0
0.0
0.0
0.0
0.0
0.0
0.0
0.0
0.0
0.0
0.0
0.0
0.0
0.0
0.0
0.0
0.0
0.0
0.0
0.0
0.0
0.0
0.0
0.0
0.0
0.0
0.0
0.0
0.0
0.0
0.0
0.0
0.0
0.0
0.0
-5.21
0.0
0.0
0.0
0.0
0.0
0.0
0.0
-8.90999999383
-5.37
0.0
-5.35
0.0
0.0
0.0
0.0
0.0
0.0
0.0
-8.90767369486
-5.22
0.0
-9.0483715864
0.0
0.0
0.0
0.0
0.0
0.0
-5.38
-5.34
-5.32
-5.35
-5.38
0.0
0.0
0.0
0.0
-5.36
0.0
-5.33
-5.33
-8.92022673257
0.0
-5.24
-9.0
-5.37
-5.35
0.0
-8.8861587128
0.0
-8.94886011048
0.0
0.0
0.0
0.0
0.0
0.0
-8.93031109896
-8.99998895572
-5.35
-5.31
0.0
0.0
0.0
0.0
-5.3
-8.95999226901
-5.37
-5.28
-8.9999945883
0.0
0.0
0.0
-5.34
0.0
-5.35
-5.34
0.0
-9.00920207734
0.0
0.0
0.0
0.0
0.0
0.0
-9.01
-8.99999999999
0.0
0.0
0.0
0.0
0.0
-9.00999999568
0.0
0.0
0.0
0.0
0.0
0.0
0.0
0.0
0.0
0.0
0.0
0.0
0.0
0.0
0.0
0.0
0.0
0.0
0.0
0.0
0.0
0.0
0.0
0.0
0.0
0.0
0.0
0.0
0.0
0.0
0.0
0.0
0.0
0.0
0.0
0.0
0.0
0.0
0.0
-9.02999999698
0.0
0.0
0.0
0.0
0.0
0.0
0.0
0.0
-5.26
0.0
-9.05
0.0
0.0
0.0
0.0
0.0
0.0
-5.35
0.0
0.0
0.0
-9.04944145414
0.0
0.0
0.0
0.0
0.0
0.0
0.0
-5.35
0.0
-5.34
0.0
0.0
0.0
-5.29
-8.90999999788
0.0
-5.23
0.0
-9.03
0.0
0.0
0.0
0.0
-9.02999999852
-5.35
0.0
-5.17
0.0
-8.97321776927
0.0
0.0
0.0
0.0
0.0
0.0
0.0
0.0
-5.24
-9.0296090179
0.0
0.0
0.0
0.0
0.0
-9.04
0.0
0.0
0.0
0.0
0.0
0.0
0.0
0.0
0.0
0.0
0.0
-9.03999621181
0.0
-5.36
0.0
0.0
0.0
0.0
0.0
0.0
-8.92999999896
0.0
-9.01
0.0
0.0
0.0
0.0
0.0
0.0
0.0
0.0
0.0
0.0
0.0
0.0
0.0
0.0
0.0
0.0
0.0
0.0
0.0
0.0
0.0
0.0
0.0
0.0
0.0
0.0
0.0
0.0
0.0
0.0
0.0
0.0
0.0
0.0
0.0
0.0
0.0
0.0
0.0
0.0
0.0
0.0
0.0
0.0
0.0
0.0
0.0
0.0
0.0
0.0
0.0
0.0
0.0
0.0
0.0
0.0
-5.21
0.0
0.0
0.0
0.0
0.0
0.0
-8.91999734827
0.0
0.0
0.0
0.0
-5.24
0.0
0.0
0.0
-9.00999999927
0.0
-5.37
-9.01999814379
-5.3
0.0
0.0
0.0
0.0
0.0
0.0
-9.00999999949
-9.06999999964
0.0
0.0
-5.23
0.0
0.0
0.0
0.0
0.0
-5.24
-8.98999999975
-8.90972631253
-9.03999870065
0.0
0.0
0.0
0.0
0.0
0.0
0.0
-9.03
0.0
0.0
0.0
0.0
0.0
0.0
0.0
-5.22
0.0
0.0
0.0
0.0
0.0
0.0
0.0
0.0
0.0
0.0
0.0
0.0
0.0
0.0
0.0
0.0
0.0
0.0
0.0
0.0
0.0
0.0
0.0
0.0
0.0
0.0
0.0
0.0
0.0
0.0
0.0
0.0
0.0
0.0
0.0
0.0
0.0
0.0
0.0
0.0
0.0
0.0
0.0
0.0
0.0
0.0
0.0
0.0
0.0
0.0
0.0
0.0
0.0
0.0
0.0
0.0
0.0
0.0
0.0
0.0
0.0
0.0
0.0
0.0
0.0
0.0
0.0
-9.00999999983
-9.02999999988
0.0
0.0
0.0
0.0
0.0
0.0
0.0
0.0
0.0
0.0
0.0
0.0
0.0
0.0
0.0
0.0
0.0
0.0
0.0
0.0
0.0
0.0
0.0
0.0
-9.01999909046
0.0
0.0
0.0
0.0
0.0
0.0
-9.01999999999
0.0
0.0
-9.02999999991
0.0
0.0
0.0
0.0
0.0
0.0
-9.06999999994
0.0
0.0
0.0
0.0
0.0
0.0
0.0
0.0
-5.35
0.0
0.0
0.0
0.0
0.0
0.0
0.0
0.0
0.0
0.0
0.0
0.0
0.0
0.0
0.0
0.0
0.0
0.0
0.0
0.0
0.0
0.0
0.0
0.0
0.0
0.0
0.0
0.0
0.0
0.0
0.0
0.0
0.0
0.0
0.0
0.0
-9.06999999996
0.0
0.0
0.0
0.0
0.0
-9.05999999999
0.0
0.0
0.0
0.0
0.0
0.0
0.0
0.0
0.0
0.0
0.0
0.0
0.0
0.0
-8.32
0.0
0.0
0.0
0.0
0.0
0.0
0.0
0.0
0.0
0.0
0.0
0.0
0.0
