0.0
0.0
0.0
0.0
0.0
0.0
0.0
0.0
0.0
0.0
0.0
0.0
-4.73
-4.85
0.0
0.0
-4.66
0.0
0.0
0.0
0.0
0.0
0.0
0.0
0.0
0.0
-4.75
0.0
0.0
0.0
0.0
0.0
0.0
-4.88
0.0
0.0
0.0
0.0
0.0
0.0
0.0
0.0
0.0
0.0
0.0
0.0
0.0
0.0
0.0
0.0
0.0
0.0
0.0
0.0
0.0
0.0
0.0
0.0
0.0
0.0
0.0
0.0
0.0
0.0
0.0
0.0
0.0
0.0
0.0
0.0
-4.79
0.0
0.0
0.0
0.0
0.0
-4.77
0.0
-4.69
-4.87
-7.15
0.0
0.0
0.0
0.0
0.0
-4.74
0.0
-7.19
0.0
0.0
-4.74
0.0
-7.15
-4.65
0.0
-7.17
0.0
0.0
0.0
0.0
0.0
-7.12
0.0
-7.16996780094
0.0
0.0
0.0
0.0
0.0
0.0
0.0
-4.91
-5.79
-4.78
0.0
0.0
0.0
0.0
0.0
-7.18
-7.15
-7.15
0.0
0.0
0.0
0.0
0.0
0.0
-4.79
-4.92
-7.15999999999
0.0
0.0
0.0
0.0
0.0
0.0
0.0
0.0
0.0
0.0
0.0
0.0
0.0
0.0
0.0
0.0
0.0
0.0
0.0
0.0
0.0
0.0
0.0
0.0
0.0
0.0
0.0
0.0
0.0
0.0
0.0
0.0
0.0
0.0
0.0
-4.87
0.0
0.0
0.0
0.0
0.0
0.0
-4.71
0.0
-4.73
0.0
-7.16999999852
0.0
0.0
0.0
0.0
0.0
0.0
0.0
-7.11
-4.81
-4.98
0.0
0.0
-4.8
-4.84
-7.17
-4.76
-7.14
0.0
-4.68
-4.93
0.0
0.0
0.0
-4.78
0.0
-4.91
0.0
-4.84
-4.94
0.0
0.0
-4.73
0.0
0.0
0.0
0.0
0.0
-4.88
0.0
0.0
0.0
0.0
0.0
-4.67
-4.94
-7.14
-4.95
-4.88
-7.18999734827
0.0
0.0
0.0
-4.77
0.0
-4.99
-4.83
0.0
0.0
0.0
0.0
0.0
0.0
0.0
-4.8
0.0
0.0
-7.15
0.0
0.0
0.0
0.0
0.0
0.0
-4.74
-7.14
0.0
0.0
0.0
0.0
0.0
0.0
0.0
0.0
0.0
0.0
0.0
0.0
0.0
0.0
0.0
0.0
0.0
0.0
0.0
0.0
0.0
0.0
0.0
0.0
0.0
0.0
0.0
0.0
0.0
0.0
0.0
0.0
0.0
-4.86
0.0
0.0
0.0
0.0
0.0
0.0
0.0
-7.14999814379
0.0
-7.13
-7.16
0.0
0.0
0.0
0.0
-4.9
-7.13
0.0
-7.14999999896
-7.20999870065
-4.83
-7.15
0.0
0.0
0.0
-4.76
0.0
-4.98
0.0
-5.01
-7.15999994757
-5.0
-7.17998422246
0.0
-4.86
0.0
-4.96
-7.15
-7.1599999633
-4.93
-7.20944145414
-4.85
0.0
0.0
0.0
-7.16999999927
-4.92
-4.95
-7.17998895572
-4.96
0.0
0.0
0.0
0.0
0.0
0.0
-5.0
0.0
-4.98
-4.93
-4.98
0.0
0.0
0.0
0.0
0.0
-4.81
-4.86
-7.14
-7.15999997431
-5.83
0.0
0.0
0.0
0.0
0.0
0.0
-4.89
-7.13
-5.0
0.0
0.0
0.0
0.0
0.0
0.0
-4.71
-4.85
-4.93
-4.95
0.0
0.0
0.0
0.0
-4.92
0.0
0.0
0.0
0.0
0.0
0.0
0.0
0.0
0.0
0.0
0.0
0.0
0.0
0.0
0.0
0.0
0.0
0.0
0.0
0.0
0.0
0.0
0.0
0.0
0.0
0.0
0.0
0.0
0.0
0.0
0.0
0.0
0.0
-4.76
0.0
0.0
0.0
0.0
0.0
0.0
0.0
0.0
0.0
-4.89
-4.93
-7.22999999949
0.0
0.0
0.0
0.0
-4.72
0.0
-4.89
0.0
-5.86
-7.17999998202
0.0
0.0
0.0
0.0
0.0
-7.14
0.0
-4.95
-7.20999909046
-4.78
0.0
-4.82
0.0
0.0
-4.71
-4.84
-7.14999999964
-4.82
-7.17999998741
-7.2196090179
-7.14999999975
-7.18999936332
0.0
-4.92
-7.14999999983
-7.17999999119
-4.82
0.0
-4.97
-7.18999999988
0.0
0.0
0.0
-4.88
-4.92
-4.67
-5.24
-4.96
0.0
-7.16999999991
0.0
0.0
0.0
-4.89
-7.18972631253
-7.14
-4.87
-4.99
-5.0
-4.72
0.0
0.0
-4.85
-4.98
-7.14999955432
0.0
-4.85
-4.91
0.0
0.0
0.0
-4.93
0.0
-7.18999999994
0.0
-4.93
0.0
0.0
0.0
0.0
0.0
-4.91
-7.20997746066
-4.89
-4.74
0.0
0.0
0.0
0.0
0.0
0.0
-4.86
0.0
0.0
0.0
0.0
0.0
0.0
0.0
0.0
0.0
0.0
0.0
0.0
0.0
0.0
0.0
0.0
0.0
0.0
0.0
0.0
0.0
0.0
0.0
0.0
0.0
0.0
-4.71
0.0
-7.17999999999
-4.82
0.0
0.0
0.0
0.0
0.0
-4.93
-7.16999999996
-4.99
0.0
-4.77
-4.77
0.0
0.0
0.0
0.0
0.0
-7.14
-4.92
-7.15
0.0
-4.94
-7.15999999999
0.0
0.0
0.0
0.0
-4.97
-7.17
0.0
-8.49
-4.78
-4.94
0.0
0.0
0.0
0.0
-4.9
-4.86
-4.6
0.0
-4.91
0.0
0.0
0.0
0.0
-4.78
-7.16999978162
0.0
-4.91
-7.17
-7.17999999383
0.0
-4.88
-4.91
-7.16999999997
-4.95
-8.27
-7.17980841877
0.0
0.0
-4.92
0.0
-4.64
0.0
-7.14999984713
-7.1799945883
-7.02
0.0
0.0
-4.74
-4.93
0.0
-4.76
-5.01
-7.05
0.0
0.0
0.0
0.0
-4.77
-7.1699061252
-4.85
-4.81
0.0
0.0
0.0
0.0
0.0
-4.8
-4.89
-7.14
0.0
0.0
0.0
0.0
0.0
0.0
0.0
0.0
0.0
0.0
0.0
0.0
0.0
0.0
0.0
0.0
0.0
0.0
0.0
0.0
0.0
0.0
0.0
0.0
0.0
0.0
0.0
0.0
0.0
0.0
0.0
0.0
0.0
0.0
0.0
0.0
0.0
-4.92
0.0
0.0
0.0
0.0
0.0
0.0
0.0
0.0
-8.822351
0.0
0.0
0.0
0.0
0.0
-4.9
0.0
-7.16999999998
-4.92
-7.22986589314
-4.84
-7.1
0.0
0.0
0.0
0.0
-4.85
-4.99
0.0
-7.03
-8.637
0.0
0.0
0.0
0.0
-4.77
-8.89235199
-8.8776457
-4.95
-7.06
-4.89
-4.97
0.0
0.0
0.0
0.0
0.0
-7.06
-7.1
-4.92
-4.95
0.0
0.0
-4.95
-8.889646393
0.0
-4.85
-4.96
0.0
-8.0
0.0
-4.95
0.0
0.0
-7.09
-5.35
-7.16
0.0
0.0
0.0
0.0
-4.88
0.0
-7.14
-4.97
-4.52
0.0
0.0
0.0
0.0
0.0
-4.94
-7.14
-7.04
-4.9
0.0
0.0
0.0
0.0
0.0
0.0
-4.67
0.0
0.0
0.0
0.0
0.0
0.0
0.0
0.0
0.0
-4.92
0.0
0.0
0.0
0.0
0.0
0.0
0.0
0.0
0.0
0.0
0.0
0.0
0.0
0.0
0.0
0.0
0.0
0.0
0.0
0.0
0.0
0.0
0.0
0.0
0.0
0.0
0.0
-4.81
0.0
0.0
-4.92
0.0
0.0
0.0
0.0
0.0
0.0
-4.75
0.0
-7.13
0.0
-4.96
0.0
0.0
0.0
0.0
0.0
0.0
-4.98
0.0
-7.12
-7.14
-7.13
0.0
0.0
0.0
-7.1
-4.96
0.0
0.0
-5.02
-7.03
-8.7399
0.0
0.0
0.0
-4.98
-4.87
-4.98
-4.93
-7.28920207734
-5.01
0.0
0.0
0.0
0.0
-4.99
-4.93
-7.07
-7.1
-7.13
-8.79193
0.0
0.0
-4.99
-4.83
-4.85
-5.85
-7.04
-7.13
0.0
-4.95
0.0
-5.01
-7.14
-7.08
-4.9
-7.12
0.0
0.0
0.0
0.0
-4.99
-7.04
0.0
0.0
0.0
0.0
0.0
0.0
-4.93
-5.83
0.0
-7.08
-7.13
0.0
0.0
0.0
0.0
-4.91
0.0
-7.13
-7.09
0.0
0.0
0.0
0.0
0.0
0.0
0.0
0.0
0.0
0.0
0.0
0.0
0.0
0.0
0.0
0.0
0.0
0.0
0.0
0.0
0.0
0.0
0.0
0.0
0.0
0.0
0.0
0.0
0.0
0.0
0.0
0.0
0.0
0.0
0.0
0.0
0.0
0.0
0.0
-4.91
0.0
0.0
0.0
0.0
0.0
-4.7
-4.94
-7.1
-5.02
-4.86
-5.84
0.0
0.0
0.0
0.0
-4.88
0.0
0.0
-7.11
-4.95
-4.87
-7.15
0.0
0.0
0.0
0.0
0.0
-4.81
-5.0
-5.8
-4.95
-5.0
-5.02
0.0
0.0
0.0
0.0
-5.0
0.0
-4.97
-5.01
-7.14
-4.81
-4.91
-7.09
-5.03
-4.97
0.0
-7.09
-4.81
-7.15
0.0
0.0
0.0
-4.81
0.0
0.0
-7.08
-7.13
-5.01
-4.95
0.0
0.0
0.0
0.0
-4.96
-7.13
-5.01
-4.94
-7.13
-4.84
0.0
0.0
-5.0
0.0
-5.82
-4.98
0.0
-7.14
0.0
0.0
0.0
0.0
-4.77
0.0
-7.11
-7.12
-4.87
0.0
0.0
0.0
0.0
-7.15
0.0
0.0
0.0
0.0
0.0
0.0
0.0
0.0
0.0
0.0
0.0
0.0
0.0
0.0
0.0
0.0
0.0
0.0
0.0
0.0
0.0
0.0
0.0
0.0
0.0
0.0
0.0
0.0
0.0
0.0
0.0
0.0
0.0
0.0
0.0
0.0
0.0
0.0
-4.8
-7.13
0.0
0.0
0.0
0.0
0.0
0.0
0.0
0.0
-4.94
-4.94
-7.13
0.0
0.0
0.0
0.0
0.0
-4.92
-5.01
0.0
0.0
0.0
-7.15
0.0
0.0
0.0
0.0
0.0
0.0
0.0
-5.0
-4.91
-4.98
-4.93
-4.8
0.0
-4.95
-7.07
0.0
-4.93
-4.73
-5.03
-4.69
0.0
0.0
0.0
-7.11
-5.0
0.0
-4.94
0.0
-7.14
0.0
0.0
0.0
-4.74
-4.92
-4.81
0.0
0.0
-4.93
-7.12
0.0
0.0
0.0
-4.93
0.0
-7.1
0.0
-4.94
-4.78
0.0
-4.83
0.0
0.0
0.0
0.0
-4.76
-4.91
-7.14
0.0
-5.02
-4.79
0.0
0.0
0.0
0.0
-4.82
-7.11
-4.8
-7.14
0.0
0.0
0.0
0.0
0.0
0.0
0.0
-4.91
0.0
0.0
0.0
0.0
0.0
0.0
0.0
0.0
0.0
0.0
0.0
0.0
0.0
0.0
0.0
0.0
0.0
0.0
0.0
0.0
0.0
0.0
0.0
0.0
0.0
0.0
0.0
0.0
0.0
0.0
0.0
0.0
0.0
0.0
0.0
0.0
0.0
-4.75
-4.76
0.0
0.0
0.0
0.0
0.0
0.0
0.0
0.0
0.0
-4.95
0.0
0.0
0.0
0.0
0.0
-4.92
-7.1
0.0
0.0
0.0
0.0
-4.93
0.0
0.0
0.0
-7.13
0.0
-5.02
-7.12
-4.96
0.0
0.0
0.0
0.0
0.0
0.0
-7.1
-7.12
-4.93
-4.88
-4.93
0.0
0.0
0.0
0.0
-4.87
-4.94
-7.12
-7.09
-7.13
-5.01
0.0
0.0
0.0
0.0
0.0
0.0
-5.04
-4.85
0.0
0.0
0.0
0.0
0.0
0.0
-4.94
0.0
0.0
0.0
0.0
0.0
0.0
0.0
0.0
-4.94
0.0
0.0
0.0
0.0
0.0
0.0
0.0
0.0
0.0
0.0
0.0
0.0
0.0
0.0
0.0
0.0
0.0
0.0
0.0
0.0
0.0
0.0
0.0
0.0
0.0
0.0
0.0
0.0
0.0
0.0
0.0
0.0
0.0
-4.92
0.0
0.0
0.0
0.0
0.0
0.0
0.0
0.0
0.0
0.0
0.0
0.0
0.0
0.0
-4.95
0.0
-4.8
-4.75
0.0
0.0
0.0
-4.66
0.0
0.0
-7.11
-7.12
0.0
0.0
0.0
0.0
-4.76
0.0
0.0
-4.81
0.0
0.0
0.0
0.0
-4.82
0.0
0.0
-4.87
0.0
0.0
0.0
0.0
0.0
-4.81
0.0
0.0
-7.14
-4.91
0.0
0.0
0.0
0.0
0.0
-7.12
-4.73
-4.9
-7.13
0.0
0.0
0.0
0.0
-4.88
0.0
-7.11
0.0
-4.95
0.0
0.0
0.0
0.0
0.0
0.0
-5.0
0.0
0.0
0.0
0.0
0.0
0.0
0.0
0.0
0.0
0.0
0.0
0.0
0.0
0.0
0.0
0.0
0.0
0.0
0.0
0.0
0.0
0.0
0.0
0.0
0.0
0.0
0.0
0.0
0.0
0.0
0.0
0.0
0.0
-4.78
-4.8
-4.73
-7.13
0.0
0.0
0.0
0.0
0.0
-7.12
0.0
0.0
0.0
0.0
-4.79
0.0
0.0
0.0
0.0
0.0
0.0
0.0
0.0
0.0
-5.88
0.0
0.0
0.0
0.0
0.0
0.0
0.0
0.0
0.0
-4.79
0.0
0.0
0.0
