0.0
0.0
0.0
0.0
0.0
0.0
0.0
0.0
0.0
0.0
0.0
0.0
0.0
-4.57
0.0
0.0
0.0
0.0
0.0
0.0
0.0
0.0
0.0
0.0
0.0
0.0
0.0
0.0
0.0
0.0
0.0
0.0
0.0
-4.51
0.0
0.0
0.0
0.0
0.0
0.0
0.0
0.0
0.0
0.0
0.0
0.0
0.0
0.0
0.0
0.0
0.0
0.0
0.0
0.0
0.0
0.0
0.0
0.0
0.0
0.0
0.0
0.0
0.0
0.0
0.0
0.0
0.0
0.0
0.0
0.0
-4.44
0.0
0.0
0.0
0.0
0.0
-4.55
0.0
0.0
-4.58
-8.93999936332
0.0
0.0
0.0
0.0
0.0
0.0
0.0
-9.00999999949
0.0
0.0
-4.49
0.0
-8.92999999964
0.0
0.0
-9.0099061252
0.0
0.0
0.0
0.0
0.0
-8.91
0.0
-8.87980841877
0.0
0.0
0.0
0.0
0.0
0.0
0.0
-4.56
-4.56
0.0
0.0
0.0
0.0
0.0
0.0
-9.02999999975
-8.93999955432
-8.93999968803
0.0
0.0
0.0
0.0
0.0
0.0
0.0
-4.52
-8.92993428764
0.0
0.0
0.0
0.0
0.0
0.0
0.0
0.0
0.0
0.0
0.0
0.0
0.0
0.0
0.0
0.0
0.0
0.0
0.0
0.0
0.0
0.0
0.0
0.0
0.0
0.0
0.0
0.0
0.0
0.0
0.0
0.0
0.0
0.0
0.0
-4.56
0.0
0.0
0.0
0.0
0.0
0.0
0.0
0.0
0.0
0.0
-8.92995400135
0.0
0.0
0.0
0.0
0.0
0.0
0.0
-8.87999978162
-4.5
-4.55
0.0
0.0
-4.47
-4.52
-8.95999999999
0.0
-8.93999984713
0.0
0.0
-4.63
0.0
0.0
0.0
0.0
0.0
-4.61
0.0
-4.54
-4.54
0.0
0.0
0.0
0.0
0.0
0.0
0.0
0.0
-4.62
0.0
0.0
0.0
0.0
0.0
0.0
-4.53
-8.89999989299
-4.57
-4.54
-8.90996780094
0.0
0.0
0.0
0.0
0.0
-4.57
-4.58
0.0
0.0
0.0
0.0
0.0
0.0
0.0
-4.49
0.0
0.0
-8.94999999983
0.0
0.0
0.0
0.0
0.0
0.0
0.0
-8.94
0.0
0.0
0.0
0.0
0.0
0.0
0.0
0.0
0.0
0.0
0.0
0.0
0.0
0.0
0.0
0.0
0.0
0.0
0.0
0.0
0.0
0.0
0.0
0.0
0.0
0.0
0.0
0.0
0.0
0.0
0.0
0.0
0.0
-4.58
0.0
0.0
0.0
0.0
0.0
0.0
0.0
-8.86999999988
0.0
-8.88999999991
-8.92
0.0
0.0
0.0
0.0
-4.56
-8.8999999251
0.0
-8.86999999994
-8.89999994757
-4.44
-8.8999999633
0.0
0.0
0.0
0.0
0.0
-4.55
0.0
-4.64
-8.86997746066
-5.37
-8.87999997431
0.0
-4.55
0.0
-4.49
-8.96
-8.89999998202
-4.54
-8.89525243849
-4.46
0.0
0.0
0.0
-8.92
-4.56
-4.61
-8.86998422246
-4.57
0.0
0.0
0.0
0.0
0.0
0.0
-4.62
0.0
-4.56
-4.58
-4.55
0.0
0.0
0.0
0.0
0.0
-4.42
-4.47
-8.89999998741
-8.87999999119
-5.44
0.0
0.0
0.0
0.0
0.0
0.0
-4.58
-8.9
-5.37
0.0
0.0
0.0
0.0
0.0
0.0
0.0
0.0
-4.57
-4.54
0.0
0.0
0.0
0.0
-4.5
0.0
0.0
0.0
0.0
0.0
0.0
0.0
0.0
0.0
0.0
0.0
0.0
0.0
0.0
0.0
0.0
0.0
0.0
0.0
0.0
0.0
0.0
0.0
0.0
0.0
0.0
0.0
0.0
0.0
0.0
0.0
0.0
0.0
0.0
0.0
0.0
0.0
0.0
0.0
0.0
0.0
0.0
0.0
-4.56
-4.54
-9.0
0.0
0.0
0.0
0.0
0.0
0.0
-4.58
0.0
-5.48
-8.92999999996
0.0
0.0
0.0
0.0
0.0
-8.91
0.0
-4.65
-8.96998895572
0.0
0.0
-4.59
0.0
0.0
0.0
-4.55
-8.88
-4.47
-8.91999999383
-8.90667670694
-8.85999999568
-8.91999999698
0.0
-4.59
-8.88
-8.90999226901
-4.6
0.0
-4.56
-8.91999999788
0.0
0.0
0.0
-4.49
-4.57
0.0
-8.85
-4.56
0.0
-8.95999999852
0.0
0.0
0.0
-4.49
-8.85986589314
-8.9
-4.57
-4.63
-5.35
0.0
0.0
0.0
-4.56
-4.55
-8.84999999997
0.0
-4.47
-4.59
0.0
0.0
0.0
-4.6
0.0
-8.9299945883
0.0
-4.54
0.0
0.0
0.0
0.0
0.0
-4.47
-8.88999621181
-4.56
0.0
0.0
0.0
0.0
0.0
0.0
0.0
-4.47
0.0
0.0
0.0
0.0
0.0
0.0
0.0
0.0
0.0
0.0
0.0
0.0
0.0
0.0
0.0
0.0
0.0
0.0
0.0
0.0
0.0
0.0
0.0
0.0
0.0
0.0
0.0
0.0
-8.90999999998
-4.47
0.0
0.0
0.0
0.0
0.0
-4.53
-8.9
-4.54
0.0
-4.55
0.0
0.0
0.0
0.0
0.0
0.0
-8.89
-4.6
-8.9
0.0
-4.6
-8.92
0.0
0.0
0.0
0.0
-5.44
-8.94
0.0
-8.66193
0.0
-4.53
0.0
0.0
0.0
0.0
-4.46
-4.56
0.0
0.0
-4.51
0.0
0.0
0.0
0.0
0.0
-8.86999734827
0.0
-4.58
-8.82
-8.90999999999
0.0
-4.56
-4.58
-8.9
-4.46
-8.417
-8.8083715864
0.0
0.0
-4.42
0.0
0.0
0.0
-8.83999999896
-8.90999814379
-8.79
0.0
0.0
0.0
-4.59
0.0
0.0
-4.56
-8.81
0.0
0.0
0.0
0.0
0.0
-8.86999870065
-4.55
0.0
0.0
0.0
0.0
0.0
0.0
0.0
-4.57
-8.91
0.0
0.0
0.0
0.0
0.0
0.0
0.0
0.0
0.0
0.0
0.0
0.0
0.0
0.0
0.0
0.0
0.0
0.0
0.0
0.0
0.0
0.0
0.0
0.0
0.0
0.0
0.0
0.0
0.0
0.0
0.0
0.0
0.0
0.0
0.0
0.0
0.0
-4.52
0.0
0.0
0.0
0.0
0.0
0.0
0.0
0.0
-8.672351
0.0
0.0
0.0
0.0
0.0
-4.49
0.0
-8.87999999927
-4.51
-8.88999909046
0.0
-8.8
0.0
0.0
0.0
0.0
-4.52
-4.51
0.0
-8.85
-8.5799
0.0
0.0
0.0
0.0
0.0
-8.7476457
-8.77235199
-4.52
-8.79
-4.53
-4.58
0.0
0.0
0.0
0.0
0.0
-8.76
-8.77
-4.58
0.0
0.0
0.0
-4.55
-8.789646393
0.0
0.0
-4.53
0.0
-7.83
0.0
-4.5
0.0
0.0
-8.79
-8.84
-8.81
0.0
0.0
0.0
0.0
-4.45
0.0
-8.82
-4.55
0.0
0.0
0.0
0.0
0.0
0.0
-4.49
-8.82
-8.83
-4.6
0.0
0.0
0.0
0.0
0.0
0.0
0.0
0.0
0.0
0.0
0.0
0.0
0.0
0.0
0.0
0.0
-4.49
0.0
0.0
0.0
0.0
0.0
0.0
0.0
0.0
0.0
0.0
0.0
0.0
0.0
0.0
0.0
0.0
0.0
0.0
0.0
0.0
0.0
0.0
0.0
0.0
0.0
0.0
0.0
0.0
0.0
0.0
-4.54
0.0
0.0
0.0
0.0
0.0
0.0
0.0
0.0
-8.83
0.0
-4.51
0.0
0.0
0.0
0.0
0.0
0.0
-4.51
0.0
-8.82
-8.79
-8.81
0.0
0.0
0.0
-8.77
-4.52
0.0
0.0
-5.48
-8.84
-8.17
0.0
0.0
0.0
-4.45
0.0
-4.56
-4.55
-8.90321776927
-5.37
0.0
0.0
0.0
0.0
-4.49
0.0
-8.77
-8.76
-8.84
-8.32
0.0
0.0
-4.52
-4.5
-4.49
-4.56
-8.82
-8.83
0.0
0.0
0.0
-4.54
-8.88999999999
-8.84
-4.51
-8.82
0.0
0.0
0.0
0.0
0.0
-8.82
0.0
0.0
0.0
0.0
0.0
0.0
0.0
-4.54
0.0
-8.77
-8.82
0.0
0.0
0.0
0.0
-4.5
0.0
-8.8
-8.75
0.0
0.0
0.0
0.0
0.0
0.0
0.0
0.0
0.0
0.0
0.0
0.0
0.0
0.0
0.0
0.0
0.0
0.0
0.0
0.0
0.0
0.0
0.0
0.0
0.0
0.0
0.0
0.0
0.0
0.0
0.0
0.0
0.0
0.0
0.0
0.0
0.0
0.0
0.0
-4.49
0.0
0.0
0.0
0.0
0.0
0.0
0.0
-8.76
-4.5
0.0
-4.55
0.0
0.0
0.0
0.0
0.0
0.0
0.0
-8.79
-4.54
0.0
-8.8
0.0
0.0
0.0
0.0
0.0
0.0
0.0
-4.55
-4.55
0.0
0.0
0.0
0.0
0.0
0.0
-4.47
0.0
-4.56
-4.48
-8.81
0.0
0.0
-8.8
-4.45
0.0
0.0
-8.78
0.0
-8.85
0.0
0.0
0.0
0.0
0.0
0.0
-8.77
-8.84
0.0
-4.52
0.0
0.0
0.0
0.0
-4.52
-8.78
-4.55
0.0
-8.8
0.0
0.0
0.0
-4.47
0.0
-4.55
-4.47
0.0
-8.79
0.0
0.0
0.0
0.0
0.0
0.0
-8.82
-8.81
0.0
0.0
0.0
0.0
0.0
-8.77
0.0
0.0
0.0
0.0
0.0
0.0
0.0
0.0
0.0
0.0
0.0
0.0
0.0
0.0
0.0
0.0
0.0
0.0
0.0
0.0
0.0
0.0
0.0
0.0
0.0
0.0
0.0
0.0
0.0
0.0
0.0
0.0
0.0
0.0
0.0
0.0
0.0
0.0
0.0
-8.82
0.0
0.0
0.0
0.0
0.0
0.0
0.0
0.0
-4.52
0.0
-8.85
0.0
0.0
0.0
0.0
0.0
0.0
0.0
0.0
0.0
0.0
-8.82
0.0
0.0
0.0
0.0
0.0
0.0
0.0
-4.46
-4.51
-4.46
0.0
0.0
0.0
-4.53
-8.72
0.0
-4.54
0.0
-5.48
0.0
0.0
0.0
0.0
-8.81
0.0
0.0
0.0
0.0
-8.82
0.0
0.0
0.0
0.0
-4.49
0.0
0.0
0.0
-4.45
-8.83
0.0
0.0
0.0
0.0
0.0
-8.85
0.0
0.0
0.0
0.0
0.0
0.0
0.0
0.0
0.0
0.0
-4.49
-8.78
0.0
0.0
0.0
0.0
0.0
0.0
0.0
0.0
-8.78
0.0
-8.79
0.0
0.0
0.0
0.0
0.0
0.0
0.0
0.0
0.0
0.0
0.0
0.0
0.0
0.0
0.0
0.0
0.0
0.0
0.0
0.0
0.0
0.0
0.0
0.0
0.0
0.0
0.0
0.0
0.0
0.0
0.0
0.0
0.0
0.0
0.0
0.0
0.0
0.0
0.0
0.0
0.0
0.0
0.0
0.0
0.0
0.0
0.0
0.0
0.0
0.0
0.0
0.0
0.0
0.0
0.0
0.0
0.0
0.0
0.0
0.0
0.0
0.0
0.0
-8.81
0.0
0.0
0.0
0.0
-4.51
0.0
0.0
0.0
-8.8
0.0
-4.48
-8.81
-4.52
0.0
0.0
0.0
0.0
0.0
0.0
-8.82
-8.87
-4.5
-4.5
-4.51
0.0
0.0
0.0
0.0
0.0
0.0
-8.82
-8.76
-8.84
0.0
0.0
0.0
0.0
0.0
0.0
0.0
-5.44
0.0
0.0
0.0
0.0
0.0
0.0
0.0
0.0
0.0
0.0
0.0
0.0
0.0
0.0
0.0
0.0
0.0
0.0
0.0
0.0
0.0
0.0
0.0
0.0
0.0
0.0
0.0
0.0
0.0
0.0
0.0
0.0
0.0
0.0
0.0
0.0
0.0
0.0
0.0
0.0
0.0
0.0
0.0
0.0
0.0
0.0
0.0
0.0
0.0
0.0
0.0
0.0
0.0
0.0
0.0
0.0
0.0
0.0
0.0
0.0
0.0
0.0
0.0
0.0
0.0
0.0
0.0
0.0
0.0
0.0
0.0
0.0
0.0
0.0
0.0
-8.82
-8.83
0.0
0.0
0.0
0.0
0.0
0.0
0.0
0.0
0.0
0.0
0.0
0.0
0.0
0.0
0.0
0.0
0.0
0.0
0.0
0.0
0.0
0.0
0.0
0.0
-8.85
0.0
0.0
0.0
0.0
0.0
0.0
-8.85
0.0
0.0
-8.82
0.0
0.0
0.0
0.0
0.0
0.0
-8.88
0.0
0.0
0.0
0.0
0.0
0.0
0.0
0.0
0.0
0.0
0.0
0.0
0.0
0.0
0.0
0.0
0.0
0.0
0.0
0.0
0.0
0.0
0.0
0.0
0.0
0.0
0.0
0.0
0.0
0.0
0.0
0.0
0.0
0.0
0.0
0.0
0.0
0.0
0.0
0.0
0.0
0.0
0.0
0.0
0.0
-8.88
0.0
0.0
0.0
0.0
0.0
-8.87
0.0
0.0
0.0
0.0
0.0
0.0
0.0
0.0
0.0
0.0
0.0
0.0
0.0
0.0
-5.49
0.0
0.0
0.0
0.0
0.0
0.0
0.0
0.0
0.0
0.0
0.0
0.0
0.0
