0.0
0.0
0.0
0.0
0.0
0.0
0.0
0.0
0.0
0.0
0.0
0.0
0.0
-1.2
0.0
0.0
0.0
0.0
0.0
0.0
0.0
0.0
0.0
0.0
0.0
0.0
0.0
0.0
0.0
0.0
0.0
0.0
0.0
-1.27
0.0
0.0
0.0
0.0
0.0
0.0
0.0
0.0
0.0
0.0
0.0
0.0
0.0
0.0
0.0
0.0
0.0
0.0
0.0
0.0
0.0
0.0
0.0
0.0
0.0
0.0
0.0
0.0
0.0
0.0
0.0
0.0
0.0
0.0
0.0
0.0
-1.2
0.0
0.0
0.0
0.0
0.0
0.0
0.0
0.0
-7.11
-9.09
0.0
0.0
0.0
0.0
0.0
0.0
0.0
-9.19
0.0
0.0
0.0
0.0
-9.08
0.0
0.0
-9.17999999896
0.0
0.0
0.0
0.0
0.0
-9.07
0.0
-8.98999984713
0.0
0.0
0.0
0.0
0.0
0.0
0.0
-8.99
-9.13
0.0
0.0
0.0
0.0
0.0
0.0
-9.19
-9.12999989299
-9.09
0.0
0.0
0.0
0.0
0.0
0.0
0.0
-7.21
-9.1099999251
0.0
0.0
0.0
0.0
0.0
0.0
0.0
0.0
0.0
0.0
0.0
0.0
0.0
0.0
0.0
0.0
0.0
0.0
0.0
0.0
0.0
0.0
0.0
0.0
0.0
0.0
0.0
0.0
0.0
0.0
0.0
0.0
0.0
0.0
0.0
-7.22
0.0
0.0
0.0
0.0
0.0
0.0
0.0
0.0
-7.23
0.0
-9.08
0.0
0.0
0.0
0.0
0.0
0.0
0.0
-9.01
-1.22
-9.0
0.0
0.0
-1.17
-1.2
-9.13
0.0
-9.15
0.0
0.0
-9.11
0.0
0.0
0.0
0.0
0.0
-9.13
0.0
-8.99
-9.01
0.0
0.0
0.0
0.0
0.0
0.0
0.0
0.0
-9.12
0.0
0.0
0.0
0.0
0.0
0.0
-7.25
-9.09999999927
-9.05
-8.96
-9.07999999949
0.0
0.0
0.0
-1.18
0.0
-9.14
-1.15
0.0
0.0
0.0
0.0
0.0
0.0
0.0
-1.19
0.0
0.0
-9.12
0.0
0.0
0.0
0.0
0.0
0.0
0.0
-9.14
0.0
0.0
0.0
0.0
0.0
0.0
0.0
0.0
0.0
0.0
0.0
0.0
0.0
0.0
0.0
0.0
0.0
0.0
0.0
0.0
0.0
0.0
0.0
0.0
0.0
0.0
0.0
0.0
0.0
0.0
0.0
0.0
0.0
-9.01
0.0
0.0
0.0
0.0
0.0
0.0
0.0
-8.99
0.0
-9.06
-9.1
0.0
0.0
0.0
0.0
-7.22
-9.09
0.0
-9.03999999964
-9.09
0.0
-9.07
0.0
0.0
0.0
0.0
0.0
-9.05
0.0
-9.08
-9.00999994757
-9.15
-9.05999999975
0.0
-7.22
0.0
-7.23
-9.14
-9.01
-8.97
-9.00980841877
-1.27
0.0
0.0
0.0
-9.08
-8.96
-9.1
-9.01999999983
-9.02
0.0
0.0
0.0
0.0
0.0
0.0
-9.08
0.0
-9.02
-7.29
-9.0
0.0
0.0
0.0
0.0
0.0
-7.15
-7.17
-9.07
-8.99
-9.08
0.0
0.0
0.0
0.0
0.0
0.0
-9.08
-9.08
-9.08
0.0
0.0
0.0
0.0
0.0
0.0
0.0
-1.2
-9.08
-8.96
0.0
0.0
0.0
0.0
-8.94
0.0
0.0
0.0
0.0
0.0
0.0
0.0
0.0
0.0
0.0
0.0
0.0
0.0
0.0
0.0
0.0
0.0
0.0
0.0
0.0
0.0
0.0
0.0
0.0
0.0
0.0
0.0
0.0
0.0
0.0
0.0
0.0
0.0
0.0
0.0
0.0
0.0
0.0
0.0
0.0
0.0
0.0
0.0
-7.24
-8.94
-9.16
0.0
0.0
0.0
0.0
0.0
0.0
-8.94
0.0
-9.18
-9.1
0.0
0.0
0.0
0.0
0.0
-9.07
0.0
-9.09
-9.09
0.0
0.0
-1.22
0.0
0.0
0.0
-7.1
-9.06
0.0
-9.09999999988
-9.01997746066
-8.99999999991
-9.09
0.0
-9.08
-9.07
-9.0899999633
0.0
0.0
-9.04
-9.09999999994
0.0
0.0
0.0
-7.17
-9.08
0.0
-9.17
-8.92
0.0
-9.09
0.0
0.0
0.0
-7.22
-8.94999997431
-9.08
-8.96
-9.1
-9.11
0.0
0.0
0.0
-7.17
-9.12
-8.99
0.0
-7.19
-9.09
0.0
0.0
0.0
-9.06
0.0
-9.08
0.0
-8.97
0.0
0.0
0.0
0.0
0.0
-7.13
-9.07
-1.21
0.0
0.0
0.0
0.0
0.0
0.0
0.0
-1.17
0.0
0.0
0.0
0.0
0.0
0.0
0.0
0.0
0.0
0.0
0.0
0.0
0.0
0.0
0.0
0.0
0.0
0.0
0.0
0.0
0.0
0.0
0.0
0.0
0.0
0.0
-7.22
0.0
-9.06
-7.2
0.0
0.0
0.0
0.0
0.0
-8.94
-9.07
-8.99
0.0
0.0
0.0
0.0
0.0
0.0
0.0
0.0
-9.05
-9.07
-9.09
0.0
-9.08
-9.09
0.0
0.0
0.0
0.0
-9.1
-9.08
0.0
-8.407
0.0
-8.99
0.0
0.0
0.0
0.0
0.0
-7.16
0.0
0.0
-7.26
0.0
0.0
0.0
0.0
0.0
-8.97
0.0
-9.02
-9.14999998202
-9.08
0.0
-7.14
-9.1
-9.05
-8.9
-8.4299
-8.91998422246
0.0
0.0
-7.21
0.0
0.0
0.0
-8.95999999996
-9.09999999997
-9.08
0.0
0.0
0.0
-9.09
0.0
0.0
-9.01
-9.03
0.0
0.0
0.0
0.0
0.0
-8.95999999998
-1.19
0.0
0.0
0.0
0.0
0.0
0.0
0.0
-8.95
-9.12
0.0
0.0
0.0
0.0
0.0
0.0
0.0
0.0
0.0
0.0
0.0
0.0
0.0
0.0
0.0
0.0
0.0
0.0
0.0
0.0
0.0
0.0
0.0
0.0
0.0
0.0
0.0
0.0
0.0
0.0
0.0
0.0
0.0
0.0
0.0
0.0
0.0
-8.96
0.0
0.0
0.0
0.0
0.0
0.0
0.0
0.0
-8.562351
0.0
0.0
0.0
0.0
0.0
-7.23
0.0
-9.07
-8.9
-9.03999999999
0.0
-9.05
0.0
0.0
0.0
0.0
-7.21
-8.94
0.0
-9.1
-8.54193
0.0
0.0
0.0
0.0
0.0
-8.6576457
-8.68235199
-8.97
-9.05
-8.91
-9.05
0.0
0.0
0.0
0.0
0.0
-9.0
-9.01525243849
-8.96
-7.15
0.0
0.0
-8.93
-8.699646393
0.0
-1.24
-8.98
0.0
-7.77
0.0
-8.95
0.0
0.0
-9.05022673257
-9.15
-9.18999998741
0.0
0.0
0.0
0.0
0.0
0.0
-9.10986589314
-8.98
0.0
0.0
0.0
0.0
0.0
0.0
-7.1
-9.14
-9.09
-9.04
0.0
0.0
0.0
0.0
0.0
0.0
0.0
0.0
0.0
0.0
0.0
0.0
0.0
0.0
0.0
0.0
-7.1
0.0
0.0
0.0
0.0
0.0
0.0
0.0
0.0
0.0
0.0
0.0
0.0
0.0
0.0
0.0
0.0
0.0
0.0
0.0
0.0
0.0
0.0
0.0
0.0
0.0
0.0
0.0
0.0
0.0
0.0
-8.97
0.0
0.0
0.0
0.0
0.0
0.0
0.0
0.0
-9.11
0.0
-8.96
0.0
0.0
0.0
0.0
0.0
0.0
-9.03
0.0
-9.07667670694
-9.15767369486
-9.11
0.0
0.0
0.0
-9.13998895572
-8.96
0.0
0.0
-9.06
-9.08
-8.06
0.0
0.0
0.0
-8.88
0.0
-9.02
-8.98
-8.99999999999
-8.98
0.0
0.0
0.0
0.0
-8.93
0.0
-8.97
-9.0983715864
-9.11999999999
-8.21
0.0
0.0
-9.0
-7.23
-1.27
-9.16
-9.04
-9.07999226901
0.0
-7.11
0.0
-9.09
-9.07
-9.01
0.0
-9.12999999119
0.0
0.0
0.0
0.0
0.0
-9.09
0.0
0.0
0.0
0.0
0.0
0.0
0.0
-9.14
0.0
-9.05
-9.17
0.0
0.0
0.0
0.0
-7.22
0.0
-9.13
-9.0399945883
0.0
0.0
0.0
0.0
0.0
0.0
0.0
0.0
0.0
0.0
0.0
0.0
0.0
0.0
0.0
0.0
0.0
0.0
0.0
0.0
0.0
0.0
0.0
0.0
0.0
0.0
0.0
0.0
0.0
0.0
0.0
0.0
0.0
0.0
0.0
0.0
0.0
0.0
0.0
-7.22
0.0
0.0
0.0
0.0
0.0
0.0
0.0
-9.03999621181
-8.99
0.0
-9.12
0.0
0.0
0.0
0.0
0.0
0.0
0.0
-9.01886011048
-8.95
0.0
-9.15920207734
0.0
0.0
0.0
0.0
0.0
0.0
-7.13
-9.1
-8.98
-7.13
-7.12
0.0
0.0
0.0
0.0
-8.88
0.0
-9.01
-8.96
-9.0917524751
0.0
-7.07
-9.15
-8.94
-7.13
0.0
-8.9961587128
0.0
-9.12031109896
0.0
0.0
0.0
0.0
0.0
0.0
-9.04321776927
-9.10999999383
-8.9
-8.88
0.0
0.0
0.0
0.0
-9.0
-9.1299061252
-9.09
-7.09
-9.12
0.0
0.0
0.0
-8.91
0.0
-9.13
-8.85
0.0
-9.15944145414
0.0
0.0
0.0
0.0
0.0
0.0
-9.12
-9.13
0.0
0.0
0.0
0.0
0.0
-9.15999734827
0.0
0.0
0.0
0.0
0.0
0.0
0.0
0.0
0.0
0.0
0.0
0.0
0.0
0.0
0.0
0.0
0.0
0.0
0.0
0.0
0.0
0.0
0.0
0.0
0.0
0.0
0.0
0.0
0.0
0.0
0.0
0.0
0.0
0.0
0.0
0.0
0.0
0.0
0.0
-9.18999999568
0.0
0.0
0.0
0.0
0.0
0.0
0.0
0.0
-8.93
0.0
-9.2
0.0
0.0
0.0
0.0
0.0
0.0
-7.15
0.0
0.0
0.0
-9.20993428764
0.0
0.0
0.0
0.0
0.0
0.0
0.0
-8.95
-7.24
-8.86
0.0
0.0
0.0
-8.98
-8.99999814379
0.0
-8.96
0.0
-9.07
0.0
0.0
0.0
0.0
-9.18
-7.18
0.0
0.0
0.0
-9.1396090179
0.0
0.0
0.0
0.0
-7.22
0.0
0.0
0.0
-7.17
-9.12999999698
0.0
0.0
0.0
0.0
0.0
-9.19
0.0
0.0
0.0
0.0
0.0
0.0
0.0
0.0
0.0
0.0
-7.2
-9.14995400135
0.0
-7.17
0.0
0.0
0.0
0.0
0.0
0.0
-9.04996780094
0.0
-9.12
0.0
0.0
0.0
0.0
0.0
0.0
0.0
0.0
0.0
0.0
0.0
0.0
0.0
0.0
0.0
0.0
0.0
0.0
0.0
0.0
0.0
0.0
0.0
0.0
0.0
0.0
0.0
0.0
0.0
0.0
0.0
0.0
0.0
0.0
0.0
0.0
0.0
0.0
0.0
0.0
0.0
0.0
0.0
0.0
0.0
0.0
0.0
0.0
0.0
0.0
0.0
0.0
0.0
0.0
0.0
0.0
0.0
0.0
0.0
0.0
0.0
0.0
0.0
-9.05972631253
0.0
0.0
0.0
0.0
-8.81
0.0
0.0
0.0
-9.14
0.0
-8.84
-9.13999870065
-9.0
0.0
0.0
0.0
0.0
0.0
0.0
-9.14
-9.21999909046
-7.25
-7.15
-8.96
0.0
0.0
0.0
0.0
0.0
0.0
-9.15999936332
-9.01999955432
-9.19999968803
0.0
0.0
0.0
0.0
0.0
0.0
0.0
-9.06
0.0
0.0
0.0
0.0
0.0
0.0
0.0
0.0
0.0
0.0
0.0
0.0
0.0
0.0
0.0
0.0
0.0
0.0
0.0
0.0
0.0
0.0
0.0
0.0
0.0
0.0
0.0
0.0
0.0
0.0
0.0
0.0
0.0
0.0
0.0
0.0
0.0
0.0
0.0
0.0
0.0
0.0
0.0
0.0
0.0
0.0
0.0
0.0
0.0
0.0
0.0
0.0
0.0
0.0
0.0
0.0
0.0
0.0
0.0
0.0
0.0
0.0
0.0
0.0
0.0
0.0
0.0
0.0
0.0
0.0
0.0
0.0
0.0
0.0
0.0
-9.14999999788
-9.2
0.0
0.0
0.0
0.0
0.0
0.0
0.0
0.0
0.0
0.0
0.0
0.0
0.0
0.0
0.0
0.0
0.0
0.0
0.0
0.0
0.0
0.0
0.0
0.0
-9.17999978162
0.0
0.0
0.0
0.0
0.0
0.0
-9.18
0.0
0.0
-9.18999999852
0.0
0.0
0.0
0.0
0.0
0.0
-9.22
0.0
0.0
0.0
0.0
0.0
0.0
0.0
0.0
0.0
0.0
0.0
0.0
0.0
0.0
0.0
0.0
0.0
0.0
0.0
0.0
0.0
0.0
0.0
0.0
0.0
0.0
0.0
0.0
0.0
0.0
0.0
0.0
0.0
0.0
0.0
0.0
0.0
0.0
0.0
0.0
0.0
0.0
0.0
0.0
0.0
-9.2
0.0
0.0
0.0
0.0
0.0
-9.16
0.0
0.0
0.0
0.0
0.0
0.0
0.0
0.0
0.0
0.0
0.0
0.0
0.0
0.0
-9.2
0.0
0.0
0.0
0.0
0.0
0.0
0.0
0.0
0.0
0.0
0.0
0.0
0.0
