0.0
0.0
0.0
0.0
0.0
0.0
0.0
0.0
0.0
0.0
0.0
0.0
0.0
-0.73
0.0
0.0
0.0
0.0
0.0
0.0
0.0
0.0
0.0
0.0
0.0
0.0
0.0
0.0
0.0
0.0
0.0
0.0
0.0
-0.82
0.0
0.0
0.0
0.0
0.0
0.0
0.0
0.0
0.0
0.0
0.0
0.0
0.0
0.0
0.0
0.0
0.0
0.0
0.0
0.0
0.0
0.0
0.0
0.0
0.0
0.0
0.0
0.0
0.0
0.0
0.0
0.0
0.0
0.0
0.0
0.0
-0.74
0.0
0.0
0.0
0.0
0.0
0.0
0.0
0.0
-0.84
-8.67
0.0
0.0
0.0
0.0
0.0
0.0
0.0
-5.32
0.0
0.0
0.0
0.0
-8.65
0.0
0.0
-5.33
0.0
0.0
0.0
0.0
0.0
-8.58
0.0
-8.64993428764
0.0
0.0
0.0
0.0
0.0
0.0
0.0
-0.93
-4.9
0.0
0.0
0.0
0.0
0.0
0.0
-5.31
-8.69999999949
-5.28
0.0
0.0
0.0
0.0
0.0
0.0
-0.69
-0.9
-8.65999999964
0.0
0.0
0.0
0.0
0.0
0.0
0.0
0.0
0.0
0.0
0.0
0.0
0.0
0.0
0.0
0.0
0.0
0.0
0.0
0.0
0.0
0.0
0.0
0.0
0.0
0.0
0.0
0.0
0.0
0.0
0.0
0.0
0.0
0.0
0.0
-0.78
0.0
0.0
0.0
0.0
0.0
0.0
0.0
0.0
0.0
0.0
-8.65999999975
0.0
0.0
0.0
0.0
0.0
0.0
0.0
-8.63999999983
-0.76
-0.93
0.0
0.0
-0.7
-0.74
-5.3
-0.69
-5.32
0.0
0.0
-0.86
0.0
0.0
0.0
-0.66
0.0
-0.91
0.0
-0.83
-0.89
0.0
0.0
0.0
0.0
0.0
0.0
0.0
0.0
-0.9
0.0
0.0
0.0
0.0
0.0
0.0
-0.91
-8.68999989299
-0.93
-0.89
-8.67999226901
0.0
0.0
0.0
-0.73
0.0
-4.73
-0.7
0.0
0.0
0.0
0.0
0.0
0.0
0.0
-0.75
0.0
0.0
-8.69999999988
0.0
0.0
0.0
0.0
0.0
0.0
0.0
-8.58
0.0
0.0
0.0
0.0
0.0
0.0
0.0
0.0
0.0
0.0
0.0
0.0
0.0
0.0
0.0
0.0
0.0
0.0
0.0
0.0
0.0
0.0
0.0
0.0
0.0
0.0
0.0
0.0
0.0
0.0
0.0
0.0
0.0
-0.78
0.0
0.0
0.0
0.0
0.0
0.0
0.0
-8.59999999991
0.0
-8.63999999994
-8.67999999996
0.0
0.0
0.0
0.0
-0.8
-8.63999999997
0.0
-8.6499999251
-8.66999994757
-0.75
-8.6699999633
0.0
0.0
0.0
0.0
0.0
-0.92
0.0
-4.44
-8.6799945883
-4.8
-8.68995400135
0.0
-0.83
0.0
-0.93
-5.3
-8.64999997431
-0.9
-8.62996780094
-0.78
0.0
0.0
0.0
-8.65999999998
-0.91
-0.91
-8.64997746066
-0.94
0.0
0.0
0.0
0.0
0.0
0.0
-4.45
0.0
-0.95
-0.86
-4.63
0.0
0.0
0.0
0.0
0.0
-0.72
-0.75
-8.56
-8.62999998202
-4.96
0.0
0.0
0.0
0.0
0.0
0.0
-0.76
-8.55
-4.9
0.0
0.0
0.0
0.0
0.0
0.0
0.0
-0.74
-0.88
-0.9
0.0
0.0
0.0
0.0
-0.88
0.0
0.0
0.0
0.0
0.0
0.0
0.0
0.0
0.0
0.0
0.0
0.0
0.0
0.0
0.0
0.0
0.0
0.0
0.0
0.0
0.0
0.0
0.0
0.0
0.0
0.0
0.0
0.0
0.0
0.0
0.0
0.0
0.0
0.0
0.0
0.0
0.0
0.0
0.0
0.0
0.0
0.0
0.0
-0.84
-0.85
-5.3
0.0
0.0
0.0
0.0
0.0
0.0
-0.87
0.0
-4.94
-8.67999999999
0.0
0.0
0.0
0.0
0.0
-5.25
0.0
-0.9
-8.65999621181
-0.68
0.0
-0.83
0.0
0.0
0.0
-0.8
-8.63999999999
-0.71
-8.64999998741
-8.67031109896
-8.61999999999
-8.66999999119
0.0
-0.87
-8.65
-8.67999734827
-0.73
0.0
-4.65
-8.57
0.0
0.0
0.0
-0.82
-0.88
0.0
-5.24
-4.68
0.0
-5.3
0.0
0.0
0.0
-0.82
-8.60980841877
-8.65
-0.8
-0.89
-4.93
0.0
0.0
0.0
-0.78
-4.89
-8.60999999383
0.0
-0.8
-0.85
0.0
0.0
0.0
-0.87
0.0
-8.66
0.0
-0.91
0.0
0.0
0.0
0.0
0.0
-0.89
-8.6799061252
-0.74
-0.58
0.0
0.0
0.0
0.0
0.0
0.0
-0.74
0.0
0.0
0.0
0.0
0.0
0.0
0.0
0.0
0.0
0.0
0.0
0.0
0.0
0.0
0.0
0.0
0.0
0.0
0.0
0.0
0.0
0.0
0.0
0.0
0.0
0.0
0.0
0.0
-8.66
-0.75
0.0
0.0
0.0
0.0
0.0
-0.94
-8.64
-0.93
0.0
0.0
0.0
0.0
0.0
0.0
0.0
0.0
-8.64
-0.9
-8.64
0.0
-0.9
-8.62
0.0
0.0
0.0
0.0
-0.88
-8.56
0.0
-8.297
-0.68
-0.9
0.0
0.0
0.0
0.0
-0.81
-0.8
0.0
0.0
-0.83
0.0
0.0
0.0
0.0
-0.68
-8.60999999568
0.0
-0.87
-8.53
-8.63
0.0
-0.77
-0.89
-8.65
-0.85
-8.3599
-8.61525243849
0.0
0.0
-0.81
0.0
0.0
0.0
-8.61999814379
-8.65999870065
-6.81
0.0
0.0
0.0
-0.89
0.0
0.0
-4.64
-6.82
0.0
0.0
0.0
0.0
-0.69
-8.61920207734
-0.74
0.0
0.0
0.0
0.0
0.0
0.0
-0.7
-0.78
-8.58
0.0
0.0
0.0
0.0
0.0
0.0
0.0
0.0
0.0
0.0
0.0
0.0
0.0
0.0
0.0
0.0
0.0
0.0
0.0
0.0
0.0
0.0
0.0
0.0
0.0
0.0
0.0
0.0
0.0
0.0
0.0
0.0
0.0
0.0
0.0
0.0
0.0
-0.88
0.0
0.0
0.0
0.0
0.0
0.0
0.0
0.0
-8.482351
0.0
0.0
0.0
0.0
0.0
-0.88
0.0
-8.64
-0.87
-8.68986589314
-0.76
-8.56
0.0
0.0
0.0
0.0
-0.89
-4.74
0.0
-5.28
-8.48193
0.0
0.0
0.0
0.0
0.0
-8.5576457
-8.56235199
-4.64
-6.84
-0.88
-4.71
0.0
0.0
0.0
0.0
0.0
-8.47
-8.53
-0.86
-4.73
0.0
0.0
-0.92
-8.579646393
0.0
-0.78
-0.93
0.0
-7.67
0.0
-0.92
0.0
0.0
-8.59999909046
-5.28
-8.54
0.0
0.0
0.0
0.0
-0.74
0.0
-8.56
-0.91
0.0
0.0
0.0
0.0
0.0
0.0
-0.84
-8.52
-6.85
-0.87
0.0
0.0
0.0
0.0
0.0
0.0
0.0
0.0
0.0
0.0
0.0
0.0
0.0
0.0
0.0
0.0
-0.87
0.0
0.0
0.0
0.0
0.0
0.0
0.0
0.0
0.0
0.0
0.0
0.0
0.0
0.0
0.0
0.0
0.0
0.0
0.0
0.0
0.0
0.0
0.0
0.0
0.0
0.0
0.0
-0.58
0.0
0.0
-0.9
0.0
0.0
0.0
0.0
0.0
0.0
0.0
0.0
-8.54
0.0
-0.91
0.0
0.0
0.0
0.0
0.0
0.0
-4.83
0.0
-8.59999936332
-8.62999999698
-8.51
0.0
0.0
0.0
-8.59
-4.67
0.0
0.0
-4.53
-6.82
-7.96
0.0
0.0
0.0
-4.75
0.0
-4.68
-0.9
-8.7217524751
-4.81
0.0
0.0
0.0
0.0
-4.78
-0.62
-8.44
-8.42
-8.54
-8.17
0.0
0.0
-4.61
-0.76
-0.76
-4.71
-6.84
-8.51
0.0
-4.73
0.0
-4.69
-8.59
-6.86
-0.73
-8.53
0.0
0.0
0.0
0.0
-4.73
-6.84
0.0
0.0
0.0
0.0
0.0
0.0
-0.78
-4.91
0.0
-8.51
-8.14
0.0
0.0
0.0
0.0
-0.89
0.0
-8.55
-8.57
0.0
0.0
0.0
0.0
0.0
0.0
0.0
0.0
0.0
0.0
0.0
0.0
0.0
0.0
0.0
0.0
0.0
0.0
0.0
0.0
0.0
0.0
0.0
0.0
0.0
0.0
0.0
0.0
0.0
0.0
0.0
0.0
0.0
0.0
0.0
0.0
0.0
0.0
0.0
-0.87
0.0
0.0
0.0
0.0
0.0
0.0
-4.69
-8.57
-4.83
-0.62
-4.92
0.0
0.0
0.0
0.0
-0.61
0.0
0.0
-8.55999955432
-0.94
-0.66
-8.63999968803
0.0
0.0
0.0
0.0
0.0
0.0
-4.75
-4.76
-4.52
-4.77
-4.76
0.0
0.0
0.0
0.0
-4.73
0.0
-0.95
-4.8
-8.60998422246
0.0
-4.72
-8.48
-4.85
-4.77
0.0
-8.56998895572
-0.72
-8.59999978162
0.0
0.0
0.0
0.0
0.0
0.0
-8.59999984713
-8.56
-4.75
-0.87
0.0
0.0
0.0
0.0
-4.73
-8.58999999788
-4.84
-4.74
-8.53
0.0
0.0
0.0
-4.77
0.0
-4.9
-4.74
0.0
-8.58999999852
0.0
0.0
0.0
0.0
0.0
0.0
-8.54
-8.54
0.0
0.0
0.0
0.0
0.0
-8.61
0.0
0.0
0.0
0.0
0.0
0.0
0.0
0.0
0.0
0.0
0.0
0.0
0.0
0.0
0.0
0.0
0.0
0.0
0.0
0.0
0.0
0.0
0.0
0.0
0.0
0.0
0.0
0.0
0.0
0.0
0.0
0.0
0.0
0.0
0.0
0.0
0.0
0.0
0.0
-8.16
0.0
0.0
0.0
0.0
0.0
0.0
0.0
0.0
-0.9
0.0
-8.14
0.0
0.0
0.0
0.0
0.0
-0.62
-4.77
0.0
0.0
0.0
-8.18
0.0
0.0
0.0
0.0
0.0
0.0
0.0
-4.76
-0.91
-4.68
-0.69
-4.68
0.0
-4.5
-8.54
0.0
-0.91
0.0
-4.9
0.0
0.0
0.0
0.0
-8.56
-4.8
0.0
-4.71
0.0
-8.60999999896
0.0
0.0
0.0
-0.69
-0.89
-0.74
0.0
0.0
-4.64
-8.55
0.0
0.0
0.0
-4.72
0.0
-8.15
0.0
-4.66
0.0
0.0
-0.72
0.0
0.0
0.0
0.0
0.0
-0.79
-8.62999999927
0.0
-4.83
0.0
0.0
0.0
0.0
0.0
0.0
-8.58
0.0
-8.48
0.0
0.0
0.0
0.0
0.0
0.0
0.0
-4.71
0.0
0.0
0.0
0.0
0.0
0.0
0.0
0.0
0.0
0.0
0.0
0.0
0.0
0.0
0.0
0.0
0.0
0.0
0.0
0.0
0.0
0.0
0.0
0.0
0.0
0.0
0.0
0.0
0.0
0.0
0.0
0.0
0.0
0.0
0.0
0.0
0.0
0.0
0.0
0.0
0.0
0.0
0.0
0.0
0.0
0.0
0.0
0.0
-4.7
0.0
0.0
0.0
0.0
0.0
-4.74
-8.58
0.0
0.0
0.0
0.0
-0.89
0.0
0.0
0.0
-8.56
0.0
-4.82
-8.57
-0.96
0.0
0.0
0.0
0.0
0.0
0.0
-8.52
-8.18
-0.84
-0.74
-0.93
0.0
0.0
0.0
0.0
-0.49
-4.72
-8.55
-8.53
-8.5
-4.76
0.0
0.0
0.0
0.0
0.0
0.0
-4.87
-4.7
0.0
0.0
0.0
0.0
0.0
0.0
-4.73
0.0
0.0
0.0
0.0
0.0
0.0
0.0
0.0
-4.71
0.0
0.0
0.0
0.0
0.0
0.0
0.0
0.0
0.0
0.0
0.0
0.0
0.0
0.0
0.0
0.0
0.0
0.0
0.0
0.0
0.0
0.0
0.0
0.0
0.0
0.0
0.0
0.0
0.0
0.0
0.0
0.0
0.0
0.0
0.0
0.0
0.0
0.0
0.0
0.0
0.0
0.0
0.0
0.0
0.0
0.0
0.0
0.0
-4.71
0.0
0.0
0.0
0.0
0.0
0.0
-4.67
0.0
0.0
-8.58
-8.5
0.0
0.0
0.0
0.0
0.0
0.0
0.0
0.0
0.0
0.0
0.0
0.0
0.0
0.0
0.0
0.0
0.0
0.0
0.0
0.0
0.0
-4.65
0.0
0.0
-8.59
-4.73
0.0
0.0
0.0
0.0
0.0
-8.19
0.0
-4.69
-8.57
0.0
0.0
0.0
0.0
-4.71
0.0
-8.5
0.0
-4.73
0.0
0.0
0.0
0.0
0.0
0.0
-4.81
0.0
0.0
0.0
0.0
0.0
0.0
0.0
0.0
0.0
0.0
0.0
0.0
0.0
0.0
0.0
0.0
0.0
0.0
0.0
0.0
0.0
0.0
0.0
0.0
0.0
0.0
0.0
0.0
0.0
0.0
0.0
0.0
0.0
0.0
0.0
0.0
-8.2
0.0
0.0
0.0
0.0
0.0
-8.18
0.0
0.0
-4.66
0.0
-4.71
0.0
0.0
0.0
0.0
0.0
0.0
0.0
0.0
0.0
-8.49
0.0
0.0
0.0
0.0
0.0
0.0
0.0
0.0
0.0
-7.23
0.0
0.0
0.0
