0.0
0.0
0.0
0.0
0.0
0.0
0.0
0.0
0.0
0.0
0.0
0.0
-5.44
-5.5
0.0
-5.4
-5.42
0.0
0.0
0.0
0.0
0.0
0.0
0.0
0.0
0.0
-5.5
0.0
0.0
0.0
0.0
0.0
0.0
-5.5
0.0
0.0
0.0
0.0
0.0
0.0
0.0
0.0
0.0
0.0
0.0
0.0
0.0
0.0
0.0
0.0
0.0
0.0
0.0
0.0
0.0
0.0
0.0
0.0
0.0
0.0
0.0
0.0
0.0
0.0
0.0
0.0
0.0
0.0
0.0
0.0
-5.51
0.0
0.0
0.0
0.0
0.0
-5.47
0.0
-5.49
-5.51
-7.73999999991
0.0
0.0
0.0
0.0
0.0
-5.44
0.0
-7.75999999994
0.0
0.0
-5.43
0.0
-7.73
-5.32
0.0
-7.73999999996
0.0
0.0
0.0
0.0
0.0
-7.7
-5.41
-7.70997746066
0.0
0.0
0.0
0.0
0.0
0.0
0.0
-5.51
-5.55
-5.44
0.0
0.0
0.0
0.0
0.0
-7.77999999997
-7.75999621181
-7.73999999998
0.0
0.0
0.0
0.0
0.0
0.0
-5.46
-5.49
-7.73999734827
0.0
0.0
0.0
0.0
0.0
0.0
0.0
0.0
0.0
0.0
0.0
0.0
0.0
0.0
0.0
0.0
0.0
0.0
0.0
0.0
0.0
0.0
0.0
0.0
0.0
0.0
0.0
0.0
0.0
0.0
0.0
0.0
0.0
0.0
0.0
-5.5
0.0
0.0
0.0
0.0
0.0
0.0
-5.42
0.0
-5.48
0.0
-7.74999955432
0.0
0.0
0.0
0.0
0.0
0.0
0.0
-7.70999968803
-5.49
-5.53
0.0
0.0
-5.47
-5.48
-7.73
-5.48
-7.74999978162
0.0
-5.33
-5.56
0.0
0.0
0.0
-5.45
0.0
-5.55
0.0
-5.51
-5.51
0.0
0.0
-5.45
0.0
0.0
0.0
0.0
0.0
-5.55
0.0
0.0
0.0
0.0
0.0
-5.43
-5.51
-7.74999984713
-5.49
-5.49
-7.73999814379
0.0
0.0
-5.16
-5.47
0.0
-5.53
-5.55
0.0
0.0
0.0
0.0
0.0
0.0
0.0
-5.49
0.0
-5.42
-7.75999999999
0.0
0.0
0.0
0.0
0.0
0.0
-5.43
-7.75
0.0
0.0
0.0
0.0
0.0
0.0
0.0
0.0
0.0
0.0
0.0
0.0
0.0
0.0
0.0
0.0
0.0
0.0
0.0
0.0
0.0
0.0
0.0
0.0
0.0
0.0
0.0
0.0
0.0
0.0
0.0
0.0
0.0
-5.53
0.0
0.0
0.0
0.0
0.0
0.0
0.0
-7.71
0.0
-7.71999999999
-7.73999999999
0.0
0.0
0.0
0.0
-5.49
-7.72
0.0
-7.68999989299
-7.7499999251
-5.47
-7.72999994757
0.0
0.0
0.0
-5.47
0.0
-5.53
-5.3
-5.54
-7.69999870065
-5.56
-7.7299999633
0.0
-5.5
0.0
-5.52
-7.73
-7.70999997431
-5.5
-7.66998422246
-5.5
0.0
0.0
0.0
-7.72
-5.53
-5.55
-7.68998895572
-5.53
0.0
0.0
0.0
0.0
0.0
0.0
-5.56
0.0
-5.52
-5.53
-5.52
0.0
0.0
0.0
0.0
0.0
-5.46
-5.47
-7.72999998202
-7.70999998741
-7.48
0.0
0.0
0.0
0.0
0.0
0.0
-5.53
-7.73
-7.46
0.0
0.0
0.0
0.0
0.0
0.0
-5.42
-5.48
-5.51
-5.51
0.0
0.0
0.0
0.0
-5.5
0.0
0.0
0.0
0.0
0.0
0.0
0.0
0.0
0.0
0.0
0.0
0.0
0.0
0.0
0.0
0.0
0.0
0.0
0.0
0.0
0.0
0.0
0.0
0.0
0.0
0.0
0.0
0.0
0.0
0.0
0.0
0.0
0.0
-5.46
0.0
0.0
0.0
0.0
0.0
0.0
0.0
0.0
0.0
-5.5
-5.51
-7.75
0.0
0.0
0.0
0.0
-5.48
0.0
-5.5
0.0
-7.49
-7.73
-5.27
0.0
0.0
0.0
0.0
-7.71
0.0
-5.55
-7.74999999119
-5.45
0.0
-5.5
0.0
0.0
-5.41
-5.5
-7.71
-5.45
-7.72999999383
-7.68999226901
-7.67999909046
-7.74999999568
0.0
-5.5
-7.7
-7.72999999698
-5.5
0.0
-5.54
-7.74999999788
0.0
0.0
0.0
-5.48
-5.51
-5.38
-7.73
-5.52
0.0
-7.72999999852
0.0
0.0
0.0
-5.49
-7.64999999896
-7.71
-5.51
-5.55
-5.53
-5.36
0.0
0.0
-5.5
-5.54
-7.66999999927
0.0
-5.46
-5.53
0.0
0.0
0.0
-5.53
0.0
-7.74
0.0
-5.52
0.0
0.0
0.0
0.0
0.0
-5.47
-7.71
-5.5
-5.45
0.0
0.0
0.0
0.0
0.0
0.0
-5.5
0.0
0.0
0.0
0.0
0.0
0.0
0.0
0.0
0.0
0.0
0.0
0.0
0.0
0.0
0.0
0.0
0.0
0.0
0.0
0.0
0.0
0.0
0.0
0.0
0.0
0.0
-5.45
0.0
-7.73
-5.45
0.0
0.0
0.0
0.0
0.0
-5.52
-7.72
-5.53
0.0
-5.52
-5.47
0.0
0.0
0.0
0.0
0.0
-7.72
-5.54
-7.71
0.0
-5.53
-7.72
0.0
0.0
0.0
0.0
-5.55
-7.71
0.0
-8.35
-5.46
-5.52
0.0
0.0
0.0
0.0
-5.48
-5.49
-5.32
0.0
-5.5
0.0
0.0
0.0
0.0
-5.49
-7.64999999949
0.0
-5.5
-7.71
-7.72
0.0
-5.5
-5.51
-7.69
-5.5
-8.62193
-7.6299945883
0.0
0.0
-5.47
0.0
-5.43
0.0
-7.62999999964
-7.72999999975
-7.71
0.0
0.0
-5.42
-5.54
0.0
-5.43
-5.55
-7.71
0.0
0.0
0.0
0.0
-5.47
-7.62999999983
-5.5
-5.48
0.0
0.0
0.0
0.0
0.0
-5.45
-5.52
-7.73
0.0
0.0
0.0
0.0
0.0
0.0
0.0
0.0
0.0
0.0
0.0
0.0
0.0
0.0
0.0
0.0
0.0
0.0
0.0
0.0
0.0
0.0
0.0
0.0
0.0
0.0
0.0
0.0
-5.4
0.0
0.0
0.0
0.0
0.0
0.0
0.0
0.0
-5.49
0.0
0.0
0.0
0.0
0.0
0.0
0.0
0.0
-8.692351
0.0
0.0
0.0
0.0
0.0
-5.47
0.0
-7.69
-5.47
-7.70999999988
-5.46
-7.64
0.0
0.0
0.0
0.0
-5.47
-5.52
0.0
-7.75
-8.497
0.0
0.0
0.0
0.0
-5.45
-8.7476457
-8.77235199
-5.51
-7.68
-5.48
-5.54
0.0
0.0
0.0
-5.22
0.0
-7.67
-7.59
-5.52
-5.51
0.0
0.0
-5.51
-8.789646393
0.0
-5.48
-5.52
-5.18
-7.83
0.0
-5.49
0.0
0.0
-7.62
-7.76
-7.65
0.0
0.0
0.0
0.0
-5.46
0.0
-7.65
-5.5
-5.36
0.0
0.0
0.0
0.0
0.0
-5.51
-7.64
-7.72
-5.55
0.0
0.0
0.0
0.0
0.0
0.0
-5.45
0.0
0.0
0.0
0.0
0.0
0.0
0.0
0.0
0.0
-5.47
0.0
0.0
0.0
0.0
0.0
0.0
0.0
0.0
0.0
0.0
0.0
0.0
0.0
0.0
0.0
0.0
0.0
0.0
0.0
0.0
0.0
0.0
0.0
0.0
0.0
0.0
0.0
-5.45
0.0
0.0
-5.5
0.0
0.0
0.0
0.0
0.0
0.0
-5.4
0.0
-7.64
-5.31
-5.52
0.0
0.0
0.0
0.0
0.0
0.0
-5.52
0.0
-7.64
-7.64
-7.65
0.0
0.0
0.0
-7.6
-5.5
-5.31
0.0
-7.48
-7.7
-8.17
0.0
0.0
0.0
-5.5
-5.44
-5.52
-5.49
-7.65999936332
-5.54
0.0
0.0
0.0
0.0
-5.51
-5.44
-7.62
-7.63
-7.63
-8.5599
0.0
0.0
-5.53
-5.47
-5.47
-5.56
-7.71
-7.61
0.0
-5.5
0.0
-5.54
-7.7
-7.71
-5.49
-7.62
0.0
0.0
0.0
0.0
-5.53
-7.69
0.0
-5.18
0.0
0.0
0.0
0.0
-5.48
-5.54
0.0
-7.59
-7.64
0.0
0.0
0.0
0.0
-5.48
0.0
-7.64
-7.63
0.0
0.0
0.0
0.0
0.0
0.0
0.0
0.0
0.0
0.0
0.0
0.0
0.0
0.0
0.0
0.0
0.0
0.0
0.0
0.0
0.0
0.0
0.0
0.0
0.0
0.0
0.0
0.0
0.0
-5.41
0.0
0.0
0.0
0.0
0.0
0.0
0.0
0.0
-5.24
-5.5
0.0
0.0
0.0
0.0
0.0
-5.36
-5.45
-7.6
-5.53
-5.41
-5.54
0.0
0.0
0.0
0.0
-5.41
-5.33
0.0
-7.61
-5.53
-5.45
-7.62
0.0
0.0
0.0
0.0
0.0
-5.4
-5.55
-5.55
-5.51
-5.51
-5.54
0.0
0.0
0.0
0.0
-5.52
-5.2
-5.54
-5.52
-7.63
-5.46
-5.49
-7.61
-5.54
-5.5
0.0
-7.62
-5.41
-7.63
0.0
0.0
0.0
-5.38
0.0
-5.26
-7.61
-7.63
-5.51
-5.51
0.0
0.0
0.0
0.0
-5.51
-7.63
-5.55
-5.47
-7.62
-5.41
0.0
0.0
-5.52
0.0
-5.55
-5.53
0.0
-7.62
0.0
0.0
0.0
0.0
-5.45
0.0
-7.64
-7.63
-5.4
0.0
0.0
0.0
0.0
-7.62
-5.25
0.0
0.0
0.0
0.0
0.0
0.0
0.0
0.0
0.0
0.0
0.0
0.0
0.0
0.0
0.0
0.0
0.0
0.0
0.0
0.0
0.0
0.0
0.0
0.0
0.0
0.0
0.0
0.0
0.0
0.0
0.0
0.0
0.0
0.0
0.0
0.0
0.0
-5.41
-7.63
0.0
0.0
0.0
0.0
0.0
0.0
0.0
0.0
-5.51
-5.41
-7.68
0.0
0.0
0.0
0.0
0.0
-5.41
-5.52
-5.34
0.0
0.0
-7.66
-5.33
0.0
0.0
0.0
0.0
0.0
0.0
-5.53
-5.5
-5.5
-5.46
-5.39
0.0
-5.49
-7.58
0.0
-5.5
-5.38
-7.48
-5.48
0.0
0.0
0.0
-7.64
-5.51
0.0
-5.48
0.0
-7.65
0.0
0.0
0.0
-5.43
-5.47
-5.46
0.0
0.0
-5.47
-7.62
0.0
0.0
0.0
-5.44
-5.26
-7.64
0.0
-5.44
-5.4
0.0
-5.46
0.0
0.0
0.0
0.0
-5.45
-5.48
-7.63
0.0
-5.53
-5.36
0.0
0.0
0.0
0.0
-5.4
-7.62
-5.45
-7.65
0.0
0.0
0.0
0.0
0.0
0.0
0.0
-5.41
0.0
0.0
0.0
0.0
0.0
0.0
0.0
0.0
0.0
0.0
0.0
0.0
0.0
0.0
0.0
0.0
0.0
0.0
0.0
0.0
0.0
-5.19
0.0
0.0
0.0
0.0
0.0
0.0
0.0
0.0
0.0
0.0
0.0
0.0
0.0
0.0
-5.33
-5.38
-5.35
0.0
-5.31
0.0
0.0
0.0
0.0
-5.33
0.0
0.0
-5.47
0.0
0.0
-5.25
0.0
0.0
-5.45
-7.62
0.0
0.0
0.0
-5.43
-5.49
0.0
-5.32
0.0
-7.65
0.0
-5.53
-7.61
-5.53
-5.43
0.0
0.0
0.0
0.0
0.0
-7.63
-7.7
-5.49
-5.51
-5.52
0.0
0.0
-5.24
0.0
-5.4
-5.47
-7.62
-7.64
-7.64
-5.53
0.0
0.0
0.0
0.0
0.0
0.0
-5.56
-5.4
0.0
0.0
0.0
0.0
-5.32
0.0
-5.46
0.0
0.0
-5.32
0.0
0.0
0.0
0.0
0.0
-5.4
-5.39
-5.36
0.0
0.0
0.0
0.0
0.0
0.0
0.0
0.0
0.0
0.0
-5.23
0.0
0.0
0.0
0.0
0.0
0.0
0.0
0.0
0.0
0.0
0.0
0.0
0.0
0.0
0.0
0.0
0.0
0.0
0.0
0.0
-5.39
0.0
0.0
0.0
0.0
0.0
0.0
0.0
0.0
0.0
0.0
0.0
0.0
0.0
0.0
-5.44
0.0
-5.42
-5.41
0.0
0.0
0.0
-5.38
-5.36
-5.33
-7.63
-7.63
0.0
-5.29
0.0
0.0
-5.36
0.0
-5.38
-5.38
0.0
0.0
-5.33
-5.34
-5.38
-5.36
0.0
-5.47
0.0
0.0
0.0
0.0
-5.38
-5.38
-5.32
0.0
-7.67
-5.43
0.0
0.0
-5.25
0.0
0.0
-7.65
-5.39
-5.42
-7.64
0.0
0.0
0.0
0.0
-5.38
-5.18
-7.68
-5.2
-5.41
0.0
0.0
-5.17
0.0
0.0
0.0
-5.55
0.0
0.0
0.0
-5.29
0.0
0.0
0.0
0.0
0.0
0.0
0.0
0.0
0.0
0.0
0.0
0.0
0.0
0.0
0.0
-5.16
0.0
0.0
0.0
0.0
0.0
-5.31
0.0
0.0
0.0
-5.31
-5.33
0.0
-5.26
-5.38
-5.37
-5.39
-7.65
0.0
0.0
-5.29
-5.31
0.0
-7.67
0.0
0.0
-5.32
0.0
-5.38
0.0
0.0
0.0
0.0
0.0
0.0
0.0
0.0
0.0
-4.02
0.0
0.0
0.0
0.0
0.0
0.0
0.0
0.0
0.0
0.0
0.0
0.0
0.0
