0.0
0.0
0.0
0.0
0.0
0.0
0.0
0.0
0.0
0.0
0.0
-2.96
-2.99
-3.09
0.0
-2.95
-2.97
0.0
0.0
0.0
0.0
0.0
0.0
0.0
0.0
0.0
-3.02
0.0
0.0
0.0
0.0
0.0
0.0
-3.09
0.0
0.0
0.0
0.0
0.0
0.0
0.0
0.0
0.0
0.0
0.0
0.0
0.0
0.0
0.0
0.0
0.0
0.0
0.0
0.0
0.0
0.0
0.0
0.0
0.0
0.0
0.0
0.0
0.0
0.0
0.0
0.0
0.0
0.0
0.0
0.0
-3.09
0.0
0.0
0.0
0.0
0.0
-3.02
0.0
-3.04
-3.1
-5.28
0.0
0.0
0.0
0.0
0.0
-3.01
0.0
-3.94
0.0
0.0
-3.01
0.0
-5.26
-2.99
0.0
-3.93
0.0
0.0
0.0
0.0
0.0
-5.28
0.0
-5.29999999927
0.0
0.0
0.0
0.0
0.0
0.0
0.0
-3.11
-3.11
-3.01
0.0
0.0
0.0
0.0
0.0
-3.93
-5.34999999852
-3.9
0.0
0.0
0.0
0.0
0.0
0.0
-3.07
-3.08
-5.29999999991
0.0
0.0
0.0
0.0
0.0
0.0
0.0
0.0
0.0
0.0
0.0
0.0
0.0
0.0
0.0
0.0
0.0
0.0
0.0
0.0
0.0
0.0
0.0
0.0
0.0
0.0
0.0
0.0
0.0
0.0
0.0
0.0
0.0
0.0
0.0
-3.08
0.0
0.0
0.0
0.0
0.0
0.0
-3.02
0.0
-3.05
-2.97
-5.26
0.0
0.0
0.0
0.0
0.0
0.0
0.0
-5.27999999994
-3.04
-3.1
0.0
0.0
-3.07
-3.08
-5.31
-3.04
-3.93
0.0
-2.99
-3.15
0.0
0.0
0.0
-3.03
0.0
-3.11
0.0
-3.08
-3.1
0.0
0.0
-3.01
0.0
0.0
0.0
0.0
0.0
-3.13
0.0
0.0
0.0
0.0
0.0
-2.98
-3.09
-5.28
-3.1
-3.1
-5.33999997431
0.0
0.0
-2.95
-3.09
0.0
-3.12
-3.11
0.0
0.0
0.0
0.0
0.0
0.0
0.0
-3.09
0.0
0.0
-5.32
0.0
0.0
0.0
0.0
0.0
0.0
-3.01
-3.92
0.0
0.0
0.0
0.0
0.0
0.0
0.0
0.0
0.0
0.0
0.0
0.0
0.0
0.0
0.0
0.0
0.0
0.0
0.0
0.0
0.0
0.0
0.0
0.0
0.0
0.0
0.0
0.0
0.0
0.0
0.0
0.0
0.0
-3.1
0.0
0.0
0.0
0.0
0.0
0.0
0.0
-5.29999999949
0.0
-5.27
-5.19
0.0
0.0
0.0
0.0
-3.1
-5.32999999896
0.0
-5.31999998202
-5.28999999998
-3.03
-3.9
0.0
0.0
0.0
-3.07
0.0
-3.08
0.0
-3.15
-5.32999909046
-3.14
-5.31999998741
0.0
-3.08
0.0
-3.11
-3.92
-5.26999999999
-3.09
-5.32999734827
-3.11
0.0
0.0
0.0
-5.27
-3.11
-3.15
-5.32999936332
-3.11
0.0
0.0
0.0
0.0
0.0
0.0
-3.15
0.0
-3.11
-3.13
-3.11
0.0
0.0
0.0
0.0
0.0
-3.05
-3.06
-5.18
-5.26999999999
-3.16
0.0
0.0
0.0
0.0
0.0
0.0
-3.11
-3.88
-3.1
0.0
0.0
0.0
0.0
0.0
0.0
-2.97
-3.08
-3.1
-3.12
0.0
0.0
0.0
0.0
-3.08
0.0
0.0
0.0
0.0
0.0
0.0
0.0
0.0
0.0
0.0
0.0
0.0
0.0
0.0
0.0
0.0
0.0
0.0
0.0
0.0
0.0
0.0
0.0
0.0
0.0
0.0
0.0
0.0
0.0
0.0
0.0
0.0
0.0
-3.01
0.0
0.0
0.0
0.0
0.0
0.0
0.0
0.0
0.0
-3.09
-3.1
-3.92
0.0
0.0
0.0
0.0
-3.05
0.0
-3.09
0.0
-3.16
-5.28
0.0
0.0
0.0
0.0
0.0
-3.88
0.0
-3.13
-5.33999999119
-3.02
0.0
-3.11
0.0
0.0
-2.99
-3.07
-3.87
-3.04
-5.18
-5.32999814379
-5.26999999999
-5.29
0.0
-3.1
-5.25
-5.34999955432
-3.1
0.0
-3.13
-5.27
0.0
0.0
0.0
-3.08
-3.11
-2.95
-3.15
-3.12
0.0
-3.9
0.0
0.0
0.0
-3.08
-5.26999968803
-3.88
-3.08
-3.13
-3.14
-2.95
0.0
0.0
-3.11
-3.11
-5.29999999383
0.0
-3.03
-3.11
0.0
0.0
0.0
-3.13
0.0
-5.33999999568
0.0
-3.11
0.0
0.0
0.0
0.0
0.0
-3.06
-5.33999999698
-3.1
-2.94
0.0
0.0
0.0
0.0
0.0
0.0
-3.1
0.0
0.0
0.0
0.0
0.0
0.0
0.0
0.0
0.0
0.0
0.0
0.0
0.0
0.0
0.0
0.0
0.0
0.0
0.0
0.0
0.0
0.0
0.0
0.0
0.0
0.0
0.0
0.0
-5.27
-3.02
0.0
0.0
0.0
0.0
0.0
-3.12
-5.26
-3.13
0.0
-3.11
-2.93
0.0
0.0
0.0
0.0
0.0
-5.24
-3.14
-3.89
0.0
-3.13
-5.11
0.0
0.0
0.0
0.0
-3.12
-3.87
0.0
-8.567
-3.06
-3.12
0.0
0.0
0.0
0.0
-3.09
-3.08
-2.86
0.0
-3.08
0.0
0.0
0.0
0.0
-3.08
-5.32999978162
0.0
-3.09
-3.96
-5.29
0.0
-3.07
-3.11
-5.25
-3.1
-8.6299
-5.26999870065
0.0
0.0
-3.08
0.0
-3.02
0.0
-5.30999984713
-5.32999989299
-3.85
0.0
0.0
-3.01
-3.13
0.0
-3.06
-3.15
-3.82
0.0
0.0
0.0
0.0
-3.01
-5.2699999251
-3.1
-3.08
0.0
0.0
0.0
0.0
0.0
-3.01
-3.1
-3.89
0.0
0.0
0.0
0.0
0.0
0.0
0.0
0.0
0.0
0.0
0.0
0.0
0.0
0.0
0.0
0.0
0.0
0.0
0.0
0.0
0.0
0.0
0.0
0.0
0.0
0.0
0.0
0.0
0.0
0.0
0.0
0.0
0.0
0.0
0.0
0.0
0.0
-3.09
0.0
0.0
0.0
0.0
0.0
0.0
0.0
0.0
-8.7776457
0.0
0.0
0.0
0.0
0.0
-3.06
0.0
-5.31999999788
-3.09
-5.32999994757
-3.04
-5.17
0.0
0.0
0.0
0.0
-3.07
-3.11
0.0
-3.84
-8.72193
0.0
0.0
0.0
0.0
-3.0
-8.82235199
-8.839646393
-3.11
-3.81
-3.06
-3.12
0.0
0.0
0.0
0.0
0.0
-3.81
-5.13
-3.11
-3.12
0.0
0.0
-3.1
-8.772351
0.0
-3.09
-3.12
0.0
-7.95
0.0
-3.08
0.0
0.0
-5.12
-3.86
-3.96
0.0
0.0
0.0
0.0
-3.08
0.0
-3.91
-3.09
-3.03
0.0
0.0
0.0
0.0
0.0
-3.09
-3.94
-3.84
-3.12
0.0
0.0
0.0
0.0
0.0
0.0
0.0
0.0
0.0
0.0
0.0
0.0
0.0
0.0
0.0
0.0
-3.07
0.0
0.0
0.0
0.0
0.0
0.0
0.0
0.0
0.0
0.0
0.0
0.0
0.0
0.0
0.0
0.0
0.0
0.0
0.0
0.0
0.0
0.0
0.0
0.0
0.0
0.0
0.0
-3.02
0.0
0.0
-3.11
0.0
0.0
0.0
0.0
0.0
0.0
-3.03
0.0
-3.92
0.0
-3.12
0.0
0.0
0.0
0.0
0.0
0.0
-3.13
0.0
-5.15
-3.95
-3.92
0.0
0.0
0.0
-3.9
-3.1
0.0
0.0
-3.14
-3.82
-8.24
0.0
0.0
0.0
-3.11
-3.06
-3.12
-3.09
-5.35999621181
-3.13
0.0
0.0
0.0
0.0
-3.13
-3.08
-3.79
-3.88
-3.94
-8.39
0.0
0.0
-3.11
-3.06
-3.07
-3.16
-3.82
-3.91
0.0
-3.12
0.0
-3.12
-3.89
-5.19
-3.08
-3.94
0.0
0.0
0.0
0.0
-3.13
-3.84
0.0
0.0
0.0
0.0
0.0
0.0
-3.09
-3.12
0.0
-3.86
-3.94
0.0
0.0
0.0
0.0
-3.08
0.0
-3.93
-3.87
0.0
0.0
0.0
0.0
0.0
0.0
0.0
0.0
0.0
0.0
0.0
0.0
0.0
0.0
0.0
0.0
0.0
0.0
0.0
0.0
0.0
0.0
0.0
0.0
0.0
0.0
0.0
0.0
0.0
0.0
0.0
0.0
0.0
0.0
0.0
0.0
0.0
0.0
0.0
-3.09
0.0
0.0
0.0
0.0
0.0
-3.03
-3.09
-3.86
-3.13
-3.05
-3.13
0.0
0.0
0.0
0.0
-3.04
-2.96
0.0
-5.19
-3.12
-3.07
-3.94
0.0
0.0
0.0
0.0
0.0
-3.04
-3.15
-3.1
-3.1
-3.1
-3.13
0.0
0.0
0.0
0.0
-3.11
0.0
-3.13
-3.11
-3.9
-2.97
-3.1
-3.9
-3.12
-3.11
0.0
-5.15
-2.96
-5.16
0.0
0.0
0.0
-3.07
0.0
0.0
-3.89
-3.93
-3.12
-3.11
0.0
0.0
0.0
0.0
-3.11
-3.9
-3.11
-3.09
-3.93
-3.06
0.0
0.0
-3.12
0.0
-3.13
-3.12
0.0
-3.92
0.0
0.0
0.0
0.0
-3.01
0.0
-3.93
-3.94
-3.05
0.0
0.0
0.0
0.0
-3.93
-3.0
0.0
0.0
0.0
0.0
0.0
0.0
0.0
0.0
0.0
0.0
0.0
0.0
0.0
0.0
0.0
0.0
0.0
0.0
0.0
0.0
0.0
0.0
0.0
0.0
0.0
0.0
0.0
0.0
0.0
0.0
0.0
0.0
0.0
0.0
0.0
0.0
0.0
-3.04
-3.94
0.0
0.0
0.0
0.0
0.0
0.0
0.0
0.0
-3.1
-3.08
-3.93
0.0
0.0
0.0
0.0
0.0
-3.08
-3.13
-2.94
0.0
0.0
-3.96
0.0
0.0
0.0
0.0
0.0
0.0
0.0
-3.12
-3.09
-3.13
-3.09
-3.06
0.0
-3.1
-5.07
0.0
-3.09
-3.07
-3.18
-2.91
0.0
0.0
0.0
-3.93
-3.12
0.0
-3.12
0.0
-3.93
0.0
0.0
0.0
-3.0
-3.07
-3.07
0.0
0.0
-3.08
-3.93
0.0
0.0
0.0
-3.1
0.0
-3.93
0.0
-3.09
-3.0
0.0
-3.02
0.0
0.0
0.0
0.0
-3.0
-3.08
-3.93
0.0
-3.11
-3.06
0.0
0.0
0.0
0.0
-3.05
-5.16
-3.01
-3.92
0.0
0.0
0.0
0.0
0.0
0.0
0.0
-3.09
0.0
0.0
0.0
0.0
0.0
0.0
0.0
0.0
0.0
0.0
0.0
0.0
0.0
0.0
0.0
0.0
0.0
0.0
0.0
0.0
0.0
0.0
0.0
0.0
0.0
0.0
0.0
0.0
0.0
0.0
0.0
0.0
0.0
0.0
0.0
0.0
0.0
-3.04
-3.05
0.0
0.0
0.0
0.0
0.0
0.0
0.0
0.0
0.0
-3.1
0.0
0.0
0.0
0.0
0.0
-3.08
-5.17
0.0
0.0
0.0
0.0
-3.1
0.0
0.0
0.0
-3.92
0.0
-3.15
-3.9
-3.12
0.0
0.0
0.0
0.0
0.0
0.0
-3.91
-3.93
-3.08
-3.09
-3.1
0.0
0.0
0.0
0.0
-3.06
-3.08
-3.91
-3.88
-3.94
-3.15
0.0
0.0
0.0
0.0
0.0
0.0
-3.17
-3.07
0.0
0.0
0.0
0.0
-3.0
0.0
-3.08
0.0
0.0
0.0
0.0
0.0
0.0
0.0
0.0
-3.09
0.0
-2.98
0.0
0.0
0.0
0.0
0.0
0.0
0.0
0.0
0.0
0.0
0.0
0.0
0.0
0.0
0.0
0.0
0.0
0.0
0.0
0.0
0.0
0.0
0.0
0.0
0.0
0.0
0.0
0.0
0.0
0.0
0.0
-3.06
0.0
0.0
0.0
0.0
0.0
0.0
0.0
0.0
0.0
0.0
0.0
0.0
0.0
0.0
-3.09
0.0
-3.0
0.0
0.0
0.0
0.0
-3.06
0.0
-2.99
-3.93
-3.93
0.0
0.0
0.0
0.0
-3.05
0.0
-3.01
-3.0
0.0
0.0
-3.02
-2.96
-3.04
0.0
0.0
-3.06
0.0
0.0
0.0
0.0
-3.03
-3.05
-2.99
0.0
-3.94
-3.07
0.0
0.0
0.0
0.0
0.0
-3.94
-3.06
-3.08
-3.93
0.0
0.0
0.0
0.0
-3.07
0.0
-3.94
0.0
-3.1
0.0
0.0
0.0
0.0
0.0
0.0
-3.14
0.0
0.0
0.0
0.0
0.0
0.0
0.0
0.0
0.0
0.0
0.0
0.0
0.0
0.0
0.0
0.0
0.0
0.0
0.0
0.0
0.0
0.0
0.0
0.0
0.0
0.0
0.0
0.0
0.0
-2.95
0.0
0.0
0.0
-2.99
-3.03
-2.92
-3.94
0.0
0.0
0.0
-2.94
0.0
-3.94
0.0
0.0
-3.03
0.0
-3.06
0.0
0.0
0.0
0.0
0.0
0.0
0.0
-5.5299999633
0.0
-6.19525243849
0.0
0.0
0.0
0.0
0.0
0.0
0.0
0.0
0.0
-5.60999226901
0.0
0.0
-5.49999999964
