-7.2
0.0
0.0
-7.17
-7.2
-7.08
-7.18
0.0
0.0
0.0
-7.24
-7.26
-7.28
-7.77
-7.2
-7.25
-7.26
-7.22
0.0
-7.22
-7.28
0.0
0.0
0.0
0.0
0.0
-7.39
0.0
0.0
-7.15
0.0
0.0
0.0
-7.76
-7.28
0.0
0.0
0.0
-7.24
0.0
0.0
0.0
0.0
0.0
0.0
0.0
0.0
-7.23
-7.21
0.0
0.0
0.0
0.0
0.0
0.0
0.0
0.0
0.0
0.0
0.0
-7.18
-7.23
0.0
0.0
0.0
0.0
0.0
-7.24
-7.13
0.0
-7.68
-7.21
0.0
0.0
0.0
-7.16
-7.33
-7.28
-7.33
-7.8
-8.62
0.0
0.0
0.0
0.0
0.0
-7.29
-7.08
-8.54
0.0
0.0
-7.28
0.0
-8.57
-7.31
0.0
-8.53
0.0
0.0
0.0
0.0
-7.26
-8.52
-7.23
-8.55999994757
0.0
0.0
0.0
0.0
-7.13
-7.24
0.0
-7.79
-7.89
-7.52
0.0
0.0
0.0
0.0
0.0
-8.59
-8.60999999949
-8.59
0.0
0.0
0.0
0.0
0.0
-7.25
-7.68
-7.73
-8.58999999964
-7.27
0.0
0.0
0.0
0.0
0.0
-7.28
0.0
0.0
0.0
0.0
0.0
0.0
0.0
0.0
0.0
0.0
0.0
0.0
0.0
0.0
0.0
0.0
0.0
0.0
0.0
-7.19
0.0
0.0
0.0
0.0
0.0
0.0
-7.2
0.0
-7.47
0.0
0.0
0.0
0.0
0.0
-7.23
-7.48
-7.24
-7.29
-7.27
-8.60999999975
0.0
0.0
0.0
0.0
0.0
0.0
0.0
-8.56
-7.48
-7.81
0.0
0.0
-7.74
-7.75
-8.53
-7.26
-8.6
0.0
-7.32
-7.87
0.0
-7.22
0.0
-7.71
-6.89
-7.79
-6.93
-7.78
-7.74
0.0
0.0
-7.3
0.0
0.0
-7.09
-7.15
-7.25
-7.88
-6.98
0.0
0.0
-7.22
0.0
-7.3
-7.7
-8.58
-7.79
-7.78
-8.5799999633
0.0
0.0
-7.26
-7.75
-7.23
-7.85
-7.74
0.0
0.0
0.0
0.0
0.0
0.0
0.0
-7.78
-7.23
-7.28
-8.63
0.0
0.0
-7.24
-7.23
0.0
0.0
-7.31
-8.58
0.0
0.0
-7.2
0.0
0.0
0.0
0.0
0.0
0.0
0.0
0.0
0.0
0.0
0.0
0.0
0.0
0.0
0.0
0.0
0.0
0.0
0.0
0.0
0.0
-7.22
0.0
0.0
0.0
0.0
0.0
0.0
-7.25
0.0
-7.8
0.0
0.0
0.0
0.0
0.0
-7.24
0.0
-8.52
0.0
-8.58
-8.62
0.0
0.0
0.0
-7.08
-7.77
-8.56
-7.17
-8.54999999983
-8.58999999988
-7.3
-8.6
0.0
0.0
0.0
-7.71
0.0
-7.83
-7.29
-7.97
-8.55999997431
-7.92
-8.56999999991
0.0
-7.75
0.0
-7.47
-8.55
-8.54999999994
-7.78
-8.50998422246
-7.76
0.0
0.0
0.0
-8.55
-7.75
-7.95
-8.54998895572
-7.79
-7.09
0.0
0.0
0.0
0.0
0.0
-8.12
-7.03
-7.86
-7.89
-7.83
0.0
0.0
0.0
-7.15
-6.92
-7.71
-7.74
-8.56
-8.54999999996
-7.96
-7.28
0.0
0.0
0.0
-7.04
-7.1
-7.85
-8.51
-7.93
0.0
-7.2
0.0
0.0
0.0
0.0
-7.3
-7.78
-7.83
-7.74
0.0
0.0
0.0
0.0
-7.74
0.0
0.0
0.0
0.0
0.0
0.0
0.0
0.0
0.0
0.0
0.0
0.0
0.0
0.0
0.0
0.0
0.0
0.0
0.0
0.0
0.0
0.0
0.0
0.0
0.0
0.0
0.0
0.0
0.0
0.0
0.0
-6.92
0.0
-7.52
0.0
0.0
0.0
0.0
0.0
0.0
-7.04
0.0
0.0
-7.8
-7.76
-8.63
0.0
0.0
0.0
0.0
-7.28
0.0
-7.82
-7.15
-7.96
-8.56
-7.26
0.0
0.0
0.0
0.0
-8.55
-7.05
-7.96
-8.60999999997
-7.31
-7.19
-7.75
0.0
0.0
-7.28
-7.8
-8.55
-7.75
-8.57999998202
-8.55986589314
-8.51
-8.57
-7.25
-7.88
-8.54
-8.60999999998
-7.74
-7.09
-7.84
-8.56
0.0
0.0
0.0
-7.81
-7.9
-7.3
-8.1
-7.84
-7.12
-8.58999999999
0.0
0.0
-7.07
-7.75
-8.48999226901
-8.52
-7.79
-7.9
-7.97
-7.66
0.0
-7.06
-7.77
-7.87
-8.52999999999
0.0
-7.78
-7.85
0.0
0.0
0.0
-7.95
-7.06
-8.58
0.0
-7.85
0.0
0.0
0.0
0.0
0.0
-7.76
-8.58999999999
-7.82
-7.31
0.0
0.0
0.0
0.0
0.0
0.0
-7.77
0.0
0.0
0.0
0.0
0.0
0.0
0.0
0.0
0.0
0.0
0.0
0.0
0.0
0.0
0.0
0.0
0.0
0.0
0.0
0.0
0.0
0.0
0.0
0.0
-7.02
0.0
-7.27
-7.25
-8.59
-7.64
0.0
0.0
0.0
0.0
0.0
-7.81
-8.55
-7.81
-7.23
-7.34
-7.54
0.0
0.0
0.0
-7.01
0.0
-8.53
-7.85
-8.55
0.0
-7.84
-8.56
0.0
0.0
0.0
-7.08
-7.94
-8.53
-7.02
-8.4017524751
-7.64
-7.36
0.0
0.0
0.0
0.0
-7.88
-7.78
-7.67
-7.1
-7.75
0.0
-6.89
-7.11
-7.12
-7.74
-8.52999621181
-7.18
-7.8
-8.56
-8.53
0.0
-7.82
-7.81
-8.49
-7.92
-8.359646393
-8.4983715864
-7.06
0.0
-7.77
-6.89
-7.27
-7.16
-8.49
-8.53
-8.51
0.0
-6.93
-7.71
-7.96
0.0
-7.8
-7.86
-8.54920207734
0.0
0.0
0.0
0.0
-7.41
-8.46999734827
-7.77
-7.84
0.0
0.0
0.0
0.0
-7.01
-7.41
-7.96
-8.56
0.0
0.0
0.0
0.0
0.0
0.0
-7.04
0.0
0.0
0.0
0.0
0.0
0.0
0.0
0.0
0.0
0.0
0.0
0.0
0.0
0.0
0.0
0.0
0.0
0.0
0.0
0.0
0.0
-7.24
0.0
0.0
0.0
0.0
0.0
0.0
0.0
0.0
-7.77
0.0
0.0
0.0
0.0
0.0
0.0
0.0
0.0
-8.4261587128
0.0
-7.05
0.0
0.0
0.0
-7.72
0.0
-8.53999998741
-7.77
-8.5599061252
-7.76
-8.46
0.0
0.0
0.0
0.0
-7.74
-8.07
0.0
-8.5
-8.41022673257
0.0
0.0
0.0
-6.8
-7.32
-8.45031109896
-8.43321776927
-7.86
-8.46
-7.76
-7.84
0.0
0.0
-7.1
-7.22
-7.21
-8.42
-8.43999999119
-7.9
-7.95
0.0
-6.97
-7.84
-8.43525243849
-7.03
-7.76
-7.8
-7.2
-8.382351
-6.88
-7.8
-7.1
-7.19
-8.44999955432
-8.56
-8.52
-6.96
0.0
-7.16
-6.97
-7.79
-7.07
-8.53999999383
-7.81
-7.83
0.0
0.0
0.0
-6.96
0.0
-7.78
-8.5
-8.53999999568
-7.84
0.0
0.0
0.0
0.0
0.0
-7.11
-7.27
-7.09
0.0
0.0
0.0
0.0
0.0
0.0
0.0
0.0
-7.73
0.0
0.0
0.0
0.0
0.0
0.0
0.0
0.0
0.0
0.0
0.0
0.0
0.0
0.0
0.0
0.0
0.0
0.0
0.0
0.0
0.0
0.0
0.0
0.0
0.0
0.0
0.0
-7.31
0.0
0.0
-7.75
0.0
0.0
0.0
0.0
0.0
-7.15
-7.84
-7.06
-8.47
-7.21
-7.8
0.0
0.0
0.0
0.0
-6.99
0.0
-8.26
-7.19
-8.48999968803
-8.53999999698
-8.47
0.0
0.0
0.0
-8.5
-7.85
-7.2
-7.19
-8.08
-8.51
-8.3676457
0.0
0.0
0.0
-8.24
-7.87
-7.82
-7.86
-8.5496090179
-8.32
0.0
0.0
-7.12
0.0
-8.25
-7.83
-8.44972631253
-8.46999978162
-8.49
-8.39235199
0.0
-7.13
-7.83
-7.65
-7.76
-7.85
-8.53995400135
-8.48
0.0
-8.22
-7.05
-7.91
-8.5
-8.51996780094
-7.81
-8.5
0.0
-7.1
0.0
-7.12
-8.22
-8.49
-6.97
-7.21
0.0
0.0
0.0
0.0
-7.74
-7.96
-7.03
-8.41
-8.53
0.0
0.0
0.0
0.0
-7.76
0.0
-8.54
-8.47
0.0
0.0
0.0
0.0
0.0
0.0
0.0
0.0
0.0
0.0
0.0
0.0
0.0
0.0
0.0
0.0
0.0
0.0
0.0
0.0
0.0
0.0
0.0
0.0
0.0
0.0
0.0
0.0
0.0
-7.25
0.0
0.0
0.0
0.0
0.0
0.0
0.0
0.0
-7.72
-7.77
0.0
0.0
0.0
0.0
0.0
-7.85
-7.9
-8.47
-8.36
-7.85
-7.86
0.0
0.0
0.0
0.0
-7.8
-7.74
-7.2
-8.43999999788
-7.8
-7.83
-8.52999984713
0.0
0.0
0.0
0.0
0.0
-7.78
-8.32
-7.87
-7.81
-8.25
-8.34
0.0
0.0
-6.86
-6.98
-7.95
-7.23
-7.87
-8.25
-8.48980841877
-7.75
-7.94
-8.47
-8.27
-8.26
0.0
-8.43997746066
-7.39
-8.51
0.0
0.0
0.0
-7.91
-7.13
-7.28
-8.44999989299
-8.52
-8.22
-7.84
0.0
0.0
0.0
0.0
-7.85
-8.49
-7.9
-8.22
-8.51
-7.85
0.0
0.0
-8.22
0.0
-7.97
-8.0
0.0
-8.5099999251
0.0
0.0
0.0
0.0
-7.61
-7.25
-8.48
-8.5
-7.89
0.0
0.0
0.0
0.0
-8.55
-7.85
0.0
0.0
0.0
0.0
0.0
0.0
0.0
0.0
0.0
0.0
0.0
0.0
0.0
0.0
0.0
0.0
0.0
0.0
0.0
0.0
0.0
0.0
0.0
0.0
0.0
0.0
0.0
0.0
0.0
0.0
0.0
0.0
0.0
0.0
0.0
0.0
0.0
-7.82
-8.55
0.0
0.0
0.0
0.0
0.0
0.0
0.0
0.0
-7.84
-7.9
-8.55
-6.82
0.0
0.0
0.0
0.0
-7.89
-8.23
-7.79
0.0
-7.07
-8.55
-7.84
0.0
0.0
0.0
0.0
0.0
0.0
-8.2
-7.78
-7.95
-7.92
-7.91
0.0
-7.79
-8.42
-7.07
-7.83
-7.88
-8.41
-7.33
0.0
0.0
-7.11
-8.53
-7.97
-7.0
-7.98
0.0
-8.53999999852
0.0
0.0
0.0
-7.74
-7.77
-7.48
-7.04
-7.01
-7.82
-8.49
0.0
0.0
0.0
-8.22
-7.71
-8.53
-7.13
-7.93
-7.92
0.0
-7.74
0.0
0.0
0.0
0.0
-7.3
-7.8
-8.48
-7.21
-8.32
-7.83
0.0
0.0
0.0
0.0
-7.87
-8.49
-7.35
-8.55
0.0
0.0
0.0
0.0
0.0
0.0
0.0
-7.96
0.0
0.0
0.0
0.0
0.0
0.0
0.0
0.0
0.0
0.0
0.0
0.0
0.0
0.0
0.0
0.0
0.0
0.0
0.0
0.0
0.0
-7.76
0.0
0.0
0.0
0.0
0.0
0.0
0.0
0.0
0.0
0.0
0.0
0.0
0.0
0.0
-7.77
-7.8
-7.9
0.0
-7.92
0.0
0.0
0.0
0.0
-7.8
0.0
-6.85
-7.96
-7.05
0.0
-7.78
0.0
0.0
-8.27
-8.46
0.0
-7.16
-6.99
-7.35
-7.77
0.0
-7.82
-6.85
-8.53
-6.9
-8.33
-8.51
-7.85
-7.32
0.0
0.0
0.0
0.0
0.0
-8.48
-8.57
-7.79
-7.77
-7.82
0.0
0.0
-7.89
0.0
-7.89
-8.23
-8.53
-8.49999999896
-8.52
-8.34
0.0
0.0
0.0
0.0
0.0
0.0
-8.39
-7.84
0.0
0.0
0.0
0.0
-7.81
0.0
-8.24
0.0
-7.04
-7.81
0.0
0.0
0.0
0.0
-6.85
-7.95
-7.25
-7.83
0.0
0.0
0.0
0.0
0.0
0.0
0.0
0.0
0.0
0.0
-7.79
0.0
0.0
0.0
0.0
0.0
0.0
0.0
0.0
0.0
0.0
0.0
0.0
0.0
0.0
0.0
0.0
0.0
0.0
-7.16
0.0
-7.91
0.0
0.0
0.0
0.0
0.0
0.0
0.0
-6.86
-7.36
0.0
0.0
0.0
0.0
0.0
-8.26
0.0
-7.78
-7.29
0.0
0.0
0.0
-7.93
-7.46
-7.82
-8.54
-8.53
0.0
-7.81
0.0
0.0
-7.93
0.0
-7.86
-7.89
0.0
0.0
-7.84
-7.85
-7.96
-7.81
-6.86
-7.74
0.0
0.0
0.0
0.0
-7.84
-7.87
-7.84
0.0
-8.55999999927
-7.9
0.0
0.0
-7.75
-7.43
0.0
-8.6
-7.85
-8.0
-8.52
0.0
0.0
0.0
-7.35
-7.94
-7.4
-8.56
-7.83
-7.93
0.0
0.0
-7.72
0.0
0.0
0.0
-8.34
0.0
0.0
0.0
-7.82
0.0
0.0
0.0
0.0
0.0
0.0
0.0
0.0
0.0
0.0
0.0
0.0
0.0
-7.57
0.0
-7.64
0.0
0.0
-7.74
0.0
0.0
-7.82
0.0
0.0
0.0
-7.82
-7.82
0.0
-7.81
-7.86
-7.91
-7.54
-8.59
0.0
-7.11
-7.83
-7.8
0.0
-8.56
-7.19
0.0
-7.91
0.0
-7.9
0.0
0.0
0.0
0.0
0.0
-7.93
-7.89
-8.7
0.0
-8.28
0.0
0.0
0.0
0.0
-8.92
0.0
0.0
0.0
0.0
-9.08193
0.0
0.0
-8.977
