-6.28
0.0
0.0
-6.2
-6.31
-6.18
-6.25
0.0
0.0
0.0
-6.31
-6.32
-6.32
-6.39
-6.22
-6.27
-6.31
-6.26
0.0
-6.26
-6.3
0.0
0.0
0.0
0.0
0.0
-6.32
0.0
0.0
-6.25
0.0
0.0
0.0
-6.34
-6.29
0.0
-6.02
0.0
-6.3
0.0
0.0
0.0
0.0
0.0
0.0
0.0
0.0
-6.28
-6.27
0.0
0.0
0.0
0.0
0.0
0.0
0.0
0.0
0.0
0.0
0.0
-6.22
-6.33
0.0
0.0
0.0
0.0
0.0
-6.27
-6.19
0.0
-6.37
-6.27
0.0
0.0
0.0
-6.22
-6.35
-6.29
-6.35
-6.37
-7.35999999996
0.0
0.0
0.0
0.0
0.0
-6.31
-6.1
-7.3
0.0
0.0
-6.34
0.0
-7.34999999964
-6.3
0.0
-7.28
0.0
0.0
0.0
0.0
-6.28
-7.29
-6.26
-7.32999989299
0.0
0.0
0.0
0.0
-6.19
-6.26
0.0
-6.32
-6.37
-6.31
0.0
0.0
0.0
0.0
0.0
-7.35
-7.36999999975
-7.3
0.0
0.0
0.0
0.0
0.0
-6.29
-6.33
-6.31
-7.32999999983
-6.29
0.0
0.0
0.0
0.0
0.0
-6.3
0.0
0.0
0.0
0.0
0.0
0.0
0.0
0.0
0.0
0.0
0.0
0.0
0.0
0.0
0.0
0.0
0.0
0.0
0.0
-6.24
0.0
0.0
0.0
0.0
0.0
0.0
-6.23
0.0
-6.37
0.0
0.0
0.0
0.0
0.0
-6.3
-6.31
-6.28
-6.29
-6.3
-7.32999999999
0.0
0.0
0.0
0.0
0.0
0.0
0.0
-7.26
-6.35
-6.31
0.0
0.0
-6.34
-6.36
-7.33999999997
-6.29
-7.31
0.0
-6.3
-6.43
0.0
-6.32
0.0
-6.28
0.0
-6.4
0.0
-6.35
-6.33
0.0
0.0
-6.3
0.0
0.0
-6.09
-6.15
-6.28
-6.42
0.0
0.0
0.0
-6.27
0.0
-6.31
-6.32
-7.35999999568
-6.31
-6.31
-7.33999999698
0.0
0.0
-6.29
-6.36
-6.27
-6.33
-6.42
0.0
0.0
0.0
0.0
0.0
0.0
0.0
-6.36
-6.27
-6.28
-7.37999999788
0.0
0.0
-6.27
-6.27
0.0
0.0
-6.31
-7.33
0.0
0.0
-6.28
0.0
0.0
0.0
0.0
0.0
0.0
0.0
0.0
0.0
0.0
0.0
0.0
0.0
0.0
0.0
0.0
0.0
0.0
0.0
0.0
0.0
-6.26
0.0
0.0
0.0
0.0
0.0
0.0
-6.3
0.0
-6.4
0.0
0.0
0.0
0.0
0.0
-6.25
0.0
-7.3499999251
0.0
-7.32999999988
-7.31
0.0
0.0
0.0
-6.07
-6.36
-7.31999999998
-6.23
-7.32999999119
-7.35999999852
-6.29
-7.31
0.0
0.0
0.0
-6.32
0.0
-6.35
-6.21
-6.46
-7.35999909046
-6.38
-7.39999936332
0.0
-6.35
0.0
-6.32
-7.31
-7.28999999991
-6.32
-7.35999814379
-6.39
0.0
0.0
0.0
-7.32999999994
-6.34
-6.42
-7.39999870065
-6.31
-6.07
0.0
0.0
0.0
0.0
0.0
-6.44
-5.96
-6.33
-6.38
-6.33
0.0
0.0
0.0
-6.18
0.0
-6.28
-6.28
-7.28
-7.29999999896
-6.4
-6.34
0.0
0.0
0.0
-5.94
-6.08
-6.39
-7.29
-6.35
0.0
-6.18
0.0
0.0
0.0
0.0
-6.31
-6.32
-6.35
-6.31
0.0
0.0
0.0
0.0
-6.3
0.0
0.0
0.0
0.0
0.0
0.0
0.0
0.0
0.0
0.0
0.0
0.0
0.0
0.0
0.0
0.0
0.0
0.0
0.0
0.0
0.0
0.0
0.0
0.0
0.0
0.0
0.0
0.0
0.0
0.0
0.0
0.0
0.0
-6.32
0.0
0.0
0.0
0.0
0.0
0.0
-6.01
0.0
0.0
-6.35
-6.34
-7.32
0.0
0.0
0.0
0.0
-6.32
0.0
-6.38
-6.14
-6.49
-7.31
-6.19
0.0
0.0
0.0
0.0
-7.3
-6.02
-6.45
-7.3
-6.3
-6.15
-6.39
0.0
0.0
-6.32
-6.33
-7.26
-6.3
-7.28
-7.40997746066
-7.32999997431
-7.37999998202
-6.31
-6.4
-7.31999999999
-7.39999955432
-6.37
-6.0
-6.36
-7.35999999927
0.0
0.0
0.0
-6.33
-6.37
-6.21
-6.62
-6.29
-6.11
-7.26
0.0
0.0
-6.06
-6.3
-7.39999226901
-7.28
-6.36
-6.44
-6.38
-6.19
0.0
-5.98
-6.34
-6.33
-7.33999968803
0.0
-6.27
-6.4
0.0
0.0
0.0
-6.4
-5.95
-7.33999999999
0.0
-6.32
0.0
0.0
0.0
0.0
0.0
-6.27
-7.4299945883
-6.37
-6.26
0.0
0.0
0.0
0.0
0.0
0.0
-6.35
0.0
0.0
0.0
0.0
0.0
0.0
0.0
0.0
0.0
0.0
0.0
0.0
0.0
0.0
0.0
0.0
0.0
0.0
0.0
0.0
0.0
0.0
0.0
0.0
0.0
0.0
-6.25
-6.31
-7.36999999383
-6.28
0.0
0.0
0.0
0.0
0.0
-6.32
-7.33999999949
-6.32
-6.29
-6.35
-6.29
0.0
0.0
0.0
-5.92
0.0
-7.28
-6.44
-7.26
0.0
-6.4
-7.28
0.0
0.0
0.0
-6.04
-6.42
-7.27
-6.03
-7.5899
-6.31
-6.32
0.0
0.0
0.0
0.0
-6.29
-6.3
-6.19
-6.07
-6.32
0.0
0.0
-6.09
-6.06
-6.32
-7.35999978162
-6.17
-6.38
-7.09
-7.33999998741
0.0
-6.33
-6.35
-7.25
-6.3
-7.1
-7.37995400135
-5.92
0.0
-6.28
0.0
-6.3
-6.15
-7.31999984713
-7.35999994757
-7.13
0.0
0.0
-6.3
-6.41
0.0
-6.32
-6.34
-7.22
0.0
0.0
0.0
0.0
-6.27
-7.36999621181
-6.33
-6.31
0.0
0.0
0.0
0.0
0.0
-6.26
-6.39
-7.3
0.0
0.0
0.0
0.0
0.0
0.0
-5.93
0.0
0.0
0.0
0.0
0.0
0.0
0.0
0.0
0.0
0.0
0.0
0.0
0.0
0.0
0.0
0.0
0.0
0.0
0.0
0.0
0.0
-6.2
0.0
0.0
0.0
0.0
0.0
0.0
0.0
0.0
-6.29
0.0
0.0
0.0
0.0
0.0
0.0
0.0
0.0
-7.7276457
0.0
0.0
0.0
0.0
0.0
-6.28
0.0
-7.3599999633
-6.29
-7.40999734827
-6.29
-7.22
0.0
0.0
0.0
0.0
-6.32
-6.32
0.0
-7.24
-7.66193
0.0
0.0
0.0
0.0
-6.26
-7.77235199
-7.722351
-6.31
-7.2
-6.3
-6.35
0.0
0.0
-6.1
-6.17
-6.14
-7.17
-7.23
-6.43
-6.29
0.0
0.0
-6.31
-7.779646393
-6.01
-6.29
-6.34
-6.18
-6.87
0.0
-6.29
-6.11
-6.19
-7.22
-7.23
-7.1
0.0
0.0
-6.13
0.0
-6.29
-6.05
-7.26
-6.3
-6.25
0.0
0.0
0.0
0.0
0.0
-6.29
-7.07
-7.17
-6.41
0.0
0.0
0.0
0.0
0.0
-5.98
-6.27
-6.06
0.0
0.0
0.0
0.0
0.0
0.0
0.0
0.0
-6.32
0.0
0.0
0.0
0.0
0.0
0.0
0.0
0.0
0.0
0.0
0.0
0.0
0.0
0.0
0.0
0.0
0.0
0.0
0.0
0.0
0.0
0.0
0.0
0.0
0.0
0.0
0.0
-6.25
0.0
0.0
-6.3
0.0
0.0
0.0
0.0
0.0
-6.1
-6.26
-5.98
-7.27
-6.23
-6.31
0.0
0.0
0.0
0.0
0.0
0.0
-6.33
-6.12
-7.22
-7.08
-7.11
0.0
0.0
0.0
-7.11
-6.3
-6.18
-6.12
-6.47
-7.17
-7.37
0.0
0.0
0.0
-6.31
-6.3
-6.32
-6.34
-7.42998895572
-6.32
0.0
0.0
-6.09
0.0
-6.31
-6.29
-7.17
-7.17
-7.27
-7.497
0.0
-6.11
-6.31
-6.3
-6.3
-6.39
-7.21
-7.25
0.0
-6.31
-6.0
-6.38
-7.25
-7.16
-6.28
-7.18
0.0
-6.03
0.0
-6.16
-6.32
-7.16
0.0
-6.17
0.0
0.0
0.0
0.0
-6.27
-6.34
-6.02
-7.19
-6.69
0.0
0.0
0.0
0.0
-6.31
0.0
-7.1
-7.16
0.0
0.0
0.0
0.0
0.0
0.0
0.0
0.0
0.0
0.0
0.0
0.0
0.0
0.0
0.0
0.0
0.0
0.0
0.0
0.0
0.0
0.0
0.0
0.0
0.0
0.0
0.0
0.0
0.0
-6.26
0.0
0.0
0.0
0.0
0.0
0.0
0.0
0.0
-6.2
-6.28
0.0
0.0
0.0
0.0
0.0
-6.26
-6.31
-7.23
-6.33
-6.27
-6.36
0.0
0.0
0.0
0.0
-6.26
-6.26
-6.13
-7.24
-6.33
-6.3
-7.13
0.0
0.0
0.0
0.0
0.0
-6.27
-6.33
-6.33
-6.35
-6.34
-6.33
0.0
0.0
0.0
0.0
-6.31
-6.18
-6.33
-6.32
-7.23
-6.27
-6.29
-7.0
-6.34
-6.3
0.0
-7.28
-6.24
-7.28
0.0
0.0
0.0
-6.27
-5.99
-6.16
-7.19
-7.26
-6.31
-6.31
0.0
0.0
0.0
0.0
-6.31
-7.24
-6.36
-6.31
-7.12
-6.29
0.0
0.0
-6.33
0.0
-6.37
-6.32
0.0
-7.14
0.0
0.0
0.0
0.0
-6.27
0.0
-7.08
-7.13
-6.28
0.0
0.0
0.0
0.0
-7.14
-6.21
0.0
0.0
0.0
0.0
0.0
0.0
0.0
0.0
0.0
0.0
0.0
0.0
0.0
0.0
0.0
0.0
0.0
0.0
0.0
0.0
0.0
0.0
0.0
0.0
0.0
0.0
0.0
0.0
0.0
0.0
0.0
0.0
0.0
0.0
0.0
0.0
0.0
-6.26
-7.05
0.0
0.0
0.0
0.0
0.0
0.0
0.0
0.0
-6.31
-6.29
-6.71
0.0
0.0
0.0
0.0
0.0
-6.29
-6.33
-6.23
0.0
0.0
-7.08
-6.24
0.0
0.0
0.0
0.0
0.0
0.0
-6.31
-6.33
-6.31
-6.27
-6.26
0.0
-6.28
-7.22
-5.99
-6.3
-6.29
-6.37
-6.27
0.0
0.0
-6.0
-7.1
-6.32
0.0
-6.3
0.0
-7.25
0.0
0.0
0.0
-6.27
-6.27
-6.27
0.0
0.0
-6.28
-7.12
0.0
0.0
0.0
-6.29
-6.22
-6.63
-6.07
-6.29
-6.26
0.0
-6.27
0.0
0.0
0.0
0.0
-6.27
-6.29
-7.1
-6.16
-6.34
-6.27
0.0
0.0
0.0
0.0
-6.28
-7.29
-6.29
-7.1
0.0
0.0
0.0
0.0
0.0
0.0
0.0
-6.29
0.0
0.0
0.0
0.0
0.0
0.0
0.0
0.0
0.0
0.0
0.0
0.0
0.0
0.0
0.0
0.0
0.0
0.0
0.0
0.0
0.0
-6.14
0.0
0.0
0.0
0.0
0.0
0.0
0.0
0.0
0.0
0.0
0.0
0.0
0.0
0.0
-6.22
-6.28
-6.26
0.0
-6.24
0.0
0.0
0.0
0.0
-6.25
0.0
0.0
-6.3
0.0
0.0
-6.2
0.0
0.0
-6.29
-7.26
0.0
-6.14
0.0
-6.26
-6.3
0.0
-6.22
0.0
-7.12
0.0
-6.33
-7.22
-6.34
-6.28
0.0
0.0
0.0
0.0
0.0
-7.08
-7.08
-6.29
-6.3
-6.32
0.0
0.0
-6.22
0.0
-6.29
-6.3
-7.24
-7.19
-7.14
-6.33
0.0
0.0
0.0
0.0
0.0
0.0
-6.34
-6.28
0.0
0.0
0.0
0.0
-6.25
0.0
-6.27
0.0
0.0
-6.21
0.0
0.0
0.0
0.0
0.0
-6.26
-6.22
-6.24
0.0
0.0
0.0
0.0
0.0
0.0
0.0
0.0
0.0
0.0
-6.18
0.0
0.0
0.0
0.0
0.0
0.0
0.0
0.0
0.0
0.0
0.0
0.0
0.0
0.0
0.0
0.0
0.0
0.0
0.0
0.0
-6.25
0.0
0.0
0.0
0.0
0.0
0.0
0.0
0.0
0.0
0.0
0.0
0.0
0.0
0.0
-6.3
0.0
-6.25
-6.25
0.0
0.0
0.0
-6.27
-6.23
-6.24
-7.19
-7.07
0.0
-6.22
0.0
0.0
-6.24
0.0
-6.27
-6.27
0.0
0.0
-6.22
-6.23
-6.26
-6.25
0.0
-6.31
0.0
0.0
0.0
0.0
-6.27
-6.26
-6.25
0.0
-7.27
-6.29
0.0
0.0
-6.18
0.0
0.0
-7.08
-6.27
-6.29
-7.13
0.0
0.0
0.0
0.0
-6.26
-6.14
-6.67
-6.17
-6.28
0.0
0.0
-6.14
0.0
0.0
0.0
-6.32
0.0
0.0
0.0
-6.21
0.0
0.0
0.0
0.0
0.0
0.0
0.0
0.0
0.0
0.0
0.0
0.0
0.0
0.0
0.0
-6.13
0.0
0.0
0.0
0.0
0.0
-6.21
0.0
0.0
0.0
-6.21
-6.25
0.0
-6.21
-6.25
-6.24
-6.22
-7.09
0.0
0.0
-6.22
-6.22
0.0
-6.7
-6.14
0.0
-6.23
0.0
-6.27
0.0
0.0
0.0
0.0
0.0
-6.2
-6.24
-6.24
0.0
-7.12
0.0
0.0
0.0
0.0
-6.22
0.0
0.0
0.0
0.0
-6.27
0.0
0.0
-6.22
