0.0
0.0
0.0
0.0
0.0
0.0
0.0
0.0
0.0
0.0
0.0
0.0
0.0
0.0
0.0
0.0
0.0
0.0
0.0
0.0
0.0
0.0
0.0
0.0
0.0
0.0
0.0
0.0
0.0
0.0
0.0
0.0
0.0
0.0
0.0
0.0
0.0
0.0
0.0
0.0
0.0
0.0
0.0
0.0
0.0
0.0
0.0
0.0
0.0
0.0
0.0
0.0
0.0
0.0
0.0
0.0
0.0
0.0
0.0
0.0
0.0
0.0
0.0
0.0
0.0
0.0
0.0
0.0
0.0
0.0
0.0
0.0
0.0
0.0
0.0
0.0
0.0
0.0
0.0
0.0
-8.72999999119
0.0
0.0
0.0
0.0
0.0
0.0
0.0
-8.7399945883
0.0
0.0
0.0
0.0
-8.68999999383
0.0
0.0
-8.74886011048
0.0
0.0
0.0
0.0
0.0
-8.72
0.0
-8.60920207734
0.0
0.0
0.0
0.0
0.0
0.0
0.0
-4.26
-4.33
0.0
0.0
0.0
0.0
0.0
0.0
-8.72999999568
-8.74944145414
-8.73999621181
0.0
0.0
0.0
0.0
0.0
0.0
0.0
-4.22
-8.7296090179
0.0
0.0
0.0
0.0
0.0
0.0
0.0
0.0
0.0
0.0
0.0
0.0
0.0
0.0
0.0
0.0
0.0
0.0
0.0
0.0
0.0
0.0
0.0
0.0
0.0
0.0
0.0
0.0
0.0
0.0
0.0
0.0
0.0
0.0
0.0
0.0
0.0
0.0
0.0
0.0
0.0
0.0
0.0
0.0
-4.2
0.0
-8.71999734827
0.0
0.0
0.0
0.0
0.0
0.0
0.0
-8.65999814379
0.0
-4.27
0.0
0.0
0.0
0.0
-8.72
0.0
-8.72999999698
0.0
0.0
0.0
0.0
0.0
0.0
0.0
0.0
0.0
0.0
0.0
-4.24
0.0
0.0
0.0
0.0
0.0
0.0
0.0
0.0
0.0
0.0
0.0
0.0
0.0
0.0
0.0
-4.26
-8.69999870065
-4.27
-4.24
-8.67031109896
0.0
0.0
0.0
0.0
0.0
-4.28
0.0
0.0
0.0
0.0
0.0
0.0
0.0
0.0
0.0
0.0
0.0
-8.72999999788
0.0
0.0
0.0
0.0
0.0
0.0
0.0
-8.71
0.0
0.0
0.0
0.0
0.0
0.0
0.0
0.0
0.0
0.0
0.0
0.0
0.0
0.0
0.0
0.0
0.0
0.0
0.0
0.0
0.0
0.0
0.0
0.0
0.0
0.0
0.0
0.0
0.0
0.0
0.0
0.0
0.0
0.0
0.0
0.0
0.0
0.0
0.0
0.0
0.0
-8.61
0.0
-8.65999909046
-8.7
0.0
0.0
0.0
0.0
0.0
-8.65999936332
0.0
-8.61999955432
-8.68999999852
0.0
-8.68999999896
0.0
0.0
0.0
0.0
0.0
-4.28
0.0
-4.24
-8.62972631253
-4.35
-8.64999999927
0.0
0.0
0.0
-4.26
-8.72
-8.66999999949
-4.25
-8.6161587128
0.0
0.0
0.0
0.0
-8.64
-4.27
-4.22
-8.62980841877
-4.27
0.0
0.0
0.0
0.0
0.0
0.0
-4.22
0.0
-4.27
0.0
-4.26
0.0
0.0
0.0
0.0
0.0
-4.2
0.0
-8.64999999964
-8.60999999975
-4.32
0.0
0.0
0.0
0.0
0.0
0.0
0.0
-8.7
-4.34
0.0
0.0
0.0
0.0
0.0
0.0
0.0
0.0
0.0
-4.25
0.0
0.0
0.0
0.0
-4.24
0.0
0.0
0.0
0.0
0.0
0.0
0.0
0.0
0.0
0.0
0.0
0.0
0.0
0.0
0.0
0.0
0.0
0.0
0.0
0.0
0.0
0.0
0.0
0.0
0.0
0.0
0.0
0.0
0.0
0.0
0.0
0.0
0.0
0.0
0.0
0.0
0.0
0.0
0.0
0.0
0.0
0.0
0.0
0.0
-4.24
-8.71
0.0
0.0
0.0
0.0
0.0
0.0
0.0
0.0
-8.68
-8.72
0.0
0.0
0.0
0.0
0.0
-8.68
0.0
-4.21
-8.68
0.0
0.0
0.0
0.0
0.0
0.0
0.0
-8.65
0.0
-8.68999999983
-8.61321776927
-8.63999968803
-8.68999999988
0.0
0.0
-8.67
-8.68986589314
0.0
0.0
-4.31
-8.70999999991
0.0
0.0
0.0
0.0
0.0
0.0
-8.78
-4.3
0.0
-8.72999999994
0.0
0.0
0.0
-4.2
-8.5899061252
-8.67
0.0
-4.21
-4.33
0.0
0.0
0.0
0.0
-4.32
-8.58999999996
0.0
0.0
0.0
0.0
0.0
0.0
0.0
0.0
-8.69999978162
0.0
-4.25
0.0
0.0
0.0
0.0
0.0
-4.22
-8.62999999997
0.0
0.0
0.0
0.0
0.0
0.0
0.0
0.0
0.0
0.0
0.0
0.0
0.0
0.0
0.0
0.0
0.0
0.0
0.0
0.0
0.0
0.0
0.0
0.0
0.0
0.0
0.0
0.0
0.0
0.0
0.0
0.0
0.0
0.0
0.0
-4.21
0.0
-8.68
0.0
0.0
0.0
0.0
0.0
0.0
-4.28
-8.69
-4.28
0.0
0.0
0.0
0.0
0.0
0.0
0.0
0.0
-8.68
-4.23
-8.7
0.0
-4.18
-8.65
0.0
0.0
0.0
0.0
-4.21
-8.67
0.0
-8.06
0.0
-4.26
0.0
0.0
0.0
0.0
-1.48
0.0
0.0
0.0
-4.26
0.0
0.0
0.0
0.0
0.0
-8.59999984713
0.0
0.0
-8.64999999998
-8.7
0.0
0.0
0.0
-8.67
-4.18
-8.167
-8.53767369486
0.0
0.0
-4.17
0.0
0.0
0.0
-8.58999999999
-8.63999989299
-8.7
0.0
0.0
0.0
-4.2
0.0
0.0
-4.31
-8.7
0.0
0.0
0.0
0.0
0.0
-8.5799999251
0.0
0.0
0.0
0.0
0.0
0.0
0.0
0.0
0.0
-8.7
0.0
0.0
0.0
0.0
0.0
0.0
0.0
0.0
0.0
0.0
0.0
0.0
0.0
0.0
0.0
0.0
0.0
0.0
0.0
0.0
0.0
0.0
0.0
0.0
0.0
0.0
0.0
0.0
0.0
0.0
0.0
0.0
0.0
0.0
0.0
0.0
0.0
-4.21
0.0
0.0
0.0
0.0
0.0
0.0
0.0
0.0
-8.402351
0.0
0.0
0.0
0.0
0.0
-4.22
0.0
-8.60999999999
-4.23
-8.62999999999
0.0
-8.59
0.0
0.0
0.0
0.0
-4.23
-4.17
0.0
-8.72
-8.3099
0.0
0.0
0.0
0.0
0.0
-8.4576457
-8.48235199
-4.23
-8.67
-4.27
-4.29
0.0
0.0
0.0
0.0
0.0
-8.64
-8.57
-1.39
-4.17
0.0
0.0
-4.25
-8.499646393
0.0
0.0
-4.26
0.0
-7.56
0.0
-4.24
0.0
0.0
-8.59
-8.74
-8.62
0.0
0.0
0.0
0.0
0.0
0.0
-8.62
-4.23
0.0
0.0
0.0
0.0
0.0
0.0
-4.25
-8.6
-8.69
0.0
0.0
0.0
0.0
0.0
0.0
0.0
0.0
0.0
0.0
0.0
0.0
0.0
0.0
0.0
0.0
0.0
-4.2
0.0
0.0
0.0
0.0
0.0
0.0
0.0
0.0
0.0
0.0
0.0
0.0
0.0
0.0
0.0
0.0
0.0
0.0
0.0
0.0
0.0
0.0
0.0
0.0
0.0
0.0
0.0
0.0
0.0
0.0
-4.25
0.0
0.0
0.0
0.0
0.0
0.0
0.0
0.0
-8.62
0.0
-4.26
0.0
0.0
0.0
0.0
0.0
0.0
-4.17
0.0
-8.59
-8.63
-8.61
0.0
0.0
0.0
-8.6
-4.24
0.0
0.0
-8.72
-8.7
-8.38193
0.0
0.0
0.0
-4.17
0.0
-4.33
-4.24
-8.59999994757
-4.2
0.0
0.0
0.0
0.0
-4.2
-1.49
-8.63
-8.59
-8.63
-7.82
0.0
0.0
-4.27
-4.23
0.0
-4.36
-8.71
-8.61
0.0
-1.54
0.0
-4.33
-8.62
-8.69
-4.17
-8.6
0.0
0.0
0.0
0.0
-1.57
-8.69
0.0
0.0
0.0
0.0
0.0
0.0
-4.21
-4.33
0.0
-8.55
-8.62
0.0
0.0
0.0
0.0
-4.22
0.0
-8.63
-8.59
0.0
0.0
0.0
0.0
0.0
0.0
0.0
0.0
0.0
0.0
0.0
0.0
0.0
0.0
0.0
0.0
0.0
0.0
0.0
0.0
0.0
0.0
0.0
0.0
0.0
0.0
0.0
0.0
0.0
0.0
0.0
0.0
0.0
0.0
0.0
0.0
0.0
0.0
0.0
-4.19
0.0
0.0
0.0
0.0
0.0
0.0
-1.49
-8.59
-4.18
0.0
-4.3
0.0
0.0
0.0
0.0
0.0
0.0
0.0
-8.5599999633
-4.25
0.0
-8.63
0.0
0.0
0.0
0.0
0.0
0.0
-4.13
-4.32
-4.23
-1.58
-4.13
0.0
0.0
0.0
0.0
-4.16
0.0
-4.27
-4.2
-8.62998895572
0.0
-1.5
-8.59
-4.23
-4.17
0.0
-8.56999226901
0.0
-8.61999997431
0.0
0.0
0.0
0.0
0.0
0.0
-8.59999998202
-8.6
-4.15
-4.23
0.0
0.0
0.0
0.0
-4.27
-8.61
-4.29
-1.54
-8.62
0.0
0.0
0.0
-4.2
0.0
-4.33
-4.12
0.0
-8.63
0.0
0.0
0.0
0.0
0.0
0.0
-8.59
-8.6
0.0
0.0
0.0
0.0
0.0
-8.61
0.0
0.0
0.0
0.0
0.0
0.0
0.0
0.0
0.0
0.0
0.0
0.0
0.0
0.0
0.0
0.0
0.0
0.0
0.0
0.0
0.0
0.0
0.0
0.0
0.0
0.0
0.0
0.0
0.0
0.0
0.0
0.0
0.0
0.0
0.0
0.0
0.0
0.0
0.0
-8.61
0.0
0.0
0.0
0.0
0.0
0.0
0.0
0.0
-4.23
0.0
-8.68
0.0
0.0
0.0
0.0
0.0
-1.48
-4.16
0.0
0.0
0.0
-8.64
0.0
0.0
0.0
0.0
0.0
0.0
0.0
-4.21
-4.24
-4.17
-1.4
0.0
0.0
-4.24
-8.56
0.0
-4.23
0.0
-4.24
0.0
0.0
0.0
0.0
-8.61
-1.57
0.0
-1.56
0.0
-8.63
0.0
0.0
0.0
0.0
-4.24
0.0
0.0
0.0
-4.19
-8.63
0.0
0.0
0.0
-1.52
0.0
-8.63
0.0
0.0
0.0
0.0
0.0
0.0
0.0
0.0
0.0
0.0
-4.16
-8.61
0.0
-4.16
0.0
0.0
0.0
0.0
0.0
0.0
-8.59
0.0
-8.63
0.0
0.0
0.0
0.0
0.0
0.0
0.0
-1.5
0.0
0.0
0.0
0.0
0.0
0.0
0.0
0.0
0.0
0.0
0.0
0.0
0.0
0.0
0.0
0.0
0.0
0.0
0.0
0.0
0.0
0.0
0.0
0.0
0.0
0.0
0.0
0.0
0.0
0.0
0.0
0.0
0.0
0.0
0.0
0.0
0.0
0.0
0.0
0.0
0.0
0.0
0.0
0.0
0.0
0.0
0.0
0.0
-1.51
0.0
0.0
0.0
0.0
0.0
-1.49
-8.59999998741
0.0
0.0
0.0
0.0
-4.21
0.0
0.0
0.0
-8.61
0.0
-4.16
-8.61
-4.26
0.0
0.0
0.0
0.0
0.0
0.0
-8.62
-8.66
-4.16
-4.22
-4.25
0.0
0.0
0.0
0.0
0.0
-1.55
-8.61
-8.55
-8.65
-1.61
0.0
0.0
0.0
0.0
0.0
0.0
-4.23
0.0
0.0
0.0
0.0
0.0
0.0
0.0
-1.55
0.0
0.0
0.0
0.0
0.0
0.0
0.0
0.0
0.0
0.0
0.0
0.0
0.0
0.0
0.0
0.0
0.0
0.0
0.0
0.0
0.0
0.0
0.0
0.0
0.0
0.0
0.0
0.0
0.0
0.0
0.0
0.0
0.0
0.0
0.0
0.0
0.0
0.0
0.0
0.0
0.0
0.0
0.0
0.0
0.0
0.0
0.0
0.0
0.0
0.0
0.0
0.0
0.0
0.0
0.0
0.0
0.0
-1.51
0.0
0.0
0.0
0.0
0.0
0.0
0.0
0.0
0.0
-8.6
-8.62
0.0
0.0
0.0
0.0
0.0
0.0
0.0
0.0
0.0
0.0
0.0
0.0
0.0
0.0
0.0
-4.2
0.0
0.0
0.0
0.0
0.0
0.0
0.0
0.0
-8.63
0.0
0.0
0.0
0.0
0.0
0.0
-8.65
0.0
-1.51
-8.6
0.0
0.0
0.0
0.0
-1.49
0.0
-8.65
0.0
-1.53
0.0
0.0
0.0
0.0
0.0
0.0
-1.6
0.0
0.0
0.0
0.0
0.0
0.0
0.0
0.0
0.0
0.0
0.0
0.0
0.0
0.0
0.0
0.0
0.0
0.0
0.0
0.0
0.0
0.0
0.0
0.0
0.0
0.0
0.0
0.0
0.0
0.0
0.0
0.0
0.0
0.0
0.0
0.0
-8.67
0.0
0.0
0.0
0.0
0.0
-8.67
0.0
0.0
0.0
0.0
-1.5
0.0
0.0
0.0
0.0
0.0
0.0
0.0
0.0
0.0
-4.32
0.0
0.0
0.0
0.0
0.0
0.0
0.0
0.0
0.0
0.0
0.0
0.0
0.0
