0.0
0.0
0.0
0.0
0.0
0.0
0.0
0.0
0.0
0.0
0.0
0.0
0.0
-4.5
0.0
0.0
0.0
0.0
0.0
0.0
0.0
0.0
0.0
0.0
0.0
0.0
0.0
0.0
0.0
0.0
0.0
0.0
0.0
-4.56
0.0
0.0
0.0
0.0
0.0
0.0
0.0
0.0
0.0
0.0
0.0
0.0
0.0
0.0
0.0
0.0
0.0
0.0
0.0
0.0
0.0
0.0
0.0
0.0
0.0
0.0
0.0
0.0
0.0
0.0
0.0
0.0
0.0
0.0
0.0
0.0
-4.49
0.0
0.0
0.0
0.0
0.0
-4.48
0.0
-0.1
-4.57
-9.06
0.0
0.0
0.0
0.0
0.0
0.0
0.0
-9.04
0.0
0.0
-0.04
0.0
-9.04
0.0
0.0
-9.1
0.0
0.0
0.0
0.0
0.0
-8.99
0.0
-8.98
0.0
0.0
0.0
0.0
0.0
0.0
0.0
-8.95
-8.96
0.0
0.0
0.0
0.0
0.0
0.0
-9.03
-8.98
-9.03
0.0
0.0
0.0
0.0
0.0
0.0
-4.51
-4.56
-9.07
0.0
0.0
0.0
0.0
0.0
0.0
0.0
0.0
0.0
0.0
0.0
0.0
0.0
0.0
0.0
0.0
0.0
0.0
0.0
0.0
0.0
0.0
0.0
0.0
0.0
0.0
0.0
0.0
0.0
0.0
0.0
0.0
0.0
0.0
0.0
-4.55
0.0
0.0
0.0
0.0
0.0
0.0
0.0
0.0
0.0
0.0
-9.0
0.0
0.0
0.0
0.0
0.0
0.0
0.0
-9.0
-4.52
-8.98
0.0
0.0
-4.5
-4.55
-9.0
-4.43
-9.08
0.0
0.0
-9.06
0.0
0.0
0.0
0.0
0.0
-9.02
0.0
-4.56
-4.57
0.0
0.0
0.0
0.0
0.0
0.0
0.0
0.0
-9.02
0.0
0.0
0.0
0.0
0.0
0.0
-4.53
-9.06
-8.94
-4.56
-9.03
0.0
0.0
0.0
-4.48
0.0
-8.97
-4.63
0.0
0.0
0.0
0.0
0.0
0.0
0.0
-4.52
0.0
0.0
-9.03
0.0
0.0
0.0
0.0
0.0
0.0
0.0
-9.03
0.0
0.0
0.0
0.0
0.0
0.0
0.0
0.0
0.0
0.0
0.0
0.0
0.0
0.0
0.0
0.0
0.0
0.0
0.0
0.0
0.0
0.0
0.0
0.0
0.0
0.0
0.0
0.0
0.0
0.0
0.0
0.0
0.0
-4.61
0.0
0.0
0.0
0.0
0.0
0.0
0.0
-8.94
0.0
-9.0
-9.05
0.0
0.0
0.0
0.0
-4.54
-9.01
0.0
-9.0
-9.06
-4.48
-8.99
0.0
0.0
0.0
-4.49
0.0
-9.0
0.0
-8.97
-8.95
-8.98
-9.0
0.0
-4.57
0.0
-4.55
-9.01
-8.97
-8.94
-8.98999999999
-4.49
0.0
0.0
0.0
-9.03
-8.94
-8.97
-9.0
-8.97
0.0
0.0
0.0
0.0
0.0
0.0
-8.98
0.0
-8.95
-8.91
-8.94
0.0
0.0
0.0
0.0
0.0
-4.49
-4.55
-9.03
-8.97
-8.97
0.0
0.0
0.0
0.0
0.0
0.0
-4.64
-9.02
-8.94
0.0
0.0
0.0
0.0
0.0
0.0
0.0
-4.51
-8.9
-4.57
0.0
0.0
0.0
0.0
-4.57
0.0
0.0
0.0
0.0
0.0
0.0
0.0
0.0
0.0
0.0
0.0
0.0
0.0
0.0
0.0
0.0
0.0
0.0
0.0
0.0
0.0
0.0
0.0
0.0
0.0
0.0
0.0
0.0
0.0
0.0
0.0
0.0
0.0
0.0
0.0
0.0
0.0
0.0
0.0
0.0
0.0
0.0
0.0
-4.59
-4.58
-9.05
0.0
0.0
0.0
0.0
-0.03
0.0
-4.6
0.0
-8.91
-9.02
0.0
0.0
0.0
0.0
0.0
-9.07
0.0
-9.02
-9.06
0.0
0.0
-4.53
0.0
0.0
0.0
-4.55
-8.99
-4.5
-9.03
-8.97
-8.97
-9.04
0.0
-8.94
-9.0
-9.07
-4.56
0.0
-8.96
-9.0
0.0
0.0
0.0
-4.55
-8.98
0.0
-8.98
-8.94
0.0
-9.05
0.0
0.0
0.0
-4.58
-8.99999999383
-8.97
-4.6
-8.98
-8.97
-4.37
0.0
0.0
-4.53
-8.95
-8.97
0.0
-4.49
-4.64
0.0
0.0
0.0
-9.03
0.0
-9.04
0.0
-4.6
0.0
0.0
0.0
0.0
0.0
-4.54
-9.04
-4.6
0.0
0.0
0.0
0.0
0.0
0.0
0.0
-4.54
0.0
0.0
0.0
0.0
0.0
0.0
0.0
0.0
0.0
0.0
0.0
0.0
0.0
0.0
0.0
0.0
0.0
0.0
0.0
0.0
0.0
0.0
0.0
0.0
0.0
0.0
0.0
0.0
-9.07
-4.52
0.0
0.0
0.0
0.0
0.0
-8.94
-9.02
-4.56
0.0
-4.5
0.0
0.0
0.0
0.0
0.0
0.0
-9.01
-9.01
-9.0
0.0
-9.04
-9.05
0.0
0.0
0.0
0.0
-8.96
-9.0
0.0
-8.4899
-4.48
-4.58
0.0
0.0
0.0
0.0
-4.54
-4.58
0.0
0.0
-4.57
0.0
0.0
0.0
0.0
-4.5
-8.99
0.0
-8.97
-9.10999999949
-8.98
0.0
-4.61
-4.64
-8.99
-4.56
-8.52193
-8.87
0.0
0.0
-4.56
0.0
0.0
0.0
-8.92
-9.08
-9.08
0.0
0.0
-0.06
-9.01
0.0
0.0
-9.0
-8.99
0.0
0.0
0.0
0.0
-4.43
-8.94
-4.53
-4.5
0.0
0.0
0.0
0.0
0.0
-4.44
-8.96
-9.03
0.0
0.0
0.0
0.0
0.0
0.0
0.0
0.0
0.0
0.0
0.0
0.0
0.0
0.0
0.0
0.0
0.0
0.0
0.0
0.0
0.0
0.0
0.0
0.0
0.0
0.0
0.0
0.0
0.0
0.0
0.0
0.0
0.0
0.0
0.0
0.0
0.0
-4.57
0.0
0.0
0.0
0.0
0.0
0.0
0.0
0.0
-8.6376457
0.0
0.0
0.0
0.0
0.0
-4.54
0.0
-9.01
-4.57
-8.99
-4.49
-8.97999999994
0.0
0.0
0.0
0.0
-4.55
-4.59
0.0
-9.1
-8.04
0.0
0.0
0.0
0.0
0.0
-8.72235199
-8.612351
-4.52
-8.98999999964
-4.58
-8.94
0.0
0.0
0.0
0.0
0.0
-8.96
-8.96886011048
-8.96
-4.57
0.0
0.0
-8.92
-8.719646393
0.0
-4.53
-4.63
0.0
-8.27
0.0
-4.55
0.0
0.0
-9.0061587128
-9.1
-9.10999999983
0.0
0.0
0.0
0.0
-4.53
0.0
-9.05999999568
-4.56
-4.48
0.0
0.0
0.0
0.0
0.0
-4.54
-9.10999999988
-9.09
-9.03
0.0
0.0
0.0
0.0
0.0
0.0
0.0
0.0
0.0
0.0
0.0
0.0
0.0
0.0
0.0
0.0
-4.56
0.0
0.0
0.0
0.0
0.0
0.0
0.0
0.0
0.0
0.0
0.0
0.0
0.0
0.0
0.0
0.0
0.0
0.0
0.0
0.0
0.0
0.0
0.0
0.0
0.0
0.0
0.0
-4.47
0.0
0.0
-8.93
0.0
0.0
0.0
0.0
0.0
0.0
-4.5
0.0
-9.03999999698
0.0
-8.95
0.0
0.0
0.0
0.0
0.0
0.0
-7.04
0.0
-9.03031109896
-9.10999936332
-9.05
0.0
0.0
0.0
-9.05999999788
-4.55
0.0
0.0
-8.96
-9.09
-8.477
0.0
0.0
0.0
-4.55
-4.53
-8.94
-8.92
-8.99
-4.62
0.0
0.0
0.0
0.0
-4.58
-4.54
-8.96999955432
-8.99995400135
-9.05999999852
-7.75
0.0
0.0
-4.57
-4.51
-4.53
-8.97
-9.07
-8.99999999927
0.0
-4.56
0.0
-8.98
-9.03
-9.03
-4.5
-9.07996780094
0.0
0.0
0.0
0.0
-4.58
-9.1
0.0
0.0
0.0
0.0
0.0
0.0
-4.54
-8.95
0.0
-8.95999999998
-9.09
0.0
0.0
0.0
0.0
-4.59
0.0
-9.07
-9.00999968803
0.0
0.0
0.0
0.0
0.0
0.0
0.0
0.0
0.0
0.0
0.0
0.0
0.0
0.0
0.0
0.0
0.0
0.0
0.0
0.0
0.0
0.0
0.0
0.0
0.0
0.0
0.0
0.0
0.0
0.0
0.0
0.0
0.0
0.0
0.0
0.0
0.0
0.0
0.0
-4.57
0.0
0.0
0.0
0.0
0.0
-4.48
-4.54
-9.00999978162
-4.59
-4.52
-8.96
0.0
0.0
0.0
0.0
-4.51
-4.45
0.0
-8.95321776927
-4.56
-4.54
-9.10920207734
0.0
0.0
0.0
0.0
0.0
-4.52
-4.6
-8.97
-8.88
-4.59
-4.61
0.0
0.0
0.0
0.0
-4.59
0.0
-8.95
-4.57
-9.0317524751
-4.45
-4.55
-9.08
-4.59
-4.57
0.0
-8.95022673257
-4.45
-9.04944145414
0.0
0.0
0.0
-4.48
0.0
0.0
-9.01525243849
-9.0696090179
-4.56
-4.58
0.0
0.0
0.0
0.0
-4.55
-9.01997746066
-8.94
-4.56
-9.07998422246
-4.51
0.0
0.0
-4.57
0.0
-8.94
-4.55
0.0
-9.07667670694
0.0
0.0
0.0
0.0
-4.44
0.0
-9.06
-9.08999999991
-4.52
0.0
0.0
0.0
0.0
-9.08999984713
-4.46
0.0
0.0
0.0
0.0
0.0
0.0
0.0
0.0
0.0
0.0
0.0
0.0
0.0
0.0
0.0
0.0
0.0
0.0
0.0
0.0
0.0
0.0
0.0
0.0
0.0
0.0
0.0
0.0
0.0
0.0
0.0
0.0
0.0
0.0
0.0
0.0
0.0
-4.5
-9.12999989299
0.0
0.0
0.0
0.0
0.0
0.0
0.0
0.0
-4.57
-4.53
-9.12
0.0
0.0
0.0
0.0
0.0
-4.51
-4.6
-4.42
0.0
0.0
-9.14972631253
-4.43
0.0
0.0
0.0
0.0
0.0
0.0
-4.6
-4.58
-4.6
-4.56
-4.5
0.0
-8.88
-8.97998895572
0.0
-8.97
-4.49
-7.06
0.0
0.0
0.0
0.0
-9.1299999251
-4.6
0.0
-4.58
0.0
-9.09767369486
0.0
0.0
0.0
-4.44
-4.51
-4.45
0.0
0.0
-4.56
-9.08980841877
0.0
0.0
0.0
-4.55
-4.39
-9.13999999999
0.0
-4.55
-4.5
0.0
-4.47
0.0
0.0
0.0
0.0
-4.44
-4.55
-9.09999226901
0.0
-4.61
-4.5
0.0
0.0
0.0
0.0
-4.49
-9.02999994757
-4.48
-9.06
0.0
0.0
0.0
0.0
0.0
0.0
0.0
-4.52
0.0
0.0
0.0
0.0
0.0
0.0
0.0
0.0
0.0
0.0
0.0
0.0
0.0
0.0
0.0
0.0
0.0
0.0
0.0
0.0
0.0
0.0
0.0
0.0
0.0
0.0
0.0
0.0
0.0
0.0
0.0
0.0
0.0
0.0
0.0
0.0
-4.39
-4.49
-4.48
0.0
-4.41
0.0
0.0
0.0
0.0
-4.45
0.0
0.0
-4.54
0.0
0.0
0.0
0.0
0.0
-4.53
-9.0199945883
0.0
0.0
0.0
0.0
-4.58
0.0
-4.42
0.0
-9.1299999633
0.0
-4.58
-9.08986589314
-4.59
0.0
0.0
0.0
0.0
0.0
0.0
-9.07999621181
-9.19999734827
-4.58
-4.53
-4.54
0.0
0.0
-4.43
0.0
-4.52
-4.55
-9.1099061252
-9.0183715864
-9.11999814379
-4.56
0.0
0.0
0.0
0.0
0.0
0.0
-7.05
-4.51
0.0
0.0
0.0
0.0
-4.44
0.0
-4.53
0.0
0.0
0.0
0.0
0.0
0.0
0.0
0.0
-4.51
0.0
-4.45
0.0
0.0
0.0
0.0
0.0
0.0
0.0
0.0
0.0
0.0
-4.38
0.0
0.0
0.0
0.0
0.0
0.0
0.0
0.0
0.0
0.0
0.0
0.0
0.0
0.0
0.0
0.0
0.0
0.0
0.0
0.0
-4.51
0.0
0.0
0.0
0.0
0.0
0.0
0.0
0.0
0.0
0.0
0.0
0.0
0.0
0.0
-4.54
0.0
-4.44
0.0
0.0
0.0
0.0
-4.5
0.0
-4.46
-9.09999870065
-9.14999997431
0.0
-4.4
0.0
0.0
-4.47
0.0
-4.49
-4.49
0.0
0.0
-4.47
-4.45
-4.49
-4.47
0.0
-4.5
0.0
0.0
0.0
0.0
-4.48
-4.49
-4.43
0.0
-9.14993428764
-4.54
0.0
0.0
-4.39
0.0
0.0
-9.16999998202
-4.5
-4.53
-9.11999909046
0.0
0.0
0.0
0.0
-4.52
0.0
-9.16999998741
0.0
-4.53
0.0
0.0
0.0
0.0
0.0
0.0
-4.57
0.0
0.0
0.0
-4.42
0.0
0.0
0.0
0.0
0.0
0.0
0.0
0.0
0.0
0.0
0.0
0.0
0.0
0.0
0.0
0.0
0.0
0.0
0.0
0.0
0.0
-4.43
0.0
0.0
0.0
-4.43
-4.46
0.0
-4.4
-4.47
-4.47
-4.37
-9.16999999119
0.0
0.0
-4.44
-4.42
0.0
-9.11
0.0
0.0
-4.46
0.0
-4.49
0.0
0.0
0.0
0.0
0.0
-4.41
-4.44
-4.44
0.0
-5.89
0.0
0.0
0.0
0.0
-4.43
0.0
0.0
0.0
0.0
-4.49
0.0
0.0
-4.44
