0.0
0.0
0.0
0.0
-0.62
0.0
0.0
0.0
0.0
0.0
-0.64
-0.68
-0.66
-0.71
0.0
-0.57
-0.64
0.0
0.0
-0.38
-0.44
0.0
0.0
0.0
0.0
0.0
-0.68
0.0
0.0
0.0
0.0
0.0
0.0
-0.68
0.0
0.0
0.0
0.0
-0.63
0.0
0.0
0.0
0.0
0.0
0.0
0.0
0.0
0.0
0.0
0.0
0.0
0.0
0.0
0.0
0.0
0.0
0.0
0.0
0.0
0.0
0.0
-0.63
0.0
0.0
0.0
0.0
0.0
-0.58
0.0
0.0
-0.7
0.0
0.0
0.0
0.0
0.0
-0.71
-0.31
-0.69
-0.71
-5.99
0.0
0.0
0.0
0.0
0.0
-0.63
0.0
-6.01
0.0
0.0
-0.68
0.0
-5.98
-0.57
0.0
-6.0
0.0
0.0
0.0
0.0
-0.56
-5.95
-0.58
-5.97
0.0
0.0
0.0
0.0
0.0
0.0
0.0
-0.67
-0.7
-0.64
0.0
0.0
0.0
0.0
0.0
-6.0
-5.99
-5.97
0.0
0.0
0.0
0.0
0.0
0.0
-0.67
-0.62
-5.97
0.0
0.0
0.0
0.0
0.0
0.0
-0.63
0.0
0.0
0.0
0.0
0.0
0.0
0.0
0.0
0.0
0.0
0.0
0.0
0.0
0.0
0.0
0.0
0.0
0.0
0.0
0.0
0.0
0.0
0.0
0.0
0.0
0.0
0.0
0.0
-0.71
0.0
0.0
0.0
0.0
0.0
0.0
-0.66
0.0
-0.61
-0.59
-5.96
0.0
0.0
0.0
0.0
0.0
0.0
0.0
-5.97
-0.7
-0.65
0.0
0.0
-0.68
-0.69
-5.95
-0.61
-5.97
0.0
-0.58
-0.8
0.0
-0.65
0.0
-0.62
0.0
-0.73
0.0
-0.71
-0.67
0.0
0.0
-0.66
0.0
0.0
0.0
0.0
-0.45
-0.77
0.0
0.0
0.0
0.0
0.0
-0.61
-0.65
-5.98
-0.68
-0.65
-5.98
0.0
0.0
-0.58
-0.69
0.0
-0.68
-0.73
0.0
0.0
0.0
0.0
0.0
0.0
0.0
-0.69
0.0
-0.59
-5.99
0.0
0.0
0.0
0.0
0.0
0.0
-0.61
-5.97
0.0
0.0
0.0
0.0
0.0
0.0
0.0
0.0
0.0
0.0
0.0
0.0
0.0
0.0
0.0
0.0
0.0
0.0
0.0
0.0
0.0
0.0
0.0
0.0
-0.53
0.0
0.0
0.0
0.0
0.0
0.0
0.0
0.0
-0.73
0.0
0.0
0.0
0.0
0.0
0.0
0.0
-5.93
0.0
-5.96
-5.97
0.0
0.0
0.0
0.0
-0.7
-5.97
0.0
-5.95
-5.99
-0.64
-5.97
0.0
0.0
0.0
-0.66
0.0
-0.69
-0.49
-0.8
-5.96
-0.71
-5.97
0.0
-0.68
0.0
-0.64
-5.97
-5.95
-0.66
-5.98
-0.71
0.0
0.0
0.0
-5.96
-0.69
-0.77
-5.99
-0.67
0.0
0.0
0.0
0.0
0.0
0.0
-0.77
0.0
-0.65
-0.74
-0.65
0.0
0.0
0.0
0.0
0.0
-0.6
-0.6
-5.97
-5.95
-0.7
-0.69
0.0
0.0
0.0
0.0
0.0
-0.73
-5.95
-0.7
0.0
0.0
0.0
0.0
0.0
0.0
-0.66
-0.67
-0.7
-0.67
0.0
0.0
0.0
0.0
-0.64
0.0
0.0
0.0
0.0
0.0
0.0
0.0
0.0
0.0
0.0
0.0
0.0
0.0
0.0
0.0
0.0
0.0
0.0
0.0
0.0
0.0
0.0
0.0
0.0
0.0
0.0
0.0
0.0
0.0
0.0
0.0
0.0
0.0
-0.66
0.0
0.0
0.0
0.0
0.0
0.0
0.0
0.0
0.0
-0.69
-0.63
-5.99
0.0
0.0
0.0
0.0
-0.65
0.0
-0.73
0.0
-0.73
-5.96
-0.46
0.0
0.0
0.0
0.0
-5.96
0.0
-0.79
-5.98
-0.65
-0.39
-0.74
0.0
0.0
-0.67
-0.71
-5.95
-0.62
-5.97
-5.96
-5.96
-5.97
-0.69
-0.71
-5.95
-5.98
-0.75
0.0
-0.67
-5.97
0.0
0.0
0.0
-0.68
-0.73
-0.53
-0.84
-0.65
0.0
-5.97
0.0
0.0
0.0
-0.62
-5.94
-5.95
-0.7
-0.75
-0.69
-0.53
0.0
0.0
-0.69
-0.69
-5.94
0.0
-0.61
-0.74
0.0
0.0
0.0
-0.76
0.0
-5.99
0.0
-0.66
0.0
0.0
0.0
0.0
0.0
-0.6
-5.97
-0.72
-0.61
0.0
0.0
0.0
0.0
0.0
0.0
-0.68
0.0
0.0
0.0
0.0
0.0
0.0
0.0
0.0
0.0
0.0
0.0
0.0
0.0
0.0
0.0
0.0
0.0
0.0
0.0
0.0
0.0
0.0
0.0
0.0
0.0
0.0
-0.58
-0.56
-5.97
-0.61
0.0
0.0
0.0
0.0
0.0
-0.66
-5.94
-0.65
-0.59
-0.72
-0.61
0.0
0.0
0.0
0.0
0.0
-5.94
-0.77
-5.95
0.0
-0.75
-5.95
0.0
0.0
0.0
0.0
-0.78
-5.95
0.0
-7.84
-0.65
-0.64
0.0
0.0
0.0
0.0
-0.63
-0.7
-0.49
0.0
-0.65
0.0
0.0
0.0
0.0
-0.65
-5.96
0.0
-0.71
-6.84999999991
-5.96
0.0
-0.71
-0.73
-5.93
-0.64
-8.01
-5.94
0.0
0.0
-0.6
0.0
-0.6
0.0
-5.93
-5.98
-0.86
0.0
0.0
-0.64
-0.74
0.0
-0.66
-0.67
-0.85
0.0
0.0
0.0
0.0
-0.59
-5.94
-0.69
-0.65
0.0
0.0
0.0
0.0
0.0
-0.58
-0.72
-5.96
0.0
0.0
0.0
0.0
0.0
0.0
0.0
0.0
0.0
0.0
0.0
0.0
0.0
0.0
0.0
0.0
0.0
0.0
0.0
0.0
0.0
0.0
0.0
0.0
0.0
0.0
0.0
0.0
-0.45
0.0
0.0
0.0
0.0
0.0
0.0
0.0
0.0
-0.62
0.0
0.0
0.0
0.0
0.0
0.0
0.0
0.0
-8.382351
0.0
0.0
0.0
0.0
0.0
-0.6
0.0
-5.97
-0.64
-5.95
-0.61
-6.82999999994
0.0
0.0
0.0
0.0
-0.65
-0.67
0.0
-0.87
-8.167
0.0
0.0
0.0
0.0
-0.58
-8.45235199
-8.4176457
-0.64
-0.83
-0.65
-0.67
0.0
0.0
0.0
-0.45
-0.42
-0.83
-6.83999936332
-0.7
-0.61
0.0
0.0
-0.64
-8.469646393
0.0
-0.64
-0.65
-0.47
-7.53
0.0
-0.62
0.0
-0.49
-6.83999968803
-0.87
-6.86999999997
0.0
0.0
0.0
0.0
-0.63
0.0
-6.84999999998
-0.64
-0.54
0.0
0.0
0.0
0.0
0.0
-0.61
-6.85
-0.86
-0.76
0.0
0.0
0.0
0.0
0.0
0.0
-0.57
0.0
0.0
0.0
0.0
0.0
0.0
0.0
0.0
0.0
-0.62
0.0
0.0
0.0
0.0
0.0
0.0
0.0
0.0
0.0
0.0
0.0
0.0
0.0
0.0
0.0
0.0
0.0
0.0
0.0
0.0
0.0
0.0
0.0
0.0
0.0
0.0
0.0
-0.58
0.0
0.0
-0.65
0.0
0.0
0.0
0.0
0.0
0.0
-0.57
0.0
-6.83
-0.51
-0.62
0.0
0.0
0.0
0.0
0.0
0.0
-0.66
0.0
-6.82999994757
-6.86999999999
-5.86
0.0
0.0
0.0
-6.87999999852
-0.63
-0.47
0.0
-0.77
-0.84
-8.2699
0.0
0.0
0.0
-0.63
-0.6
-0.67
-0.68
-5.94
-0.66
0.0
0.0
0.0
0.0
-0.63
-0.59
-0.85
-6.8699999633
-6.85999999927
-8.34193
0.0
0.0
-0.65
-0.63
-0.65
-0.72
-0.87
-6.84999997431
0.0
-0.63
0.0
-0.7
-5.96
-0.87
-0.62
-6.85999999949
0.0
0.0
0.0
0.0
-0.63
-0.85
0.0
0.0
0.0
0.0
0.0
0.0
-0.6
-0.65
0.0
-6.81
-6.86
0.0
0.0
0.0
0.0
-0.63
0.0
-5.86
-6.83999999964
0.0
0.0
0.0
0.0
0.0
0.0
0.0
0.0
0.0
0.0
0.0
0.0
0.0
0.0
0.0
0.0
0.0
0.0
0.0
0.0
0.0
0.0
0.0
0.0
0.0
0.0
0.0
0.0
0.0
-0.54
0.0
0.0
0.0
0.0
0.0
0.0
0.0
0.0
0.0
-0.61
0.0
0.0
0.0
0.0
0.0
-0.57
-0.6
-6.83999999975
-0.68
-0.59
-0.66
0.0
0.0
0.0
0.0
-0.58
-0.51
0.0
-6.89999226901
-0.62
-0.61
-6.86999814379
0.0
0.0
0.0
0.0
0.0
-0.57
-0.62
-0.66
-0.67
-0.66
-0.66
0.0
0.0
0.0
0.0
-0.65
-0.44
-0.65
-0.65
-6.91998422246
-0.61
-0.61
-0.78
-0.64
-0.62
0.0
-6.90998895572
-0.56
-6.87999978162
0.0
0.0
0.0
-0.58
0.0
-0.45
-6.84999870065
-6.87999984713
-0.63
-0.64
0.0
0.0
0.0
0.0
-0.64
-6.84999998202
-0.67
-0.63
-0.84
-0.58
0.0
0.0
-0.64
0.0
-0.68
-0.65
0.0
-6.88999909046
0.0
0.0
0.0
0.0
-0.57
0.0
-0.8
-5.85
-0.57
0.0
0.0
0.0
0.0
-6.87999999983
-0.5
0.0
0.0
0.0
0.0
0.0
0.0
0.0
0.0
0.0
0.0
0.0
0.0
0.0
0.0
0.0
0.0
0.0
0.0
0.0
0.0
0.0
0.0
0.0
0.0
0.0
0.0
0.0
0.0
0.0
0.0
0.0
0.0
0.0
0.0
0.0
0.0
0.0
-0.56
-6.89999999988
0.0
0.0
0.0
0.0
0.0
0.0
0.0
0.0
-0.64
-0.58
-0.8
0.0
0.0
0.0
0.0
0.0
-0.58
-0.64
-0.52
0.0
0.0
-6.91999989299
-0.51
0.0
0.0
0.0
0.0
0.0
0.0
-0.66
-0.62
-0.63
-0.59
-0.56
0.0
-0.63
-6.84999998741
0.0
-0.65
-0.57
-0.69
-0.6
0.0
0.0
0.0
-0.81
-0.63
0.0
-0.6
0.0
-6.89999621181
0.0
0.0
0.0
-0.58
-0.6
-0.59
0.0
0.0
-0.62
-0.85
0.0
0.0
0.0
-0.59
-0.5
-0.78
0.0
-0.61
-0.55
0.0
-0.57
0.0
0.0
0.0
0.0
-0.57
-0.61
-6.86999999119
-0.39
-0.65
-0.57
0.0
0.0
0.0
0.0
-0.58
-6.84999999383
-0.59
-0.83
0.0
0.0
0.0
0.0
0.0
0.0
0.0
-0.58
0.0
0.0
0.0
0.0
0.0
0.0
0.0
0.0
0.0
0.0
0.0
0.0
0.0
0.0
0.0
0.0
0.0
0.0
0.0
0.0
0.0
0.0
0.0
0.0
0.0
0.0
0.0
0.0
0.0
0.0
0.0
0.0
0.0
0.0
0.0
0.0
-0.5
-0.58
-0.54
0.0
-0.51
0.0
0.0
0.0
0.0
-0.53
0.0
0.0
-0.6
0.0
0.0
0.0
0.0
0.0
-0.59
-6.9099945883
0.0
0.0
0.0
-0.56
-0.64
0.0
-0.5
0.0
-0.86
0.0
-0.67
-6.85
-0.64
-0.56
0.0
0.0
0.0
0.0
0.0
-0.83
-0.86
-0.61
-0.62
-0.62
0.0
0.0
-0.49
0.0
-0.6
-0.6
-6.86999999568
-6.8599999251
-0.82
-0.64
0.0
0.0
0.0
0.0
0.0
0.0
-0.66
-0.59
0.0
0.0
0.0
0.0
-0.53
0.0
-0.59
0.0
0.0
-0.45
0.0
0.0
0.0
0.0
0.0
-0.56
-0.49
-0.54
0.0
0.0
0.0
0.0
0.0
0.0
0.0
0.0
0.0
0.0
-0.43
0.0
0.0
0.0
0.0
0.0
0.0
0.0
0.0
0.0
0.0
0.0
0.0
0.0
0.0
0.0
0.0
0.0
0.0
0.0
0.0
-0.56
0.0
0.0
0.0
0.0
0.0
0.0
0.0
0.0
0.0
0.0
0.0
0.0
0.0
0.0
-0.6
0.0
-0.56
-0.54
0.0
0.0
0.0
-0.56
-0.5
-0.52
-5.9
-0.8
0.0
-0.49
0.0
0.0
-0.54
0.0
-0.55
-0.55
0.0
0.0
-0.52
-0.51
-0.55
-0.53
0.0
-0.6
0.0
0.0
0.0
0.0
-0.55
-0.56
-0.52
0.0
-0.88
-0.59
0.0
0.0
-0.42
0.0
0.0
-0.86
-0.56
-0.59
-6.90999999698
0.0
0.0
0.0
0.0
-0.57
0.0
-0.81
0.0
-0.6
0.0
0.0
0.0
0.0
0.0
0.0
-0.64
0.0
0.0
0.0
-0.48
0.0
0.0
0.0
0.0
0.0
0.0
0.0
0.0
0.0
0.0
0.0
0.0
0.0
0.0
0.0
0.0
0.0
0.0
0.0
0.0
0.0
-0.49
0.0
0.0
0.0
-0.49
-0.53
0.0
-0.49
-0.54
-0.55
-0.53
-0.82
0.0
0.0
-0.5
-0.5
0.0
-0.85
0.0
0.0
-0.5
0.0
-0.55
0.0
0.0
0.0
0.0
0.0
-0.47
-0.52
-0.52
0.0
-5.93
0.0
0.0
0.0
0.0
-0.48
0.0
0.0
0.0
0.0
-0.55
0.0
0.0
-0.5
