-8.87
0.0
0.0
-8.78
-8.93
-8.73
-8.86
0.0
0.0
0.0
-8.9
-8.93
-8.94
-9.04
-8.81
-8.9
-8.92
-8.82
0.0
-8.9
-8.84
0.0
0.0
0.0
0.0
0.0
-8.92
0.0
0.0
-8.77
0.0
0.0
0.0
-8.99
-8.9
0.0
0.0
0.0
-8.92
0.0
0.0
0.0
0.0
0.0
0.0
0.0
0.0
-8.89
-8.86
0.0
0.0
0.0
0.0
0.0
0.0
0.0
0.0
0.0
0.0
0.0
-8.8
-8.92
0.0
0.0
0.0
0.0
0.0
-8.9
-8.76
0.0
-8.99
-8.82
0.0
0.0
0.0
-8.79
-8.98
-8.87
-8.97
-9.01
-9.33
0.0
0.0
0.0
0.0
0.0
-8.92
0.0
-9.33
0.0
0.0
-8.96
0.0
-9.3
-8.86
0.0
-9.32
0.0
0.0
0.0
0.0
-8.85
-9.28
-8.82
-9.29
0.0
0.0
0.0
0.0
-8.77
-8.86
0.0
-8.91
-8.96
-8.99
0.0
0.0
0.0
0.0
0.0
-9.33
-9.33
-9.31
0.0
0.0
0.0
0.0
0.0
-8.88
-8.97
-8.86
-9.31
-8.85
0.0
0.0
0.0
0.0
0.0
-8.93
0.0
0.0
0.0
0.0
0.0
0.0
0.0
0.0
0.0
0.0
0.0
0.0
0.0
0.0
0.0
0.0
0.0
0.0
0.0
-8.83
0.0
0.0
0.0
0.0
0.0
0.0
-8.81
0.0
-8.98
0.0
0.0
0.0
0.0
0.0
-8.89
-8.91
-8.88
-8.86
-8.87
-9.32
0.0
0.0
0.0
0.0
0.0
0.0
0.0
-9.28
-9.0
-8.91
0.0
0.0
-8.97
-9.01
-9.3
-8.83
-9.32
0.0
-8.86
-9.11
0.0
-8.91
0.0
-8.9
0.0
-9.06
0.0
-9.0
-8.91
0.0
0.0
-8.92
0.0
0.0
0.0
-8.62
-8.86
-9.07
0.0
0.0
0.0
-8.85
0.0
-8.93
-8.92
-9.32
-8.95
-8.93
-9.31
0.0
0.0
-8.88
-9.02
-8.8
-8.93
-9.06
0.0
0.0
0.0
0.0
0.0
0.0
0.0
-8.99
-8.84
-8.86
-9.32
0.0
0.0
-8.87
-8.86
0.0
0.0
-8.89
-9.31
0.0
0.0
-8.83
0.0
0.0
0.0
0.0
0.0
0.0
0.0
0.0
0.0
0.0
0.0
0.0
0.0
0.0
0.0
0.0
0.0
0.0
0.0
0.0
0.0
-8.86
0.0
0.0
0.0
0.0
0.0
0.0
-8.9
0.0
-9.05
0.0
0.0
0.0
0.0
0.0
-8.85
0.0
-9.27
0.0
-9.3
-9.31
0.0
0.0
0.0
0.0
-8.99
-9.29
-8.79
-9.28
-9.31
-8.87
-9.33
0.0
0.0
0.0
-8.91
0.0
-8.92
-8.78
-9.06
-9.27
-8.94
-9.31
0.0
-8.99
0.0
-8.87
-9.31
-9.28
-8.91
-9.27999984713
-8.96
0.0
0.0
0.0
-9.29
-8.9
-9.05
-9.31999989299
-8.93
0.0
0.0
0.0
0.0
0.0
0.0
-9.08
0.0
-8.94
-9.07
-8.87
0.0
0.0
0.0
-8.77
0.0
-8.86
-8.86
-9.31
-9.29
-8.98
-8.98
0.0
0.0
0.0
0.0
0.0
-9.03
-9.29
-8.95
0.0
-8.7
0.0
0.0
0.0
0.0
-8.96
-8.95
-9.01
-8.9
0.0
0.0
0.0
0.0
-8.86
0.0
0.0
0.0
0.0
0.0
0.0
0.0
0.0
0.0
0.0
0.0
0.0
0.0
0.0
0.0
0.0
0.0
0.0
0.0
0.0
0.0
0.0
0.0
0.0
0.0
0.0
0.0
0.0
0.0
0.0
0.0
0.0
0.0
-8.91
0.0
0.0
0.0
0.0
0.0
0.0
0.0
0.0
0.0
-8.98
-8.86
-9.33
0.0
0.0
0.0
0.0
-8.91
0.0
-9.0
-8.63
-9.02
-9.3
-8.71
0.0
0.0
0.0
0.0
-9.3
0.0
-9.09
-9.33
-8.96
-8.66
-9.04
0.0
0.0
-8.91
-8.98
-9.29
-8.87
-9.29
-9.2999999251
-9.29999994757
-9.31
-8.97
-9.04
-9.29
-9.33
-9.03
0.0
-8.95
-9.31
0.0
0.0
0.0
-8.97
-9.04
-8.79
-9.22
-8.9
0.0
-9.31
0.0
0.0
0.0
-8.87
-9.26
-9.29
-9.0
-9.06
-8.94
-8.77
0.0
0.0
-8.97
-8.95
-9.28
0.0
-8.84
-9.06
0.0
0.0
0.0
-9.07
0.0
-9.32
0.0
-8.87
0.0
0.0
0.0
0.0
0.0
-8.85
-9.31
-9.04
-8.85
0.0
0.0
0.0
0.0
0.0
0.0
-9.0
0.0
0.0
0.0
0.0
0.0
0.0
0.0
0.0
0.0
0.0
0.0
0.0
0.0
0.0
0.0
0.0
0.0
0.0
0.0
0.0
0.0
0.0
0.0
0.0
0.0
0.0
-8.81
-8.88
-9.31
-8.85
0.0
0.0
0.0
0.0
0.0
-8.91
-9.29
-8.91
-8.89
-9.02
-8.86
0.0
0.0
0.0
0.0
0.0
-9.28
-9.07
-9.3
0.0
-9.07
-9.29
0.0
0.0
0.0
0.0
-9.06
-9.29
0.0
-8.43
-8.95
-8.87
0.0
0.0
0.0
0.0
-8.85
-8.97
-8.74
0.0
-8.9
0.0
0.0
0.0
0.0
-8.93
-9.28
0.0
-9.02
-9.3399999633
-9.3
0.0
-8.99
-9.02
-9.27
-8.87
-8.58
-9.26980841877
0.0
0.0
-8.85
0.0
-8.89
0.0
-9.25
-9.31
-9.29
0.0
0.0
-8.94
-9.08
0.0
-8.92
-8.92
-9.27999997431
0.0
0.0
0.0
0.0
-8.82
-9.24
-8.96
-8.91
0.0
0.0
0.0
0.0
0.0
-8.83
-9.03
-9.3
0.0
0.0
0.0
0.0
0.0
0.0
0.0
0.0
0.0
0.0
0.0
0.0
0.0
0.0
0.0
0.0
0.0
0.0
0.0
0.0
0.0
0.0
0.0
0.0
0.0
0.0
0.0
0.0
0.0
0.0
0.0
0.0
0.0
0.0
0.0
0.0
0.0
-8.86
0.0
0.0
0.0
0.0
0.0
0.0
0.0
0.0
-8.982351
0.0
0.0
0.0
0.0
0.0
-8.86
0.0
-9.3
-8.87
-9.29
-8.83
-9.31
0.0
0.0
0.0
0.0
-8.92
-8.9
0.0
-9.29999998202
-8.787
0.0
0.0
0.0
0.0
-8.84
-9.0176457
-9.04235199
-8.89
-9.25999998741
-8.88
-8.92
0.0
0.0
0.0
-8.64
-8.68
-9.25999999119
-9.30986589314
-9.06
-8.85
0.0
0.0
-8.85
-9.059646393
0.0
-8.94
-8.88
-8.74
-8.1
0.0
-8.87
0.0
-8.73
-9.3099061252
-9.31999999383
-9.34993428764
0.0
0.0
0.0
0.0
-8.89
0.0
-9.31999999568
-8.9
-8.79
0.0
0.0
0.0
0.0
0.0
-8.87
-9.35
-9.29
-9.06
0.0
0.0
0.0
0.0
0.0
0.0
-8.82
0.0
0.0
0.0
0.0
0.0
0.0
0.0
0.0
0.0
-8.87
0.0
0.0
0.0
0.0
0.0
0.0
0.0
0.0
0.0
0.0
0.0
0.0
0.0
0.0
0.0
0.0
0.0
0.0
0.0
0.0
0.0
0.0
0.0
0.0
0.0
0.0
0.0
-8.82
0.0
0.0
-8.9
0.0
0.0
0.0
0.0
0.0
0.0
-8.79
0.0
-9.31999999698
0.0
-8.87
0.0
0.0
0.0
0.0
0.0
0.0
-8.88
0.0
-9.32995400135
-9.34996780094
-9.31999999788
0.0
0.0
0.0
-9.33
-8.88
-8.72
0.0
-9.08
-9.29
-8.8899
0.0
0.0
0.0
-8.86
-8.82
-8.92
-8.93
-9.30997746066
-8.89
0.0
0.0
0.0
0.0
-8.89
-8.82
-9.25031109896
-9.28998422246
-9.32998895572
-8.92193
0.0
0.0
-8.89
-8.89
-8.9
-8.96
-9.28999226901
-9.31321776927
0.0
-8.85
0.0
-8.92
-9.29
-9.2699945883
-8.87
-9.32999621181
0.0
0.0
0.0
-8.66
-8.86
-9.29
0.0
-8.69
0.0
0.0
0.0
0.0
-8.85
-8.9
0.0
-9.29
-9.37
0.0
0.0
0.0
0.0
-8.87
0.0
-9.32
-9.29999999852
0.0
0.0
0.0
0.0
0.0
0.0
0.0
0.0
0.0
0.0
0.0
0.0
0.0
0.0
0.0
0.0
0.0
0.0
0.0
0.0
0.0
0.0
0.0
0.0
0.0
0.0
0.0
0.0
0.0
-8.74
0.0
0.0
0.0
0.0
0.0
0.0
0.0
0.0
-8.61
-8.86
0.0
0.0
0.0
0.0
0.0
-8.79
-8.84
-9.31999999896
-8.91
-8.81
-8.91
0.0
0.0
0.0
0.0
-8.8
-8.76
-8.65
-9.29525243849
-8.88
-8.82
-9.35667670694
0.0
0.0
0.0
0.0
0.0
-8.82
-8.89
-8.91
-8.92
-8.9
-8.91
0.0
0.0
0.0
0.0
-8.91
-8.69
-8.91
-8.88
-9.3017524751
-8.84
-8.83
-9.33
-8.88
-8.85
0.0
-9.29022673257
-8.76
-9.33767369486
0.0
0.0
0.0
-8.79
0.0
-8.68
-9.3183715864
-9.34999734827
-8.87
-8.86
0.0
0.0
0.0
0.0
-8.86
-9.32999814379
-8.92
-8.87
-9.32999870065
-8.8
0.0
0.0
-8.9
0.0
-8.91
-8.88
0.0
-9.35886011048
0.0
0.0
0.0
0.0
-8.81
0.0
-9.32
-9.33
-8.8
0.0
0.0
0.0
0.0
-9.33999999927
-8.65
0.0
0.0
0.0
0.0
0.0
0.0
0.0
0.0
0.0
0.0
0.0
0.0
0.0
0.0
0.0
0.0
0.0
0.0
0.0
0.0
0.0
0.0
0.0
0.0
0.0
0.0
0.0
0.0
0.0
0.0
0.0
0.0
0.0
0.0
0.0
0.0
0.0
-8.78
-9.37999999949
0.0
0.0
0.0
0.0
0.0
0.0
0.0
0.0
-8.87
-8.83
-9.36
0.0
0.0
0.0
0.0
0.0
-8.82
-8.89
-8.75
0.0
0.0
-9.35920207734
-8.77
0.0
0.0
0.0
0.0
0.0
0.0
-8.88
-8.87
-8.88
-8.83
-8.8
0.0
-8.88
-9.29999999964
0.0
-8.89
-8.8
-9.03
-8.84
0.0
0.0
0.0
-9.35999999975
-8.88
0.0
-8.83
0.0
-9.3561587128
0.0
0.0
0.0
-8.79
-8.84
-8.85
0.0
0.0
-8.84
-9.33944145414
0.0
0.0
0.0
-8.83
-8.7
-9.35
0.0
-8.86
-8.77
0.0
-8.82
0.0
0.0
0.0
0.0
-8.79
-8.87
-9.34999909046
-8.71
-8.88
-8.8
0.0
0.0
0.0
0.0
-8.8
-9.31999999983
-8.82
-9.32
0.0
0.0
0.0
0.0
0.0
0.0
0.0
-8.81
0.0
0.0
0.0
0.0
0.0
0.0
0.0
0.0
0.0
0.0
0.0
0.0
0.0
0.0
0.0
0.0
0.0
0.0
0.0
0.0
0.0
-8.41
0.0
0.0
0.0
0.0
0.0
0.0
0.0
0.0
0.0
0.0
0.0
0.0
0.0
0.0
-8.75
-8.81
-8.76
0.0
-8.72
0.0
0.0
0.0
0.0
-8.77
0.0
0.0
-8.82
0.0
0.0
-8.62
0.0
0.0
-8.82
-9.30999936332
0.0
0.0
0.0
-8.8
-8.89
0.0
-8.76
0.0
-9.33999999988
0.0
-8.89
-9.3596090179
-8.88
-8.81
0.0
0.0
0.0
0.0
0.0
-9.31999999991
-9.35999999994
-8.86
-8.88
-8.88
0.0
0.0
-8.6
0.0
-8.82
-8.84
-9.34999955432
-9.31972631253
-9.36999968803
-8.89
0.0
0.0
0.0
0.0
0.0
0.0
-8.94
-8.81
0.0
0.0
0.0
0.0
-8.7
0.0
-8.83
0.0
0.0
-8.65
0.0
0.0
0.0
0.0
0.0
-8.8
0.0
-8.78
0.0
0.0
0.0
0.0
0.0
0.0
0.0
0.0
0.0
0.0
-8.52
0.0
0.0
0.0
0.0
0.0
0.0
0.0
0.0
0.0
0.0
0.0
0.0
0.0
0.0
0.0
0.0
0.0
0.0
0.0
0.0
-8.79
0.0
0.0
0.0
0.0
0.0
0.0
0.0
0.0
0.0
0.0
0.0
0.0
0.0
0.0
-8.82
0.0
-8.8
-8.74
0.0
0.0
0.0
-8.77
-8.71
-8.74
-9.33999999996
-9.35999999997
0.0
-8.65
0.0
0.0
-8.78
0.0
-8.78
-8.79
0.0
0.0
-8.76
-8.75
-8.77
-8.77
0.0
-8.84
0.0
0.0
0.0
0.0
-8.78
-8.8
-8.76
0.0
-9.34999978162
-8.83
0.0
0.0
-8.61
0.0
0.0
-9.37999999998
-8.78
-8.83
-9.33999999999
0.0
0.0
0.0
0.0
-8.8
0.0
-9.37999999999
-8.52
-8.81
0.0
0.0
-8.45
0.0
0.0
0.0
-8.85
0.0
0.0
0.0
-8.68
0.0
0.0
0.0
0.0
0.0
0.0
0.0
0.0
0.0
0.0
0.0
0.0
0.0
0.0
0.0
0.0
0.0
0.0
0.0
0.0
0.0
-8.68
0.0
0.0
0.0
-8.72
-8.7
0.0
-8.61
-8.77
-8.78
-8.75
-9.39999999999
0.0
0.0
-8.65
-8.71
0.0
-9.38
0.0
0.0
-8.76
0.0
-8.77
0.0
0.0
0.0
0.0
0.0
-8.58
-8.7
-8.74
0.0
-9.35
0.0
0.0
0.0
0.0
-8.71
0.0
0.0
0.0
0.0
-8.77
0.0
0.0
-8.7
