0.0
0.0
0.0
0.0
0.0
0.0
0.0
0.0
0.0
0.0
0.0
0.0
0.0
0.0
0.0
0.0
0.0
0.0
0.0
0.0
0.0
0.0
0.0
0.0
0.0
0.0
0.0
0.0
0.0
0.0
0.0
0.0
0.0
0.0
0.0
0.0
0.0
0.0
0.0
0.0
0.0
0.0
0.0
0.0
0.0
0.0
0.0
0.0
0.0
0.0
0.0
0.0
0.0
0.0
0.0
0.0
0.0
0.0
0.0
0.0
0.0
0.0
0.0
0.0
0.0
0.0
0.0
0.0
0.0
0.0
0.0
0.0
0.0
0.0
0.0
0.0
0.0
0.0
0.0
0.0
-8.82
0.0
0.0
0.0
0.0
0.0
0.0
0.0
-7.05
0.0
0.0
0.0
0.0
-8.84
0.0
0.0
-7.83
0.0
0.0
0.0
0.0
0.0
-8.84
0.0
-8.88
0.0
0.0
0.0
0.0
0.0
0.0
0.0
-6.92
-6.92
0.0
0.0
0.0
0.0
0.0
0.0
-7.06
-7.04
-8.86
0.0
0.0
0.0
0.0
0.0
0.0
0.0
0.0
-8.9
0.0
0.0
0.0
0.0
0.0
0.0
0.0
0.0
0.0
0.0
0.0
0.0
0.0
0.0
0.0
0.0
0.0
0.0
0.0
0.0
0.0
0.0
0.0
0.0
0.0
0.0
0.0
0.0
0.0
0.0
0.0
0.0
0.0
0.0
0.0
0.0
0.0
0.0
0.0
0.0
0.0
0.0
0.0
0.0
0.0
0.0
-8.82
0.0
0.0
0.0
0.0
0.0
0.0
0.0
-8.9
0.0
-6.89
0.0
0.0
0.0
0.0
-7.03
0.0
-7.05
0.0
0.0
0.0
0.0
0.0
0.0
0.0
0.0
0.0
0.0
0.0
-6.9
0.0
0.0
0.0
0.0
0.0
0.0
0.0
0.0
0.0
0.0
0.0
0.0
0.0
0.0
0.0
-6.89
-8.9
-6.9
-6.88
-8.9
0.0
0.0
0.0
0.0
0.0
-6.93
0.0
0.0
0.0
0.0
0.0
0.0
0.0
0.0
0.0
0.0
0.0
-7.05
0.0
0.0
0.0
0.0
0.0
0.0
0.0
-7.04
0.0
0.0
0.0
0.0
0.0
0.0
0.0
0.0
0.0
0.0
0.0
0.0
0.0
0.0
0.0
0.0
0.0
0.0
0.0
0.0
0.0
0.0
0.0
0.0
0.0
0.0
0.0
0.0
0.0
0.0
0.0
0.0
0.0
0.0
0.0
0.0
0.0
0.0
0.0
0.0
0.0
-8.88
0.0
-8.89
-8.82
0.0
0.0
0.0
0.0
0.0
-8.91
0.0
-8.9
-8.9
0.0
-8.85
0.0
0.0
0.0
0.0
0.0
-6.9
0.0
-7.0
-8.87
-6.95
-8.87
0.0
0.0
0.0
-6.88
-7.04
-8.86
-6.91
-8.92
0.0
0.0
0.0
0.0
-8.88
-6.92
-6.96
-8.93
-6.93
0.0
0.0
0.0
0.0
0.0
0.0
-6.98
0.0
-6.89
0.0
-6.88
0.0
0.0
0.0
0.0
0.0
0.0
0.0
-8.92
-8.88
-7.0
0.0
0.0
0.0
0.0
0.0
0.0
0.0
-8.85
-6.95
0.0
0.0
0.0
0.0
0.0
0.0
0.0
0.0
0.0
-6.89
0.0
0.0
0.0
0.0
-6.84
0.0
0.0
0.0
0.0
0.0
0.0
0.0
0.0
0.0
0.0
0.0
0.0
0.0
0.0
0.0
0.0
0.0
0.0
0.0
0.0
0.0
0.0
0.0
0.0
0.0
0.0
0.0
0.0
0.0
0.0
0.0
0.0
0.0
0.0
0.0
0.0
0.0
0.0
0.0
0.0
0.0
0.0
0.0
0.0
0.0
-7.04
0.0
0.0
0.0
0.0
0.0
0.0
0.0
0.0
-6.98
-7.8
0.0
0.0
0.0
0.0
0.0
-8.91
0.0
-6.94
-8.89
0.0
0.0
0.0
0.0
0.0
0.0
0.0
-8.91
0.0
-8.92
-8.88
-8.88
-8.86
0.0
-4.11
-8.88
-8.92
0.0
0.0
-6.91
-7.87
0.0
0.0
0.0
0.0
-4.14
0.0
-7.0
-6.89
0.0
-8.87
0.0
0.0
0.0
0.0
-8.92
-7.84
0.0
-6.91
-6.96
0.0
0.0
0.0
0.0
-6.91
-8.9
0.0
0.0
0.0
0.0
0.0
0.0
-6.92
0.0
-8.85
0.0
-6.89
0.0
0.0
0.0
0.0
0.0
0.0
-8.92
0.0
0.0
0.0
0.0
0.0
0.0
0.0
0.0
0.0
0.0
0.0
0.0
0.0
0.0
0.0
0.0
0.0
0.0
0.0
0.0
0.0
0.0
0.0
0.0
0.0
0.0
0.0
0.0
0.0
0.0
0.0
0.0
0.0
0.0
0.0
0.0
0.0
-8.92
0.0
0.0
0.0
0.0
0.0
0.0
-6.91
-8.9
-6.9
0.0
0.0
0.0
0.0
0.0
0.0
0.0
0.0
-8.86
-6.93
-8.88
0.0
-6.93
-8.85
0.0
0.0
0.0
0.0
-6.94
-7.86
0.0
-8.6999
0.0
-6.91
0.0
0.0
0.0
0.0
-4.17
0.0
0.0
0.0
0.0
0.0
0.0
0.0
0.0
0.0
-8.91
0.0
0.0
-8.96999999999
-7.8
0.0
0.0
0.0
-8.86
-4.21
-8.21
-8.87
0.0
0.0
0.0
0.0
0.0
0.0
-8.89
-8.94
-8.94
0.0
0.0
0.0
-4.22
0.0
0.0
-6.89
-8.93
0.0
0.0
0.0
0.0
0.0
-8.92
0.0
0.0
0.0
0.0
0.0
0.0
0.0
0.0
0.0
-7.86
0.0
0.0
0.0
0.0
0.0
0.0
0.0
0.0
0.0
0.0
0.0
0.0
0.0
0.0
0.0
0.0
0.0
0.0
0.0
0.0
0.0
0.0
0.0
0.0
0.0
0.0
0.0
0.0
0.0
0.0
0.0
0.0
0.0
0.0
0.0
0.0
0.0
-6.89
0.0
0.0
0.0
0.0
0.0
0.0
0.0
0.0
-8.792351
0.0
0.0
0.0
0.0
0.0
0.0
0.0
-8.93
-6.87
-8.94
0.0
-8.95999999994
0.0
0.0
0.0
0.0
0.0
-4.36
0.0
-8.94
-8.77193
0.0
0.0
0.0
0.0
0.0
-8.8276457
-8.85235199
-6.87
-8.95
-6.87
-6.91
0.0
0.0
0.0
0.0
0.0
-8.93
-8.95997746066
-4.17
-4.28
0.0
0.0
-6.86
-8.889646393
0.0
0.0
-6.9
0.0
-7.94
0.0
-6.83
0.0
0.0
-8.96022673257
-8.97
-8.99998422246
0.0
0.0
0.0
0.0
0.0
0.0
-8.96999978162
-6.89
0.0
0.0
0.0
0.0
0.0
0.0
-4.14
-8.98999984713
-8.93
0.0
0.0
0.0
0.0
0.0
0.0
0.0
0.0
0.0
0.0
0.0
0.0
0.0
0.0
0.0
0.0
0.0
0.0
0.0
0.0
0.0
0.0
0.0
0.0
0.0
0.0
0.0
0.0
0.0
0.0
0.0
0.0
0.0
0.0
0.0
0.0
0.0
0.0
0.0
0.0
0.0
0.0
0.0
0.0
0.0
0.0
0.0
0.0
-6.91
0.0
0.0
0.0
0.0
0.0
0.0
0.0
0.0
-8.98999989299
0.0
-6.89
0.0
0.0
0.0
0.0
0.0
0.0
-4.38
0.0
-8.98767369486
-8.99998895572
-8.9699999251
0.0
0.0
0.0
-8.96999994757
-6.86
0.0
0.0
-6.96
-8.93
-8.46
0.0
0.0
0.0
-4.33
0.0
-6.89
-6.89
-8.91
-4.37
0.0
0.0
0.0
0.0
-4.39
-4.22
-8.93999999996
-8.9883715864
-8.97999226901
-8.587
0.0
0.0
-6.87
0.0
0.0
-6.94
-8.94
-8.98886011048
0.0
-4.33
0.0
-6.92
-8.94
-8.94
0.0
-8.98920207734
0.0
0.0
0.0
0.0
-4.32
-8.94
0.0
0.0
0.0
0.0
0.0
0.0
0.0
-6.91
0.0
-8.96999997431
-8.97999999997
0.0
0.0
0.0
0.0
0.0
0.0
-8.97
-8.94999998202
0.0
0.0
0.0
0.0
0.0
0.0
0.0
0.0
0.0
0.0
0.0
0.0
0.0
0.0
0.0
0.0
0.0
0.0
0.0
0.0
0.0
0.0
0.0
0.0
0.0
0.0
0.0
0.0
0.0
0.0
0.0
0.0
0.0
0.0
0.0
0.0
0.0
0.0
0.0
0.0
0.0
0.0
0.0
0.0
0.0
0.0
-4.25
-8.96999998741
-4.42
-4.17
-6.94
0.0
0.0
0.0
0.0
-4.17
0.0
0.0
-8.94944145414
-6.9
0.0
-8.9896090179
0.0
0.0
0.0
0.0
0.0
0.0
-4.39
-6.91
-6.88
-4.36
-4.4
0.0
0.0
0.0
0.0
-4.29
0.0
-6.89
-4.33
-8.9617524751
0.0
-4.25
-8.97
-4.38
-4.35
0.0
-8.9461587128
0.0
-8.99031109896
0.0
0.0
0.0
-4.21
0.0
0.0
-8.97321776927
-8.98972631253
-4.39
-4.04
0.0
0.0
0.0
0.0
-6.87
-8.9799945883
-6.92
-4.31
-9.00980841877
-4.18
0.0
0.0
-4.33
0.0
-6.92
-4.35
0.0
-8.96986589314
0.0
0.0
0.0
0.0
0.0
0.0
-8.97999999998
-8.98999999119
-4.18
0.0
0.0
0.0
0.0
-8.96999999383
0.0
0.0
0.0
0.0
0.0
0.0
0.0
0.0
0.0
0.0
0.0
0.0
0.0
0.0
0.0
0.0
0.0
0.0
0.0
0.0
0.0
0.0
0.0
0.0
0.0
0.0
0.0
0.0
0.0
0.0
0.0
0.0
0.0
0.0
0.0
0.0
0.0
0.0
0.0
-8.98999999568
0.0
0.0
0.0
0.0
0.0
0.0
0.0
0.0
-6.88
-4.18
-8.97999999999
0.0
0.0
0.0
0.0
0.0
-4.21
-4.42
0.0
0.0
0.0
-9.0099061252
0.0
0.0
0.0
0.0
0.0
0.0
0.0
-4.33
0.0
-4.28
-4.2
-4.23
0.0
-6.88
-8.94999999698
0.0
-6.87
0.0
-6.82
0.0
0.0
0.0
0.0
-8.98999999788
-4.28
0.0
-4.33
0.0
-8.99525243849
0.0
0.0
0.0
0.0
0.0
0.0
0.0
0.0
-4.16
-8.99667670694
0.0
0.0
0.0
-4.33
0.0
-8.97
0.0
-4.24
0.0
0.0
0.0
0.0
0.0
0.0
0.0
0.0
0.0
-8.99999621181
0.0
-4.36
0.0
0.0
0.0
0.0
0.0
-4.19
-8.97999734827
0.0
-8.97999999999
0.0
0.0
0.0
0.0
0.0
0.0
0.0
-4.29
0.0
0.0
0.0
0.0
0.0
0.0
0.0
0.0
0.0
0.0
0.0
0.0
0.0
0.0
0.0
0.0
0.0
0.0
0.0
0.0
0.0
0.0
0.0
0.0
0.0
0.0
0.0
0.0
0.0
0.0
0.0
0.0
0.0
0.0
0.0
0.0
0.0
0.0
-4.18
0.0
0.0
0.0
0.0
0.0
0.0
0.0
0.0
0.0
-4.29
0.0
0.0
0.0
0.0
0.0
-4.29
-8.96993428764
0.0
0.0
0.0
0.0
-6.84
0.0
0.0
0.0
-8.98999999852
0.0
-4.41
-9.00995400135
-6.9
0.0
0.0
0.0
0.0
0.0
0.0
-8.96999999896
-8.99999814379
-6.84
0.0
-6.88
0.0
0.0
-4.17
0.0
-4.22
-4.32
-8.99999870065
-8.98996780094
-8.99999909046
-4.37
0.0
0.0
0.0
0.0
0.0
0.0
-6.77
-4.25
0.0
0.0
0.0
0.0
0.0
0.0
-4.32
0.0
0.0
0.0
0.0
0.0
0.0
0.0
0.0
-4.27
0.0
0.0
0.0
0.0
0.0
0.0
0.0
0.0
0.0
0.0
0.0
0.0
0.0
0.0
0.0
0.0
0.0
0.0
0.0
0.0
0.0
0.0
0.0
0.0
0.0
0.0
0.0
0.0
0.0
0.0
0.0
0.0
0.0
-4.22
0.0
0.0
0.0
0.0
0.0
0.0
0.0
0.0
0.0
0.0
0.0
0.0
0.0
0.0
-4.3
0.0
0.0
0.0
0.0
0.0
0.0
-4.21
0.0
0.0
-8.99999936332
-8.98999999927
0.0
0.0
0.0
0.0
-4.24
0.0
0.0
-4.2
0.0
0.0
0.0
-4.2
-4.26
0.0
0.0
0.0
0.0
0.0
0.0
0.0
0.0
-4.22
0.0
0.0
-8.99999955432
-4.24
0.0
0.0
0.0
0.0
0.0
-8.98999999949
-4.19
-4.3
-8.98999999964
0.0
0.0
0.0
0.0
-4.26
0.0
-8.98999999975
0.0
-4.31
0.0
0.0
0.0
0.0
0.0
0.0
-4.36
0.0
0.0
0.0
0.0
0.0
0.0
0.0
0.0
0.0
0.0
0.0
0.0
0.0
0.0
0.0
0.0
0.0
0.0
0.0
0.0
0.0
0.0
0.0
0.0
0.0
0.0
0.0
0.0
0.0
0.0
0.0
0.0
0.0
0.0
-4.23
0.0
-9.00999999983
0.0
0.0
-4.18
0.0
0.0
-8.98999999988
0.0
0.0
-4.25
0.0
-4.29
0.0
0.0
0.0
0.0
0.0
-4.26
0.0
0.0
0.0
-4.53
0.0
0.0
0.0
0.0
0.0
0.0
0.0
0.0
0.0
-4.26
0.0
0.0
0.0
