0.0
0.0
0.0
0.0
0.0
0.0
0.0
0.0
0.0
0.0
0.0
0.0
0.0
-3.4
0.0
0.0
0.0
0.0
0.0
0.0
0.0
0.0
0.0
0.0
0.0
0.0
-3.38
0.0
0.0
0.0
0.0
0.0
0.0
-3.4
0.0
0.0
0.0
0.0
0.0
0.0
0.0
0.0
0.0
0.0
0.0
0.0
0.0
0.0
0.0
0.0
0.0
0.0
0.0
0.0
0.0
0.0
0.0
0.0
0.0
0.0
0.0
0.0
0.0
0.0
0.0
0.0
0.0
0.0
0.0
0.0
-3.39
0.0
0.0
0.0
0.0
0.0
-3.37
0.0
-3.37
-3.41
-8.18
0.0
0.0
0.0
0.0
0.0
0.0
0.0
-8.18
0.0
0.0
-3.35
0.0
-8.15
0.0
0.0
-8.19
0.0
0.0
0.0
0.0
0.0
-8.13
0.0
-8.09
0.0
0.0
0.0
0.0
0.0
0.0
0.0
-3.42
-3.45
0.0
0.0
0.0
0.0
0.0
0.0
-8.17
-8.18
-8.16
0.0
0.0
0.0
0.0
0.0
0.0
-3.38
-3.4
-8.16
0.0
0.0
0.0
0.0
0.0
0.0
0.0
0.0
0.0
0.0
0.0
0.0
0.0
0.0
0.0
0.0
0.0
0.0
0.0
0.0
0.0
0.0
0.0
0.0
0.0
0.0
0.0
0.0
0.0
0.0
0.0
0.0
0.0
0.0
0.0
-3.39
0.0
0.0
0.0
0.0
0.0
0.0
0.0
0.0
-3.28
0.0
-8.15
0.0
0.0
0.0
0.0
0.0
0.0
0.0
-8.16
-3.37
-3.43
0.0
0.0
-3.37
-3.39
-8.13
0.0
-8.16
0.0
0.0
-3.46
0.0
0.0
0.0
-3.32
0.0
-3.44
0.0
-3.42
-3.42
0.0
0.0
-3.31
0.0
0.0
0.0
0.0
0.0
-3.44
0.0
0.0
0.0
0.0
0.0
0.0
-3.41
-8.16
-3.42
-3.39
-8.17
0.0
0.0
0.0
-3.39
0.0
-3.46
-3.42
0.0
0.0
0.0
0.0
0.0
0.0
0.0
-3.39
0.0
0.0
-8.17
0.0
0.0
0.0
0.0
0.0
0.0
0.0
-8.14
0.0
0.0
0.0
0.0
0.0
0.0
0.0
0.0
0.0
0.0
0.0
0.0
0.0
0.0
0.0
0.0
0.0
0.0
0.0
0.0
0.0
0.0
0.0
0.0
0.0
0.0
0.0
0.0
0.0
0.0
0.0
0.0
0.0
-3.42
0.0
0.0
0.0
0.0
0.0
0.0
0.0
-8.07
0.0
-8.15
-8.14
0.0
0.0
0.0
0.0
-3.39
-8.15
0.0
-8.13
-8.16
-3.34
-8.16
0.0
0.0
0.0
-3.37
0.0
-3.44
0.0
-3.49
-8.12
-3.47
-8.15
0.0
-3.39
0.0
-3.42
-8.12
-8.14
-3.41
-8.12
-3.41
0.0
0.0
0.0
-8.14
-3.43
-3.48
-8.13
-3.44
0.0
0.0
0.0
0.0
0.0
0.0
-3.47
0.0
-3.44
-3.44
-3.44
0.0
0.0
0.0
0.0
0.0
-3.34
-3.35
-8.16
-8.11
-3.51
0.0
0.0
0.0
0.0
0.0
0.0
-3.43
-8.12
-3.47
0.0
0.0
0.0
0.0
0.0
0.0
-3.37
-3.37
-3.43
-3.42
0.0
0.0
0.0
0.0
-3.4
0.0
0.0
0.0
0.0
0.0
0.0
0.0
0.0
0.0
0.0
0.0
0.0
0.0
0.0
0.0
0.0
0.0
0.0
0.0
0.0
0.0
0.0
0.0
0.0
0.0
0.0
0.0
0.0
0.0
0.0
0.0
0.0
0.0
-3.37
0.0
0.0
0.0
0.0
0.0
0.0
0.0
0.0
0.0
-3.4
-3.37
-8.15
0.0
0.0
0.0
0.0
-3.35
0.0
-3.41
0.0
-7.97
-8.14
0.0
0.0
0.0
0.0
0.0
-8.11
0.0
-3.47
-8.15
-3.33
0.0
-3.41
0.0
0.0
0.0
-3.39
-8.12
-3.32
-8.15
-8.9599999633
-8.11
-8.15
0.0
-3.42
-8.12
-9.00999999975
-3.41
0.0
-3.46
-8.15
0.0
0.0
0.0
-3.38
-3.42
0.0
-8.1
-3.42
0.0
-8.15
0.0
0.0
0.0
-3.39
-8.93999997431
-8.12
-3.41
-3.43
-3.47
0.0
0.0
0.0
-3.41
-3.47
-8.09
0.0
-3.33
-3.43
0.0
0.0
0.0
-3.44
0.0
-8.14
0.0
-3.42
0.0
0.0
0.0
0.0
0.0
-3.34
-8.13
-3.39
0.0
0.0
0.0
0.0
0.0
0.0
0.0
-3.39
0.0
0.0
0.0
0.0
0.0
0.0
0.0
0.0
0.0
0.0
0.0
0.0
0.0
0.0
0.0
0.0
0.0
0.0
0.0
0.0
0.0
0.0
0.0
0.0
0.0
0.0
0.0
0.0
-8.13
-3.3
0.0
0.0
0.0
0.0
0.0
-3.42
-8.12
-3.43
0.0
-3.41
0.0
0.0
0.0
0.0
0.0
0.0
-8.12
-3.45
-8.13
0.0
-3.45
-8.13
0.0
0.0
0.0
0.0
-3.44
-8.13
0.0
-8.6999
-3.33
-3.43
0.0
0.0
0.0
0.0
-3.38
-3.4
0.0
0.0
-3.37
0.0
0.0
0.0
0.0
-3.38
-8.94999999983
0.0
-3.42
-9.00999999988
-8.14
0.0
-3.39
-3.43
-8.13
-3.39
-8.75193
-8.92999814379
0.0
0.0
-3.32
0.0
0.0
0.0
-8.06
-8.13
-8.08
0.0
0.0
0.0
-3.44
0.0
0.0
-3.45
-8.05
0.0
0.0
0.0
0.0
0.0
-8.90999999991
-3.39
-3.36
0.0
0.0
0.0
0.0
0.0
0.0
-3.41
-8.13
0.0
0.0
0.0
0.0
0.0
0.0
0.0
0.0
0.0
0.0
0.0
0.0
0.0
0.0
0.0
0.0
0.0
0.0
0.0
0.0
0.0
0.0
0.0
0.0
0.0
0.0
0.0
0.0
0.0
0.0
0.0
0.0
0.0
0.0
0.0
0.0
0.0
-3.41
0.0
0.0
0.0
0.0
0.0
0.0
0.0
0.0
-8.8176457
0.0
0.0
0.0
0.0
0.0
-3.35
0.0
-8.98
-3.39
-8.95999998202
-3.31
-8.96999999994
0.0
0.0
0.0
0.0
-3.37
-3.41
0.0
-8.1
-8.812351
0.0
0.0
0.0
0.0
0.0
-8.88235199
-8.879646393
-3.42
-8.05
-3.4
-3.45
0.0
0.0
0.0
0.0
0.0
-8.06
-8.95995400135
-3.43
-3.38
0.0
0.0
-3.42
-8.9117524751
0.0
-3.37
-3.42
0.0
-8.28
0.0
-3.4
0.0
0.0
-8.98886011048
-8.11
-9.01999998741
0.0
0.0
0.0
0.0
-3.37
0.0
-9.00999870065
-3.41
0.0
0.0
0.0
0.0
0.0
0.0
-3.41
-9.00999999996
-8.08
-3.43
0.0
0.0
0.0
0.0
0.0
0.0
0.0
0.0
0.0
0.0
0.0
0.0
0.0
0.0
0.0
0.0
-3.35
0.0
0.0
0.0
0.0
0.0
0.0
0.0
0.0
0.0
0.0
0.0
0.0
0.0
0.0
0.0
0.0
0.0
0.0
0.0
0.0
0.0
0.0
0.0
0.0
0.0
0.0
0.0
0.0
0.0
0.0
-3.43
0.0
0.0
0.0
0.0
0.0
0.0
0.0
0.0
-8.98999999997
0.0
-3.43
0.0
0.0
0.0
0.0
0.0
0.0
-3.42
0.0
-9.00920207734
-8.99999999119
-8.98
0.0
0.0
0.0
-8.96999999998
-3.42
0.0
0.0
-3.48
-8.08
-8.49
0.0
0.0
0.0
-3.38
0.0
-3.45
-3.42
-8.95999999383
-8.01
0.0
0.0
0.0
0.0
-8.0
0.0
-8.87999999568
-8.96999909046
-8.99999999698
-8.597
0.0
0.0
-3.43
-3.37
-3.37
-3.5
-8.05
-8.96999936332
0.0
-3.37
0.0
-3.46
-8.98
-8.04
-3.33
-8.98999955432
0.0
0.0
0.0
0.0
-3.38
-8.07
0.0
0.0
0.0
0.0
0.0
0.0
-3.33
-3.47
0.0
-8.96999999999
-9.0
0.0
0.0
0.0
0.0
-3.4
0.0
-8.07
-8.96998895572
0.0
0.0
0.0
0.0
0.0
0.0
0.0
0.0
0.0
0.0
0.0
0.0
0.0
0.0
0.0
0.0
0.0
0.0
0.0
0.0
0.0
0.0
0.0
0.0
0.0
0.0
0.0
0.0
0.0
0.0
0.0
0.0
0.0
0.0
0.0
0.0
0.0
0.0
0.0
-3.4
0.0
0.0
0.0
0.0
0.0
0.0
0.0
-8.93999999788
-8.03
0.0
-3.51
0.0
0.0
0.0
0.0
0.0
0.0
0.0
-8.94944145414
-3.43
0.0
-9.0496090179
0.0
0.0
0.0
0.0
0.0
0.0
-8.01
-3.47
-3.42
-3.38
-7.95
0.0
0.0
0.0
0.0
-3.4
0.0
-3.44
-3.4
-9.00525243849
0.0
-3.34
-8.06
-7.96
-3.37
0.0
-8.9383715864
0.0
-8.9999945883
0.0
0.0
0.0
0.0
0.0
0.0
-8.98972631253
-8.98999968803
-3.34
-3.36
0.0
0.0
0.0
0.0
-3.43
-8.98999978162
-3.46
-3.33
-9.00999984713
0.0
0.0
0.0
-3.4
0.0
-3.48
-3.38
0.0
-9.04980841877
0.0
0.0
0.0
0.0
0.0
0.0
-9.0
-8.98
0.0
0.0
0.0
0.0
0.0
-9.00999989299
0.0
0.0
0.0
0.0
0.0
0.0
0.0
0.0
0.0
0.0
0.0
0.0
0.0
0.0
0.0
0.0
0.0
0.0
0.0
0.0
0.0
0.0
0.0
0.0
0.0
0.0
0.0
0.0
0.0
0.0
0.0
0.0
0.0
0.0
0.0
0.0
0.0
0.0
0.0
-8.98
0.0
0.0
0.0
0.0
0.0
0.0
0.0
0.0
-3.41
0.0
-8.07
0.0
0.0
0.0
0.0
0.0
0.0
-3.4
0.0
0.0
0.0
-8.99999999852
0.0
0.0
0.0
0.0
0.0
0.0
0.0
-7.94
-3.37
-3.39
0.0
0.0
0.0
-3.41
-8.9499999251
0.0
-3.4
0.0
-8.1
0.0
0.0
0.0
0.0
-8.98999999999
-3.4
0.0
0.0
0.0
-9.02999226901
0.0
0.0
0.0
0.0
-3.39
0.0
0.0
0.0
-3.35
-8.97999999896
0.0
0.0
0.0
0.0
0.0
-8.97
0.0
0.0
0.0
0.0
0.0
0.0
0.0
0.0
0.0
0.0
-3.35
-9.00999994757
0.0
-8.01
0.0
0.0
0.0
0.0
0.0
0.0
-8.95999999927
0.0
-8.97
0.0
0.0
0.0
0.0
0.0
0.0
0.0
0.0
0.0
0.0
0.0
0.0
0.0
0.0
0.0
0.0
0.0
0.0
0.0
0.0
0.0
0.0
0.0
0.0
0.0
0.0
0.0
0.0
0.0
0.0
0.0
0.0
0.0
0.0
0.0
0.0
0.0
0.0
0.0
0.0
0.0
0.0
0.0
0.0
0.0
0.0
0.0
0.0
0.0
0.0
0.0
0.0
0.0
0.0
0.0
0.0
0.0
0.0
0.0
0.0
0.0
0.0
0.0
-8.98667670694
0.0
0.0
0.0
0.0
-3.37
0.0
0.0
0.0
-8.98
0.0
-8.03
-8.99999999949
-3.42
0.0
0.0
0.0
0.0
0.0
0.0
-8.96999999999
-8.1
-3.35
-3.34
-3.41
0.0
0.0
0.0
0.0
0.0
0.0
-9.01999621181
-8.95999999964
-8.08
0.0
0.0
0.0
0.0
0.0
0.0
0.0
-8.1
0.0
0.0
0.0
0.0
0.0
0.0
0.0
0.0
0.0
0.0
0.0
0.0
0.0
0.0
0.0
0.0
0.0
0.0
0.0
0.0
0.0
0.0
0.0
0.0
0.0
0.0
0.0
0.0
0.0
0.0
0.0
0.0
0.0
0.0
0.0
0.0
0.0
0.0
0.0
0.0
0.0
0.0
0.0
0.0
0.0
0.0
0.0
0.0
0.0
0.0
0.0
0.0
0.0
0.0
0.0
0.0
0.0
0.0
0.0
0.0
0.0
0.0
0.0
0.0
0.0
0.0
0.0
0.0
0.0
0.0
0.0
0.0
0.0
0.0
0.0
-8.99
-8.98
0.0
0.0
0.0
0.0
0.0
0.0
0.0
0.0
0.0
0.0
0.0
0.0
0.0
0.0
0.0
0.0
0.0
0.0
0.0
0.0
0.0
0.0
0.0
0.0
-9.01999734827
0.0
0.0
0.0
0.0
0.0
0.0
-8.09
0.0
0.0
-8.99
0.0
0.0
0.0
0.0
0.0
0.0
-8.97
0.0
0.0
0.0
0.0
0.0
0.0
0.0
0.0
-8.01
0.0
0.0
0.0
0.0
0.0
0.0
0.0
0.0
0.0
0.0
0.0
0.0
0.0
0.0
0.0
0.0
0.0
0.0
0.0
0.0
0.0
0.0
0.0
0.0
0.0
0.0
0.0
0.0
0.0
0.0
0.0
0.0
0.0
0.0
0.0
0.0
-8.95
0.0
0.0
0.0
0.0
0.0
-8.11
0.0
0.0
0.0
0.0
0.0
0.0
0.0
0.0
0.0
0.0
0.0
0.0
0.0
0.0
-8.7
0.0
0.0
0.0
0.0
0.0
0.0
0.0
0.0
0.0
0.0
0.0
0.0
0.0
