0.0
0.0
0.0
0.0
-0.54
0.0
0.0
0.0
0.0
0.0
-0.56
-0.62
-0.59
-0.64
0.0
-0.51
-0.56
0.0
0.0
0.0
0.0
0.0
0.0
0.0
0.0
0.0
-0.59
0.0
0.0
0.0
0.0
0.0
0.0
-0.62
0.0
0.0
0.0
0.0
-0.56
0.0
0.0
0.0
0.0
0.0
0.0
0.0
0.0
0.0
0.0
0.0
0.0
0.0
0.0
0.0
0.0
0.0
0.0
0.0
0.0
0.0
0.0
-0.57
0.0
0.0
0.0
0.0
0.0
-0.53
0.0
0.0
-0.6
0.0
0.0
0.0
0.0
0.0
-0.59
0.0
-0.61
-0.63
-8.96999999788
0.0
0.0
0.0
0.0
0.0
-0.57
0.0
-9.05
0.0
0.0
-0.58
0.0
-8.95999999991
-0.52
0.0
-8.31
0.0
0.0
0.0
0.0
0.0
-8.93999999994
0.0
-8.9399945883
0.0
0.0
0.0
0.0
0.0
0.0
0.0
-4.8
-5.0
-0.59
0.0
0.0
0.0
0.0
0.0
-9.04
-9.06986589314
-9.00999999852
0.0
0.0
0.0
0.0
0.0
0.0
-0.6
-0.5
-9.03886011048
0.0
0.0
0.0
0.0
0.0
0.0
-0.57
0.0
0.0
0.0
0.0
0.0
0.0
0.0
0.0
0.0
0.0
0.0
0.0
0.0
0.0
0.0
0.0
0.0
0.0
0.0
0.0
0.0
0.0
0.0
0.0
0.0
0.0
0.0
0.0
-0.61
0.0
0.0
0.0
0.0
0.0
0.0
-0.57
0.0
-0.41
-0.44
-8.93999999996
0.0
0.0
0.0
0.0
0.0
0.0
0.0
-8.92999999896
-0.63
-4.95
0.0
0.0
-0.59
-0.62
-9.0
-0.47
-9.01999999997
0.0
0.0
-0.7
0.0
-0.55
0.0
-0.58
0.0
-4.82
0.0
-0.61
-4.85
0.0
0.0
-0.56
0.0
0.0
0.0
0.0
0.0
-0.67
0.0
0.0
0.0
0.0
0.0
-0.56
-4.81
-8.9799999251
-4.96
-0.57
-8.97999621181
0.0
0.0
-0.53
-0.62
0.0
-4.97
-0.65
0.0
0.0
0.0
0.0
0.0
0.0
0.0
-0.6
0.0
-0.51
-8.98999999927
0.0
0.0
0.0
0.0
0.0
0.0
-0.58
-9.03
0.0
0.0
0.0
0.0
0.0
0.0
0.0
0.0
0.0
0.0
0.0
0.0
0.0
0.0
0.0
0.0
0.0
0.0
0.0
0.0
0.0
0.0
0.0
0.0
-0.42
0.0
0.0
0.0
0.0
0.0
0.0
0.0
0.0
-0.66
0.0
0.0
0.0
0.0
0.0
0.0
0.0
-8.91999994757
0.0
-8.9599999633
-9.01999999998
0.0
0.0
0.0
0.0
-0.61
-8.95999997431
0.0
-8.94999955432
-8.96999999949
-0.48
-8.93999999999
0.0
0.0
0.0
-0.59
0.0
-4.97
0.0
-8.31
-8.96998422246
-5.03
-8.97999734827
0.0
-0.6
0.0
-4.94
-9.01
-8.92999999964
-4.91
-8.99321776927
-0.62
0.0
0.0
0.0
-8.98999968803
-4.96
-4.91
-8.97997746066
-4.96
0.0
0.0
0.0
0.0
0.0
0.0
-8.3
0.0
-4.96
-0.66
-4.92
0.0
0.0
0.0
0.0
0.0
-0.53
-0.51
-8.93999999999
-8.95999814379
-4.99
-0.58
0.0
0.0
0.0
0.0
0.0
-0.65
-8.97
-5.0
0.0
0.0
0.0
0.0
0.0
0.0
-0.6
-0.59
-0.62
-4.96
0.0
0.0
0.0
0.0
-0.54
0.0
0.0
0.0
0.0
0.0
0.0
0.0
0.0
0.0
0.0
0.0
0.0
0.0
0.0
0.0
0.0
0.0
0.0
0.0
0.0
0.0
0.0
0.0
0.0
0.0
0.0
0.0
0.0
0.0
0.0
0.0
0.0
0.0
-0.59
0.0
0.0
0.0
0.0
0.0
0.0
0.0
0.0
0.0
-0.61
-4.8
-9.03
0.0
0.0
0.0
0.0
-0.58
0.0
-0.63
0.0
-8.31
-8.99999999999
0.0
0.0
0.0
0.0
0.0
-8.99
0.0
-4.88
-8.96
-0.57
0.0
-0.65
0.0
0.0
-0.59
-0.59
-8.96999978162
-0.53
-8.98998895572
-9.01525243849
-8.91999998202
-8.95999998741
-0.59
-4.79
-8.95
-8.98999226901
-0.61
0.0
-4.97
-8.96999999975
0.0
0.0
0.0
-0.6
-4.79
0.0
-8.27
-4.9
0.0
-8.98999999983
0.0
0.0
0.0
-0.55
-8.95920207734
-8.93
-0.61
-4.86
-4.97
0.0
0.0
0.0
-0.61
-4.96
-8.93999870065
0.0
-0.51
-0.67
0.0
0.0
0.0
-0.68
0.0
-8.98999984713
0.0
-4.86
0.0
0.0
0.0
0.0
0.0
-0.5
-9.0299061252
-0.62
0.0
0.0
0.0
0.0
0.0
0.0
0.0
-0.59
0.0
0.0
0.0
0.0
0.0
0.0
0.0
0.0
0.0
0.0
0.0
0.0
0.0
0.0
0.0
0.0
0.0
0.0
0.0
0.0
0.0
0.0
0.0
0.0
0.0
0.0
-0.02
-0.54
-8.97999999119
-0.52
0.0
0.0
0.0
0.0
0.0
-4.94
-8.95999999383
-4.97
0.0
-0.62
-0.48
0.0
0.0
0.0
0.0
0.0
-8.94999999988
-4.87
-8.93
0.0
-4.87
-8.95
0.0
0.0
0.0
0.0
-8.24
-9.01
0.0
-8.6399
-0.58
-4.83
0.0
0.0
0.0
0.0
-0.58
-0.61
0.0
0.0
-0.55
0.0
0.0
0.0
0.0
-0.59
-8.93999909046
0.0
-0.64
-8.31
-8.97999999568
0.0
-0.62
-0.65
-8.93
-0.58
-8.67193
-8.9083715864
0.0
0.0
-0.52
0.0
-0.55
0.0
-8.89999936332
-8.95999999698
-8.26
0.0
0.0
-0.56
-4.88
0.0
-0.57
-4.99
-8.95
0.0
0.0
0.0
0.0
-0.03
-8.94993428764
-0.61
-0.59
0.0
0.0
0.0
0.0
0.0
-0.44
-0.64
-9.0
0.0
0.0
0.0
0.0
0.0
0.0
0.0
0.0
0.0
0.0
0.0
0.0
0.0
0.0
0.0
0.0
0.0
0.0
0.0
0.0
0.0
0.0
0.0
0.0
0.0
0.0
0.0
0.0
0.0
0.0
0.0
0.0
0.0
0.0
0.0
0.0
0.0
-4.83
0.0
0.0
0.0
0.0
0.0
0.0
0.0
0.0
-8.752351
0.0
0.0
0.0
0.0
0.0
-0.5
0.0
-8.96999989299
-4.85
-8.97995400135
-0.47
-8.22
0.0
0.0
0.0
0.0
-0.55
-4.77
0.0
-8.26
-8.4
0.0
0.0
0.0
0.0
-0.46
-8.84235199
-8.8276457
-4.82
-8.94
-4.72
-5.0
0.0
0.0
0.0
0.0
0.0
-8.91
-8.21
-0.67
-0.55
0.0
0.0
-4.96
-8.859646393
0.0
-0.57
-4.84
0.0
-7.9
0.0
-4.88
0.0
0.0
-8.25
-8.32
-8.31
0.0
0.0
0.0
0.0
-0.56
0.0
-8.27
-4.86
0.0
0.0
0.0
0.0
0.0
0.0
-0.51
-8.33
-8.25
-0.67
0.0
0.0
0.0
0.0
0.0
0.0
0.0
0.0
0.0
0.0
0.0
0.0
0.0
0.0
0.0
0.0
-0.5
0.0
0.0
0.0
0.0
0.0
0.0
0.0
0.0
0.0
0.0
0.0
0.0
0.0
0.0
0.0
0.0
0.0
0.0
0.0
0.0
0.0
0.0
0.0
0.0
0.0
0.0
0.0
-0.02
0.0
0.0
-4.93
0.0
0.0
0.0
0.0
0.0
0.0
0.0
0.0
-8.28
0.0
-4.85
0.0
0.0
0.0
0.0
0.0
0.0
-4.89
0.0
-8.26
-8.29
-8.29
0.0
0.0
0.0
-8.28
-4.94
0.0
0.0
-8.29
-8.25
-8.587
0.0
0.0
0.0
-0.57
0.0
-4.96
-0.59
-8.94996780094
-4.82
0.0
0.0
0.0
0.0
-4.81
-0.45
-8.9
-8.26
-8.3
-8.18
0.0
0.0
-4.81
-0.49
-0.57
-5.0
-8.97
-8.25
0.0
-0.58
0.0
-4.98
-8.92
-8.99
-4.84
-8.3
0.0
0.0
0.0
0.0
-0.6
-8.25
0.0
0.0
0.0
0.0
0.0
0.0
-0.52
-5.01
0.0
-8.21
-8.31
0.0
0.0
0.0
0.0
-0.54
0.0
-8.28
-8.24
0.0
0.0
0.0
0.0
0.0
0.0
0.0
0.0
0.0
0.0
0.0
0.0
0.0
0.0
0.0
0.0
0.0
0.0
0.0
0.0
0.0
0.0
0.0
0.0
0.0
0.0
0.0
0.0
0.0
0.0
0.0
0.0
0.0
0.0
0.0
0.0
0.0
0.0
0.0
-0.5
0.0
0.0
0.0
0.0
0.0
0.0
0.0
-8.24
-4.78
0.0
-5.0
0.0
0.0
0.0
0.0
-0.47
0.0
0.0
-8.23
-4.86
0.0
-8.3
0.0
0.0
0.0
0.0
0.0
0.0
-0.6
-4.99
-4.82
-0.62
-0.59
0.0
0.0
0.0
0.0
-0.59
0.0
-4.97
-0.59
-8.28
-0.4
-0.57
-8.3
-4.76
-0.55
0.0
-8.83
-0.4
-8.26
0.0
0.0
0.0
0.0
0.0
0.0
-8.23
-8.27
-0.56
-4.76
0.0
0.0
0.0
0.0
-4.96
-8.27
-4.99
-0.56
-8.29
0.0
0.0
0.0
-0.59
0.0
-4.98
-0.6
0.0
-8.3
0.0
0.0
0.0
0.0
0.0
0.0
-8.27
-8.27
0.0
0.0
0.0
0.0
0.0
-8.3
0.0
0.0
0.0
0.0
0.0
0.0
0.0
0.0
0.0
0.0
0.0
0.0
0.0
0.0
0.0
0.0
0.0
0.0
0.0
0.0
0.0
0.0
0.0
0.0
0.0
0.0
0.0
0.0
0.0
0.0
0.0
0.0
0.0
0.0
0.0
0.0
0.0
0.0
0.0
-8.31
0.0
0.0
0.0
0.0
0.0
0.0
0.0
0.0
-4.79
0.0
-8.37
0.0
0.0
0.0
0.0
0.0
0.0
-0.61
0.0
0.0
0.0
-8.33
0.0
0.0
0.0
0.0
0.0
0.0
0.0
-0.6
-0.55
-0.58
-0.49
0.0
0.0
-4.89
-8.22
0.0
-4.8
0.0
-4.92
-0.11
0.0
0.0
0.0
-8.31
-0.6
0.0
-0.48
0.0
-8.3
0.0
0.0
0.0
0.0
-0.51
-0.49
0.0
0.0
-0.52
-8.3
0.0
0.0
0.0
-0.52
0.0
-8.32
0.0
-0.49
0.0
0.0
0.0
0.0
0.0
0.0
0.0
0.0
-0.53
-8.31
0.0
-0.62
0.0
0.0
0.0
0.0
0.0
0.0
-8.25
0.0
-8.29
0.0
0.0
0.0
0.0
0.0
0.0
0.0
0.0
0.0
0.0
0.0
0.0
0.0
0.0
0.0
0.0
0.0
0.0
0.0
0.0
0.0
0.0
0.0
0.0
0.0
0.0
0.0
0.0
0.0
0.0
0.0
0.0
0.0
0.0
0.0
0.0
0.0
0.0
0.0
0.0
0.0
0.0
0.0
0.0
0.0
0.0
0.0
0.0
0.0
0.0
0.0
0.0
0.0
0.0
0.0
0.0
-0.47
0.0
0.0
0.0
0.0
0.0
0.0
-8.23
0.0
0.0
0.0
0.0
-0.52
0.0
0.0
0.0
-8.3
0.0
-0.62
-8.3
-4.88
0.0
0.0
0.0
0.0
0.0
0.0
-8.28
-8.35
-0.52
-0.52
-4.95
0.0
0.0
0.0
0.0
0.0
-0.5
-8.29
-8.24
-8.32
0.0
0.0
0.0
0.0
0.0
0.0
0.0
-4.88
0.0
0.0
0.0
0.0
0.0
0.0
0.0
-0.5
0.0
0.0
0.0
0.0
0.0
0.0
0.0
0.0
0.0
0.0
0.0
0.0
0.0
0.0
0.0
0.0
0.0
0.0
0.0
0.0
0.0
0.0
0.0
0.0
0.0
0.0
0.0
0.0
0.0
0.0
0.0
0.0
0.0
0.0
0.0
0.0
0.0
0.0
0.0
0.0
0.0
0.0
0.0
0.0
0.0
0.0
0.0
0.0
0.0
0.0
0.0
0.0
0.0
0.0
0.0
0.0
0.0
0.0
0.0
-0.04
0.0
0.0
0.0
0.0
0.0
0.0
0.0
-8.31
-8.33
0.0
0.0
0.0
0.0
0.0
0.0
0.0
0.0
0.0
0.0
0.0
0.0
0.0
0.0
0.0
0.0
0.0
0.0
0.0
0.0
0.0
0.0
0.0
0.0
-8.32
0.0
0.0
0.0
0.0
0.0
0.0
-8.34
0.0
0.0
-8.3
0.0
0.0
0.0
0.0
0.0
0.0
-8.36
0.0
-0.41
0.0
0.0
0.0
0.0
0.0
0.0
-0.54
0.0
0.0
0.0
0.0
0.0
0.0
0.0
0.0
0.0
0.0
0.0
0.0
0.0
0.0
0.0
0.0
0.0
0.0
0.0
0.0
0.0
0.0
0.0
0.0
0.0
0.0
0.0
0.0
0.0
0.0
0.0
0.0
0.0
0.0
0.0
0.0
-8.36
0.0
0.0
0.0
0.0
0.0
-8.38
0.0
0.0
0.0
0.0
0.0
0.0
0.0
0.0
0.0
0.0
0.0
0.0
0.0
0.0
-6.04
0.0
0.0
0.0
0.0
0.0
0.0
0.0
0.0
0.0
0.0
0.0
0.0
0.0
