0.0
0.0
0.0
0.0
0.0
0.0
0.0
0.0
0.0
0.0
0.0
0.0
-0.77
-8.37
0.0
0.0
0.0
0.0
0.0
0.0
0.0
0.0
0.0
0.0
0.0
0.0
-0.81
0.0
0.0
0.0
0.0
0.0
0.0
-8.47
0.0
0.0
0.0
0.0
0.0
0.0
0.0
0.0
0.0
0.0
0.0
0.0
0.0
0.0
0.0
0.0
0.0
0.0
0.0
0.0
0.0
0.0
0.0
0.0
0.0
0.0
0.0
0.0
0.0
0.0
0.0
0.0
0.0
0.0
0.0
0.0
-8.39
0.0
0.0
0.0
0.0
0.0
-0.89
0.0
0.0
-8.51
-8.63
0.0
0.0
0.0
0.0
0.0
-0.76
0.0
-8.66
0.0
0.0
-0.84
0.0
-8.62
0.0
0.0
-8.65
0.0
0.0
0.0
0.0
0.0
-8.59
0.0
-8.62
0.0
0.0
0.0
0.0
0.0
0.0
0.0
-8.52
-8.54
-0.83
0.0
0.0
0.0
0.0
0.0
-8.64
-8.61
-8.62
0.0
0.0
0.0
0.0
0.0
0.0
-0.91
-8.47
-8.64
0.0
0.0
0.0
0.0
0.0
0.0
0.0
0.0
0.0
0.0
0.0
0.0
0.0
0.0
0.0
0.0
0.0
0.0
0.0
0.0
0.0
0.0
0.0
0.0
0.0
0.0
0.0
0.0
0.0
0.0
0.0
0.0
0.0
0.0
0.0
-8.46
0.0
0.0
0.0
0.0
0.0
0.0
-0.78
0.0
-8.43
0.0
-8.6
0.0
0.0
0.0
0.0
0.0
0.0
0.0
-8.63
-8.4
-8.54
0.0
0.0
-8.37
-8.49
-8.61
-0.86
-8.63
0.0
0.0
-8.57
0.0
0.0
0.0
-0.91
0.0
-8.56
0.0
-8.47
-8.5
0.0
0.0
-0.87
0.0
0.0
0.0
0.0
0.0
-8.53
0.0
0.0
0.0
0.0
0.0
-0.75
-8.46
-8.67
-8.51
-8.48
-8.66
0.0
0.0
0.0
-0.91
0.0
-8.53
-8.5
0.0
0.0
0.0
0.0
0.0
0.0
0.0
-8.37
0.0
0.0
-8.62
0.0
0.0
0.0
0.0
0.0
0.0
0.0
-8.64
0.0
0.0
0.0
0.0
0.0
0.0
0.0
0.0
0.0
0.0
0.0
0.0
0.0
0.0
0.0
0.0
0.0
0.0
0.0
0.0
0.0
0.0
0.0
0.0
0.0
0.0
0.0
0.0
0.0
0.0
0.0
0.0
0.0
-8.45
0.0
0.0
0.0
0.0
0.0
0.0
0.0
-8.59
0.0
-8.64
-8.62
0.0
0.0
0.0
0.0
-8.43
-8.63
0.0
-8.62
-8.62
-8.38
-8.64
0.0
0.0
0.0
-0.89
0.0
-8.54
0.0
-8.55
-8.62
-8.57
-8.6
0.0
-8.47
0.0
-8.46
-8.6
-8.61
-8.51
-8.66
-8.41
0.0
0.0
0.0
-8.64
-8.54
-8.54
-8.66
-8.53
0.0
0.0
0.0
0.0
0.0
0.0
-8.56
0.0
-8.51
-8.51
-8.51
0.0
0.0
0.0
0.0
0.0
-8.37
-8.43
-8.66
-8.63
-8.52
0.0
0.0
0.0
0.0
0.0
0.0
-8.54
-8.6
-8.53
0.0
0.0
0.0
0.0
0.0
0.0
0.0
-0.93
-8.49
-8.52
0.0
0.0
0.0
0.0
-8.48
0.0
0.0
0.0
0.0
0.0
0.0
0.0
0.0
0.0
0.0
0.0
0.0
0.0
0.0
0.0
0.0
0.0
0.0
0.0
0.0
0.0
0.0
0.0
0.0
0.0
0.0
0.0
0.0
0.0
0.0
0.0
0.0
0.0
-0.89
0.0
0.0
0.0
0.0
0.0
0.0
0.0
0.0
0.0
-8.47
-8.49
-8.64
0.0
0.0
0.0
0.0
0.0
0.0
-8.52
0.0
-8.53
-8.61
0.0
0.0
0.0
0.0
0.0
-8.66
0.0
-8.57
-8.64
-0.88
0.0
-8.46
0.0
0.0
-0.74
-8.35
-8.63
-0.95
-8.66
-8.64
-8.64
-8.62
0.0
-8.54
-8.63
-8.64
-8.47
0.0
-8.54
-8.62
0.0
0.0
0.0
-8.46
-8.53
0.0
-8.61
-8.51
0.0
-8.64
0.0
0.0
0.0
-8.43
-8.63
-8.6
-8.44
-8.55
-8.51
-0.74
0.0
0.0
-8.44
-8.51
-8.64
0.0
-8.44
-8.54
0.0
0.0
0.0
-8.53
0.0
-8.61
0.0
-8.51
0.0
0.0
0.0
0.0
0.0
-8.42
-8.65
-8.4
-0.83
0.0
0.0
0.0
0.0
0.0
0.0
-0.93
0.0
0.0
0.0
0.0
0.0
0.0
0.0
0.0
0.0
0.0
0.0
0.0
0.0
0.0
0.0
0.0
0.0
0.0
0.0
0.0
0.0
0.0
0.0
0.0
0.0
0.0
0.0
0.0
-8.64
-8.42
0.0
0.0
0.0
0.0
0.0
-8.5
-8.6
-8.43
0.0
-1.06
-0.94
0.0
0.0
0.0
0.0
0.0
-8.61
-8.54
-8.63
0.0
-8.57
-8.62
0.0
0.0
0.0
0.0
-8.56
-8.61
0.0
-8.882351
-0.94
-8.51
0.0
0.0
0.0
0.0
-1.02
-8.44
0.0
0.0
-8.48
0.0
0.0
0.0
0.0
-0.91
-8.65
0.0
-8.52
-8.81
-8.6
0.0
-8.41
-8.52
-8.59
-1.04
-8.647
-9.0717524751
0.0
0.0
-8.42
0.0
-0.89
0.0
-8.61
-8.69
-8.77999999988
0.0
0.0
-0.83
-8.53
0.0
-0.83
-8.55
-8.75999999991
0.0
0.0
0.0
0.0
-0.93
-8.64
-8.42
-0.9
0.0
0.0
0.0
0.0
0.0
-0.87
-8.52
-8.62
0.0
0.0
0.0
0.0
0.0
0.0
0.0
0.0
0.0
0.0
0.0
0.0
0.0
0.0
0.0
0.0
0.0
0.0
0.0
0.0
0.0
0.0
0.0
0.0
0.0
0.0
0.0
0.0
0.0
0.0
0.0
0.0
0.0
0.0
0.0
0.0
0.0
-8.48
0.0
0.0
0.0
0.0
0.0
0.0
0.0
0.0
-8.9076457
0.0
0.0
0.0
0.0
0.0
-8.44
0.0
-8.65
-8.46
-8.65
-0.96
-8.73
0.0
0.0
0.0
0.0
-8.49
-8.38
0.0
-8.77999999994
-8.7699
0.0
0.0
0.0
0.0
-0.81
-8.94235199
-8.86193
-8.45
-8.75999999996
-8.51
-8.53
0.0
0.0
0.0
0.0
0.0
-8.73999999997
-8.72999999568
-8.55
-1.03
0.0
0.0
-8.51
-8.979646393
0.0
-0.96
-8.52
0.0
-8.06
0.0
-8.47
0.0
0.0
-8.77996780094
-8.81
-8.81
0.0
0.0
0.0
0.0
-0.94
0.0
-8.75999999998
-8.49
0.0
0.0
0.0
0.0
0.0
0.0
-1.02
-8.79
-8.77
-8.54
0.0
0.0
0.0
0.0
0.0
0.0
0.0
0.0
0.0
0.0
0.0
0.0
0.0
0.0
0.0
0.0
-8.41
0.0
0.0
0.0
0.0
0.0
0.0
0.0
0.0
0.0
0.0
0.0
0.0
0.0
0.0
0.0
0.0
0.0
0.0
0.0
0.0
0.0
0.0
0.0
0.0
0.0
0.0
0.0
-0.92
0.0
0.0
-8.51
0.0
0.0
0.0
0.0
0.0
0.0
-0.82
0.0
-8.73
0.0
-8.5
0.0
0.0
0.0
0.0
0.0
0.0
-1.05
0.0
-8.73999999999
-8.81999999999
-8.77
0.0
0.0
0.0
-8.82999909046
-8.46
0.0
0.0
-8.54
-8.76
-8.35
0.0
0.0
0.0
-1.01
-0.98
-8.49
-8.52
-9.14022673257
-1.07
0.0
0.0
0.0
0.0
-1.07
-0.99
-8.72999999788
-8.78999999852
-8.74999999896
-8.53
0.0
0.0
-8.48
-8.43
-8.43
-8.54
-8.76
-8.74999999927
0.0
-1.03
0.0
-8.54
-8.66
-8.76
-8.38
-8.78999999949
0.0
0.0
0.0
0.0
-1.03
-8.75
0.0
0.0
0.0
0.0
0.0
0.0
-0.97
-8.51
0.0
-8.71
-8.81
0.0
0.0
0.0
0.0
-8.44
0.0
-8.75
-8.76
0.0
0.0
0.0
0.0
0.0
0.0
0.0
0.0
0.0
0.0
0.0
0.0
0.0
0.0
0.0
0.0
0.0
0.0
0.0
0.0
0.0
0.0
0.0
0.0
0.0
0.0
0.0
0.0
0.0
0.0
0.0
0.0
0.0
0.0
0.0
0.0
0.0
0.0
0.0
-8.44
0.0
0.0
0.0
0.0
0.0
-0.82
-1.0
-8.74999999964
-1.07
-0.92
-8.53
0.0
0.0
0.0
0.0
-0.95
0.0
0.0
-8.74986589314
-8.49
-0.98
-8.81997746066
0.0
0.0
0.0
0.0
0.0
-0.94
-1.06
-8.52
-8.5
-1.07
-1.05
0.0
0.0
0.0
0.0
-8.35
0.0
-8.53
-8.37
-8.8096090179
-0.83
-1.01
-8.79
-1.07
-1.03
0.0
-8.77972631253
-0.86
-8.74999999975
0.0
0.0
0.0
-0.91
0.0
0.0
-8.7899061252
-8.75999997431
-1.0
-8.47
0.0
0.0
0.0
0.0
-8.47
-8.77998422246
-8.56
-1.0
-8.8
-0.88
0.0
0.0
-1.03
0.0
-8.52
-1.03
0.0
-8.81999998202
0.0
0.0
0.0
0.0
-0.86
0.0
-8.78
-8.79
-0.9
0.0
0.0
0.0
0.0
-8.82999936332
0.0
0.0
0.0
0.0
0.0
0.0
0.0
0.0
0.0
0.0
0.0
0.0
0.0
0.0
0.0
0.0
0.0
0.0
0.0
0.0
0.0
0.0
0.0
0.0
0.0
0.0
0.0
0.0
0.0
0.0
0.0
0.0
0.0
0.0
0.0
0.0
0.0
0.0
-0.91
-8.84999999983
0.0
0.0
0.0
0.0
0.0
0.0
0.0
0.0
-8.48
-0.99
-8.77
0.0
0.0
0.0
0.0
0.0
-0.97
-1.07
0.0
0.0
0.0
-8.84999955432
0.0
0.0
0.0
0.0
0.0
0.0
0.0
-1.06
-8.46
-1.06
-1.0
-0.85
0.0
-8.48
-8.74999968803
0.0
-8.5
-0.84
-8.37
0.0
0.0
0.0
0.0
-8.84
-1.06
0.0
-1.02
0.0
-8.83980841877
0.0
0.0
0.0
-0.86
-8.44
-0.94
0.0
0.0
-0.99
-8.80999978162
0.0
0.0
0.0
-1.0
0.0
-8.81
0.0
-0.95
-0.84
0.0
-0.9
0.0
0.0
0.0
0.0
0.0
-8.43
-8.85998895572
0.0
-1.05
0.0
0.0
0.0
0.0
0.0
-0.91
-8.76999984713
-0.9
-8.77
0.0
0.0
0.0
0.0
0.0
0.0
0.0
-0.94
0.0
0.0
0.0
0.0
0.0
0.0
0.0
0.0
0.0
0.0
0.0
0.0
0.0
0.0
0.0
0.0
0.0
0.0
0.0
0.0
0.0
0.0
0.0
0.0
0.0
0.0
0.0
0.0
0.0
0.0
0.0
0.0
0.0
0.0
0.0
0.0
0.0
-0.75
-0.8
0.0
0.0
0.0
0.0
0.0
0.0
0.0
0.0
0.0
-1.0
0.0
0.0
0.0
0.0
0.0
-0.97
-8.78993428764
0.0
0.0
0.0
0.0
-8.49
0.0
0.0
0.0
-8.83999998741
0.0
-1.07
-8.83999226901
-8.46
0.0
0.0
0.0
0.0
0.0
0.0
-8.79999999119
-8.8799945883
-8.48
-8.39
-8.5
0.0
0.0
0.0
0.0
-0.93
-0.99
-8.83999621181
-8.77999734827
-8.85999814379
-1.01
0.0
0.0
0.0
0.0
0.0
0.0
-8.39
-0.94
0.0
0.0
0.0
0.0
0.0
0.0
-1.0
0.0
0.0
0.0
0.0
0.0
0.0
0.0
0.0
-0.87
0.0
0.0
0.0
0.0
0.0
0.0
0.0
0.0
0.0
0.0
0.0
0.0
0.0
0.0
0.0
0.0
0.0
0.0
0.0
0.0
0.0
0.0
0.0
0.0
0.0
0.0
0.0
0.0
0.0
0.0
0.0
0.0
0.0
-0.9
0.0
0.0
0.0
0.0
0.0
0.0
0.0
0.0
0.0
0.0
0.0
0.0
0.0
0.0
-0.98
0.0
-0.92
0.0
0.0
0.0
0.0
0.0
0.0
0.0
-8.83999870065
-8.86999989299
0.0
0.0
0.0
0.0
-0.75
0.0
-0.75
-0.86
0.0
0.0
0.0
0.0
-0.87
0.0
0.0
-0.95
0.0
0.0
0.0
0.0
0.0
-0.9
0.0
0.0
-8.84995400135
-0.95
0.0
0.0
0.0
0.0
0.0
-8.85999999383
-0.88
-0.95
-8.8499999251
0.0
0.0
0.0
0.0
-0.86
0.0
-8.86999994757
0.0
-1.0
0.0
0.0
0.0
0.0
0.0
0.0
-1.04
0.0
0.0
0.0
0.0
0.0
0.0
0.0
0.0
0.0
0.0
0.0
0.0
0.0
0.0
0.0
0.0
0.0
0.0
0.0
0.0
0.0
0.0
0.0
0.0
0.0
0.0
0.0
0.0
0.0
0.0
0.0
0.0
0.0
-0.84
-0.85
0.0
-8.8699999633
0.0
0.0
0.0
0.0
0.0
-8.63
0.0
0.0
0.0
0.0
-0.83
0.0
0.0
0.0
0.0
0.0
0.0
0.0
-0.84
0.0
-8.79
0.0
0.0
0.0
0.0
0.0
0.0
0.0
0.0
0.0
-0.83
0.0
0.0
0.0
