0.0
0.0
0.0
0.0
-5.67
0.0
0.0
0.0
0.0
0.0
-5.69
-5.71
-5.71
-5.76
0.0
-5.65
-5.68
0.0
0.0
-5.6
-5.66
0.0
0.0
0.0
0.0
0.0
-5.73
0.0
0.0
0.0
0.0
0.0
0.0
-5.75
0.0
0.0
0.0
0.0
-5.67
0.0
0.0
0.0
0.0
0.0
0.0
0.0
0.0
-5.63
0.0
0.0
0.0
0.0
0.0
0.0
0.0
0.0
0.0
0.0
0.0
0.0
0.0
-5.69
0.0
0.0
0.0
0.0
0.0
-5.65
0.0
0.0
-5.74
0.0
0.0
0.0
0.0
0.0
-5.73
0.0
-5.72
-5.76
-8.29
0.0
0.0
0.0
0.0
0.0
-5.68
0.0
-8.31
0.0
0.0
-5.71
0.0
-8.33
-5.61
0.0
-8.32
0.0
0.0
0.0
0.0
-5.67
-8.27
-5.64
-8.24
0.0
0.0
0.0
0.0
0.0
0.0
0.0
-5.77
-5.79
-5.69
0.0
0.0
0.0
0.0
0.0
-8.3
-8.32
-8.29
0.0
0.0
0.0
0.0
0.0
-5.64
-5.73
-5.73
-8.28
0.0
0.0
0.0
0.0
0.0
0.0
-5.68
0.0
0.0
0.0
0.0
0.0
0.0
0.0
0.0
0.0
0.0
0.0
0.0
0.0
0.0
0.0
0.0
0.0
0.0
0.0
0.0
0.0
0.0
0.0
0.0
0.0
0.0
0.0
0.0
-5.74
0.0
0.0
0.0
0.0
0.0
-5.67
-5.68
-5.65
-5.69
-5.66
-8.26
0.0
0.0
0.0
0.0
0.0
0.0
0.0
-8.23
-5.76
-5.76
0.0
0.0
-5.73
-5.75
-8.28
-5.69
-8.29
0.0
-5.69
-5.82
0.0
-5.65
0.0
-5.69
0.0
-5.77
0.0
-5.75
-5.77
0.0
0.0
-5.69
0.0
0.0
0.0
0.0
0.0
-5.83
0.0
0.0
0.0
0.0
0.0
-5.67
-5.77
-8.32
-5.77
-5.75
-8.29
0.0
0.0
-5.65
-5.73
0.0
-5.78
-5.77
0.0
0.0
0.0
0.0
0.0
0.0
0.0
-5.75
0.0
-5.67
-8.28
0.0
0.0
0.0
-5.58
0.0
0.0
-5.69
-8.29
0.0
0.0
0.0
0.0
0.0
0.0
0.0
0.0
0.0
0.0
0.0
0.0
0.0
0.0
0.0
0.0
0.0
0.0
0.0
0.0
0.0
0.0
0.0
0.0
-5.65
0.0
0.0
0.0
0.0
0.0
0.0
-5.64
0.0
-5.77
0.0
0.0
0.0
0.0
0.0
0.0
0.0
-8.27
0.0
-8.3
-8.32
0.0
0.0
0.0
0.0
-5.73
-8.3
0.0
-8.29
-8.3
-5.71
-8.29
0.0
0.0
0.0
-5.72
0.0
-5.77
0.0
-5.84
-8.26
-5.82
-8.28
0.0
-5.74
0.0
-5.74
-8.33
-8.25
-5.77
-8.29
-5.77
0.0
0.0
0.0
-8.32
-5.75
-5.83
-8.29
-5.78
0.0
0.0
0.0
0.0
0.0
0.0
-5.86
0.0
-5.77
-5.77
-5.76
0.0
0.0
0.0
0.0
0.0
-5.69
-5.71
-8.3
-8.28
-5.86
-5.69
0.0
0.0
0.0
0.0
0.0
-5.77
-8.3
-5.81
0.0
0.0
0.0
0.0
0.0
0.0
-5.7
-5.71
-5.76
-5.77
0.0
0.0
0.0
0.0
-5.73
0.0
0.0
0.0
0.0
0.0
0.0
0.0
0.0
0.0
0.0
0.0
0.0
0.0
0.0
0.0
0.0
0.0
0.0
0.0
0.0
0.0
0.0
0.0
0.0
0.0
0.0
0.0
0.0
0.0
0.0
0.0
0.0
0.0
-5.7
0.0
0.0
0.0
0.0
0.0
0.0
0.0
0.0
0.0
-5.76
-5.74
-8.31
0.0
0.0
0.0
0.0
-5.69
0.0
-5.77
0.0
-5.85
-8.32
0.0
0.0
0.0
0.0
0.0
-8.31
0.0
-5.83
-8.29
-5.71
0.0
-5.78
0.0
0.0
-5.69
-5.73
-8.3
-5.7
-8.31
-8.28
-8.29
-8.29
-5.69
-5.77
-8.27
-8.31
-5.75
0.0
-5.79
-8.35
0.0
0.0
0.0
-5.73
-5.76
-5.6
-5.82
-5.77
0.0
-8.32
0.0
0.0
0.0
-5.72
-8.27999999997
-8.26
-5.73
-5.82
-5.84
0.0
0.0
0.0
-5.77
-5.8
-8.28
0.0
-5.7
-5.78
0.0
0.0
0.0
-5.81
0.0
-8.31
0.0
-5.77
0.0
0.0
0.0
0.0
0.0
-5.72
-8.29
-5.75
-5.67
0.0
0.0
0.0
0.0
0.0
0.0
-5.73
0.0
0.0
0.0
0.0
0.0
0.0
0.0
0.0
0.0
0.0
0.0
0.0
0.0
0.0
0.0
0.0
0.0
0.0
0.0
0.0
0.0
0.0
0.0
0.0
0.0
0.0
-5.69
-5.65
-8.27
-5.69
0.0
0.0
0.0
0.0
0.0
-5.77
-8.24
-5.78
-5.66
-5.76
-5.67
0.0
0.0
0.0
0.0
0.0
-8.29
-5.8
-8.27
0.0
-5.8
-8.33
0.0
0.0
0.0
0.0
-5.83
-8.29
0.0
-7.53
-5.71
-5.79
0.0
0.0
0.0
0.0
-5.69
-5.73
0.0
0.0
-5.74
0.0
0.0
0.0
0.0
-5.71
-8.27
0.0
-5.77
-8.38
-8.25
0.0
-5.75
-5.76
-8.29
-5.7
-7.97
-8.20999999975
0.0
0.0
-5.68
0.0
-5.66
0.0
-8.26
-8.32
-7.31
0.0
0.0
-5.67
-5.79
0.0
-5.65
-5.79
-8.08
0.0
0.0
0.0
0.0
-5.66
-8.24
-5.74
-5.7
0.0
0.0
0.0
0.0
0.0
-5.65
-5.77
-8.28
0.0
0.0
0.0
0.0
0.0
0.0
0.0
0.0
0.0
0.0
0.0
0.0
0.0
0.0
0.0
0.0
0.0
0.0
0.0
0.0
0.0
0.0
0.0
0.0
0.0
0.0
0.0
0.0
0.0
0.0
0.0
0.0
0.0
0.0
0.0
0.0
0.0
-5.75
0.0
0.0
0.0
0.0
0.0
0.0
0.0
0.0
-8.32193
0.0
0.0
0.0
0.0
0.0
-5.71
0.0
-8.27
-5.74
-8.29
-5.69
-8.33
0.0
0.0
0.0
0.0
-5.73
-5.71
0.0
-7.36
-8.177
0.0
0.0
0.0
0.0
-5.65
-8.392351
-8.4276457
-5.75
-7.32
-5.75
-5.79
0.0
0.0
0.0
0.0
0.0
-8.19
-8.3499945883
-5.77
-5.65
0.0
0.0
-5.75
-8.45235199
0.0
-5.7
-5.77
0.0
-7.81
0.0
-5.73
0.0
0.0
-8.39986589314
-7.36
-8.37
0.0
0.0
0.0
0.0
-5.7
0.0
-8.37999936332
-5.77
0.0
0.0
0.0
0.0
0.0
0.0
-5.73
-8.36
-7.34
-5.78
0.0
0.0
0.0
0.0
0.0
0.0
-5.59
0.0
0.0
0.0
0.0
0.0
0.0
0.0
0.0
0.0
-5.72
0.0
0.0
0.0
0.0
0.0
0.0
0.0
0.0
0.0
0.0
0.0
0.0
0.0
0.0
0.0
0.0
0.0
0.0
0.0
0.0
0.0
0.0
0.0
0.0
0.0
0.0
0.0
-5.67
0.0
0.0
-5.77
0.0
0.0
0.0
0.0
0.0
0.0
0.0
0.0
-8.34
0.0
-5.74
0.0
0.0
0.0
0.0
0.0
0.0
-5.68
0.0
-8.3999061252
-8.42999621181
-7.42
0.0
0.0
0.0
-8.40999994757
-5.74
0.0
0.0
-5.83
-7.33
-8.2999
0.0
0.0
0.0
-5.67
0.0
-5.78
-5.77
-8.29
-5.69
0.0
0.0
0.0
0.0
-5.67
0.0
-8.11
-8.39993428764
-8.37999999999
-8.429646393
0.0
0.0
-5.77
-5.71
-5.72
-5.82
-7.34
-8.39995400135
0.0
-5.64
0.0
-5.8
-8.33
-7.34
-5.72
-8.40999734827
0.0
0.0
0.0
0.0
0.0
-7.32
0.0
0.0
0.0
0.0
0.0
0.0
-5.67
-5.82
0.0
-8.31999999999
-8.36
0.0
0.0
0.0
0.0
-5.73
0.0
-8.3
-8.35999955432
0.0
0.0
0.0
0.0
0.0
0.0
0.0
0.0
0.0
0.0
0.0
0.0
0.0
0.0
0.0
0.0
0.0
0.0
0.0
0.0
0.0
0.0
0.0
0.0
0.0
0.0
0.0
0.0
0.0
0.0
0.0
0.0
0.0
0.0
0.0
0.0
0.0
0.0
0.0
-5.7
0.0
0.0
0.0
0.0
0.0
0.0
0.0
-8.37999968803
-5.68
0.0
-5.81
0.0
0.0
0.0
0.0
0.0
0.0
0.0
-8.3696090179
-5.78
0.0
-8.43996780094
0.0
0.0
0.0
0.0
0.0
0.0
-5.63
-5.79
-5.76
-5.67
-5.62
0.0
0.0
0.0
0.0
-5.68
0.0
-5.78
-5.69
-8.41920207734
-5.69
0.0
-8.36
-5.65
-5.66
0.0
-8.33944145414
-5.67
-8.39997746066
0.0
0.0
0.0
0.0
0.0
0.0
-8.35998422246
-8.40999814379
-5.67
-5.72
0.0
0.0
0.0
0.0
-5.77
-8.37999978162
-5.8
-5.66
-8.38999999988
0.0
0.0
0.0
-5.7
0.0
-5.83
-5.67
0.0
-8.43998895572
0.0
0.0
0.0
0.0
-5.63
0.0
-8.35
-8.37
0.0
0.0
0.0
0.0
0.0
-8.4099999633
0.0
0.0
0.0
0.0
0.0
0.0
0.0
0.0
0.0
0.0
0.0
0.0
0.0
0.0
0.0
0.0
0.0
0.0
0.0
0.0
0.0
0.0
0.0
0.0
0.0
0.0
0.0
0.0
0.0
0.0
0.0
0.0
0.0
0.0
0.0
0.0
0.0
0.0
0.0
-8.42999997431
0.0
0.0
0.0
0.0
0.0
0.0
0.0
0.0
-5.75
0.0
-7.45
0.0
0.0
0.0
0.0
0.0
0.0
-5.6
0.0
0.0
0.0
-8.43999984713
0.0
0.0
0.0
0.0
0.0
0.0
0.0
-5.65
-5.74
-5.68
0.0
0.0
0.0
-5.74
-8.34999870065
0.0
-5.75
0.0
-5.75
-5.68
0.0
0.0
0.0
-8.40999999991
-5.67
0.0
0.0
0.0
-8.39999226901
0.0
0.0
0.0
-5.65
-5.72
-5.66
0.0
0.0
-5.71
-8.38999998202
0.0
0.0
0.0
0.0
0.0
-8.41
0.0
0.0
0.0
0.0
-5.67
0.0
0.0
0.0
0.0
-5.65
-5.7
-8.44972631253
0.0
-5.66
0.0
0.0
0.0
0.0
0.0
0.0
-8.37999989299
-5.65
-7.41
0.0
0.0
0.0
0.0
0.0
0.0
0.0
0.0
0.0
0.0
0.0
0.0
0.0
0.0
0.0
0.0
0.0
0.0
0.0
0.0
0.0
0.0
0.0
0.0
0.0
0.0
0.0
0.0
0.0
0.0
0.0
0.0
0.0
0.0
0.0
0.0
0.0
0.0
0.0
0.0
0.0
0.0
0.0
0.0
0.0
0.0
0.0
0.0
0.0
0.0
0.0
0.0
0.0
0.0
0.0
0.0
0.0
0.0
0.0
0.0
0.0
0.0
0.0
-8.38980841877
0.0
0.0
0.0
0.0
-5.74
0.0
0.0
0.0
-8.38999999994
0.0
-5.67
-8.40999998741
-5.79
-5.66
0.0
0.0
0.0
0.0
0.0
-8.39999999698
-8.43999999788
-5.73
-5.71
-5.75
0.0
0.0
0.0
0.0
0.0
0.0
-8.40999999119
-8.36999909046
-8.40999999383
0.0
0.0
0.0
0.0
0.0
0.0
0.0
-5.71
0.0
0.0
0.0
0.0
0.0
0.0
0.0
0.0
0.0
0.0
0.0
0.0
0.0
0.0
0.0
0.0
0.0
0.0
0.0
0.0
0.0
0.0
0.0
0.0
0.0
0.0
0.0
0.0
0.0
0.0
0.0
0.0
0.0
0.0
0.0
0.0
0.0
0.0
0.0
0.0
0.0
0.0
0.0
0.0
0.0
0.0
0.0
0.0
0.0
0.0
0.0
0.0
0.0
0.0
0.0
0.0
0.0
0.0
0.0
0.0
0.0
0.0
0.0
0.0
0.0
0.0
0.0
-5.65
-5.64
0.0
0.0
0.0
0.0
0.0
0.0
-8.39999999852
-8.41999999896
0.0
0.0
0.0
0.0
0.0
0.0
0.0
0.0
0.0
0.0
0.0
0.0
0.0
0.0
0.0
-5.66
0.0
0.0
0.0
0.0
0.0
0.0
0.0
0.0
-8.4199999251
0.0
0.0
0.0
0.0
0.0
0.0
-8.40999999996
0.0
0.0
-8.40999999568
0.0
0.0
0.0
0.0
0.0
0.0
-8.43999999927
0.0
0.0
0.0
0.0
0.0
0.0
0.0
0.0
0.0
0.0
0.0
0.0
0.0
0.0
0.0
0.0
0.0
0.0
0.0
0.0
0.0
0.0
0.0
0.0
0.0
0.0
0.0
0.0
0.0
0.0
0.0
0.0
0.0
0.0
0.0
0.0
0.0
0.0
0.0
0.0
0.0
0.0
0.0
0.0
0.0
-8.43999999949
0.0
0.0
0.0
0.0
0.0
-7.47
0.0
0.0
0.0
0.0
0.0
0.0
0.0
0.0
0.0
0.0
0.0
0.0
0.0
0.0
-8.39999999964
0.0
0.0
0.0
0.0
0.0
0.0
0.0
0.0
0.0
0.0
0.0
0.0
0.0
