0.0
0.0
0.0
0.0
0.0
0.0
0.0
0.0
0.0
0.0
0.0
0.0
0.0
-0.4
0.0
0.0
0.0
0.0
0.0
0.0
0.0
0.0
0.0
0.0
0.0
0.0
0.0
0.0
0.0
0.0
0.0
0.0
0.0
-0.41
0.0
0.0
0.0
0.0
0.0
0.0
0.0
0.0
0.0
0.0
0.0
0.0
0.0
0.0
0.0
0.0
0.0
0.0
0.0
0.0
0.0
0.0
0.0
0.0
0.0
0.0
0.0
0.0
0.0
0.0
0.0
0.0
0.0
0.0
0.0
0.0
-0.37
0.0
0.0
0.0
0.0
0.0
-0.26
0.0
0.0
-0.42
-8.73980841877
0.0
0.0
0.0
0.0
0.0
0.0
0.0
-8.74999999999
0.0
0.0
0.0
0.0
-8.71999999568
0.0
0.0
-8.73999999698
0.0
0.0
0.0
0.0
0.0
-8.7
0.0
-8.69767369486
0.0
0.0
0.0
0.0
0.0
0.0
0.0
-0.52
-0.56
0.0
0.0
0.0
0.0
0.0
0.0
-8.75
-8.73986589314
-8.73999999788
0.0
0.0
0.0
0.0
0.0
0.0
0.0
-0.45
-8.7199061252
0.0
0.0
0.0
0.0
0.0
0.0
0.0
0.0
0.0
0.0
0.0
0.0
0.0
0.0
0.0
0.0
0.0
0.0
0.0
0.0
0.0
0.0
0.0
0.0
0.0
0.0
0.0
0.0
0.0
0.0
0.0
0.0
0.0
0.0
0.0
-0.41
0.0
0.0
0.0
0.0
0.0
0.0
0.0
0.0
-0.44
0.0
-8.71999999852
0.0
0.0
0.0
0.0
0.0
0.0
0.0
-8.68999814379
-0.38
-0.53
0.0
0.0
-0.29
-0.38
-8.71
-0.33
-8.73999999896
0.0
0.0
-0.48
0.0
0.0
0.0
-0.26
0.0
-0.46
0.0
-0.43
-0.51
0.0
0.0
0.0
0.0
0.0
0.0
0.0
0.0
-0.54
0.0
0.0
0.0
0.0
0.0
0.0
-0.49
-8.73993428764
-0.52
-0.46
-8.72944145414
0.0
0.0
0.0
-0.25
0.0
-0.56
-0.4
0.0
0.0
0.0
0.0
0.0
0.0
0.0
-0.32
0.0
0.0
-8.71999999927
0.0
0.0
0.0
0.0
0.0
0.0
0.0
-8.73
0.0
0.0
0.0
0.0
0.0
0.0
0.0
0.0
0.0
0.0
0.0
0.0
0.0
0.0
0.0
0.0
0.0
0.0
0.0
0.0
0.0
0.0
0.0
0.0
0.0
0.0
0.0
0.0
0.0
0.0
0.0
0.0
0.0
-0.42
0.0
0.0
0.0
0.0
0.0
0.0
0.0
-8.67999999949
0.0
-8.69999999964
-8.71999999975
0.0
0.0
0.0
0.0
-0.46
-8.69
0.0
-8.68999870065
-8.72999909046
-0.36
-8.70999936332
0.0
0.0
0.0
-0.35
0.0
-0.57
0.0
-0.56
-8.69995400135
-0.58
-8.71996780094
0.0
-0.45
0.0
-0.51
-8.73
-8.68999955432
-0.5
-8.71321776927
-0.41
0.0
0.0
0.0
-8.69999999983
-0.54
-0.52
-8.6896090179
-0.53
0.0
0.0
0.0
0.0
0.0
0.0
-0.53
0.0
-0.55
-0.46
-0.49
0.0
0.0
0.0
0.0
0.0
-0.37
-0.4
-8.70999968803
-8.68999978162
-0.61
0.0
0.0
0.0
0.0
0.0
0.0
-0.39
-8.71
-0.59
0.0
0.0
0.0
0.0
0.0
0.0
0.0
-0.32
-0.48
-0.48
0.0
0.0
0.0
0.0
-0.45
0.0
0.0
0.0
0.0
0.0
0.0
0.0
0.0
0.0
0.0
0.0
0.0
0.0
0.0
0.0
0.0
0.0
0.0
0.0
0.0
0.0
0.0
0.0
0.0
0.0
0.0
0.0
0.0
0.0
0.0
0.0
0.0
0.0
0.0
0.0
0.0
0.0
0.0
0.0
0.0
0.0
0.0
0.0
-0.43
-0.47
-8.75999999988
0.0
0.0
0.0
0.0
0.0
0.0
-0.48
0.0
-0.63
-8.71999999991
0.0
0.0
0.0
0.0
0.0
-8.72
0.0
-0.51
-8.72999984713
-0.31
0.0
-0.45
0.0
0.0
0.0
-0.39
-8.69999999994
-0.33
-8.71997746066
-8.71525243849
-8.69998422246
-8.71998895572
0.0
-0.48
-8.71
-8.68999989299
-0.38
0.0
-0.56
-8.7299999251
0.0
0.0
0.0
-0.41
-0.47
0.0
-4.21
-0.5
0.0
-8.75999226901
0.0
0.0
0.0
-0.44
-8.6983715864
-8.69
-0.39
-0.54
-0.57
0.0
0.0
0.0
-0.42
-0.58
-8.68999994757
0.0
-0.4
-0.47
0.0
0.0
0.0
-0.49
0.0
-8.71999999996
0.0
-0.51
0.0
0.0
0.0
0.0
0.0
-0.45
-8.65
-0.4
0.0
0.0
0.0
0.0
0.0
0.0
0.0
-0.3
0.0
0.0
0.0
0.0
0.0
0.0
0.0
0.0
0.0
0.0
0.0
0.0
0.0
0.0
0.0
0.0
0.0
0.0
0.0
0.0
0.0
0.0
0.0
0.0
0.0
0.0
0.0
0.0
-8.71
-0.41
0.0
0.0
0.0
0.0
0.0
-0.52
-8.71
-0.51
0.0
0.0
0.0
0.0
0.0
0.0
0.0
0.0
-8.68
-0.51
-8.69999999997
0.0
-0.51
-8.71
0.0
0.0
0.0
0.0
-0.51
-8.73
0.0
-8.4199
-0.32
-0.52
0.0
0.0
0.0
0.0
-0.36
-0.42
0.0
0.0
-0.43
0.0
0.0
0.0
0.0
-0.35
-8.66999997431
0.0
-0.48
-8.72
-8.69
0.0
-0.4
-0.46
-8.69999999998
-0.44
-8.317
-8.65667670694
0.0
0.0
-0.44
0.0
0.0
0.0
-8.68999998202
-8.7399945883
-7.77
0.0
0.0
0.0
-0.49
0.0
0.0
-0.52
-8.68
0.0
0.0
0.0
0.0
0.0
-8.69920207734
-0.38
0.0
0.0
0.0
0.0
0.0
0.0
0.0
-0.45
-8.7
0.0
0.0
0.0
0.0
0.0
0.0
0.0
0.0
0.0
0.0
0.0
0.0
0.0
0.0
0.0
0.0
0.0
0.0
0.0
0.0
0.0
0.0
0.0
0.0
0.0
0.0
0.0
0.0
0.0
0.0
0.0
0.0
0.0
0.0
0.0
0.0
0.0
-0.48
0.0
0.0
0.0
0.0
0.0
0.0
0.0
0.0
-8.512351
0.0
0.0
0.0
0.0
0.0
-0.44
0.0
-8.65
-0.47
-8.68972631253
0.0
-8.71
0.0
0.0
0.0
0.0
-0.39
-0.44
0.0
-7.74
-8.47193
0.0
0.0
0.0
0.0
0.0
-8.5476457
-8.57235199
-0.48
-8.65
-0.49
-0.57
0.0
0.0
0.0
0.0
0.0
-8.68
-8.7
-0.48
-0.42
0.0
0.0
-0.49
-8.609646393
0.0
-0.36
-0.5
0.0
-7.88
0.0
-0.48
0.0
0.0
-8.68
-7.78
-7.76
0.0
0.0
0.0
0.0
-0.34
0.0
-8.73
-0.51
0.0
0.0
0.0
0.0
0.0
0.0
-0.49
-7.75
-7.75
-0.48
0.0
0.0
0.0
0.0
0.0
0.0
0.0
0.0
0.0
0.0
0.0
0.0
0.0
0.0
0.0
0.0
-0.43
0.0
0.0
0.0
0.0
0.0
0.0
0.0
0.0
0.0
0.0
0.0
0.0
0.0
0.0
0.0
0.0
0.0
0.0
0.0
0.0
0.0
0.0
0.0
0.0
0.0
0.0
0.0
0.0
0.0
0.0
-0.49
0.0
0.0
0.0
0.0
0.0
0.0
0.0
0.0
-8.7
0.0
-0.51
0.0
0.0
0.0
0.0
0.0
0.0
-0.46
0.0
-8.73999999999
-8.71
-7.76
0.0
0.0
0.0
-8.67
-0.48
0.0
0.0
-0.53
-7.73
-8.21
0.0
0.0
0.0
-0.43
0.0
-0.55
-0.5
-8.72031109896
-0.46
0.0
0.0
0.0
0.0
-0.45
0.0
-8.67
-7.76
-8.7
-8.38
0.0
0.0
-0.49
-0.46
-0.41
-0.6
-8.72
-8.7
0.0
-0.37
0.0
-0.58
-8.71
-8.69
-0.38
-7.76
0.0
0.0
0.0
0.0
0.0
-7.74
0.0
0.0
0.0
0.0
0.0
0.0
-0.43
-0.58
0.0
-8.68
-7.75
0.0
0.0
0.0
0.0
-0.44
0.0
-7.76
-8.68
0.0
0.0
0.0
0.0
0.0
0.0
0.0
0.0
0.0
0.0
0.0
0.0
0.0
0.0
0.0
0.0
0.0
0.0
0.0
0.0
0.0
0.0
0.0
0.0
0.0
0.0
0.0
0.0
0.0
0.0
0.0
0.0
0.0
0.0
0.0
0.0
0.0
0.0
0.0
-0.45
0.0
0.0
0.0
0.0
0.0
0.0
0.0
-8.71
-0.44
0.0
-0.57
0.0
0.0
0.0
0.0
0.0
0.0
0.0
-8.73999999999
-0.5
0.0
-8.71
0.0
0.0
0.0
0.0
0.0
0.0
-0.26
-0.55
-0.48
-0.43
-0.34
0.0
0.0
0.0
0.0
-0.44
0.0
-0.51
-0.44
-8.7
0.0
-0.35
-7.76
-0.44
-0.39
0.0
-8.69
0.0
-8.72
0.0
0.0
0.0
0.0
0.0
0.0
-8.68
-8.71
-0.39
-0.48
0.0
0.0
0.0
0.0
-0.5
-8.72
-0.56
-0.34
-7.77
0.0
0.0
0.0
-0.43
0.0
-0.58
-0.44
0.0
-7.78
0.0
0.0
0.0
0.0
0.0
0.0
-7.75
-7.76
0.0
0.0
0.0
0.0
0.0
-7.75
0.0
0.0
0.0
0.0
0.0
0.0
0.0
0.0
0.0
0.0
0.0
0.0
0.0
0.0
0.0
0.0
0.0
0.0
0.0
0.0
0.0
0.0
0.0
0.0
0.0
0.0
0.0
0.0
0.0
0.0
0.0
0.0
0.0
0.0
0.0
0.0
0.0
0.0
0.0
-7.77
0.0
0.0
0.0
0.0
0.0
0.0
0.0
0.0
-0.51
0.0
-7.78
0.0
0.0
0.0
0.0
0.0
0.0
-0.37
0.0
0.0
0.0
-7.78
0.0
0.0
0.0
0.0
0.0
0.0
0.0
-0.45
-0.47
-0.42
0.0
0.0
0.0
-0.49
-8.7
0.0
-0.5
0.0
-0.49
0.0
0.0
0.0
0.0
-7.78
-0.39
0.0
0.0
0.0
-8.72
0.0
0.0
0.0
0.0
-0.45
0.0
0.0
0.0
-0.44
-7.78
0.0
0.0
0.0
0.0
0.0
-7.75
0.0
0.0
0.0
0.0
0.0
0.0
0.0
0.0
0.0
0.0
-0.38
-7.76
0.0
-0.4
0.0
0.0
0.0
0.0
0.0
0.0
-8.69
0.0
-7.76
0.0
0.0
0.0
0.0
0.0
0.0
0.0
0.0
0.0
0.0
0.0
0.0
0.0
0.0
0.0
0.0
0.0
0.0
0.0
0.0
0.0
0.0
0.0
0.0
0.0
0.0
0.0
0.0
0.0
0.0
0.0
0.0
0.0
0.0
0.0
0.0
0.0
0.0
0.0
0.0
0.0
0.0
0.0
0.0
0.0
0.0
0.0
0.0
0.0
0.0
0.0
0.0
0.0
0.0
0.0
0.0
0.0
0.0
0.0
0.0
0.0
0.0
0.0
-8.71
0.0
0.0
0.0
0.0
-0.45
0.0
0.0
0.0
-7.76
0.0
-0.41
-7.77
-0.5
0.0
0.0
0.0
0.0
0.0
0.0
-7.76
-7.78
-0.46
-0.41
-0.5
0.0
0.0
0.0
0.0
0.0
0.0
-7.77
-8.69
-7.78
0.0
0.0
0.0
0.0
0.0
0.0
0.0
-0.47
0.0
0.0
0.0
0.0
0.0
0.0
0.0
0.0
0.0
0.0
0.0
0.0
0.0
0.0
0.0
0.0
0.0
0.0
0.0
0.0
0.0
0.0
0.0
0.0
0.0
0.0
0.0
0.0
0.0
0.0
0.0
0.0
0.0
0.0
0.0
0.0
0.0
0.0
0.0
0.0
0.0
0.0
0.0
0.0
0.0
0.0
0.0
0.0
0.0
0.0
0.0
0.0
0.0
0.0
0.0
0.0
0.0
0.0
0.0
0.0
0.0
0.0
0.0
0.0
0.0
0.0
0.0
0.0
0.0
0.0
0.0
0.0
0.0
0.0
0.0
-7.78
-7.78
0.0
0.0
0.0
0.0
0.0
0.0
0.0
0.0
0.0
0.0
0.0
0.0
0.0
0.0
0.0
0.0
0.0
0.0
0.0
0.0
0.0
0.0
0.0
0.0
-7.8
0.0
0.0
0.0
0.0
0.0
0.0
-7.78
0.0
0.0
-7.78
0.0
0.0
0.0
0.0
0.0
0.0
-7.77
0.0
0.0
0.0
0.0
0.0
0.0
0.0
0.0
0.0
0.0
0.0
0.0
0.0
0.0
0.0
0.0
0.0
0.0
0.0
0.0
0.0
0.0
0.0
0.0
0.0
0.0
0.0
0.0
0.0
0.0
0.0
0.0
0.0
0.0
0.0
0.0
0.0
0.0
0.0
0.0
0.0
0.0
0.0
0.0
0.0
-7.76
0.0
0.0
0.0
0.0
0.0
-7.77
0.0
0.0
0.0
0.0
0.0
0.0
0.0
0.0
0.0
0.0
0.0
0.0
0.0
0.0
-4.2
0.0
0.0
0.0
0.0
0.0
0.0
0.0
0.0
0.0
0.0
0.0
0.0
0.0
