0.0
0.0
0.0
0.0
0.0
0.0
0.0
0.0
0.0
0.0
0.0
0.0
0.0
-6.21
0.0
0.0
0.0
0.0
0.0
0.0
0.0
0.0
0.0
0.0
0.0
0.0
0.0
0.0
0.0
0.0
0.0
0.0
0.0
0.0
0.0
0.0
0.0
0.0
0.0
0.0
0.0
0.0
0.0
0.0
0.0
0.0
0.0
0.0
0.0
0.0
0.0
0.0
0.0
0.0
0.0
0.0
0.0
0.0
0.0
0.0
0.0
0.0
0.0
0.0
0.0
0.0
0.0
0.0
0.0
0.0
0.0
0.0
0.0
0.0
0.0
0.0
0.0
0.0
0.0
0.0
-8.9199945883
0.0
0.0
0.0
0.0
0.0
0.0
0.0
-8.93999999975
0.0
0.0
0.0
0.0
-8.88999978162
0.0
0.0
-8.93999999983
0.0
0.0
0.0
0.0
0.0
-8.89999999988
0.0
-8.8783715864
0.0
0.0
0.0
0.0
0.0
0.0
0.0
-8.77
-8.8
0.0
0.0
0.0
0.0
0.0
0.0
-8.95999999991
-8.95886011048
-8.90999984713
0.0
0.0
0.0
0.0
0.0
0.0
0.0
-8.75
-8.93920207734
0.0
0.0
0.0
0.0
0.0
0.0
0.0
0.0
0.0
0.0
0.0
0.0
0.0
0.0
0.0
0.0
0.0
0.0
0.0
0.0
0.0
0.0
0.0
0.0
0.0
0.0
0.0
0.0
0.0
0.0
0.0
0.0
0.0
0.0
0.0
0.0
0.0
0.0
0.0
0.0
0.0
0.0
0.0
0.0
-8.71
0.0
-8.88999989299
0.0
0.0
0.0
0.0
0.0
0.0
0.0
-8.8699999251
0.0
-8.78
0.0
0.0
0.0
0.0
-8.93999999994
0.0
-8.94999994757
0.0
0.0
-8.69
0.0
0.0
0.0
0.0
0.0
-8.71
0.0
0.0
-8.77
0.0
0.0
0.0
0.0
0.0
0.0
0.0
0.0
-8.69
0.0
0.0
0.0
0.0
0.0
0.0
-8.76
-8.87999621181
-8.79
-8.73
-8.91944145414
0.0
0.0
0.0
0.0
0.0
-8.81
0.0
0.0
0.0
0.0
0.0
0.0
0.0
0.0
0.0
0.0
0.0
-8.9299999633
0.0
0.0
0.0
0.0
0.0
0.0
0.0
-8.93999999996
0.0
0.0
0.0
0.0
0.0
0.0
0.0
0.0
0.0
0.0
0.0
0.0
0.0
0.0
0.0
0.0
0.0
0.0
0.0
0.0
0.0
0.0
0.0
0.0
0.0
0.0
0.0
0.0
0.0
0.0
0.0
0.0
0.0
-6.18
0.0
0.0
0.0
0.0
0.0
0.0
0.0
-8.87995400135
0.0
-8.84999997431
-8.89999999997
0.0
0.0
0.0
0.0
0.0
-8.89996780094
0.0
-8.86980841877
-8.87999734827
0.0
-8.87999814379
0.0
0.0
0.0
0.0
0.0
-8.81
0.0
-8.8
-8.8796090179
-8.82
-8.86999226901
0.0
0.0
0.0
-8.79
-8.93999999998
-8.87999870065
-8.77
-8.8861587128
0.0
0.0
0.0
0.0
-8.86999998202
-8.78
-8.74
-8.86525243849
-8.79
0.0
0.0
0.0
0.0
0.0
0.0
-8.73
0.0
-8.79
-6.29
-8.73
0.0
0.0
0.0
0.0
0.0
0.0
0.0
-8.84999998741
-8.83999909046
-8.82
0.0
0.0
0.0
0.0
0.0
0.0
-6.21
-8.87999999999
-8.8
0.0
0.0
0.0
0.0
0.0
0.0
0.0
0.0
-8.68
-8.78
0.0
0.0
0.0
0.0
-8.75
0.0
0.0
0.0
0.0
0.0
0.0
0.0
0.0
0.0
0.0
0.0
0.0
0.0
0.0
0.0
0.0
0.0
0.0
0.0
0.0
0.0
0.0
0.0
0.0
0.0
0.0
0.0
0.0
0.0
0.0
0.0
0.0
0.0
0.0
0.0
0.0
0.0
0.0
0.0
0.0
0.0
0.0
0.0
-6.18
-8.74
-8.93999999999
0.0
0.0
0.0
0.0
0.0
0.0
-8.67
0.0
-8.83
-8.88999999119
0.0
0.0
0.0
0.0
0.0
-8.84
0.0
-8.76
-8.86999999383
0.0
0.0
0.0
0.0
0.0
0.0
0.0
-8.83999999999
0.0
-8.87999936332
-8.86667670694
-8.85999955432
-8.87999968803
0.0
-8.68
-8.86
-8.93972631253
0.0
0.0
-8.81
-8.90999999568
0.0
0.0
0.0
0.0
-8.66
0.0
-8.9
-8.76
0.0
-8.88999999698
0.0
0.0
0.0
-8.62
-8.83031109896
-8.88
0.0
-8.77
-8.8
0.0
0.0
0.0
0.0
-8.82
-8.86986589314
0.0
0.0
-8.67
0.0
0.0
0.0
-8.63
0.0
-8.89997746066
0.0
-8.78
0.0
0.0
0.0
0.0
0.0
-8.71
-8.87998422246
0.0
0.0
0.0
0.0
0.0
0.0
0.0
0.0
0.0
0.0
0.0
0.0
0.0
0.0
0.0
0.0
0.0
0.0
0.0
0.0
0.0
0.0
0.0
0.0
0.0
0.0
0.0
0.0
0.0
0.0
0.0
0.0
0.0
0.0
0.0
-8.71
0.0
-8.86999999788
-8.71
0.0
0.0
0.0
0.0
0.0
-8.76
-8.87
-8.78
0.0
0.0
0.0
0.0
0.0
0.0
0.0
0.0
-8.87
-8.75
-8.87
0.0
-8.74
-8.87
0.0
0.0
0.0
0.0
-8.76
-8.9
0.0
-7.98
0.0
-8.78
0.0
0.0
0.0
0.0
0.0
0.0
0.0
0.0
-8.75
0.0
0.0
0.0
0.0
0.0
-8.8499061252
0.0
-8.75
-8.8
-8.88999999896
0.0
-6.2
-8.67
-8.86
-8.69
-8.15
-8.8117524751
0.0
0.0
-8.7
0.0
0.0
0.0
-8.82993428764
-8.87998895572
-8.83
0.0
0.0
0.0
-8.73
0.0
0.0
-8.78
-8.83
0.0
0.0
0.0
0.0
0.0
-8.82767369486
0.0
0.0
0.0
0.0
0.0
0.0
0.0
0.0
0.0
-8.87
0.0
0.0
0.0
0.0
0.0
0.0
0.0
0.0
0.0
0.0
0.0
0.0
0.0
0.0
0.0
0.0
0.0
0.0
0.0
0.0
0.0
0.0
0.0
0.0
0.0
0.0
0.0
0.0
0.0
0.0
0.0
0.0
0.0
0.0
0.0
0.0
0.0
-8.75
0.0
0.0
0.0
0.0
0.0
0.0
0.0
0.0
-8.502351
0.0
0.0
0.0
0.0
0.0
-8.7
0.0
-8.84999999949
-8.73
-8.91321776927
0.0
-8.74
0.0
0.0
0.0
0.0
-8.69
-8.65
0.0
-8.88
-8.327
0.0
0.0
0.0
0.0
0.0
-8.61235199
-8.5976457
-8.77
-8.82
-8.76
-8.81
0.0
0.0
0.0
0.0
0.0
-8.77
-8.73
-8.68
-8.67
0.0
0.0
-8.73
-8.649646393
0.0
0.0
-8.78
0.0
-7.69
0.0
-8.74
0.0
0.0
-8.74
-8.88
-8.8
0.0
0.0
0.0
0.0
0.0
0.0
-8.76
-8.76
0.0
0.0
0.0
0.0
0.0
0.0
-8.76
-8.79
-8.85
-6.18
0.0
0.0
0.0
0.0
0.0
0.0
0.0
0.0
0.0
0.0
0.0
0.0
0.0
0.0
0.0
0.0
-8.69
0.0
0.0
0.0
0.0
0.0
0.0
0.0
0.0
0.0
0.0
0.0
0.0
0.0
0.0
0.0
0.0
0.0
0.0
0.0
0.0
0.0
0.0
0.0
0.0
0.0
0.0
0.0
0.0
0.0
0.0
-8.77
0.0
0.0
0.0
0.0
0.0
0.0
0.0
0.0
-8.79
0.0
-8.77
0.0
0.0
0.0
0.0
0.0
0.0
-8.68
0.0
-8.75
-8.8
-8.77
0.0
0.0
0.0
-8.71
-8.76
0.0
0.0
-8.77
-8.85
-8.4499
0.0
0.0
0.0
-8.68
0.0
-8.79
-8.76
-8.90022673257
-8.67
0.0
0.0
0.0
0.0
-8.65
0.0
-8.76
-8.73
-8.77
-8.48193
0.0
0.0
-8.76
-8.73
0.0
-8.82
-8.84
-8.74
0.0
-8.59
0.0
-8.83
-8.82
-8.83
-8.67
-8.74
0.0
0.0
0.0
0.0
0.0
-8.81
0.0
0.0
0.0
0.0
0.0
0.0
-8.7
-8.8
0.0
-8.71
-8.78
0.0
0.0
0.0
0.0
-8.7
0.0
-8.76
-8.72
0.0
0.0
0.0
0.0
0.0
0.0
0.0
0.0
0.0
0.0
0.0
0.0
0.0
0.0
0.0
0.0
0.0
0.0
0.0
0.0
0.0
0.0
0.0
0.0
0.0
0.0
0.0
0.0
0.0
0.0
0.0
0.0
0.0
0.0
0.0
0.0
0.0
0.0
0.0
-8.75
0.0
0.0
0.0
0.0
0.0
0.0
0.0
-8.73
-8.67
0.0
-8.82
0.0
0.0
0.0
0.0
0.0
0.0
0.0
-8.73
-8.79
0.0
-8.76
0.0
0.0
0.0
0.0
0.0
0.0
-8.65
-8.79
-8.76
-8.62
-8.61
0.0
0.0
0.0
0.0
-8.68
0.0
-8.81
-8.7
-8.73
0.0
0.0
-8.76
-8.66
-8.64
0.0
-8.72
0.0
-8.76
0.0
0.0
0.0
0.0
0.0
0.0
-8.7
-8.75
-8.57
-8.75
0.0
0.0
0.0
0.0
-8.76
-8.73
-8.79
-8.61
-8.76
0.0
0.0
0.0
-8.68
0.0
-8.81
-8.62
0.0
-8.73
0.0
0.0
0.0
0.0
0.0
0.0
-8.73
-8.74
0.0
0.0
0.0
0.0
0.0
-8.75
0.0
0.0
0.0
0.0
0.0
0.0
0.0
0.0
0.0
0.0
0.0
0.0
0.0
0.0
0.0
0.0
0.0
0.0
0.0
0.0
0.0
0.0
0.0
0.0
0.0
0.0
0.0
0.0
0.0
0.0
0.0
0.0
0.0
0.0
0.0
0.0
0.0
0.0
0.0
-8.75
0.0
0.0
0.0
0.0
0.0
0.0
0.0
0.0
-8.78
0.0
-8.82
0.0
0.0
0.0
0.0
0.0
0.0
-8.63
0.0
0.0
0.0
-8.77
0.0
0.0
0.0
0.0
0.0
0.0
0.0
-8.67
-8.76
-8.69
0.0
0.0
0.0
-8.75
-8.69
0.0
-8.77
0.0
-8.77
0.0
0.0
0.0
0.0
-8.78
-8.62
0.0
-8.58
0.0
-8.75
0.0
0.0
0.0
0.0
-8.71
0.0
0.0
0.0
-8.71
-8.76
0.0
0.0
0.0
0.0
0.0
-8.78
0.0
0.0
0.0
0.0
0.0
0.0
0.0
0.0
0.0
0.0
-8.7
-8.74
0.0
-8.67
0.0
0.0
0.0
0.0
0.0
0.0
-8.74
0.0
-8.77
0.0
0.0
0.0
0.0
0.0
0.0
0.0
0.0
0.0
0.0
0.0
0.0
0.0
0.0
0.0
0.0
0.0
0.0
0.0
0.0
0.0
0.0
0.0
0.0
0.0
0.0
0.0
0.0
0.0
0.0
0.0
0.0
0.0
0.0
0.0
0.0
0.0
0.0
0.0
0.0
0.0
0.0
0.0
0.0
0.0
0.0
0.0
0.0
0.0
0.0
0.0
0.0
0.0
0.0
0.0
0.0
0.0
0.0
0.0
0.0
0.0
0.0
0.0
-8.7
0.0
0.0
0.0
0.0
-8.75
0.0
0.0
0.0
-8.77
0.0
-8.69
-8.75
-8.78
0.0
0.0
0.0
0.0
0.0
0.0
-8.74
-8.8
-8.73
-8.65
-8.77
0.0
0.0
0.0
0.0
0.0
0.0
-8.76
-8.71
-8.79
0.0
0.0
0.0
0.0
0.0
0.0
0.0
-8.71
0.0
0.0
0.0
0.0
0.0
0.0
0.0
0.0
0.0
0.0
0.0
0.0
0.0
0.0
0.0
0.0
0.0
0.0
0.0
0.0
0.0
0.0
0.0
0.0
0.0
0.0
0.0
0.0
0.0
0.0
0.0
0.0
0.0
0.0
0.0
0.0
0.0
0.0
0.0
0.0
0.0
0.0
0.0
0.0
0.0
0.0
0.0
0.0
0.0
0.0
0.0
0.0
0.0
0.0
0.0
0.0
0.0
0.0
0.0
0.0
0.0
0.0
0.0
0.0
0.0
0.0
0.0
0.0
0.0
0.0
0.0
0.0
0.0
0.0
0.0
-8.76
-8.77
0.0
0.0
0.0
0.0
0.0
0.0
0.0
0.0
0.0
0.0
0.0
0.0
0.0
0.0
0.0
0.0
0.0
0.0
0.0
0.0
0.0
0.0
0.0
0.0
-8.79
0.0
0.0
0.0
0.0
0.0
0.0
-8.81
0.0
0.0
-8.76
0.0
0.0
0.0
0.0
0.0
0.0
-8.79
0.0
0.0
0.0
0.0
0.0
0.0
0.0
0.0
0.0
0.0
0.0
0.0
0.0
0.0
0.0
0.0
0.0
0.0
0.0
0.0
0.0
0.0
0.0
0.0
0.0
0.0
0.0
0.0
0.0
0.0
0.0
0.0
0.0
0.0
0.0
0.0
0.0
0.0
0.0
0.0
0.0
0.0
0.0
0.0
0.0
-8.79
0.0
0.0
0.0
0.0
0.0
-8.81
0.0
0.0
0.0
0.0
0.0
0.0
0.0
0.0
0.0
0.0
0.0
0.0
0.0
0.0
-8.79
0.0
0.0
0.0
0.0
0.0
0.0
0.0
0.0
0.0
0.0
0.0
0.0
0.0
