0.0
0.0
0.0
0.0
0.0
0.0
0.0
0.0
0.0
0.0
0.0
0.0
0.0
-2.09
0.0
0.0
0.0
0.0
0.0
0.0
0.0
0.0
0.0
0.0
0.0
0.0
0.0
0.0
0.0
0.0
0.0
0.0
0.0
-2.02
0.0
0.0
0.0
0.0
0.0
0.0
0.0
0.0
0.0
0.0
0.0
0.0
0.0
0.0
0.0
0.0
0.0
0.0
0.0
0.0
0.0
0.0
0.0
0.0
0.0
0.0
0.0
0.0
0.0
0.0
0.0
0.0
0.0
0.0
0.0
0.0
-2.06
0.0
0.0
0.0
0.0
0.0
-2.03
0.0
-2.03
-2.09
-9.08999998202
0.0
0.0
0.0
0.0
0.0
-1.97
0.0
-9.11944145414
0.0
0.0
-2.01
0.0
-9.08999998741
0.0
0.0
-9.0996090179
0.0
0.0
0.0
0.0
0.0
-9.08
0.0
-9.04321776927
0.0
0.0
0.0
0.0
0.0
0.0
0.0
-2.08
-6.53
0.0
0.0
0.0
0.0
0.0
0.0
-9.08999999119
-9.08999999383
-9.09972631253
0.0
0.0
0.0
0.0
0.0
0.0
-1.99
-2.03
-9.09980841877
0.0
0.0
0.0
0.0
0.0
0.0
0.0
0.0
0.0
0.0
0.0
0.0
0.0
0.0
0.0
0.0
0.0
0.0
0.0
0.0
0.0
0.0
0.0
0.0
0.0
0.0
0.0
0.0
0.0
0.0
0.0
0.0
0.0
0.0
0.0
-2.05
0.0
0.0
0.0
0.0
0.0
0.0
0.0
0.0
0.0
0.0
-9.09986589314
0.0
0.0
0.0
0.0
0.0
0.0
0.0
-9.04999999568
-2.06
-6.54
0.0
0.0
-2.02
-2.04
-9.08
0.0
-9.08999999698
0.0
0.0
-2.13
0.0
0.0
0.0
0.0
0.0
-2.12
0.0
-2.08
-2.06
0.0
0.0
0.0
0.0
0.0
0.0
0.0
0.0
-2.12
0.0
0.0
0.0
0.0
0.0
0.0
-2.04
-9.0999061252
-6.47
-2.03
-9.08525243849
0.0
0.0
0.0
-1.98
0.0
-6.57
-2.1
0.0
0.0
0.0
0.0
0.0
0.0
0.0
-2.0
0.0
0.0
-9.08999999788
0.0
0.0
0.0
0.0
0.0
0.0
0.0
-9.08
0.0
0.0
0.0
0.0
0.0
0.0
0.0
0.0
0.0
0.0
0.0
0.0
0.0
0.0
0.0
0.0
0.0
0.0
0.0
0.0
0.0
0.0
0.0
0.0
0.0
0.0
0.0
0.0
0.0
0.0
0.0
0.0
0.0
-2.08
0.0
0.0
0.0
0.0
0.0
0.0
0.0
-9.04
0.0
-9.08999999852
-9.08
0.0
0.0
0.0
0.0
-2.04
-9.08999999896
0.0
-9.05993428764
-9.09995400135
-1.94
-9.07996780094
0.0
0.0
0.0
0.0
0.0
-6.55
0.0
-2.13
-9.06667670694
-6.6
-9.06767369486
0.0
-2.05
0.0
-6.52
-9.08999999927
-9.04999999949
-2.07
-9.0317524751
-2.08
0.0
0.0
0.0
-9.08
-6.53
-2.11
-9.06022673257
-6.41
0.0
0.0
0.0
0.0
0.0
0.0
-2.13
0.0
-6.45
-2.08
-2.05
0.0
0.0
0.0
0.0
0.0
-1.96
-1.97
-9.07997746066
-9.04999999964
-6.63
0.0
0.0
0.0
0.0
0.0
0.0
-2.09
-9.08
-6.6
0.0
0.0
0.0
0.0
0.0
0.0
0.0
0.0
-2.08
-2.05
0.0
0.0
0.0
0.0
-2.03
0.0
0.0
0.0
0.0
0.0
0.0
0.0
0.0
0.0
0.0
0.0
0.0
0.0
0.0
0.0
0.0
0.0
0.0
0.0
0.0
0.0
0.0
0.0
0.0
0.0
0.0
0.0
0.0
0.0
0.0
0.0
0.0
0.0
0.0
0.0
0.0
0.0
0.0
0.0
0.0
0.0
0.0
0.0
-2.05
-2.05
-9.1
0.0
0.0
0.0
0.0
0.0
0.0
-2.08
0.0
-6.69
-9.08999999975
0.0
0.0
0.0
0.0
0.0
-9.06
0.0
-2.14
-9.09998422246
0.0
0.0
-2.06
0.0
0.0
0.0
-2.04
-9.04
-1.94
-9.09998895572
-9.0461587128
-9.05999226901
-9.0999945883
-2.01
-2.1
-9.07
-9.0883715864
-2.07
0.0
-6.53
-9.09999621181
0.0
0.0
0.0
-2.04
-2.09
0.0
-9.11
-2.07
0.0
-9.09999734827
0.0
0.0
0.0
-1.96
-9.03999814379
-9.08
-2.06
-2.12
-6.57
0.0
0.0
0.0
-2.02
-6.59
-9.05999870065
0.0
-1.91
-2.09
0.0
0.0
0.0
-2.11
0.0
-9.08999999983
0.0
-2.06
0.0
0.0
0.0
0.0
0.0
0.0
-9.08999999988
-2.06
0.0
0.0
0.0
0.0
0.0
0.0
0.0
-2.02
0.0
0.0
0.0
0.0
0.0
0.0
0.0
0.0
0.0
0.0
0.0
0.0
0.0
0.0
0.0
0.0
0.0
0.0
0.0
0.0
0.0
0.0
0.0
0.0
0.0
0.0
0.0
0.0
-9.08999999991
-1.93
0.0
0.0
0.0
0.0
0.0
-2.08
-9.07
-6.55
0.0
-2.05
0.0
0.0
0.0
0.0
0.0
0.0
-9.08
-2.12
-9.08
0.0
-2.09
-9.08999999994
0.0
0.0
0.0
0.0
-2.12
-9.08
0.0
-8.72193
-2.02
-2.07
0.0
0.0
0.0
0.0
0.0
-2.06
0.0
0.0
-1.98
0.0
0.0
0.0
0.0
-2.04
-9.03999909046
0.0
-2.09
-9.18999999996
-9.07999936332
0.0
-2.06
-2.09
-9.06
0.0
-8.37
-9.05031109896
0.0
0.0
0.0
0.0
0.0
0.0
-9.03999955432
-9.10886011048
-9.16999999997
0.0
0.0
0.0
-2.1
0.0
0.0
-6.5
-9.12999999998
0.0
0.0
0.0
0.0
0.0
-9.02999999999
-2.03
0.0
0.0
0.0
0.0
0.0
0.0
0.0
-2.08
-9.07
0.0
0.0
0.0
0.0
0.0
0.0
0.0
0.0
0.0
0.0
0.0
0.0
0.0
0.0
0.0
0.0
0.0
0.0
0.0
0.0
0.0
0.0
0.0
0.0
0.0
0.0
0.0
0.0
0.0
0.0
0.0
0.0
0.0
0.0
0.0
0.0
0.0
-2.04
0.0
0.0
0.0
0.0
0.0
0.0
0.0
0.0
-8.772351
0.0
0.0
0.0
0.0
0.0
-2.0
0.0
-9.06999999999
-2.03
-9.03999968803
-1.91
-9.13
0.0
0.0
0.0
0.0
-2.04
0.0
0.0
-9.18999999999
-8.577
0.0
0.0
0.0
0.0
0.0
-8.8276457
-8.85235199
-1.99
-9.15
-2.02
-6.58
0.0
0.0
0.0
0.0
0.0
-9.15
-9.11
-2.05
0.0
0.0
0.0
-2.08
-8.869646393
0.0
-1.98
-2.05
0.0
-7.91
0.0
-2.02
0.0
0.0
-9.15
-9.19
-9.2
0.0
0.0
0.0
0.0
-1.96
0.0
-9.14
-2.06
0.0
0.0
0.0
0.0
0.0
0.0
0.0
-9.16
-9.2
-2.08
0.0
0.0
0.0
0.0
0.0
0.0
0.0
0.0
0.0
0.0
0.0
0.0
0.0
0.0
0.0
0.0
-1.92
0.0
0.0
0.0
0.0
0.0
0.0
0.0
0.0
0.0
0.0
0.0
0.0
0.0
0.0
0.0
0.0
0.0
0.0
0.0
0.0
0.0
0.0
0.0
0.0
0.0
0.0
0.0
0.0
0.0
0.0
-6.54
0.0
0.0
0.0
0.0
0.0
0.0
0.0
0.0
-9.13
0.0
-2.05
0.0
0.0
0.0
0.0
0.0
0.0
0.0
0.0
-9.15
-9.19
-9.16
0.0
0.0
0.0
-9.16
-2.04
0.0
0.0
-2.12
-9.19
-8.6799
0.0
0.0
0.0
0.0
0.0
-6.56
-2.07
-9.04920207734
0.0
0.0
0.0
0.0
0.0
0.0
0.0
-9.13999978162
-9.19
-9.17
-8.21
0.0
0.0
-2.04
0.0
-2.01
-6.58
-9.17999984713
-9.15999989299
0.0
0.0
0.0
-6.58
-9.09
-9.1599999251
-1.94
-9.19
0.0
0.0
0.0
0.0
0.0
-9.2
0.0
0.0
0.0
0.0
0.0
0.0
0.0
-6.58
0.0
-9.12
-9.18
0.0
0.0
0.0
0.0
-1.97
0.0
-9.18
-9.17
0.0
0.0
0.0
0.0
0.0
0.0
0.0
0.0
0.0
0.0
0.0
0.0
0.0
0.0
0.0
0.0
0.0
0.0
0.0
0.0
0.0
0.0
0.0
0.0
0.0
0.0
0.0
0.0
0.0
0.0
0.0
0.0
0.0
0.0
0.0
0.0
0.0
0.0
0.0
-1.89
0.0
0.0
0.0
0.0
0.0
0.0
0.0
-9.13
0.0
0.0
-6.63
0.0
0.0
0.0
0.0
0.0
0.0
0.0
-9.11
-2.03
0.0
-9.19
0.0
0.0
0.0
0.0
0.0
0.0
0.0
-6.56
-2.06
0.0
0.0
0.0
0.0
0.0
0.0
0.0
0.0
-2.09
0.0
-9.17999994757
0.0
0.0
-9.18
0.0
0.0
0.0
-9.1399999633
0.0
-9.15999997431
0.0
0.0
0.0
0.0
0.0
0.0
-9.19
-9.14
0.0
-2.0
0.0
0.0
0.0
0.0
-6.46
-9.18
-6.59
0.0
-9.18
0.0
0.0
0.0
0.0
0.0
-6.6
0.0
0.0
-9.21
0.0
0.0
0.0
0.0
0.0
0.0
-9.18
-9.17
0.0
0.0
0.0
0.0
0.0
-9.19
0.0
0.0
0.0
0.0
0.0
0.0
0.0
0.0
0.0
0.0
0.0
0.0
0.0
0.0
0.0
0.0
0.0
0.0
0.0
0.0
0.0
0.0
0.0
0.0
0.0
0.0
0.0
0.0
0.0
0.0
0.0
0.0
0.0
0.0
0.0
0.0
0.0
0.0
0.0
-9.18
0.0
0.0
0.0
0.0
0.0
0.0
0.0
0.0
-2.04
0.0
-9.19
0.0
0.0
0.0
0.0
0.0
0.0
0.0
0.0
0.0
0.0
-9.2
0.0
0.0
0.0
0.0
0.0
0.0
0.0
0.0
-1.99
0.0
0.0
0.0
0.0
-2.04
-9.13
0.0
-2.05
0.0
0.0
0.0
0.0
0.0
0.0
-9.19
0.0
0.0
0.0
0.0
-9.19
0.0
0.0
0.0
0.0
-1.96
0.0
0.0
0.0
0.0
-9.19
0.0
0.0
0.0
0.0
0.0
-9.17
0.0
0.0
0.0
0.0
0.0
0.0
0.0
0.0
0.0
0.0
0.0
-9.19
0.0
0.0
0.0
0.0
0.0
0.0
0.0
0.0
-9.13
0.0
-9.17
0.0
0.0
0.0
0.0
0.0
0.0
0.0
0.0
0.0
0.0
0.0
0.0
0.0
0.0
0.0
0.0
0.0
0.0
0.0
0.0
0.0
0.0
0.0
0.0
0.0
0.0
0.0
0.0
0.0
0.0
0.0
0.0
0.0
0.0
0.0
0.0
0.0
0.0
0.0
0.0
0.0
0.0
0.0
0.0
0.0
0.0
0.0
0.0
0.0
0.0
0.0
0.0
0.0
0.0
0.0
0.0
0.0
0.0
0.0
0.0
0.0
0.0
0.0
-9.14
0.0
0.0
0.0
0.0
-1.99
0.0
0.0
0.0
-9.19
0.0
0.0
-9.21
-1.94
0.0
0.0
0.0
0.0
0.0
0.0
-9.17
-9.22
-1.99
-1.94
-2.06
0.0
0.0
0.0
0.0
0.0
0.0
-9.21
-9.19
-9.21
0.0
0.0
0.0
0.0
0.0
0.0
0.0
0.0
0.0
0.0
0.0
0.0
0.0
0.0
0.0
0.0
0.0
0.0
0.0
0.0
0.0
0.0
0.0
0.0
0.0
0.0
0.0
0.0
0.0
0.0
0.0
0.0
0.0
0.0
0.0
0.0
0.0
0.0
0.0
0.0
0.0
0.0
0.0
0.0
0.0
0.0
0.0
0.0
0.0
0.0
0.0
0.0
0.0
0.0
0.0
0.0
0.0
0.0
0.0
0.0
0.0
0.0
0.0
0.0
0.0
0.0
0.0
0.0
0.0
0.0
0.0
0.0
0.0
0.0
0.0
0.0
0.0
0.0
0.0
0.0
0.0
0.0
0.0
-9.2
-9.2
0.0
0.0
0.0
0.0
0.0
0.0
0.0
0.0
0.0
0.0
0.0
0.0
0.0
0.0
0.0
0.0
0.0
0.0
0.0
0.0
0.0
0.0
0.0
0.0
-9.21
0.0
0.0
0.0
0.0
0.0
0.0
-9.19
0.0
0.0
-9.19
0.0
0.0
0.0
0.0
0.0
0.0
-9.2
0.0
0.0
0.0
0.0
0.0
0.0
0.0
0.0
0.0
0.0
0.0
0.0
0.0
0.0
0.0
0.0
0.0
0.0
0.0
0.0
0.0
0.0
0.0
0.0
0.0
0.0
0.0
0.0
0.0
0.0
0.0
0.0
0.0
0.0
0.0
0.0
0.0
0.0
0.0
0.0
0.0
0.0
0.0
0.0
0.0
-9.19
0.0
0.0
0.0
0.0
0.0
-9.19
0.0
0.0
0.0
0.0
0.0
0.0
0.0
0.0
0.0
0.0
0.0
0.0
0.0
0.0
-2.16
0.0
0.0
0.0
0.0
0.0
0.0
0.0
0.0
0.0
0.0
0.0
0.0
0.0
