0.0
0.0
0.0
0.0
0.0
0.0
0.0
0.0
0.0
0.0
0.0
0.0
0.0
-0.22
0.0
0.0
0.0
0.0
0.0
0.0
0.0
0.0
0.0
0.0
0.0
0.0
0.0
0.0
0.0
0.0
0.0
0.0
0.0
-0.2
0.0
0.0
0.0
0.0
0.0
0.0
0.0
0.0
0.0
0.0
0.0
0.0
0.0
0.0
0.0
0.0
0.0
0.0
0.0
0.0
0.0
0.0
0.0
0.0
0.0
0.0
0.0
0.0
0.0
0.0
0.0
0.0
0.0
0.0
0.0
0.0
-0.14
0.0
0.0
0.0
0.0
0.0
-0.12
0.0
-0.14
-7.0
-9.12
0.0
0.0
0.0
0.0
0.0
0.0
0.0
-8.14
0.0
0.0
-0.05
0.0
-9.13
0.0
0.0
-9.14
0.0
0.0
0.0
0.0
0.0
-9.09
0.0
-9.1
0.0
0.0
0.0
0.0
0.0
0.0
0.0
-0.16
-7.09
0.0
0.0
0.0
0.0
0.0
0.0
-8.13
-9.1
-9.1
0.0
0.0
0.0
0.0
0.0
0.0
-0.14
0.0
-9.19
0.0
0.0
0.0
0.0
0.0
0.0
0.0
0.0
0.0
0.0
0.0
0.0
0.0
0.0
0.0
0.0
0.0
0.0
0.0
0.0
0.0
0.0
0.0
0.0
0.0
0.0
0.0
0.0
0.0
0.0
0.0
0.0
0.0
0.0
0.0
-0.17
0.0
0.0
0.0
0.0
0.0
0.0
0.0
0.0
0.0
0.0
-9.08
0.0
0.0
0.0
0.0
0.0
0.0
0.0
-9.18
-0.15
-7.03
0.0
0.0
-0.12
-0.17
-8.11
0.0
-8.11
0.0
0.0
-7.16
0.0
0.0
0.0
-0.05
0.0
-7.15
0.0
-0.21
-7.03
0.0
0.0
-0.08
0.0
0.0
0.0
0.0
0.0
-7.15
0.0
0.0
0.0
0.0
0.0
0.0
-0.06
-9.21
-7.06
-6.91
-9.23
0.0
0.0
0.0
-0.16
0.0
-7.04
-7.09
0.0
0.0
0.0
0.0
0.0
0.0
0.0
-0.16
0.0
0.0
-9.1
0.0
0.0
0.0
0.0
0.0
0.0
0.0
-8.1
0.0
0.0
0.0
0.0
0.0
0.0
0.0
0.0
0.0
0.0
0.0
0.0
0.0
0.0
0.0
0.0
0.0
0.0
0.0
0.0
0.0
0.0
0.0
0.0
0.0
0.0
0.0
0.0
0.0
0.0
0.0
0.0
0.0
-7.08
0.0
0.0
0.0
0.0
0.0
0.0
0.0
-9.19
0.0
-9.21
-8.09
0.0
0.0
0.0
0.0
-0.18
-9.21
0.0
-9.19
-9.22
0.0
-9.11
0.0
0.0
0.0
-0.11
0.0
-7.07
0.0
-7.16
-9.13
-7.11
-9.11
0.0
-0.16
0.0
0.0
-8.09
-9.18
-7.01
-9.17
-0.16
0.0
0.0
0.0
-9.22
-7.06
-7.15
-9.19
-7.04
0.0
0.0
0.0
0.0
0.0
0.0
-7.16
0.0
-6.98
-7.09
-7.01
0.0
0.0
0.0
0.0
0.0
0.0
0.0
-9.22
-9.19
-7.1
0.0
0.0
0.0
0.0
0.0
0.0
-7.08
-9.21
-7.04
0.0
0.0
0.0
0.0
0.0
0.0
0.0
-0.11
-7.08
-6.89
0.0
0.0
0.0
0.0
0.0
0.0
0.0
0.0
0.0
0.0
0.0
0.0
0.0
0.0
0.0
0.0
0.0
0.0
0.0
0.0
0.0
0.0
0.0
0.0
0.0
0.0
0.0
0.0
0.0
0.0
0.0
0.0
0.0
0.0
0.0
0.0
0.0
0.0
-0.11
0.0
0.0
0.0
0.0
0.0
0.0
0.0
0.0
0.0
-6.99
0.0
-8.15
0.0
0.0
0.0
0.0
-0.09
0.0
-7.06
0.0
-7.1
-8.12
0.0
0.0
0.0
0.0
0.0
-9.24
0.0
-7.17
-9.26
0.0
0.0
-0.18
0.0
0.0
0.0
-0.16
-9.21
0.0
-9.22
-9.18
-9.19
-9.14
-0.1
-7.12
-9.22
-9.22
-0.15
0.0
-7.04
-8.1
0.0
0.0
0.0
-0.15
-7.11
0.0
-7.13
-6.94
0.0
-9.25
0.0
0.0
0.0
0.0
-9.16
-9.1
-7.07
-7.14
-7.07
0.0
0.0
0.0
-0.13
-7.05
-9.2
0.0
0.0
-7.08
0.0
0.0
0.0
-7.14
0.0
-9.22
0.0
-0.12
0.0
0.0
0.0
0.0
0.0
0.0
-9.22
-7.1
0.0
0.0
0.0
0.0
0.0
0.0
0.0
-0.14
0.0
0.0
0.0
0.0
0.0
0.0
0.0
0.0
0.0
0.0
0.0
0.0
0.0
0.0
0.0
0.0
0.0
0.0
0.0
0.0
0.0
0.0
0.0
0.0
0.0
0.0
0.0
0.0
-9.22
0.0
0.0
0.0
0.0
0.0
0.0
-0.16
-9.22
-6.9
0.0
-0.19
0.0
0.0
0.0
0.0
0.0
0.0
-9.2
-7.14
-9.23
0.0
-7.12
-8.11
0.0
0.0
0.0
0.0
-7.15
-8.11
0.0
-8.80193
-0.12
0.0
0.0
0.0
0.0
0.0
-6.98
-0.18
0.0
0.0
-0.08
0.0
0.0
0.0
0.0
-0.12
-9.16
0.0
-7.09
-9.36999999964
-8.11
0.0
-0.18
-7.13
-9.19
-6.97
-8.45
-9.14
0.0
0.0
-6.91
0.0
0.0
0.0
-9.15
-9.24
-9.29
0.0
0.0
-0.08
-7.12
0.0
-0.09
-7.02
-9.27999999999
0.0
0.0
0.0
0.0
0.0
-9.19
-0.15
-0.11
0.0
0.0
0.0
0.0
0.0
0.0
-7.07
-8.1
0.0
0.0
0.0
0.0
0.0
0.0
0.0
0.0
0.0
0.0
0.0
0.0
0.0
0.0
0.0
0.0
0.0
0.0
0.0
0.0
0.0
0.0
0.0
0.0
0.0
0.0
0.0
0.0
0.0
0.0
0.0
0.0
0.0
0.0
0.0
0.0
0.0
-0.11
0.0
0.0
0.0
0.0
0.0
0.0
0.0
0.0
-8.802351
0.0
0.0
0.0
0.0
0.0
0.0
0.0
-9.19
-0.07
-9.21
0.0
-9.30999999975
0.0
0.0
0.0
0.0
0.0
-7.04
0.0
-9.32
-8.637
0.0
0.0
0.0
0.0
0.0
-8.9176457
-8.92235199
-6.97
-9.30999999983
0.0
-6.99
0.0
0.0
0.0
0.0
0.0
-9.28
-9.28998422246
-7.06
-6.92
0.0
0.0
-6.99
-8.939646393
0.0
-0.13
0.0
0.0
-7.99
0.0
-6.96
0.0
0.0
-9.31321776927
-9.28
-9.37999994757
0.0
0.0
0.0
0.0
-0.12
0.0
-9.38998895572
-6.95
0.0
0.0
0.0
0.0
0.0
0.0
-0.05
-9.38999999988
-9.32
-7.09
0.0
0.0
0.0
0.0
0.0
0.0
0.0
0.0
0.0
0.0
0.0
0.0
0.0
0.0
0.0
0.0
0.0
0.0
0.0
0.0
0.0
0.0
0.0
0.0
0.0
0.0
0.0
0.0
0.0
0.0
0.0
0.0
0.0
0.0
0.0
0.0
0.0
0.0
0.0
0.0
0.0
0.0
0.0
0.0
0.0
0.0
0.0
-6.9
0.0
0.0
0.0
0.0
0.0
0.0
0.0
0.0
-9.3599999633
0.0
-6.96
0.0
0.0
0.0
0.0
0.0
0.0
-7.02
0.0
-9.33525243849
-9.38999226901
-9.35999997431
0.0
0.0
0.0
-9.36999999991
-6.96
0.0
0.0
-7.16
-9.29
-8.7599
0.0
0.0
0.0
-6.99
-0.06
-7.04
-6.94
-9.18
-7.04
0.0
0.0
0.0
0.0
-7.01
-0.07
-9.2299945883
-9.33667670694
-9.36999621181
-8.25
0.0
0.0
-6.95
0.0
-0.11
-7.07
-9.29999998202
-9.35767369486
0.0
-6.98
0.0
-7.06
-9.25
-9.30999999994
0.0
-9.38999734827
0.0
0.0
0.0
0.0
-6.98
-9.3
0.0
0.0
0.0
0.0
0.0
0.0
-0.04
-7.01
0.0
-9.30999999996
-9.38999999997
0.0
0.0
0.0
0.0
-6.88
0.0
-9.36
-9.27999998741
0.0
0.0
0.0
0.0
0.0
0.0
0.0
0.0
0.0
0.0
0.0
0.0
0.0
0.0
0.0
0.0
0.0
0.0
0.0
0.0
0.0
0.0
0.0
0.0
0.0
0.0
0.0
0.0
0.0
0.0
0.0
0.0
0.0
0.0
0.0
0.0
0.0
0.0
0.0
0.0
0.0
0.0
0.0
0.0
0.0
-0.01
-0.08
-9.29999999119
-7.04
0.0
-7.02
0.0
0.0
0.0
0.0
-0.03
0.0
0.0
-9.24999814379
0.0
-0.03
-9.3983715864
0.0
0.0
0.0
0.0
0.0
0.0
-6.99
-7.02
-7.05
-7.01
-7.03
0.0
0.0
0.0
0.0
-6.99
0.0
-6.98
-7.01
-9.3217524751
0.0
-0.08
-9.36
-6.99
-6.99
0.0
-9.23022673257
0.0
-9.35886011048
0.0
0.0
0.0
-0.02
0.0
0.0
-9.31920207734
-9.36999870065
-7.01
-6.94
0.0
0.0
0.0
0.0
-6.97
-9.32999909046
-7.04
-6.95
-9.38999936332
-0.06
0.0
0.0
-7.0
0.0
-7.02
-7.02
0.0
-9.39944145414
0.0
0.0
0.0
0.0
0.0
0.0
-9.36999999998
-9.37999999383
-0.03
0.0
0.0
0.0
0.0
-9.36999999999
0.0
0.0
0.0
0.0
0.0
0.0
0.0
0.0
0.0
0.0
0.0
0.0
0.0
0.0
0.0
0.0
0.0
0.0
0.0
0.0
0.0
0.0
0.0
0.0
0.0
0.0
0.0
0.0
0.0
0.0
0.0
0.0
0.0
0.0
0.0
0.0
0.0
0.0
0.0
-9.39999999568
0.0
0.0
0.0
0.0
0.0
0.0
0.0
0.0
-6.89
-0.05
-9.41999999698
0.0
0.0
0.0
0.0
0.0
-0.06
-7.0
0.0
0.0
0.0
-9.4196090179
0.0
0.0
0.0
0.0
0.0
0.0
0.0
-7.02
0.0
-6.94
-0.07
0.0
0.0
-6.99
-9.28999955432
0.0
-0.06
0.0
-7.06
0.0
0.0
0.0
0.0
-9.37999999788
-7.01
0.0
-0.07
0.0
-9.39972631253
0.0
0.0
0.0
0.0
0.0
0.0
0.0
0.0
-6.89
-9.39980841877
0.0
0.0
0.0
-0.08
0.0
-9.4
0.0
-0.09
0.0
0.0
0.0
0.0
0.0
0.0
0.0
0.0
-0.04
-9.38999968803
0.0
-7.02
0.0
0.0
0.0
0.0
0.0
0.0
-9.29999999852
0.0
-9.37999999896
0.0
0.0
0.0
0.0
0.0
0.0
0.0
-0.05
0.0
0.0
0.0
0.0
0.0
0.0
0.0
0.0
0.0
0.0
0.0
0.0
0.0
0.0
0.0
0.0
0.0
0.0
0.0
0.0
0.0
0.0
0.0
0.0
0.0
0.0
0.0
0.0
0.0
0.0
0.0
0.0
0.0
0.0
0.0
0.0
0.0
0.0
0.0
0.0
0.0
0.0
0.0
0.0
0.0
0.0
0.0
0.0
-0.06
0.0
0.0
0.0
0.0
0.0
0.0
-9.29986589314
0.0
0.0
0.0
0.0
-0.05
0.0
0.0
0.0
-9.38999978162
0.0
-7.05
-9.3999061252
-6.9
0.0
0.0
0.0
0.0
0.0
0.0
-9.37999999927
-9.39993428764
0.0
0.0
0.0
0.0
0.0
0.0
0.0
-0.04
-6.93
-9.39995400135
-9.2961587128
-9.38999984713
-0.07
0.0
0.0
0.0
0.0
0.0
0.0
-7.03
0.0
0.0
0.0
0.0
0.0
0.0
0.0
-0.1
0.0
0.0
0.0
0.0
0.0
0.0
0.0
0.0
0.0
0.0
0.0
0.0
0.0
0.0
0.0
0.0
0.0
0.0
0.0
0.0
0.0
0.0
0.0
0.0
0.0
0.0
0.0
0.0
0.0
0.0
0.0
0.0
0.0
0.0
0.0
0.0
0.0
0.0
0.0
0.0
0.0
0.0
0.0
0.0
0.0
0.0
0.0
0.0
0.0
0.0
0.0
0.0
0.0
0.0
0.0
0.0
0.0
-0.06
0.0
0.0
0.0
0.0
0.0
0.0
0.0
0.0
0.0
-9.39996780094
-9.40999989299
0.0
0.0
0.0
0.0
0.0
0.0
0.0
0.0
0.0
0.0
0.0
0.0
0.0
0.0
0.0
0.0
0.0
0.0
0.0
0.0
0.0
0.0
0.0
0.0
-9.40031109896
0.0
0.0
0.0
0.0
0.0
0.0
-9.4099999251
0.0
-0.07
-9.37999999949
0.0
0.0
0.0
0.0
0.0
0.0
-9.41997746066
0.0
-0.06
0.0
0.0
0.0
0.0
0.0
0.0
-7.0
0.0
0.0
0.0
0.0
0.0
0.0
0.0
0.0
0.0
0.0
0.0
0.0
0.0
0.0
0.0
0.0
0.0
0.0
0.0
0.0
0.0
0.0
0.0
0.0
0.0
0.0
0.0
0.0
0.0
0.0
0.0
0.0
0.0
0.0
0.0
0.0
-9.40999999999
0.0
0.0
0.0
0.0
0.0
-9.37
0.0
0.0
0.0
0.0
0.0
0.0
0.0
0.0
0.0
0.0
0.0
0.0
0.0
0.0
-7.08
0.0
0.0
0.0
0.0
0.0
0.0
0.0
0.0
0.0
0.0
0.0
0.0
0.0
