0.0
0.0
0.0
0.0
0.0
0.0
0.0
0.0
0.0
0.0
-0.19
-0.26
-0.28
-0.36
0.0
-0.24
-0.25
0.0
0.0
0.0
-0.23
0.0
0.0
0.0
0.0
0.0
-0.34
0.0
0.0
0.0
0.0
0.0
0.0
-0.34
0.0
0.0
0.0
0.0
-0.21
0.0
0.0
0.0
0.0
0.0
0.0
0.0
0.0
0.0
0.0
0.0
0.0
0.0
0.0
0.0
0.0
0.0
0.0
0.0
0.0
0.0
0.0
-0.25
0.0
0.0
0.0
0.0
0.0
-0.22
0.0
0.0
-0.36
0.0
0.0
0.0
0.0
0.0
-0.32
-0.13
-0.33
-0.35
-9.35999999383
0.0
0.0
0.0
0.0
0.0
-0.27
0.0
-9.4099945883
0.0
0.0
-0.32
0.0
-9.33999999568
-0.25
0.0
-9.40999621181
0.0
0.0
0.0
0.0
-0.25
-9.32999999997
-0.2
-9.27667670694
0.0
0.0
0.0
0.0
0.0
0.0
0.0
-0.34
-0.38
-0.28
0.0
0.0
0.0
0.0
0.0
-9.37999999698
-9.34999734827
-9.36999814379
0.0
0.0
0.0
0.0
0.0
0.0
-0.32
-0.33
-9.34999870065
0.0
0.0
0.0
0.0
0.0
0.0
-0.26
0.0
0.0
0.0
0.0
0.0
0.0
0.0
0.0
0.0
0.0
0.0
0.0
0.0
0.0
0.0
0.0
0.0
0.0
0.0
0.0
0.0
0.0
0.0
0.0
0.0
0.0
0.0
0.0
-0.35
0.0
0.0
0.0
0.0
0.0
0.0
-0.32
-0.19
-0.31
-0.26
-9.34999909046
0.0
0.0
0.0
0.0
0.0
0.0
0.0
-9.30999936332
-0.34
-0.37
0.0
0.0
-0.31
-0.34
-9.32999999998
-0.3
-9.36999955432
0.0
-0.27
-0.4
0.0
0.0
0.0
-0.29
0.0
-0.38
0.0
-0.34
-0.34
0.0
0.0
-0.3
0.0
0.0
0.0
0.0
0.0
-0.4
0.0
0.0
0.0
-0.17
0.0
-0.26
-0.35
-9.34999968803
-0.33
-0.34
-9.35767369486
0.0
0.0
-0.23
-0.35
0.0
-0.39
-0.38
0.0
0.0
0.0
0.0
0.0
0.0
0.0
-0.34
0.0
-0.26
-9.35999999788
0.0
0.0
0.0
0.0
0.0
0.0
-0.26
-9.36999999999
0.0
0.0
0.0
0.0
0.0
0.0
0.0
0.0
0.0
0.0
0.0
0.0
0.0
0.0
0.0
0.0
0.0
0.0
0.0
0.0
0.0
0.0
0.0
0.0
-0.19
0.0
0.0
0.0
0.0
0.0
0.0
0.0
0.0
-0.36
0.0
0.0
0.0
0.0
0.0
0.0
0.0
-9.31999999852
0.0
-9.34999978162
-9.33999999896
0.0
0.0
0.0
0.0
-0.33
-9.34999984713
0.0
-9.32999989299
-9.3583715864
-0.31
-9.35886011048
0.0
0.0
0.0
-0.32
0.0
-0.37
-0.19
-0.42
-9.29920207734
-0.41
-9.35944145414
0.0
-0.34
0.0
-0.35
-9.35999999927
-9.3099999251
-0.35
-9.2761587128
-0.35
0.0
0.0
0.0
-9.35999999949
-0.36
-0.4
-9.36031109896
-0.37
0.0
0.0
0.0
0.0
0.0
0.0
-0.4
0.0
-0.36
-0.37
-0.36
0.0
0.0
0.0
0.0
0.0
-0.3
-0.31
-9.3596090179
-9.30999994757
-0.41
-0.26
0.0
0.0
0.0
0.0
0.0
-0.37
-9.34999999999
-0.37
0.0
0.0
0.0
0.0
0.0
0.0
-0.31
-0.32
-0.35
-0.35
0.0
0.0
0.0
0.0
-0.34
0.0
0.0
0.0
0.0
0.0
0.0
0.0
0.0
0.0
0.0
0.0
0.0
0.0
0.0
0.0
0.0
0.0
0.0
0.0
0.0
0.0
0.0
0.0
0.0
0.0
0.0
0.0
0.0
0.0
0.0
0.0
0.0
0.0
-0.31
0.0
0.0
0.0
0.0
0.0
0.0
0.0
0.0
0.0
-0.33
-0.35
-9.34999999999
0.0
0.0
0.0
0.0
-0.31
0.0
-0.34
0.0
-0.46
-9.33999999964
-0.1
0.0
0.0
0.0
0.0
-9.35
0.0
-0.42
-9.35972631253
-0.29
0.0
-0.38
0.0
0.0
-0.24
-0.33
-9.31999999975
-0.31
-9.35980841877
-9.30321776927
-9.31986589314
-9.3599061252
-0.29
-0.37
-9.32
-9.35993428764
-0.37
0.0
-0.38
-9.35995400135
0.0
0.0
0.0
-0.34
-0.37
-0.22
-9.32
-0.36
0.0
-9.37996780094
0.0
0.0
0.0
-0.33
-9.27997746066
-9.33999999983
-0.35
-0.38
-0.37
-0.22
0.0
0.0
-0.35
-0.38
-9.3099999633
0.0
-0.3
-0.37
0.0
0.0
0.0
-0.39
0.0
-9.34999997431
0.0
-0.35
0.0
0.0
0.0
0.0
0.0
-0.31
-9.32999998202
-0.35
-0.27
0.0
0.0
0.0
0.0
0.0
0.0
-0.35
0.0
0.0
0.0
0.0
0.0
0.0
0.0
0.0
0.0
0.0
0.0
0.0
0.0
0.0
0.0
0.0
0.0
0.0
0.0
0.0
0.0
0.0
0.0
0.0
0.0
0.0
-0.26
0.0
-9.33999999988
-0.31
0.0
0.0
0.0
0.0
0.0
-0.35
-9.33999999991
-0.37
-0.19
-0.36
-0.31
0.0
0.0
0.0
0.0
0.0
-9.33
-0.39
-9.33999999994
0.0
-0.38
-9.32
0.0
0.0
0.0
0.0
-0.39
-9.34
0.0
-8.9599
-0.32
-0.37
0.0
0.0
0.0
0.0
-0.32
-0.34
-0.16
0.0
-0.34
0.0
0.0
0.0
0.0
-0.34
-9.31998422246
0.0
-0.37
-9.38
-9.33
0.0
-0.33
-0.36
-9.31
-0.33
-8.49
-9.2517524751
0.0
0.0
-0.31
0.0
-0.26
0.0
-9.31998895572
-9.34525243849
-9.35
0.0
0.0
-0.29
-0.38
0.0
-0.3
-0.39
-9.31
0.0
0.0
0.0
0.0
-0.29
-9.28999998741
-0.34
-0.32
0.0
0.0
0.0
0.0
0.0
-0.27
-0.36
-9.35
0.0
0.0
0.0
0.0
0.0
0.0
0.0
0.0
0.0
0.0
0.0
0.0
0.0
0.0
0.0
0.0
0.0
0.0
0.0
0.0
0.0
0.0
0.0
0.0
0.0
0.0
0.0
0.0
0.0
0.0
0.0
0.0
0.0
0.0
0.0
0.0
0.0
-0.33
0.0
0.0
0.0
0.0
0.0
0.0
0.0
0.0
-9.072351
0.0
0.0
0.0
0.0
0.0
-0.31
0.0
-9.32999999119
-0.32
-9.29999226901
-0.3
-9.32
0.0
0.0
0.0
0.0
-0.33
-0.35
0.0
-9.35
-9.03193
0.0
0.0
0.0
0.0
-0.27
-9.1076457
-9.13235199
-0.35
-9.33
-0.33
-0.38
0.0
0.0
0.0
0.0
0.0
-9.34
-9.33
-0.37
-0.33
0.0
0.0
-0.35
-9.169646393
0.0
-0.31
-0.38
0.0
-8.2
0.0
-0.32
0.0
0.0
-9.35
-9.35
-0.58
0.0
0.0
0.0
0.0
-0.31
0.0
-9.37
-0.35
-0.25
0.0
0.0
0.0
0.0
0.0
-0.34
-9.36
-9.34
-0.38
0.0
0.0
0.0
0.0
0.0
0.0
-0.27
0.0
0.0
0.0
0.0
0.0
0.0
0.0
0.0
0.0
-0.31
0.0
0.0
0.0
0.0
0.0
0.0
0.0
0.0
0.0
0.0
0.0
0.0
0.0
0.0
0.0
0.0
0.0
0.0
0.0
0.0
0.0
0.0
0.0
0.0
0.0
0.0
0.0
-0.28
0.0
0.0
-0.34
0.0
0.0
0.0
0.0
0.0
0.0
-0.26
0.0
-9.34
0.0
-0.34
0.0
0.0
0.0
0.0
0.0
0.0
-0.34
0.0
-9.33
-9.38
-9.36
0.0
0.0
0.0
-9.34
-0.34
-0.15
0.0
-0.4
-9.33
-8.7
0.0
0.0
0.0
-0.33
-0.3
-0.35
-0.33
-9.30022673257
-0.38
0.0
0.0
0.0
0.0
-0.36
-0.31
-9.33
-9.36
-9.35
-8.887
0.0
0.0
-0.34
-0.31
-0.32
-0.4
-9.34
-9.35
0.0
-0.32
0.0
-0.38
-9.33999999996
-9.33
-0.33
-0.59
0.0
0.0
0.0
0.0
-0.33
-9.34
0.0
0.0
0.0
0.0
0.0
0.0
-0.31
-0.38
0.0
-9.32
-0.58
0.0
0.0
0.0
0.0
-0.33
0.0
-9.36
-9.32
0.0
0.0
0.0
0.0
0.0
0.0
0.0
0.0
0.0
0.0
0.0
0.0
0.0
0.0
0.0
0.0
0.0
0.0
0.0
0.0
0.0
0.0
0.0
0.0
0.0
0.0
0.0
0.0
0.0
-0.25
0.0
0.0
0.0
0.0
0.0
0.0
0.0
0.0
0.0
-0.32
0.0
0.0
0.0
0.0
0.0
-0.25
-0.32
-9.33
-0.37
-0.28
-0.39
0.0
0.0
0.0
0.0
-0.28
-0.14
0.0
-9.33
-0.35
-0.31
-9.37
0.0
0.0
0.0
0.0
0.0
-0.28
-0.35
-0.39
-0.36
-0.35
-0.36
0.0
0.0
0.0
0.0
-0.35
0.0
-0.36
-0.35
-9.36
-0.29
-0.32
-0.57
-0.37
-0.33
0.0
-9.33
-0.24
-9.37
0.0
0.0
0.0
-0.27
0.0
0.0
-9.35
-9.34
-0.35
-0.33
0.0
0.0
0.0
0.0
-0.35
-9.38
-0.39
-0.31
-9.3
-0.29
0.0
0.0
-0.35
0.0
-0.38
-0.34
0.0
-9.39
0.0
0.0
0.0
0.0
-0.27
0.0
-0.57
-9.27
-0.28
0.0
0.0
0.0
0.0
-9.34
0.0
0.0
0.0
0.0
0.0
0.0
0.0
0.0
0.0
0.0
0.0
0.0
0.0
0.0
0.0
0.0
0.0
0.0
0.0
0.0
0.0
0.0
0.0
0.0
0.0
0.0
0.0
0.0
0.0
0.0
0.0
0.0
0.0
0.0
0.0
0.0
0.0
0.0
-0.27
-0.59
0.0
0.0
0.0
0.0
0.0
0.0
0.0
0.0
-0.33
-0.3
-0.6
0.0
0.0
0.0
0.0
0.0
-0.3
-0.35
-0.19
0.0
0.0
-9.37
-0.18
0.0
0.0
0.0
0.0
0.0
0.0
-0.36
-0.35
-0.35
-0.32
-0.28
0.0
-0.34
-9.34
0.0
-0.33
-0.27
-0.39
-0.3
0.0
0.0
0.0
-0.59
-0.35
0.0
-0.31
0.0
-9.36
0.0
0.0
0.0
-0.27
-0.3
-0.3
0.0
0.0
-0.31
-9.28
0.0
0.0
0.0
-0.31
0.0
-0.59
0.0
-0.3
-0.27
0.0
-0.3
0.0
0.0
0.0
0.0
-0.27
-0.32
-9.27
0.0
-0.36
-0.29
0.0
0.0
0.0
0.0
-0.28
-9.36
-0.28
-9.26
0.0
0.0
0.0
0.0
0.0
0.0
0.0
-0.29
0.0
0.0
0.0
0.0
0.0
0.0
0.0
0.0
0.0
0.0
0.0
0.0
0.0
0.0
0.0
0.0
0.0
0.0
0.0
0.0
0.0
0.0
0.0
0.0
0.0
0.0
0.0
0.0
0.0
0.0
0.0
0.0
0.0
0.0
0.0
0.0
-0.14
-0.28
-0.26
0.0
0.0
0.0
0.0
0.0
0.0
-0.15
0.0
0.0
-0.33
0.0
0.0
0.0
0.0
0.0
-0.3
-9.34
0.0
0.0
0.0
-0.27
-0.31
0.0
-0.15
0.0
-9.35
0.0
-0.37
-9.28
-0.37
-0.27
0.0
0.0
0.0
0.0
0.0
-9.26
-0.61
-0.33
-0.33
-0.36
0.0
0.0
0.0
0.0
-0.29
-0.32
-9.37
-9.34
-0.61
-0.35
0.0
0.0
0.0
0.0
0.0
0.0
-0.38
-0.29
0.0
0.0
0.0
0.0
0.0
0.0
-0.32
0.0
0.0
0.0
0.0
0.0
0.0
0.0
0.0
-0.27
0.0
-0.21
0.0
0.0
0.0
0.0
0.0
0.0
0.0
0.0
0.0
0.0
0.0
0.0
0.0
0.0
0.0
0.0
0.0
0.0
0.0
0.0
0.0
0.0
0.0
0.0
0.0
0.0
0.0
0.0
0.0
0.0
0.0
-0.28
0.0
0.0
0.0
0.0
0.0
0.0
0.0
0.0
0.0
0.0
0.0
0.0
0.0
0.0
-0.3
0.0
-0.27
-0.25
0.0
0.0
0.0
-0.28
0.0
-0.21
-9.26
-0.6
0.0
0.0
0.0
0.0
-0.18
0.0
-0.2
-0.2
0.0
0.0
-0.18
-0.16
-0.26
0.0
0.0
-0.31
0.0
0.0
0.0
0.0
-0.26
-0.28
-0.13
0.0
-9.32
-0.3
0.0
0.0
0.0
0.0
0.0
-0.62
-0.26
-0.3
-0.6
0.0
0.0
0.0
0.0
-0.27
0.0
-0.62
0.0
-0.3
0.0
0.0
0.0
0.0
0.0
0.0
-0.35
0.0
0.0
0.0
0.0
0.0
0.0
0.0
0.0
0.0
0.0
0.0
0.0
0.0
0.0
0.0
0.0
0.0
0.0
0.0
0.0
0.0
0.0
0.0
0.0
0.0
0.0
0.0
0.0
0.0
0.0
0.0
0.0
0.0
-0.22
-0.23
-0.22
-0.61
0.0
0.0
0.0
0.0
0.0
-0.61
0.0
0.0
0.0
0.0
-0.28
0.0
0.0
0.0
0.0
0.0
0.0
0.0
-0.21
0.0
-0.59
0.0
0.0
0.0
0.0
0.0
0.0
0.0
0.0
0.0
-0.21
0.0
0.0
0.0
