0.0
0.0
0.0
0.0
0.0
0.0
0.0
0.0
0.0
0.0
0.0
0.0
0.0
0.0
0.0
0.0
0.0
0.0
0.0
0.0
0.0
0.0
0.0
0.0
0.0
0.0
0.0
0.0
0.0
0.0
0.0
0.0
0.0
0.0
0.0
0.0
0.0
0.0
0.0
0.0
0.0
0.0
0.0
0.0
0.0
0.0
0.0
0.0
0.0
0.0
0.0
0.0
0.0
0.0
0.0
0.0
0.0
0.0
0.0
0.0
0.0
0.0
0.0
0.0
0.0
0.0
0.0
0.0
0.0
0.0
0.0
0.0
0.0
0.0
0.0
0.0
0.0
0.0
0.0
-1.1
-8.46
0.0
0.0
0.0
0.0
0.0
0.0
0.0
-8.47
0.0
0.0
0.0
0.0
-8.46
0.0
0.0
-8.48
0.0
0.0
0.0
0.0
0.0
-8.45
0.0
-8.36
0.0
0.0
0.0
0.0
0.0
0.0
0.0
-4.58
-4.66
0.0
0.0
0.0
0.0
0.0
0.0
-8.46
-8.47
-8.47
0.0
0.0
0.0
0.0
0.0
0.0
0.0
-4.59
-8.47
0.0
0.0
0.0
0.0
0.0
0.0
0.0
0.0
0.0
0.0
0.0
0.0
0.0
0.0
0.0
0.0
0.0
0.0
0.0
0.0
0.0
0.0
0.0
0.0
0.0
0.0
0.0
0.0
0.0
0.0
0.0
0.0
0.0
0.0
0.0
0.0
0.0
0.0
0.0
0.0
0.0
0.0
0.0
0.0
-4.56
0.0
-8.48
0.0
0.0
0.0
0.0
0.0
0.0
0.0
-8.41
0.0
-4.63
0.0
0.0
0.0
-1.07
-8.45
-4.53
-8.47
0.0
0.0
-1.14
0.0
0.0
0.0
0.0
0.0
-4.61
0.0
0.0
-4.59
0.0
0.0
0.0
0.0
0.0
0.0
0.0
0.0
-4.62
0.0
0.0
0.0
0.0
0.0
0.0
-4.6
-8.45
-4.62
-4.64
-8.44
0.0
0.0
0.0
0.0
0.0
-4.64
-1.12
0.0
0.0
0.0
0.0
0.0
0.0
0.0
0.0
0.0
0.0
-8.46
0.0
0.0
0.0
0.0
0.0
0.0
0.0
-8.45
0.0
0.0
0.0
0.0
0.0
0.0
0.0
0.0
0.0
0.0
0.0
0.0
0.0
0.0
0.0
0.0
0.0
0.0
0.0
0.0
0.0
0.0
0.0
0.0
0.0
0.0
0.0
0.0
0.0
0.0
0.0
0.0
0.0
0.0
0.0
0.0
0.0
0.0
0.0
0.0
0.0
-8.38
0.0
-8.46
-8.47
0.0
0.0
0.0
0.0
-1.08
-8.43
0.0
-8.4
-8.48
-4.54
-8.46
0.0
0.0
0.0
0.0
0.0
-4.64
0.0
-4.62
-8.41
-4.68
-8.47
0.0
-1.09
0.0
-4.61
-8.46
-8.41
-4.6
-8.36
0.0
0.0
0.0
0.0
-8.45
-4.61
-4.6
-8.4
-4.64
0.0
0.0
0.0
0.0
0.0
0.0
-4.64
0.0
-4.63
-1.14
-4.63
0.0
0.0
0.0
0.0
0.0
-4.55
-4.57
-8.43
-8.42
-4.7
0.0
0.0
0.0
0.0
0.0
0.0
-1.14
-8.45
-4.65
0.0
0.0
0.0
0.0
0.0
0.0
0.0
0.0
-4.59
-4.62
0.0
0.0
0.0
0.0
-4.57
0.0
0.0
0.0
0.0
0.0
0.0
0.0
0.0
0.0
0.0
0.0
0.0
0.0
0.0
0.0
0.0
0.0
0.0
0.0
0.0
0.0
0.0
0.0
0.0
0.0
0.0
0.0
0.0
0.0
0.0
0.0
0.0
0.0
0.0
0.0
0.0
0.0
0.0
0.0
0.0
0.0
0.0
0.0
-1.09
-4.59
-8.46
0.0
0.0
0.0
0.0
0.0
0.0
-4.55
0.0
-8.38
-8.47
0.0
0.0
0.0
0.0
0.0
-8.43
0.0
-4.63
-8.46
0.0
0.0
-1.11
0.0
0.0
0.0
-1.09
-8.41
-4.56
-8.47
-8.36
-8.41
-8.46
0.0
-4.57
-8.43
-8.45
0.0
0.0
-4.65
-8.49
0.0
0.0
0.0
-1.07
-4.58
0.0
-4.72
-4.62
0.0
-8.49
0.0
0.0
0.0
-4.56
-8.89
-8.45
-1.09
-4.63
-4.65
0.0
0.0
0.0
0.0
-4.65
-8.38
0.0
-4.56
-1.12
0.0
0.0
0.0
-4.53
0.0
-8.48
0.0
-4.6
0.0
0.0
0.0
0.0
0.0
-4.59
-8.39
-1.07
0.0
0.0
0.0
0.0
0.0
0.0
0.0
0.0
0.0
0.0
0.0
0.0
0.0
0.0
0.0
0.0
0.0
0.0
0.0
0.0
0.0
0.0
0.0
0.0
0.0
0.0
0.0
0.0
0.0
0.0
0.0
0.0
0.0
0.0
-4.56
0.0
-8.45
-4.56
0.0
0.0
0.0
0.0
0.0
-4.61
-8.44
-4.65
0.0
-1.1
-4.57
0.0
0.0
0.0
0.0
0.0
-8.44
-4.59
-8.45
0.0
-4.61
-8.43
0.0
0.0
0.0
0.0
-4.62
-8.44
0.0
-8.42
0.0
-4.6
0.0
0.0
0.0
0.0
-4.51
0.0
0.0
0.0
-4.62
0.0
0.0
0.0
0.0
0.0
-8.35
0.0
-4.56
-8.99
-8.43
0.0
-1.08
-4.59
-8.44
-4.57
-8.527
-8.86999999896
0.0
0.0
-4.55
0.0
0.0
0.0
-8.37
-8.42
-9.0761587128
0.0
0.0
0.0
-4.58
0.0
0.0
-4.66
-9.06031109896
0.0
0.0
0.0
0.0
-4.54
-8.89
0.0
0.0
0.0
0.0
0.0
0.0
0.0
-4.53
-1.1
-8.43
0.0
0.0
0.0
0.0
0.0
0.0
0.0
0.0
0.0
0.0
0.0
0.0
0.0
0.0
0.0
0.0
0.0
0.0
0.0
0.0
0.0
0.0
0.0
0.0
0.0
0.0
0.0
0.0
0.0
0.0
0.0
0.0
0.0
0.0
0.0
0.0
0.0
-4.58
0.0
0.0
0.0
0.0
0.0
0.0
0.0
0.0
-8.782351
0.0
0.0
0.0
0.0
0.0
-4.57
0.0
-8.42
-4.57
-8.37
-4.56
-8.96
0.0
0.0
0.0
0.0
-4.6
-4.62
0.0
-9.10321776927
-8.6899
0.0
0.0
0.0
0.0
-4.53
-8.8776457
-8.86235199
-4.6
-9.05886011048
-4.62
-4.66
0.0
0.0
0.0
0.0
0.0
-8.9996090179
-8.96999955432
-4.55
-4.58
0.0
0.0
-4.61
-8.899646393
0.0
0.0
-4.63
0.0
-7.94
0.0
-4.58
0.0
0.0
-8.98999968803
-9.10525243849
-8.99
0.0
0.0
0.0
0.0
0.0
0.0
-9.00999978162
-4.59
0.0
0.0
0.0
0.0
0.0
0.0
-4.6
-8.98
-9.10667670694
-1.14
0.0
0.0
0.0
0.0
0.0
0.0
0.0
0.0
0.0
0.0
0.0
0.0
0.0
0.0
0.0
0.0
-4.57
0.0
0.0
0.0
0.0
0.0
0.0
0.0
0.0
0.0
0.0
0.0
0.0
0.0
0.0
0.0
0.0
0.0
0.0
0.0
0.0
0.0
0.0
0.0
0.0
0.0
0.0
0.0
-4.53
0.0
0.0
-4.61
0.0
0.0
0.0
0.0
0.0
0.0
0.0
0.0
-8.98
0.0
-4.62
0.0
0.0
0.0
0.0
0.0
0.0
-4.58
0.0
-8.95999999988
-8.97999999991
-8.99
0.0
0.0
0.0
-8.98999999927
-4.61
0.0
0.0
-4.68
-9.10767369486
-8.80193
0.0
0.0
0.0
-4.57
-1.02
-4.62
-4.61
-8.37
-4.62
0.0
0.0
0.0
0.0
-4.58
-1.03
-9.0017524751
-8.97999734827
-8.99999999994
-8.2
0.0
0.0
-4.62
-4.59
0.0
-4.67
-9.08022673257
-8.95999999996
0.0
-4.52
0.0
-4.65
-8.38
-9.0483715864
-4.59
-8.97999999997
0.0
0.0
0.0
0.0
-4.55
-9.05980841877
0.0
0.0
0.0
0.0
0.0
0.0
-4.58
-4.66
0.0
-8.95
-9.01
0.0
0.0
0.0
0.0
-4.58
0.0
-8.96
-9.01999814379
0.0
0.0
0.0
0.0
0.0
0.0
0.0
0.0
0.0
0.0
0.0
0.0
0.0
0.0
0.0
0.0
0.0
0.0
0.0
0.0
0.0
0.0
0.0
0.0
0.0
0.0
0.0
0.0
0.0
0.0
0.0
0.0
0.0
0.0
0.0
0.0
0.0
0.0
0.0
-4.58
0.0
0.0
0.0
0.0
0.0
0.0
-1.03
-8.97999994757
-4.58
0.0
-4.67
0.0
0.0
0.0
0.0
0.0
0.0
0.0
-8.95999870065
-4.63
-1.02
-8.98999999949
0.0
0.0
0.0
0.0
0.0
0.0
-4.54
-4.67
-4.6
-4.57
-4.61
0.0
0.0
0.0
0.0
-4.6
0.0
-4.64
-4.59
-8.99998895572
-4.57
-4.52
-8.93
-4.64
-4.58
0.0
-8.98999226901
-4.47
-8.9999999633
0.0
0.0
0.0
0.0
0.0
0.0
-8.9899945883
-8.98999999964
-4.55
-4.6
0.0
0.0
0.0
0.0
-4.62
-9.00999984713
-4.65
-4.53
-9.01999909046
0.0
0.0
0.0
-4.6
0.0
-4.67
-4.58
0.0
-9.01999936332
0.0
0.0
0.0
0.0
0.0
0.0
-8.98
-8.97
0.0
0.0
0.0
0.0
0.0
-8.98999999975
0.0
0.0
0.0
0.0
0.0
0.0
0.0
0.0
0.0
0.0
0.0
0.0
0.0
0.0
0.0
0.0
0.0
0.0
0.0
0.0
0.0
0.0
0.0
0.0
0.0
0.0
0.0
0.0
0.0
0.0
0.0
0.0
0.0
0.0
0.0
0.0
0.0
0.0
0.0
-9.01
0.0
0.0
0.0
0.0
0.0
0.0
0.0
0.0
-4.59
0.0
-8.45
0.0
0.0
0.0
0.0
0.0
0.0
-4.57
0.0
0.0
0.0
-9.01999997431
0.0
0.0
0.0
0.0
0.0
0.0
0.0
-4.6
-4.62
-4.56
0.0
0.0
0.0
-4.59
-8.93999998202
0.0
-4.59
0.0
-4.62
-4.58
0.0
0.0
0.0
-8.97
-4.58
0.0
0.0
0.0
-9.00999989299
0.0
0.0
0.0
-4.56
-4.6
-4.54
0.0
0.0
-4.57
-8.99999998741
0.0
0.0
0.0
-1.01
0.0
-8.97
0.0
0.0
0.0
0.0
-4.56
0.0
0.0
0.0
0.0
-4.53
-4.59
-8.98999999983
0.0
-4.59
0.0
0.0
0.0
0.0
0.0
0.0
-8.99999999119
-4.52
-8.99999999998
0.0
0.0
0.0
0.0
0.0
0.0
0.0
0.0
0.0
0.0
0.0
0.0
0.0
0.0
0.0
0.0
0.0
0.0
0.0
0.0
0.0
0.0
0.0
0.0
0.0
0.0
0.0
0.0
0.0
0.0
0.0
0.0
0.0
0.0
0.0
0.0
0.0
0.0
0.0
0.0
0.0
0.0
0.0
0.0
0.0
0.0
0.0
0.0
0.0
0.0
0.0
0.0
0.0
0.0
0.0
0.0
-1.03
0.0
0.0
0.0
0.0
0.0
0.0
-8.97999999383
0.0
0.0
0.0
0.0
-4.6
0.0
0.0
0.0
-8.99999999999
0.0
-4.54
-8.99999999568
-4.62
-4.55
0.0
0.0
0.0
0.0
0.0
-8.99999999698
-9.03999999788
-4.59
-4.62
-4.6
0.0
0.0
0.0
0.0
0.0
-1.05
-8.94
-8.98999621181
-9.03999999852
0.0
0.0
0.0
0.0
0.0
0.0
0.0
-4.64
0.0
0.0
0.0
0.0
0.0
0.0
0.0
0.0
0.0
0.0
0.0
0.0
0.0
0.0
0.0
0.0
0.0
0.0
0.0
0.0
0.0
0.0
0.0
0.0
0.0
0.0
0.0
0.0
0.0
0.0
0.0
0.0
0.0
0.0
0.0
0.0
0.0
0.0
0.0
0.0
0.0
0.0
0.0
0.0
0.0
0.0
0.0
0.0
0.0
0.0
0.0
0.0
0.0
0.0
0.0
0.0
0.0
0.0
0.0
0.0
0.0
0.0
0.0
0.0
0.0
0.0
0.0
-4.53
-4.53
0.0
0.0
0.0
0.0
0.0
0.0
-8.96
-8.98
0.0
0.0
0.0
0.0
0.0
0.0
0.0
0.0
0.0
0.0
0.0
0.0
0.0
0.0
0.0
-4.58
0.0
0.0
0.0
0.0
0.0
0.0
0.0
0.0
-9.0299999251
0.0
0.0
0.0
0.0
0.0
0.0
-9.01999999999
0.0
0.0
-8.96
0.0
0.0
0.0
0.0
0.0
0.0
-9.01999999999
0.0
0.0
0.0
0.0
0.0
0.0
0.0
0.0
-4.52
0.0
0.0
0.0
0.0
0.0
0.0
0.0
0.0
0.0
0.0
0.0
0.0
0.0
0.0
0.0
0.0
0.0
0.0
0.0
0.0
0.0
0.0
0.0
0.0
0.0
0.0
0.0
0.0
0.0
0.0
0.0
0.0
0.0
0.0
0.0
0.0
-8.97
0.0
0.0
0.0
0.0
0.0
-8.45
0.0
0.0
0.0
0.0
0.0
0.0
0.0
0.0
0.0
0.0
0.0
0.0
0.0
0.0
-6.34
0.0
0.0
0.0
0.0
0.0
0.0
0.0
0.0
0.0
0.0
0.0
0.0
0.0
