0.0
0.0
0.0
0.0
0.0
0.0
0.0
0.0
0.0
0.0
0.0
0.0
0.0
-4.73
0.0
0.0
0.0
0.0
0.0
0.0
0.0
0.0
0.0
0.0
0.0
0.0
0.0
0.0
0.0
0.0
0.0
0.0
0.0
-4.76
0.0
0.0
0.0
0.0
0.0
0.0
0.0
0.0
0.0
0.0
0.0
0.0
0.0
0.0
0.0
0.0
0.0
0.0
0.0
0.0
0.0
0.0
0.0
0.0
0.0
0.0
0.0
0.0
0.0
0.0
0.0
0.0
0.0
0.0
0.0
0.0
0.0
0.0
0.0
0.0
0.0
0.0
0.0
0.0
0.0
-4.8
-8.32
0.0
0.0
0.0
0.0
0.0
0.0
0.0
-8.39
0.0
0.0
0.0
0.0
-8.32
0.0
0.0
-5.8
0.0
0.0
0.0
0.0
0.0
-8.29
0.0
-8.32999999999
0.0
0.0
0.0
0.0
0.0
0.0
0.0
-4.83
-4.84
0.0
0.0
0.0
0.0
0.0
0.0
-5.81
-8.34
-8.34
0.0
0.0
0.0
0.0
0.0
0.0
0.0
-4.79
-8.34
0.0
0.0
0.0
0.0
0.0
0.0
0.0
0.0
0.0
0.0
0.0
0.0
0.0
0.0
0.0
0.0
0.0
0.0
0.0
0.0
0.0
0.0
0.0
0.0
0.0
0.0
0.0
0.0
0.0
0.0
0.0
0.0
0.0
0.0
0.0
-4.74
0.0
0.0
0.0
0.0
0.0
0.0
0.0
0.0
-4.75
0.0
-8.33
0.0
0.0
0.0
0.0
0.0
0.0
0.0
-8.32
0.0
-4.82
0.0
0.0
-4.7
-4.77
-8.33
-4.74
-8.35
0.0
0.0
-4.85
0.0
0.0
0.0
-4.61
0.0
-4.83
0.0
-4.77
-4.83
0.0
0.0
0.0
0.0
0.0
0.0
0.0
0.0
-4.83
0.0
0.0
0.0
0.0
0.0
0.0
-4.8
-8.34
-4.83
-4.82
-8.35
0.0
0.0
0.0
-4.66
0.0
-4.82
-4.81
0.0
0.0
0.0
0.0
0.0
0.0
0.0
-4.7
0.0
0.0
-8.33
0.0
0.0
0.0
0.0
0.0
0.0
0.0
-8.34
0.0
0.0
0.0
0.0
0.0
0.0
0.0
0.0
0.0
0.0
0.0
0.0
0.0
0.0
0.0
0.0
0.0
0.0
0.0
0.0
0.0
0.0
0.0
0.0
0.0
0.0
0.0
0.0
0.0
0.0
0.0
0.0
0.0
-4.79
0.0
0.0
0.0
0.0
0.0
0.0
0.0
-8.3
0.0
-8.33
-8.33
0.0
0.0
0.0
0.0
-4.78
-8.32
0.0
-8.31
-8.33
-4.73
-8.34
0.0
0.0
0.0
-4.57
0.0
-4.81
0.0
-4.92
-8.33
-4.86
-8.34
0.0
-4.79
0.0
-4.8
-5.77
-8.32
-4.81
-8.34999968803
-4.71
0.0
0.0
0.0
-8.32
-4.84
-4.9
-8.33
-4.84
0.0
0.0
0.0
0.0
0.0
0.0
-4.89
0.0
-4.83
-4.83
-4.82
0.0
0.0
0.0
0.0
0.0
-4.74
-4.76
-8.32
-8.32
-5.75
0.0
0.0
0.0
0.0
0.0
0.0
-4.82
-8.29
-4.84
0.0
0.0
0.0
0.0
0.0
0.0
0.0
-4.72
-4.81
-4.83
0.0
0.0
0.0
0.0
-4.79
0.0
0.0
0.0
0.0
0.0
0.0
0.0
0.0
0.0
0.0
0.0
0.0
0.0
0.0
0.0
0.0
0.0
0.0
0.0
0.0
0.0
0.0
0.0
0.0
0.0
0.0
0.0
0.0
0.0
0.0
0.0
0.0
0.0
0.0
0.0
0.0
0.0
0.0
0.0
0.0
0.0
0.0
0.0
-4.79
-4.81
-8.34
0.0
0.0
0.0
0.0
0.0
0.0
-4.79
0.0
-5.75
-8.32
0.0
0.0
0.0
0.0
0.0
-8.31
0.0
-4.88
-8.35
0.0
0.0
-4.8
0.0
0.0
0.0
-4.78
-8.3
-4.74
-8.34
-8.32999978162
-8.32
-8.33
0.0
-4.83
-8.32
-8.35
-4.72
0.0
-4.85
-8.32
0.0
0.0
0.0
-4.77
-4.82
0.0
-4.91
-4.83
0.0
-8.32
0.0
0.0
0.0
-4.79
-8.29999999852
-8.33
-4.8
-4.83
-4.85
-4.65
0.0
0.0
-4.73
-4.83
-8.33
0.0
-4.76
-4.8
0.0
0.0
0.0
-4.86
0.0
-8.32
0.0
-4.82
0.0
0.0
0.0
0.0
0.0
-4.75
-8.34
-4.78
-4.71
0.0
0.0
0.0
0.0
0.0
0.0
-4.71
0.0
0.0
0.0
0.0
0.0
0.0
0.0
0.0
0.0
0.0
0.0
0.0
0.0
0.0
0.0
0.0
0.0
0.0
0.0
0.0
0.0
0.0
0.0
0.0
0.0
0.0
-4.7
0.0
-8.35
-4.76
0.0
0.0
0.0
0.0
0.0
-4.83
-8.34
-4.84
0.0
-4.8
-4.77
0.0
0.0
0.0
0.0
0.0
-8.32
-4.86
-8.35
0.0
-4.87
-8.31
0.0
0.0
0.0
0.0
-4.87
-8.3
0.0
-7.917
-4.7
-4.83
0.0
0.0
0.0
0.0
-4.79
-4.75
-4.6
0.0
-4.8
0.0
0.0
0.0
0.0
-4.61
-8.33
0.0
-4.82
-8.41
-8.32
0.0
-4.78
-4.83
-8.29
-4.8
-7.9799
-8.27998895572
0.0
0.0
-4.78
0.0
0.0
0.0
-8.33
-8.33999999896
-8.38767369486
0.0
0.0
0.0
-4.86
0.0
-4.59
-4.85
-8.3661587128
0.0
0.0
0.0
0.0
-4.74
-8.29999999927
-4.74
-4.7
0.0
0.0
0.0
0.0
0.0
-4.74
-4.79
-8.31
0.0
0.0
0.0
0.0
0.0
0.0
0.0
0.0
0.0
0.0
0.0
0.0
0.0
0.0
0.0
0.0
0.0
0.0
0.0
0.0
0.0
0.0
0.0
0.0
0.0
0.0
0.0
0.0
0.0
0.0
0.0
0.0
0.0
0.0
0.0
0.0
0.0
-4.8
0.0
0.0
0.0
0.0
0.0
0.0
0.0
0.0
-8.05193
0.0
0.0
0.0
0.0
0.0
-4.77
0.0
-8.35
-4.78
-8.33999999949
-4.74
-8.32
0.0
0.0
0.0
0.0
-4.78
-4.81
0.0
-8.41031109896
-8.122351
0.0
0.0
0.0
0.0
-4.71
-8.1576457
-8.16235199
-4.81
-8.3796090179
-4.81
-4.85
0.0
0.0
0.0
0.0
0.0
-8.37972631253
-8.32999984713
-4.84
-4.8
0.0
0.0
-4.8
-8.199646393
0.0
-4.74
-4.83
0.0
-7.54
0.0
-4.78
0.0
0.0
-8.32999989299
-8.43980841877
-8.41
0.0
0.0
0.0
0.0
-4.73
0.0
-8.3499999251
-4.8
-4.66
0.0
0.0
0.0
0.0
0.0
-4.79
-8.4
-8.3883715864
-4.82
0.0
0.0
0.0
0.0
0.0
0.0
-4.71
0.0
0.0
0.0
0.0
0.0
0.0
0.0
0.0
0.0
-4.77
0.0
0.0
0.0
0.0
0.0
0.0
0.0
0.0
0.0
0.0
0.0
0.0
0.0
0.0
0.0
0.0
0.0
0.0
0.0
0.0
0.0
0.0
0.0
0.0
0.0
0.0
0.0
-4.73
0.0
0.0
-4.82
0.0
0.0
0.0
0.0
0.0
0.0
-4.71
0.0
-8.37
0.0
-4.81
0.0
0.0
0.0
0.0
0.0
0.0
-4.81
0.0
-8.33999999964
-8.41999999975
-8.37
0.0
0.0
0.0
-8.39
-4.8
0.0
0.0
-4.9
-8.40886011048
-7.79
0.0
0.0
0.0
-4.78
-4.76
-4.83
-4.8
-8.31999226901
-4.83
0.0
0.0
0.0
0.0
-4.82
-4.77
-8.3417524751
-8.3799945883
-8.39999999983
-7.25
0.0
0.0
-4.81
-4.77
-4.74
-4.85
-8.37525243849
-8.36999994757
0.0
-4.79
0.0
-4.81
-8.33
-8.36944145414
-4.79
-8.3899999633
0.0
0.0
0.0
0.0
-4.8
-8.39986589314
0.0
0.0
0.0
0.0
0.0
0.0
-4.77
-4.85
0.0
-8.35
-8.41
0.0
0.0
0.0
0.0
-4.79
0.0
-8.38
-8.33999999988
0.0
0.0
0.0
0.0
0.0
0.0
0.0
0.0
0.0
0.0
0.0
0.0
0.0
0.0
0.0
0.0
0.0
0.0
0.0
0.0
0.0
0.0
0.0
0.0
0.0
0.0
0.0
0.0
0.0
-4.68
0.0
0.0
0.0
0.0
0.0
0.0
0.0
0.0
0.0
-4.8
0.0
0.0
0.0
0.0
0.0
-4.7
-4.76
-8.31
-8.32
-4.72
-4.87
0.0
0.0
0.0
0.0
-4.73
0.0
0.0
-8.32999997431
-4.83
-4.76
-8.42999998202
0.0
0.0
0.0
0.0
0.0
-4.72
-4.85
-4.83
-4.83
-4.82
-4.84
0.0
0.0
0.0
0.0
-4.81
0.0
-4.84
-4.8
-8.35999621181
-4.74
-4.78
-8.38
-4.82
-4.8
0.0
-8.29999734827
-4.7
-8.39999814379
0.0
0.0
0.0
-4.71
0.0
0.0
-8.33999870065
-8.38999998741
-4.82
-4.82
0.0
0.0
0.0
0.0
-4.81
-8.35999999991
-4.84
-4.78
-8.43999909046
-4.72
0.0
0.0
-4.81
0.0
-4.86
-4.81
0.0
-8.40999999119
0.0
0.0
0.0
0.0
-4.71
0.0
-8.39
-8.41999999994
-4.73
0.0
0.0
0.0
0.0
-8.37
0.0
0.0
0.0
0.0
0.0
0.0
0.0
0.0
0.0
0.0
0.0
0.0
0.0
0.0
0.0
0.0
0.0
0.0
0.0
0.0
0.0
0.0
0.0
0.0
0.0
0.0
0.0
0.0
0.0
0.0
0.0
0.0
0.0
0.0
0.0
0.0
0.0
0.0
-4.73
-8.4
0.0
0.0
0.0
0.0
0.0
0.0
0.0
0.0
-4.81
-4.75
-8.42
0.0
0.0
0.0
0.0
0.0
-4.75
-8.33
-4.62
0.0
0.0
-8.42999999383
0.0
0.0
0.0
0.0
0.0
0.0
0.0
-4.81
-4.8
-4.82
-4.78
-4.73
0.0
-4.8
-8.31
0.0
-4.8
-4.73
-8.36
-4.78
0.0
0.0
0.0
-8.41
-4.82
0.0
-4.79
0.0
-8.39999936332
0.0
0.0
0.0
-4.74
-4.78
-4.75
0.0
0.0
-4.78
-8.40999999568
0.0
0.0
0.0
-4.75
0.0
-8.41
0.0
-4.77
-4.71
0.0
-4.74
0.0
0.0
0.0
0.0
-4.72
-4.78
-8.39999999996
0.0
-4.82
-4.74
0.0
0.0
0.0
0.0
-4.72
-8.33999999997
-4.73
-8.39
0.0
0.0
0.0
0.0
0.0
0.0
0.0
-4.75
0.0
0.0
0.0
0.0
0.0
0.0
0.0
0.0
0.0
0.0
0.0
0.0
0.0
0.0
0.0
0.0
0.0
0.0
0.0
0.0
0.0
0.0
0.0
0.0
0.0
0.0
0.0
0.0
0.0
0.0
0.0
0.0
0.0
0.0
0.0
0.0
0.0
-4.71
-4.71
0.0
0.0
0.0
0.0
0.0
0.0
-4.68
0.0
0.0
-4.77
0.0
0.0
0.0
0.0
0.0
-4.75
-8.29999999998
0.0
0.0
0.0
-4.73
-4.81
0.0
0.0
0.0
-8.41
0.0
-4.82
-8.42999999698
-4.83
-4.72
0.0
0.0
0.0
0.0
0.0
-8.39999999999
-8.41
-4.8
-4.79
-4.81
0.0
0.0
0.0
0.0
-4.76
-4.78
-8.41
-8.35999955432
-8.41999999999
-4.79
0.0
0.0
0.0
0.0
0.0
0.0
-8.37
-4.74
0.0
0.0
0.0
0.0
0.0
0.0
-4.77
0.0
0.0
0.0
0.0
0.0
0.0
0.0
0.0
-4.72
-4.66
-4.66
0.0
0.0
0.0
0.0
0.0
0.0
0.0
0.0
0.0
0.0
0.0
0.0
0.0
0.0
0.0
0.0
0.0
0.0
0.0
0.0
0.0
0.0
0.0
0.0
0.0
0.0
0.0
0.0
0.0
0.0
0.0
-4.73
0.0
0.0
0.0
0.0
0.0
0.0
0.0
0.0
0.0
0.0
0.0
0.0
0.0
0.0
-4.76
0.0
-4.72
-4.71
0.0
0.0
0.0
-4.73
-4.67
-4.66
-8.41
-8.41
0.0
0.0
0.0
0.0
-4.66
0.0
-4.68
-4.68
0.0
0.0
-4.7
-4.65
-4.72
0.0
0.0
-4.76
0.0
0.0
0.0
0.0
-4.72
-4.73
-4.66
0.0
-8.42999999788
-4.75
0.0
0.0
0.0
0.0
0.0
-8.43
-4.72
-4.75
-8.41
0.0
0.0
0.0
0.0
-4.74
0.0
-8.41
0.0
-4.77
0.0
0.0
0.0
0.0
0.0
0.0
-4.81
0.0
0.0
0.0
0.0
0.0
0.0
0.0
0.0
0.0
0.0
0.0
0.0
0.0
0.0
0.0
0.0
0.0
0.0
0.0
0.0
0.0
0.0
0.0
0.0
0.0
0.0
0.0
0.0
0.0
0.0
0.0
0.0
0.0
-4.7
-4.7
-4.69
-8.43
0.0
0.0
0.0
0.0
0.0
-8.41
0.0
0.0
-4.7
0.0
-4.73
0.0
0.0
0.0
0.0
0.0
0.0
0.0
-7.23
0.0
-8.4
0.0
0.0
0.0
0.0
0.0
0.0
0.0
0.0
0.0
-7.28
0.0
0.0
-7.18
