0.0
0.0
0.0
0.0
0.0
0.0
0.0
0.0
0.0
0.0
0.0
0.0
0.0
0.0
0.0
0.0
0.0
0.0
0.0
-8.49
0.0
0.0
0.0
0.0
-1.39
0.0
0.0
0.0
0.0
0.0
0.0
0.0
0.0
0.0
0.0
0.0
0.0
0.0
0.0
0.0
0.0
0.0
0.0
0.0
0.0
0.0
0.0
0.0
0.0
0.0
0.0
0.0
0.0
0.0
0.0
0.0
0.0
0.0
0.0
0.0
0.0
0.0
0.0
0.0
0.0
0.0
0.0
0.0
0.0
0.0
0.0
0.0
0.0
0.0
0.0
0.0
0.0
0.0
0.0
-8.45999999568
0.0
0.0
0.0
0.0
0.0
0.0
0.0
-8.51
0.0
0.0
0.0
-3.16
0.0
0.0
-1.42
-3.15
0.0
0.0
0.0
0.0
0.0
0.0
-1.22
-8.47999999698
-8.43999999788
0.0
0.0
0.0
0.0
0.0
0.0
0.0
-1.34
-8.47999999852
-8.44999936332
0.0
0.0
0.0
0.0
0.0
-8.47999999896
-8.49
0.0
0.0
0.0
0.0
0.0
0.0
0.0
-1.46
0.0
0.0
0.0
0.0
0.0
0.0
0.0
0.0
0.0
0.0
0.0
0.0
0.0
0.0
0.0
0.0
0.0
0.0
0.0
0.0
0.0
0.0
0.0
0.0
0.0
0.0
0.0
0.0
0.0
0.0
0.0
0.0
0.0
0.0
0.0
0.0
0.0
0.0
0.0
0.0
0.0
0.0
0.0
-1.39
0.0
0.0
0.0
0.0
0.0
0.0
0.0
0.0
0.0
0.0
0.0
0.0
0.0
-1.4
-8.44999955432
0.0
0.0
0.0
0.0
0.0
0.0
0.0
-8.41667670694
0.0
0.0
0.0
-1.42
0.0
0.0
-1.24
0.0
-1.36
-1.36
-3.17
0.0
0.0
0.0
0.0
-8.43999999927
0.0
-8.44999968803
0.0
0.0
0.0
0.0
0.0
0.0
0.0
0.0
0.0
-8.43999999949
-1.5
-8.44999978162
0.0
0.0
0.0
0.0
-1.54
-3.15
0.0
-8.38999984713
0.0
0.0
0.0
0.0
0.0
0.0
0.0
0.0
-2.15
0.0
0.0
0.0
0.0
0.0
0.0
0.0
-1.49
0.0
0.0
0.0
0.0
0.0
0.0
0.0
0.0
0.0
0.0
0.0
0.0
0.0
0.0
0.0
0.0
0.0
0.0
0.0
0.0
0.0
0.0
0.0
0.0
0.0
0.0
0.0
0.0
0.0
0.0
0.0
0.0
0.0
0.0
0.0
0.0
0.0
0.0
0.0
0.0
0.0
0.0
0.0
0.0
0.0
-1.33
-8.46999989299
0.0
0.0
0.0
0.0
0.0
0.0
-8.43999999964
0.0
0.0
-1.44
0.0
0.0
0.0
0.0
0.0
-3.17
-1.55
-2.27
-1.23
-1.36
-8.44886011048
0.0
0.0
-1.38
-8.47
-3.18
0.0
-1.54
-8.42920207734
0.0
-1.55
0.0
0.0
-2.15
-1.29
0.0
-1.32
0.0
0.0
-1.36
0.0
0.0
0.0
0.0
0.0
-8.43999999975
-2.19
-8.44944145414
-8.47998895572
-8.5096090179
0.0
0.0
0.0
0.0
0.0
-2.22
-1.37
0.0
0.0
-8.41767369486
-2.18
0.0
0.0
0.0
0.0
0.0
0.0
-1.31
-1.56
0.0
-1.52
0.0
0.0
0.0
0.0
0.0
0.0
-8.43999999983
-1.39
0.0
0.0
0.0
0.0
0.0
0.0
0.0
0.0
0.0
0.0
0.0
0.0
0.0
0.0
0.0
0.0
0.0
0.0
0.0
0.0
0.0
0.0
0.0
0.0
0.0
0.0
0.0
0.0
0.0
0.0
0.0
0.0
0.0
0.0
0.0
0.0
0.0
-8.39999999988
0.0
0.0
0.0
0.0
0.0
0.0
0.0
-8.45999999991
-1.43
0.0
0.0
-2.21
0.0
0.0
0.0
0.0
0.0
0.0
0.0
0.0
-2.28
-2.21
-1.41
-8.46972631253
0.0
0.0
0.0
0.0
-1.51
0.0
-8.4699999251
-1.46
-1.5
0.0
-1.3
0.0
0.0
0.0
0.0
-1.29
0.0
-1.5
0.0
-3.13
-1.22
-1.3
-2.12
-2.24
-8.39999226901
-8.42980841877
-8.42986589314
-3.11
-8.44999994757
0.0
0.0
0.0
-2.16
-3.17
-1.44
-8.4599945883
-8.43999621181
-1.55
0.0
0.0
0.0
0.0
0.0
-3.08
-8.38022673257
-2.17
-8.4299061252
-3.19
-1.31
0.0
-3.13
0.0
-1.3
-3.11
-8.46993428764
-2.19
-8.4899999633
0.0
0.0
0.0
-1.38
-8.42999997431
0.0
0.0
0.0
-1.39
0.0
0.0
0.0
0.0
0.0
-2.2
-1.29
0.0
0.0
0.0
0.0
0.0
0.0
0.0
0.0
0.0
0.0
0.0
0.0
0.0
0.0
0.0
0.0
0.0
0.0
0.0
0.0
0.0
0.0
0.0
0.0
0.0
0.0
0.0
0.0
0.0
0.0
0.0
0.0
0.0
0.0
0.0
-1.32
0.0
0.0
0.0
0.0
0.0
0.0
0.0
-1.3
0.0
-1.33
0.0
-1.31
0.0
0.0
0.0
0.0
0.0
0.0
-8.43999999994
0.0
0.0
-1.46
-8.48
0.0
0.0
0.0
0.0
0.0
0.0
-8.19
0.0
-8.43
0.0
-8.45
0.0
0.0
0.0
-8.42999998202
-3.16
0.0
-8.33
-8.4783715864
-8.48321776927
0.0
0.0
0.0
0.0
-1.38
-8.47
-8.45999734827
0.0
0.0
-8.4861587128
0.0
-8.19
-8.42525243849
-8.35
-8.46995400135
-8.34
0.0
-8.48996780094
0.0
-3.15
0.0
0.0
-8.42997746066
-1.44
-8.46998422246
-7.18
0.0
0.0
0.0
-8.44999998741
-3.16
-1.31
-1.38
-8.092351
0.0
0.0
0.0
0.0
-2.22
0.0
-2.23
-8.48999999119
0.0
0.0
0.0
0.0
0.0
0.0
0.0
-1.28
0.0
0.0
0.0
0.0
0.0
0.0
0.0
0.0
0.0
0.0
0.0
0.0
0.0
0.0
0.0
0.0
0.0
0.0
0.0
0.0
0.0
0.0
0.0
0.0
0.0
0.0
0.0
0.0
0.0
0.0
0.0
0.0
0.0
0.0
0.0
0.0
0.0
0.0
0.0
0.0
0.0
0.0
0.0
0.0
0.0
-1.41
0.0
0.0
0.0
0.0
0.0
0.0
0.0
0.0
-8.0876457
0.0
-1.36
-8.39999999996
0.0
0.0
0.0
0.0
0.0
-8.15235199
-2.19
-7.48
-7.75
-2.23
-8.55031109896
0.0
0.0
0.0
0.0
-8.35
-8.52
-8.24
-8.36
-3.07
0.0
0.0
0.0
0.0
0.0
0.0
-8.45999814379
-8.41
-8.31
0.0
0.0
0.0
0.0
-1.54
-8.37
0.0
0.0
-7.797
-8.41999999997
0.0
0.0
-1.29
-8.129646393
0.0
-8.32
0.0
0.0
0.0
0.0
-1.38
-8.33
-8.33
-8.43
-8.26
-1.47
0.0
0.0
0.0
0.0
-2.2
-8.19
-8.2017524751
-8.49999870065
-8.51
0.0
0.0
0.0
0.0
-1.3
0.0
0.0
0.0
0.0
0.0
0.0
0.0
0.0
0.0
-2.16
0.0
0.0
0.0
0.0
0.0
0.0
0.0
0.0
0.0
0.0
0.0
0.0
0.0
0.0
0.0
0.0
0.0
0.0
0.0
0.0
0.0
0.0
0.0
0.0
0.0
0.0
0.0
0.0
0.0
0.0
0.0
0.0
0.0
0.0
0.0
0.0
0.0
0.0
0.0
0.0
0.0
-1.31
0.0
0.0
0.0
0.0
0.0
0.0
0.0
0.0
-3.17
-1.19
-1.33
-7.8999
-8.49999999999
0.0
0.0
0.0
-1.36
0.0
0.0
-8.25
0.0
0.0
-8.22
0.0
0.0
0.0
-8.37
-8.21
-8.36
-8.05193
-8.25
-8.38
0.0
0.0
0.0
-1.27
0.0
0.0
-1.5
-2.2
-1.43
-8.23
0.0
-2.25
-8.43
0.0
0.0
-8.25
-8.36
-8.41999999999
0.0
0.0
-2.28
-8.37
-1.46
-8.39999909046
-8.54
-2.21
0.0
0.0
0.0
0.0
-2.29
-2.19
-8.44999999383
-8.47999999999
0.0
0.0
0.0
0.0
-8.38
-2.21
-1.35
-2.22
-2.23
0.0
0.0
0.0
0.0
-1.34
0.0
-1.32
0.0
0.0
0.0
0.0
0.0
0.0
0.0
0.0
0.0
0.0
0.0
0.0
0.0
0.0
0.0
0.0
0.0
0.0
0.0
0.0
0.0
0.0
0.0
0.0
0.0
0.0
0.0
0.0
0.0
0.0
0.0
0.0
0.0
0.0
0.0
0.0
0.0
-8.4
-8.45
0.0
0.0
0.0
0.0
0.0
0.0
0.0
0.0
0.0
-8.44
0.0
-8.24
0.0
0.0
0.0
0.0
0.0
0.0
-8.32
0.0
0.0
-8.27
-8.5
-8.45
0.0
0.0
0.0
0.0
-2.26
0.0
-2.16
-2.26
-8.31
0.0
0.0
0.0
0.0
0.0
0.0
-2.22
-2.17
-1.41
-2.29
-8.45
0.0
0.0
-8.33
-8.29
-8.36
-2.28
0.0
-8.33
0.0
0.0
0.0
0.0
-1.45
-1.42
-2.17
-8.35
-2.24
-8.26
-2.32
0.0
0.0
0.0
-1.3
-2.17
-8.35
-8.41
0.0
-8.24
-8.39
0.0
0.0
-2.26
-8.37
-1.42
-2.23
-8.27
0.0
0.0
0.0
0.0
0.0
-2.27
-8.41
0.0
-8.19
0.0
0.0
0.0
0.0
0.0
0.0
-1.41
-1.29
0.0
0.0
0.0
0.0
0.0
0.0
0.0
0.0
0.0
0.0
0.0
0.0
0.0
0.0
0.0
0.0
0.0
0.0
0.0
0.0
0.0
0.0
0.0
0.0
0.0
0.0
0.0
0.0
0.0
0.0
0.0
0.0
0.0
0.0
0.0
0.0
0.0
0.0
0.0
0.0
0.0
0.0
0.0
0.0
0.0
0.0
0.0
0.0
0.0
-8.45
0.0
0.0
0.0
0.0
0.0
-8.2
0.0
-8.39
0.0
-8.37
0.0
0.0
0.0
0.0
0.0
0.0
0.0
-8.41
-1.31
-1.31
-8.35
-8.47
0.0
0.0
-8.27
0.0
-8.39
-8.4
0.0
-8.41
0.0
0.0
0.0
-8.36
-1.43
0.0
-2.22
-8.28
0.0
0.0
0.0
0.0
0.0
0.0
0.0
-8.26
-2.18
0.0
-2.16
0.0
0.0
0.0
0.0
0.0
0.0
-8.44
0.0
-8.32
-8.35
0.0
0.0
0.0
0.0
0.0
-8.23
0.0
0.0
0.0
-8.39
0.0
0.0
0.0
0.0
0.0
0.0
-2.21
-2.17
0.0
0.0
0.0
0.0
0.0
0.0
0.0
-1.42
0.0
0.0
0.0
0.0
0.0
0.0
0.0
0.0
0.0
0.0
0.0
0.0
0.0
0.0
0.0
0.0
0.0
0.0
0.0
0.0
0.0
0.0
0.0
0.0
0.0
0.0
0.0
0.0
0.0
0.0
0.0
0.0
0.0
0.0
0.0
0.0
0.0
0.0
0.0
0.0
-8.45
0.0
0.0
0.0
0.0
0.0
0.0
0.0
0.0
-8.46
0.0
0.0
0.0
0.0
0.0
0.0
-8.45
0.0
0.0
0.0
-8.5
-8.47
0.0
0.0
0.0
0.0
-8.35
-8.28
-8.36
0.0
-1.23
0.0
0.0
0.0
-8.19
-8.28
0.0
0.0
-8.47
0.0
0.0
0.0
0.0
0.0
0.0
-1.4
0.0
-8.44
0.0
0.0
-1.4
0.0
0.0
0.0
0.0
-8.4
-8.24
0.0
0.0
0.0
0.0
0.0
0.0
0.0
-8.21
-8.44
0.0
0.0
0.0
0.0
0.0
0.0
-1.32
0.0
-8.4
0.0
0.0
0.0
0.0
0.0
0.0
0.0
0.0
0.0
0.0
0.0
-1.35
0.0
0.0
0.0
0.0
0.0
0.0
0.0
0.0
0.0
0.0
0.0
0.0
0.0
0.0
0.0
0.0
0.0
0.0
0.0
0.0
0.0
0.0
0.0
0.0
0.0
0.0
0.0
0.0
0.0
0.0
-8.46
0.0
0.0
0.0
0.0
0.0
0.0
-1.34
0.0
0.0
0.0
0.0
0.0
0.0
0.0
0.0
0.0
0.0
0.0
0.0
0.0
0.0
-2.18
-8.46
0.0
0.0
0.0
0.0
0.0
0.0
-1.39
0.0
-1.3
-8.45
0.0
0.0
0.0
0.0
0.0
-1.27
-1.32
0.0
-8.46
0.0
0.0
0.0
0.0
0.0
-1.44
0.0
-1.32
0.0
0.0
0.0
0.0
0.0
0.0
0.0
0.0
-8.49
-8.39
0.0
0.0
0.0
0.0
0.0
0.0
0.0
0.0
0.0
0.0
0.0
0.0
0.0
0.0
0.0
0.0
0.0
0.0
0.0
0.0
0.0
0.0
0.0
0.0
0.0
0.0
-8.22
0.0
0.0
0.0
0.0
0.0
0.0
0.0
0.0
-1.32
0.0
0.0
-8.4
0.0
0.0
0.0
0.0
0.0
-8.5
0.0
0.0
0.0
0.0
0.0
0.0
-8.51
0.0
0.0
0.0
0.0
0.0
0.0
-8.24
0.0
0.0
0.0
0.0
0.0
0.0
-8.34
0.0
0.0
0.0
0.0
0.0
0.0
0.0
0.0
0.0
0.0
0.0
0.0
0.0
