0.0
0.0
0.0
0.0
0.0
0.0
0.0
0.0
0.0
0.0
0.0
0.0
0.0
0.0
0.0
0.0
0.0
0.0
0.0
-8.55
0.0
0.0
0.0
0.0
0.0
0.0
0.0
0.0
0.0
0.0
0.0
0.0
0.0
0.0
0.0
0.0
0.0
0.0
0.0
0.0
0.0
0.0
0.0
0.0
0.0
0.0
0.0
0.0
0.0
0.0
0.0
0.0
0.0
0.0
0.0
0.0
0.0
0.0
0.0
0.0
0.0
0.0
0.0
0.0
0.0
0.0
0.0
0.0
0.0
0.0
0.0
0.0
0.0
0.0
0.0
0.0
0.0
0.0
0.0
-8.58999998741
-0.07
0.0
0.0
0.0
0.0
0.0
0.0
-8.54
0.0
0.0
0.0
-0.17
0.0
0.0
0.0
-0.17
0.0
0.0
0.0
0.0
0.0
0.0
-0.1
-8.56
-8.53999999999
0.0
0.0
0.0
0.0
0.0
0.0
0.0
0.0
-8.56999999994
-8.57999978162
0.0
0.0
0.0
0.0
0.0
-8.60999999119
-8.59999999927
0.0
0.0
0.0
0.0
0.0
0.0
0.0
-0.13
0.0
0.0
0.0
0.0
0.0
0.0
0.0
0.0
0.0
0.0
0.0
0.0
0.0
0.0
0.0
0.0
0.0
0.0
0.0
0.0
0.0
0.0
0.0
0.0
0.0
0.0
0.0
0.0
0.0
0.0
0.0
0.0
0.0
0.0
0.0
0.0
0.0
0.0
0.0
0.0
0.0
0.0
0.0
-0.1
0.0
0.0
0.0
0.0
0.0
0.0
0.0
0.0
0.0
0.0
0.0
0.0
0.0
0.0
-8.56999999383
0.0
0.0
0.0
0.0
-0.08
0.0
0.0
-8.5999061252
0.0
0.0
0.0
-0.12
0.0
-0.08
0.0
0.0
-0.12
0.0
-0.23
0.0
0.0
0.0
0.0
-8.55999999949
0.0
-8.55999984713
0.0
0.0
0.0
0.0
0.0
0.0
0.0
0.0
0.0
-8.55999999999
-0.12
-8.57999999964
0.0
0.0
0.0
0.0
-0.13
-0.19
0.0
-8.53999989299
0.0
0.0
0.0
0.0
0.0
0.0
0.0
0.0
-0.15
0.0
0.0
0.0
0.0
0.0
0.0
0.0
-0.1
0.0
0.0
0.0
0.0
0.0
0.0
0.0
0.0
0.0
0.0
0.0
0.0
0.0
0.0
0.0
0.0
0.0
0.0
0.0
0.0
0.0
0.0
0.0
0.0
0.0
0.0
0.0
0.0
0.0
0.0
0.0
0.0
0.0
0.0
0.0
0.0
0.0
0.0
0.0
0.0
0.0
0.0
0.0
0.0
0.0
0.0
-8.57999999975
0.0
0.0
0.0
0.0
0.0
0.0
-8.5
0.0
0.0
0.0
0.0
0.0
0.0
0.0
0.0
-4.82
-0.14
-0.16
0.0
-0.11
-8.54999999568
0.0
0.0
-0.04
-8.53
-4.82
0.0
-0.17
-8.54999955432
0.0
-0.16
0.0
0.0
-0.1
0.0
0.0
-0.11
0.0
0.0
-0.09
0.0
0.0
0.0
0.0
0.0
-8.55999999983
-0.13
-8.5799999251
-8.56
-8.58999999698
0.0
0.0
0.0
0.0
0.0
-0.14
0.0
0.0
0.0
-8.58995400135
-0.14
0.0
0.0
0.0
0.0
0.0
0.0
-0.07
-0.15
0.0
-0.15
0.0
0.0
0.0
0.0
0.0
0.0
-8.54
0.0
0.0
0.0
0.0
0.0
0.0
0.0
0.0
0.0
0.0
0.0
0.0
0.0
0.0
0.0
0.0
0.0
0.0
0.0
0.0
0.0
0.0
0.0
0.0
0.0
0.0
0.0
0.0
0.0
0.0
0.0
0.0
0.0
0.0
0.0
0.0
0.0
0.0
-8.50999999996
0.0
0.0
0.0
0.0
0.0
0.0
0.0
-8.53
-0.09
0.0
0.0
-0.13
0.0
0.0
0.0
0.0
0.0
0.0
0.0
0.0
-0.16
-0.15
-0.12
-8.56
0.0
0.0
0.0
0.0
-0.16
0.0
-8.54
-0.13
-0.15
0.0
-0.12
0.0
0.0
0.0
0.0
0.0
0.0
-0.14
0.0
-0.19
-0.08
0.0
-0.11
-0.15
-8.52999999788
-8.52999999852
-8.53999994757
-0.18
-8.55
0.0
0.0
0.0
-0.13
-4.79
-0.1
-8.5599999633
-8.53
-0.14
0.0
0.0
0.0
0.0
0.0
-0.17
-8.6896090179
-0.12
-8.53999997431
-4.83
0.0
0.0
-0.17
0.0
-0.08
-0.17
-8.57999909046
-0.17
-8.54
0.0
0.0
0.0
-0.09
-8.56999999896
-0.08
0.0
0.0
0.0
0.0
0.0
0.0
0.0
0.0
-0.11
-0.11
0.0
0.0
0.0
0.0
0.0
0.0
0.0
0.0
0.0
0.0
0.0
0.0
0.0
0.0
0.0
0.0
0.0
0.0
0.0
0.0
0.0
0.0
0.0
0.0
0.0
0.0
0.0
0.0
0.0
0.0
0.0
0.0
0.0
0.0
0.0
-0.11
0.0
0.0
0.0
0.0
0.0
0.0
0.0
-0.1
0.0
-0.12
0.0
-0.11
0.0
0.0
0.0
0.0
0.0
0.0
-8.52
0.0
0.0
-0.14
-8.46
0.0
0.0
0.0
0.0
0.0
0.0
-0.17
0.0
-8.49
0.0
-8.52
0.0
0.0
0.0
-8.51999999988
-0.16
0.0
-8.46
-8.60999734827
-8.57999999991
0.0
0.0
0.0
0.0
-0.09
-8.52
-8.5
0.0
0.0
-8.43
0.0
-0.17
-8.55999226901
-8.47
-8.56999814379
-8.47
0.0
-8.56
0.0
-0.17
0.0
0.0
-8.55999936332
-0.1
-8.56999999997
-7.91
0.0
0.0
0.0
-8.52999999998
-4.75
-0.11
0.0
-8.8617524751
0.0
0.0
0.0
0.0
-0.13
0.0
-0.17
-8.54
0.0
0.0
0.0
0.0
0.0
0.0
0.0
-0.09
0.0
0.0
0.0
0.0
0.0
0.0
0.0
0.0
0.0
0.0
0.0
0.0
0.0
0.0
0.0
0.0
0.0
0.0
0.0
0.0
0.0
0.0
0.0
0.0
0.0
0.0
0.0
0.0
0.0
0.0
0.0
0.0
0.0
0.0
0.0
0.0
0.0
0.0
0.0
0.0
0.0
0.0
0.0
0.0
0.0
-0.13
-0.08
0.0
0.0
0.0
0.0
0.0
0.0
0.0
-8.6599
0.0
-0.11
-8.43
-0.05
0.0
0.0
0.0
0.0
-8.84235199
-4.68
-8.2
-8.43
-0.15
-8.45
0.0
0.0
0.0
0.0
-8.46
-8.44
-4.68
-8.46
-0.18
0.0
0.0
0.0
0.0
0.0
0.0
-8.53
-8.5
-8.46
0.0
0.0
0.0
0.0
-0.13
-8.46
0.0
0.0
-8.7876457
-8.43
0.0
0.0
-0.11
-8.819646393
0.0
-8.46
-0.12
0.0
0.0
0.0
-0.13
-8.47
-8.50999999999
-8.49
-0.22
-0.14
0.0
0.0
0.0
0.0
-0.12
-0.18
-8.587
-8.58999968803
-8.46
0.0
0.0
0.0
0.0
-0.11
0.0
0.0
0.0
0.0
0.0
0.0
0.0
0.0
0.0
-0.13
0.0
0.0
0.0
0.0
0.0
0.0
0.0
0.0
0.0
0.0
0.0
0.0
0.0
0.0
0.0
0.0
0.0
0.0
0.0
0.0
0.0
0.0
0.0
0.0
0.0
0.0
0.0
0.0
0.0
0.0
0.0
0.0
0.0
0.0
0.0
0.0
0.0
0.0
0.0
0.0
0.0
-0.1
0.0
-0.08
0.0
0.0
0.0
0.0
0.0
0.0
-4.74
-0.1
-0.1
-8.69193
-8.52
0.0
0.0
0.0
-0.11
0.0
0.0
-4.7
0.0
0.0
-4.71
0.0
0.0
0.0
-8.5
-4.69
-8.49
-8.802351
-4.75
-8.5
0.0
0.0
0.0
-0.08
0.0
0.0
-0.14
-0.16
-0.15
-0.17
0.0
-0.15
-8.5
0.0
0.0
-0.2
-8.47
-8.41
0.0
0.0
-0.16
-8.51
-0.15
-8.5
-8.48
-0.15
0.0
0.0
0.0
0.0
-0.15
-0.13
-8.48
-8.43
0.0
0.0
0.0
0.0
-8.47
-0.12
-0.11
-0.13
-0.16
0.0
0.0
0.0
0.0
-0.1
0.0
-0.12
0.0
0.0
0.0
0.0
0.0
0.0
0.0
0.0
0.0
0.0
0.0
0.0
0.0
0.0
0.0
0.0
0.0
0.0
0.0
0.0
0.0
0.0
0.0
0.0
0.0
0.0
0.0
0.0
0.0
0.0
0.0
0.0
0.0
0.0
0.0
0.0
0.0
-8.48
-8.5
0.0
0.0
0.0
0.0
0.0
0.0
0.0
0.0
0.0
-8.49
0.0
-0.16
0.0
0.0
0.0
0.0
0.0
0.0
-8.44
0.0
0.0
-4.72
-8.49
-8.5
0.0
0.0
0.0
0.0
-0.13
0.0
-0.14
-0.17
-8.47
0.0
0.0
0.0
0.0
0.0
0.0
-0.16
-0.13
-0.14
-0.16
-8.48
0.0
0.0
-8.47
-0.19
-8.5
-0.16
0.0
-8.47
0.0
0.0
0.0
-0.05
-0.11
-0.14
-0.13
-8.46
-0.15
-4.74
-0.17
0.0
0.0
0.0
-0.1
-0.12
-8.48
-8.48
0.0
-4.71
-8.48
0.0
0.0
-0.14
-8.47
-0.14
-0.13
-4.68
0.0
0.0
0.0
0.0
-0.11
-0.12
-8.47
0.0
-4.71
0.0
0.0
0.0
0.0
0.0
0.0
-0.14
-0.1
0.0
0.0
0.0
0.0
0.0
0.0
0.0
0.0
0.0
0.0
0.0
0.0
0.0
0.0
0.0
0.0
0.0
0.0
0.0
0.0
0.0
0.0
0.0
0.0
0.0
0.0
0.0
0.0
0.0
0.0
0.0
0.0
0.0
0.0
0.0
0.0
-0.07
-0.07
0.0
0.0
0.0
0.0
0.0
0.0
0.0
0.0
0.0
0.0
0.0
-8.55
0.0
0.0
0.0
0.0
-0.11
-4.7
0.0
-8.49
0.0
-8.51999998202
0.0
0.0
0.0
0.0
0.0
0.0
0.0
-8.47
-0.09
-0.1
-8.47
-8.52
-0.06
0.0
-0.19
0.0
-8.49
-8.45
0.0
-8.5
0.0
0.0
-0.11
-8.48
-0.13
0.0
-0.14
-4.78
0.0
0.0
0.0
0.0
0.0
-0.09
-0.11
-4.72
-0.13
0.0
-0.12
0.0
0.0
0.0
-0.06
-0.08
0.0
-8.49
0.0
-8.46
-8.49
0.0
0.0
0.0
0.0
0.0
-0.15
-0.08
-0.11
-0.1
-8.48
0.0
0.0
0.0
0.0
0.0
0.0
-0.13
-0.12
0.0
0.0
0.0
0.0
0.0
0.0
-0.1
-0.12
0.0
0.0
0.0
0.0
0.0
-0.06
-0.1
0.0
0.0
0.0
0.0
0.0
0.0
0.0
0.0
0.0
0.0
0.0
0.0
0.0
0.0
0.0
0.0
0.0
0.0
0.0
0.0
0.0
0.0
-0.05
0.0
0.0
0.0
0.0
0.0
0.0
0.0
0.0
-0.11
0.0
-8.48
0.0
0.0
0.0
0.0
0.0
0.0
0.0
0.0
-8.5
0.0
-0.09
0.0
0.0
0.0
-0.08
-8.52
0.0
-0.1
0.0
-8.51
-8.5
0.0
0.0
0.0
-0.11
-8.5
-0.17
-8.47
-0.12
-0.08
0.0
0.0
0.0
-0.14
-0.17
-0.1
0.0
-8.53
0.0
0.0
0.0
0.0
0.0
-0.05
-0.13
0.0
-8.5
0.0
-0.09
-0.13
0.0
0.0
0.0
0.0
-8.48
-0.15
-0.11
-0.1
0.0
0.0
0.0
-0.09
-0.11
-0.13
-8.48
-0.09
0.0
-0.06
0.0
0.0
0.0
-0.12
0.0
-8.48
0.0
0.0
0.0
0.0
-0.07
0.0
0.0
0.0
0.0
0.0
0.0
-0.11
-0.05
0.0
0.0
0.0
0.0
0.0
0.0
0.0
0.0
0.0
0.0
0.0
0.0
0.0
0.0
0.0
0.0
0.0
0.0
0.0
0.0
0.0
0.0
0.0
0.0
0.0
0.0
0.0
0.0
0.0
-8.5
0.0
0.0
0.0
0.0
0.0
0.0
-0.11
0.0
0.0
0.0
0.0
0.0
-0.08
-0.12
-0.06
0.0
0.0
0.0
-0.06
0.0
0.0
-0.1
-8.53
-0.09
-0.08
0.0
0.0
0.0
0.0
-0.12
-0.09
-0.12
-8.52
0.0
0.0
0.0
0.0
-0.08
-0.13
-0.1
0.0
-8.49
0.0
0.0
0.0
0.0
0.0
-0.14
-0.06
-0.1
0.0
0.0
0.0
0.0
0.0
0.0
0.0
0.0
-8.5
-8.49
-0.09
0.0
0.0
0.0
0.0
0.0
0.0
-0.1
0.0
0.0
0.0
0.0
0.0
0.0
0.0
0.0
0.0
0.0
0.0
0.0
0.0
0.0
0.0
0.0
0.0
0.0
-0.15
0.0
0.0
0.0
0.0
0.0
0.0
0.0
0.0
-0.12
0.0
0.0
-8.49
0.0
0.0
-0.08
-0.09
-0.06
-8.5
0.0
0.0
0.0
-0.06
0.0
-0.09
-8.53
0.0
0.0
0.0
0.0
0.0
-0.09
-0.15
0.0
0.0
0.0
0.0
0.0
0.0
-8.46
0.0
0.0
-0.09
-0.08
-0.07
0.0
0.0
0.0
0.0
0.0
0.0
0.0
0.0
