0.0
0.0
0.0
0.0
0.0
0.0
0.0
0.0
-9.0
0.0
0.0
-8.96
-8.97
-8.97
-8.97
-8.95
0.0
-8.99
0.0
-9.12
-8.93
0.0
-8.96
-8.96
-9.02
-8.99
-8.99
0.0
0.0
0.0
0.0
-9.04
0.0
-9.02
-9.0
0.0
0.0
0.0
-8.9
-9.0
-9.0
0.0
0.0
0.0
-8.98
-8.99
0.0
0.0
-8.95
0.0
0.0
0.0
0.0
0.0
0.0
0.0
0.0
0.0
0.0
0.0
0.0
-8.89
0.0
0.0
0.0
0.0
0.0
-8.96
0.0
0.0
0.0
0.0
0.0
0.0
-8.89
0.0
0.0
-8.98
0.0
-9.1
-8.94
0.0
0.0
0.0
-9.0
-8.93
0.0
-9.11
-9.02
0.0
0.0
-9.05
0.0
-9.02
-9.02
-9.07
-9.05
0.0
0.0
-8.97
-9.0
-8.98
-8.94
-9.1
-9.06
0.0
0.0
0.0
0.0
-8.73
0.0
-8.91
-9.02
-9.1099999633
-9.08999997431
0.0
0.0
-8.96
-8.97
-8.98
-9.1
-9.1
-8.98
-8.76
0.0
0.0
0.0
0.0
0.0
-9.04
-8.99
-8.99
-8.97
0.0
0.0
-8.97
0.0
0.0
-9.0
-9.0
0.0
0.0
0.0
0.0
-8.98
0.0
0.0
0.0
0.0
0.0
0.0
0.0
0.0
0.0
0.0
0.0
0.0
0.0
0.0
-8.96
0.0
0.0
0.0
0.0
0.0
0.0
0.0
-8.93
0.0
0.0
0.0
0.0
0.0
-9.01
0.0
0.0
-8.91
-8.92
0.0
0.0
0.0
0.0
0.0
0.0
-8.94
-8.92
0.0
-9.01
-9.08999998202
0.0
0.0
0.0
-9.01
-8.93
0.0
-8.9
-9.0383715864
-8.97
0.0
0.0
-9.02
-8.93
-8.93
-9.01
-8.94
-8.98
-9.03
-9.1
0.0
0.0
0.0
-8.93
-9.05
-8.86
-9.08999998741
-8.64
-8.95
-9.01
0.0
0.0
0.0
-8.65
-8.97
-8.78
-9.06
-9.05
-9.09886011048
-8.6
0.0
0.0
0.0
-9.04
-9.06
-8.68
-9.00999999119
-8.77
0.0
0.0
0.0
-8.87
0.0
-8.56
-8.98
-9.05
-8.97
0.0
0.0
0.0
-8.96
0.0
0.0
-9.03
-9.01
-9.01
0.0
0.0
0.0
0.0
-8.93
-8.98
0.0
0.0
0.0
0.0
-8.98
0.0
0.0
0.0
0.0
0.0
0.0
0.0
0.0
0.0
0.0
0.0
0.0
0.0
0.0
0.0
0.0
0.0
0.0
0.0
0.0
0.0
0.0
-8.97
-8.92
0.0
0.0
0.0
0.0
0.0
0.0
-8.99
0.0
-9.02
-9.09
0.0
0.0
0.0
0.0
0.0
0.0
-9.05
-8.99
-8.96
-9.03
0.0
0.0
0.0
0.0
0.0
-9.1
-9.03
-8.97
-8.92
-8.97
-9.04999999383
0.0
0.0
-8.99
-9.06
-9.08
-8.89
-9.09
-9.03920207734
-8.66
-9.04
0.0
0.0
-8.96
-8.94
-8.85
-8.97
-8.89
-8.71
-8.96
0.0
0.0
-9.0
0.0
-8.98
-9.06
-8.98
-9.07944145414
-9.08999999568
-9.1196090179
0.0
0.0
0.0
-8.61
-9.01
-8.97
-8.98
-8.8
-8.77
-9.01972631253
-8.97
0.0
0.0
0.0
-8.85
0.0
-8.69
-8.93
-9.07
-8.81
-9.06
0.0
0.0
0.0
0.0
0.0
-8.81
-9.08
-9.0
0.0
0.0
0.0
0.0
0.0
-8.99
-8.66
0.0
0.0
0.0
0.0
0.0
0.0
0.0
0.0
0.0
0.0
0.0
0.0
0.0
0.0
0.0
0.0
0.0
0.0
0.0
0.0
0.0
0.0
0.0
0.0
0.0
0.0
0.0
0.0
0.0
-8.68
-9.05
-8.77
-8.93
0.0
0.0
0.0
0.0
0.0
-9.06
-9.03
-8.8
-8.71
-8.98
0.0
0.0
0.0
0.0
0.0
0.0
0.0
-8.9
-9.01
-8.98
-8.95
-9.08999999698
0.0
0.0
0.0
0.0
-9.04
0.0
-9.1
-9.04
-9.06
-8.94
-8.97
0.0
0.0
-8.79
0.0
-8.98
0.0
-9.03
-8.86
-8.98
-8.96
-8.98
-8.95
-8.96
-9.00999999788
-9.04999999852
-9.05980841877
-8.99
-9.05
0.0
0.0
0.0
-8.99
-9.09
-8.98
-9.06
-9.05
-9.03
-8.99
0.0
0.0
0.0
-8.75
-9.05
-8.99986589314
-8.98
-9.02999999896
-9.13
-8.94
-8.52
-9.03
-8.7
-8.95
-8.97
-9.06999999927
-9.0
-9.11
0.0
0.0
0.0
-9.0
-9.03
-8.92
-8.82
-8.94
-9.01
0.0
0.0
0.0
0.0
0.0
-8.97
-8.97
0.0
0.0
0.0
0.0
0.0
0.0
0.0
-9.0
0.0
0.0
0.0
0.0
0.0
0.0
0.0
0.0
0.0
0.0
0.0
0.0
0.0
0.0
0.0
0.0
0.0
0.0
0.0
0.0
0.0
0.0
0.0
0.0
0.0
0.0
0.0
-8.96
0.0
0.0
0.0
0.0
0.0
-8.57
-8.76
-8.95
-8.98
-8.96
-8.68
-8.98
-8.95
0.0
0.0
0.0
0.0
-8.69
-9.05
-8.93
-8.85
-9.02
-9.18999999949
-8.94
0.0
0.0
-8.75
-8.63
-8.74
-9.0
0.0
-9.15
-8.87
-9.16
0.0
0.0
0.0
-9.01
-8.97
-8.68
-9.08
-9.0599061252
-9.07993428764
0.0
0.0
-8.73
-8.96
-8.99
-9.12
-9.03
-8.78
-8.66
-9.11022673257
-8.61
-8.99
-9.00999999964
-9.07
-9.05995400135
-9.08
-8.84
-9.06999999975
-8.56
-8.99
-8.78
-8.9
-9.02999999983
-9.02
-9.06999999988
-7.9
0.0
-8.68
-8.71
-9.05
-9.07
-8.96
-9.04
-8.812351
0.0
0.0
0.0
0.0
-8.97
-8.96
-9.02
-9.1
0.0
0.0
0.0
0.0
0.0
0.0
-8.84
-8.94
0.0
0.0
0.0
0.0
0.0
0.0
0.0
0.0
-8.84
0.0
0.0
0.0
0.0
0.0
0.0
0.0
0.0
0.0
0.0
0.0
0.0
0.0
0.0
0.0
0.0
0.0
0.0
0.0
0.0
-8.86
0.0
0.0
0.0
0.0
0.0
0.0
0.0
0.0
0.0
0.0
0.0
0.0
0.0
0.0
0.0
-9.01
-8.94
-9.01
-8.88
0.0
0.0
-8.64
-8.69
-8.68
-8.8076457
-8.71
-8.96
-9.07996780094
-8.91
0.0
0.0
0.0
-8.68
-8.87235199
-9.03
-8.2
-8.47
-9.0
-9.1761587128
0.0
-8.56
-8.77
-8.77
-9.1
-9.18
-9.1
-9.12999999991
-9.05
-8.83
0.0
-8.69
-8.78
-8.69
-8.85
-9.03
-9.15997746066
-9.08
0.0
0.0
-8.77
0.0
-9.02
-9.1
-8.92
-8.83
-8.537
-9.10031109896
0.0
-8.85
-8.94
-8.869646393
-8.81
-9.04999999994
-9.05
-9.01
0.0
-8.88
-8.94
-9.12
-9.02
-9.17
-9.01
-9.03
0.0
0.0
-8.78
0.0
-8.95
-8.98
-8.9217524751
-9.1
-9.19998422246
0.0
0.0
0.0
0.0
-8.94
0.0
0.0
0.0
0.0
0.0
0.0
0.0
0.0
0.0
-8.98
0.0
0.0
0.0
0.0
0.0
0.0
0.0
0.0
0.0
0.0
0.0
0.0
0.0
0.0
0.0
0.0
0.0
0.0
0.0
0.0
0.0
0.0
-8.78
0.0
0.0
0.0
0.0
0.0
0.0
0.0
0.0
0.0
0.0
0.0
0.0
0.0
0.0
0.0
-8.91
-8.91
-8.88
-8.94
-8.93
-8.92
0.0
0.0
0.0
0.0
-8.6
0.0
-9.03
-8.96
-8.97
-8.6399
-9.15
0.0
0.0
-8.53
-8.98
-8.85
-8.8
-9.02
-8.96
-8.63
-9.05
0.0
0.0
0.0
-9.11
-9.05
-9.11998895572
-8.75193
-9.1
-9.15999226901
0.0
-8.76
0.0
-8.94
-8.84
-8.92
-9.03
-9.02
-9.05
-9.06
0.0
-8.98
-9.17
0.0
-8.81
-9.0
-9.1399945883
-9.09999621181
0.0
0.0
-8.98
-9.14999999996
-9.04
-8.99
-9.21999734827
-8.98
-8.63
-8.88
-8.7
-8.82
-8.98
-8.98
-9.07
-9.17999814379
0.0
0.0
-8.59
-8.61
-9.12
-8.94
-8.94
-8.95
-8.98
0.0
0.0
0.0
-8.67
-8.94
0.0
-8.97
-8.81
0.0
0.0
0.0
0.0
0.0
0.0
0.0
0.0
0.0
0.0
0.0
0.0
0.0
0.0
0.0
0.0
0.0
0.0
0.0
0.0
0.0
0.0
0.0
0.0
0.0
0.0
0.0
0.0
0.0
0.0
0.0
0.0
0.0
0.0
0.0
0.0
-9.15
-9.19
0.0
0.0
0.0
0.0
0.0
0.0
0.0
-8.92
-8.88
-9.16
0.0
-9.1
0.0
0.0
0.0
0.0
0.0
0.0
-9.12
-8.91
-8.87
-9.11
-9.22
-9.16999999997
0.0
0.0
0.0
0.0
-8.99
-8.74
-8.98
-9.0
-9.11999870065
-8.63
0.0
0.0
0.0
0.0
-8.84
-9.02
-9.0
-9.0
-8.99
-9.15999909046
-8.74
0.0
-9.1
-9.0
-9.11999936332
-9.0
-8.75
-9.12321776927
0.0
0.0
0.0
-8.91
-9.01
-9.02
-8.97
-9.13999955432
-8.98
-9.11
-8.98
0.0
0.0
0.0
-8.94
-8.96
-9.12999999998
-9.14
-8.71
-9.08
-9.14999999999
0.0
0.0
-8.94
-9.14
-9.03
-8.95
-8.99
-8.83
0.0
0.0
0.0
-9.03
-8.95
-9.13
-8.8
-9.05
0.0
0.0
0.0
0.0
0.0
-8.76
-9.06
-8.95
0.0
0.0
0.0
0.0
0.0
0.0
0.0
-8.87
0.0
0.0
0.0
0.0
0.0
0.0
0.0
0.0
0.0
0.0
0.0
0.0
0.0
0.0
0.0
0.0
0.0
0.0
0.0
0.0
0.0
0.0
0.0
0.0
0.0
0.0
0.0
0.0
-8.93
-8.86
-8.92
0.0
0.0
0.0
0.0
0.0
0.0
0.0
0.0
0.0
0.0
-9.18999999999
0.0
0.0
0.0
0.0
-9.04
-9.09
-8.8
-9.16999999999
-8.88
-9.14525243849
0.0
0.0
0.0
0.0
0.0
0.0
-8.83
-9.16
-8.95
-8.97
-9.13
-9.23
-8.92
0.0
-9.0
-8.66
-9.15999968803
-9.16667670694
-8.58
-9.14767369486
0.0
0.0
-9.0
-9.13
-8.99
0.0
-9.0
-9.13
0.0
0.0
0.0
0.0
-8.66
-8.95
-8.96
-9.05
-8.96
0.0
-8.97
0.0
0.0
0.0
-8.92
-8.93
-8.8
-9.16
0.0
-9.11
-9.13999978162
0.0
0.0
0.0
0.0
0.0
-9.06
-8.93
-8.96
-8.96
-9.15999984713
-8.73
0.0
0.0
-8.64
0.0
0.0
-8.98
-8.95
0.0
0.0
0.0
0.0
0.0
-8.67
-9.01
-9.05
0.0
0.0
0.0
0.0
0.0
-8.93
-8.98
0.0
0.0
0.0
0.0
0.0
0.0
0.0
0.0
0.0
0.0
0.0
0.0
0.0
0.0
0.0
0.0
0.0
0.0
0.0
0.0
0.0
0.0
-8.85
0.0
0.0
0.0
0.0
0.0
0.0
0.0
0.0
-9.01
-8.63
-9.17
0.0
-8.82
0.0
0.0
0.0
0.0
0.0
0.0
-9.22
0.0
-8.95
0.0
0.0
0.0
-8.93
-9.19
0.0
-8.95
-8.75
-9.2
-9.19
0.0
0.0
-8.65
-9.0
-9.13999989299
-9.08
-9.1399999251
-8.96
-8.94
0.0
0.0
0.0
-9.06
-9.01
-8.92
-8.83
-9.17999994757
-8.94
-8.79
0.0
0.0
0.0
-8.91
-9.03
-8.92
-9.15
-8.85
-8.95
-8.99
0.0
0.0
0.0
0.0
-9.14
-9.02
-9.02
-8.96
-8.94
0.0
0.0
-8.96
-8.98
-9.06
-9.16
-8.93
0.0
-8.93
0.0
0.0
0.0
-9.04
0.0
-9.16
0.0
0.0
0.0
0.0
-8.95
0.0
-8.82
0.0
0.0
0.0
0.0
-9.02
-8.92
0.0
0.0
0.0
0.0
0.0
0.0
0.0
0.0
0.0
0.0
0.0
0.0
0.0
0.0
0.0
0.0
0.0
0.0
0.0
-8.81
0.0
0.0
0.0
0.0
0.0
0.0
0.0
0.0
0.0
-9.16
0.0
0.0
0.0
0.0
-8.74
0.0
-8.97
0.0
0.0
0.0
0.0
0.0
-8.89
-9.02
-8.9
-8.86
0.0
0.0
-8.87
0.0
0.0
-8.98
-9.18
-8.96
-8.86
0.0
0.0
0.0
0.0
-9.01
-8.94
-8.96
-9.19
0.0
0.0
0.0
0.0
-8.93
-9.0
-8.97
0.0
-9.21
0.0
0.0
0.0
0.0
0.0
-9.08
-8.9
-8.93
0.0
0.0
0.0
0.0
0.0
0.0
-8.67
0.0
-9.19
-9.14
-8.97
0.0
0.0
-8.81
0.0
-8.82
-8.84
-8.94
0.0
0.0
0.0
0.0
0.0
0.0
0.0
0.0
0.0
0.0
0.0
0.0
0.0
0.0
0.0
0.0
0.0
0.0
-9.08
0.0
0.0
0.0
0.0
0.0
0.0
0.0
0.0
-9.06
-8.82
0.0
-9.16
0.0
0.0
-8.89
-8.94
-8.89
-9.2
0.0
0.0
-8.73
-8.9
0.0
-8.92
-9.19
0.0
0.0
0.0
0.0
0.0
-8.92
-9.03
0.0
0.0
0.0
0.0
0.0
0.0
-9.12
0.0
0.0
-8.99
-8.94
-8.9
0.0
0.0
0.0
0.0
0.0
0.0
0.0
0.0
