0.0
0.0
0.0
0.0
0.0
0.0
0.0
0.0
-8.72
0.0
0.0
-8.7
-8.71
-8.71
-8.71
-8.71
0.0
-8.73
0.0
-8.89999999568
-8.71
0.0
-8.7
-8.69
-8.73
-8.73
-8.74
0.0
0.0
0.0
0.0
-8.76
-8.45
-8.76
-8.73
0.0
0.0
0.0
-8.65
-8.74
-8.72
0.0
0.0
0.0
-8.72
-8.72
0.0
0.0
-8.72
0.0
0.0
0.0
0.0
0.0
0.0
0.0
0.0
0.0
0.0
0.0
0.0
-8.64
0.0
0.0
0.0
0.0
0.0
-8.7
-8.61
0.0
0.0
0.0
0.0
0.0
-8.65
0.0
0.0
-8.72
0.0
-8.88998895572
-8.74
0.0
0.0
0.0
-8.72
-8.69
-8.49
-8.85999999698
-8.74
0.0
-8.63
-8.76
0.0
-8.71
-8.75
-8.78
-8.75
0.0
0.0
-8.72
-8.73
-8.72
-8.74
-8.86999226901
-8.8299945883
0.0
0.0
0.0
0.0
-8.54
-8.39
-8.72
-8.74
-8.86999621181
-8.87022673257
0.0
0.0
-8.7
-8.73
-8.73
-8.86999734827
-8.87999999788
-8.73
-8.58
0.0
0.0
0.0
-8.42
-8.39
-8.75
-8.74
-8.73
-8.72
0.0
0.0
-8.71
0.0
-8.41
-8.73
-8.76
0.0
0.0
0.0
0.0
-8.74
0.0
0.0
0.0
0.0
0.0
0.0
0.0
0.0
0.0
0.0
0.0
0.0
0.0
0.0
-8.71
0.0
0.0
0.0
0.0
0.0
0.0
0.0
-8.7
-8.54
0.0
0.0
0.0
0.0
-8.73
0.0
0.0
-8.68
-8.63
0.0
0.0
0.0
0.0
0.0
0.0
-8.67
-8.71
0.0
-8.72
-8.86999814379
0.0
0.0
-8.34
-8.74
-8.74
0.0
-8.72
-8.7761587128
-8.74
-8.2
0.0
-8.74
-8.7
-8.73
-8.72
-8.72
-8.74
-8.76
-8.78
0.0
0.0
0.0
-8.66
-8.81999999852
-8.61
-8.85920207734
-8.48
-8.7
-8.75
0.0
0.0
-8.32
-8.49
-8.72
-8.59
-8.82999870065
-8.77
-8.86031109896
-8.46
0.0
0.0
0.0
-8.76
-8.77
-8.52
-8.76999909046
-8.57
-8.45
0.0
0.0
-8.65
-8.4
-8.44
-8.73
-8.76
-8.72
-8.5
0.0
-8.34
-8.7
0.0
-8.37
-8.75
-8.73
-8.77
0.0
0.0
0.0
0.0
-8.7
-8.73
0.0
0.0
0.0
0.0
-8.73
0.0
0.0
0.0
0.0
0.0
0.0
0.0
0.0
0.0
0.0
0.0
0.0
0.0
0.0
0.0
0.0
0.0
0.0
0.0
0.0
0.0
0.0
-8.72
-8.74
0.0
0.0
0.0
0.0
-8.55
0.0
-8.71
0.0
-8.73
-8.85999999896
0.0
0.0
0.0
-8.36
0.0
-8.43
-8.81999999927
-8.75
-8.72
-8.75
0.0
0.0
0.0
0.0
0.0
-8.76
-8.74
-8.77
-8.73
-8.74
-8.79944145414
0.0
0.0
-8.69
-8.85
-8.79
-8.65
-8.8
-8.82321776927
-8.46
-8.75
0.0
-8.43
-8.71
-8.71
-8.63
-8.77
-8.64
-8.51
-8.75
0.0
0.0
-8.73
-8.42
-8.71
-8.82999936332
-8.72
-8.84525243849
-8.8796090179
-8.88667670694
0.0
0.0
0.0
-8.46
-8.73
-8.73
-8.72
-8.59
-8.56
-8.79972631253
-8.79
0.0
0.0
0.0
-8.62
-8.39
-8.51
-8.73
-8.78
-8.6
-8.74
0.0
0.0
0.0
-8.42
-8.31
-8.58
-8.86999955432
-8.74
0.0
0.0
0.0
-8.43
0.0
-8.75
-8.49
0.0
0.0
0.0
0.0
0.0
0.0
0.0
0.0
0.0
0.0
0.0
0.0
0.0
0.0
0.0
0.0
0.0
0.0
0.0
0.0
0.0
0.0
0.0
0.0
0.0
0.0
0.0
0.0
0.0
-8.49
-8.81
-8.51
-8.75
0.0
0.0
0.0
0.0
0.0
-8.85
-8.74
-8.6
-8.53
-8.76
0.0
0.0
0.0
0.0
0.0
-8.46
-8.29
-8.7
-8.76
-8.74
-8.75
-8.86999968803
0.0
0.0
0.0
-8.35
-8.74
0.0
-8.85999999949
-8.74
-8.75
-8.69
-8.77
0.0
0.0
-8.57
-8.45
-8.72
0.0
-8.74
-8.65
-8.76
-8.75
-8.71
-8.7
-8.74
-8.76999978162
-8.81980841877
-8.81986589314
-8.77
-8.81999999964
0.0
-8.23
-8.37
-8.75
-8.77
-8.7
-8.80999984713
-8.82999989299
-8.75
-8.72
0.0
0.0
0.0
-8.52
-8.74
-8.76767369486
-8.75
-8.7999061252
-8.82
-8.74
-8.5
-8.74
-8.5
-8.71
-8.78
-8.85993428764
-8.79
-8.8699999251
0.0
0.0
0.0
-8.75
-8.83999999975
-8.73
-8.58
-8.73
-8.74
0.0
0.0
0.0
0.0
0.0
-8.74
-8.77
-8.46
0.0
0.0
0.0
-8.35
0.0
0.0
-8.74
0.0
0.0
0.0
0.0
0.0
0.0
0.0
0.0
0.0
0.0
0.0
0.0
0.0
0.0
0.0
0.0
0.0
0.0
0.0
0.0
0.0
0.0
0.0
0.0
0.0
0.0
0.0
-8.73
0.0
0.0
0.0
0.0
0.0
-8.44
-8.54
-8.73
-8.71
-8.75
-8.51
-8.76
-8.7
0.0
0.0
0.0
0.0
-8.49
-8.81
-8.75
-8.62
-8.72
-8.86
-8.73
0.0
0.0
-8.56
-8.46
-8.52
-8.72
0.0
-8.79
-8.66
-8.85
0.0
0.0
-8.34
-8.79999999983
-8.74
-8.47
-8.79999999988
-8.8283715864
-8.84886011048
0.0
0.0
-8.53
-8.71
-8.74
-8.84
-8.80999994757
-8.56
-8.46
-8.84
-8.44
-8.74
-8.77995400135
-8.76
-8.83996780094
-8.73999999991
-8.63
-8.8299999633
-8.43
-8.78
-8.55
-8.65
-8.79997746066
-8.73
-8.82999997431
-7.69
-8.39
-8.52
-8.51
-8.81999999994
-8.76
-8.72
-8.76
-8.6817524751
0.0
-8.31
-8.28
-8.42
-8.74
-8.73
-8.76
-8.89999999996
-8.36
0.0
0.0
0.0
-8.33
0.0
-8.6
-8.75
0.0
0.0
0.0
0.0
0.0
-8.35
0.0
0.0
-8.66
0.0
0.0
0.0
0.0
0.0
0.0
0.0
0.0
0.0
0.0
0.0
0.0
0.0
0.0
0.0
0.0
0.0
0.0
0.0
0.0
-8.71
0.0
0.0
0.0
-8.37
0.0
0.0
0.0
0.0
0.0
0.0
0.0
0.0
0.0
0.0
-8.43
-8.76
-8.73
-8.74
-8.73
0.0
0.0
-8.47
-8.49
-8.51
-8.4599
-8.47
-8.76
-8.77
-8.71
0.0
0.0
0.0
-8.48
-8.55193
-8.73
-8.01
-8.28
-8.78
-8.86
0.0
-8.42
-8.55
-8.55
-8.77
-8.83
-8.75
-8.79999999997
-8.77
-8.62
0.0
-8.48
-8.56
-8.5
-8.61
-8.79999999998
-8.82999998202
-8.73
-8.33
0.0
-8.57
-8.39
-8.74
-8.79
-8.71
-8.62
-8.307
-8.81
0.0
-8.65
-8.75
-8.602351
-8.62
-8.75999999999
-8.78
-8.76
-8.38
-8.64
-8.75
-8.8
-8.75
-8.8
-8.84
-8.74
0.0
-8.26
-8.58
0.0
-8.72
-8.76
-8.6576457
-8.88999998741
-8.88
0.0
0.0
0.0
0.0
-8.76
0.0
0.0
0.0
0.0
0.0
0.0
0.0
-8.36
0.0
-8.79
-8.31
0.0
0.0
0.0
0.0
0.0
0.0
-8.35
0.0
0.0
0.0
0.0
0.0
0.0
0.0
0.0
0.0
0.0
0.0
0.0
0.0
0.0
-8.54
0.0
0.0
0.0
0.0
-8.26
0.0
0.0
0.0
0.0
0.0
0.0
0.0
0.0
0.0
0.0
-8.72
-8.71
-8.71
-8.75
-8.72
-8.72
0.0
0.0
-8.35
0.0
-8.45
0.0
-8.79
-8.72
-8.75
-8.62235199
-8.89
0.0
-8.23
-8.43
-8.74
-8.61
-8.58
-8.79
-8.73
-8.46
-8.76
0.0
0.0
-8.39
-8.81
-8.76
-8.77
-8.639646393
-8.75
-8.82999999119
0.0
-8.55
-8.38
-8.73
-8.61
-8.75
-8.72
-8.8
-8.73
-8.76
0.0
-8.76
-8.8
-8.37
-8.6
-8.79
-8.79999999999
-8.79
-8.4
-8.35
-8.75
-8.83
-8.73
-8.73999999999
-8.86
-8.78
-8.41
-8.64
-8.47
-8.62
-8.76
-8.78
-8.81
-8.85
0.0
-8.35
-8.44
-8.52
-8.78
-8.75
-8.74
-8.76
-8.79
0.0
0.0
-8.34
-8.5
-8.74
0.0
-8.78
-8.67
0.0
0.0
0.0
0.0
0.0
0.0
-8.37
0.0
0.0
0.0
0.0
0.0
0.0
0.0
0.0
0.0
0.0
0.0
0.0
0.0
0.0
0.0
0.0
0.0
0.0
0.0
0.0
0.0
0.0
0.0
0.0
0.0
0.0
0.0
0.0
0.0
-8.82
-8.86
0.0
0.0
0.0
0.0
0.0
0.0
-8.22
-8.74
-8.72
-8.81
-8.37
-8.79
0.0
0.0
0.0
0.0
0.0
0.0
-8.77
-8.73
-8.64
-8.75
-8.88
-8.85
0.0
0.0
0.0
0.0
-8.75
-8.54
-8.75
-8.79
-8.77
-8.41
0.0
0.0
0.0
0.0
-8.64
-8.8
-8.76
-8.75
-8.76
-8.81
-8.53
0.0
-8.77
-8.77
-8.78
-8.79
-8.56
-8.8
-8.36
0.0
-8.18
-8.7
-8.7
-8.74
-8.73
-8.79
-8.77
-8.8
-8.79
0.0
0.0
-8.38
-8.72
-8.74
-8.79
-8.8
-8.49
-8.75
-8.8
-8.3
0.0
-8.79
-8.81
-8.76
-8.76
-8.79
-8.59
0.0
0.0
0.0
-8.75
-8.79
-8.81
-8.59
-8.77
0.0
0.0
0.0
0.0
0.0
-8.56
-8.77
-8.76
0.0
0.0
0.0
0.0
0.0
0.0
0.0
-8.72
0.0
0.0
0.0
0.0
0.0
0.0
0.0
0.0
0.0
0.0
0.0
0.0
0.0
0.0
0.0
0.0
0.0
0.0
0.0
0.0
0.0
0.0
0.0
0.0
0.0
0.0
0.0
0.0
-8.72
-8.73
-8.73
0.0
0.0
0.0
0.0
0.0
-8.23
0.0
0.0
0.0
0.0
-8.86
0.0
0.0
0.0
0.0
-8.76
-8.78
-8.61
-8.85
-8.72
-8.85998422246
0.0
0.0
0.0
-8.38
-8.12
0.0
-8.61
-8.83
-8.74
-8.73
-8.79
-8.9
-8.73
0.0
-8.76
-8.46
-8.84999999383
-8.84
-8.38
-8.82
0.0
0.0
-8.75
-8.8
-8.73
-8.37
-8.77
-8.79
0.0
0.0
0.0
-8.29
-8.46
-8.74
-8.75
-8.74
-8.78
0.0
-8.77
0.0
0.0
0.0
-8.71
-8.73
-8.59
-8.85
-8.35
-8.78
-8.81
0.0
0.0
0.0
0.0
0.0
-8.78
-8.7
-8.74
-8.75
-8.85
-8.51
0.0
0.0
-8.45
0.0
0.0
-8.76
-8.76
0.0
0.0
0.0
0.0
0.0
-8.46
-8.74
-8.76
0.0
0.0
0.0
0.0
0.0
-8.72
-8.74
0.0
0.0
0.0
0.0
0.0
0.0
0.0
0.0
0.0
0.0
0.0
0.0
0.0
0.0
0.0
0.0
0.0
0.0
0.0
0.0
0.0
0.0
-8.71
0.0
0.0
0.0
0.0
0.0
0.0
0.0
0.0
-8.77
-8.51
-8.83
0.0
-8.65
0.0
0.0
0.0
0.0
0.0
0.0
-8.88
0.0
-8.73
0.0
0.0
0.0
-8.74
-8.84
0.0
-8.74
-8.55
-8.88
-8.86
0.0
-8.71
-8.44
-8.74
-8.82
-8.76
-8.82
-8.77
-8.73
0.0
0.0
0.0
-8.76
-8.78
-8.75
-8.62
-8.86
-8.76
-8.66
0.0
0.0
0.0
-8.7
-8.75
-8.71
-8.83
-8.69
-8.74
-8.76
0.0
0.0
0.0
0.0
-8.81
-8.74
-8.78
-8.76
-8.75
0.0
0.0
-8.74
-8.74
-8.76
-8.81
-8.74
0.0
-8.73
0.0
0.0
0.0
-8.75
0.0
-8.85
0.0
0.0
0.0
0.0
-8.76
0.0
-8.66
0.0
0.0
0.0
0.0
-8.76
-8.74
0.0
0.0
0.0
0.0
0.0
0.0
0.0
0.0
0.0
0.0
0.0
0.0
0.0
0.0
0.0
0.0
0.0
0.0
0.0
-8.71
0.0
0.0
0.0
0.0
0.0
0.0
0.0
0.0
0.0
-8.84
0.0
0.0
0.0
0.0
-8.63
0.0
-8.77
0.0
0.0
0.0
0.0
0.0
-8.75
-8.76
-8.74
-8.71
0.0
0.0
-8.74
0.0
0.0
-8.75
-8.85
-8.75
-8.78
0.0
0.0
0.0
0.0
-8.77
-8.73
-8.79
-8.86
0.0
0.0
0.0
0.0
-8.72
-8.76
-8.74
0.0
-8.87
0.0
0.0
0.0
0.0
0.0
-8.77
-8.73
-8.74
0.0
0.0
0.0
0.0
0.0
0.0
-8.63
0.0
-8.87
-8.83
-8.75
0.0
0.0
-8.7
0.0
-8.66
-8.71
-8.75
0.0
0.0
0.0
0.0
0.0
0.0
0.0
0.0
0.0
0.0
0.0
0.0
0.0
0.0
0.0
0.0
0.0
0.0
-8.79
0.0
0.0
0.0
0.0
0.0
0.0
0.0
0.0
-8.77
-8.65
0.0
-8.84
0.0
0.0
-8.75
-8.73
-8.74
-8.86
0.0
0.0
-8.74
-8.73
0.0
-8.76
-8.87
0.0
0.0
-8.72
0.0
0.0
-8.75
-8.81
0.0
0.0
0.0
0.0
0.0
0.0
-8.83
0.0
0.0
-8.74
-8.74
-8.75
0.0
0.0
0.0
0.0
0.0
0.0
0.0
0.0
