0.0
0.0
0.0
0.0
0.0
0.0
0.0
0.0
-6.19
0.0
0.0
-6.18
-6.2
-6.14
-6.15
-6.17
0.0
-6.19
0.0
-7.38
-6.17
0.0
-6.16
-6.12
-6.22
-6.2
-6.08
0.0
0.0
0.0
0.0
-6.23
0.0
-6.21
-6.22
0.0
0.0
0.0
0.0
-6.2
-6.23
0.0
0.0
0.0
-6.19
-6.13
0.0
0.0
0.0
0.0
0.0
0.0
0.0
0.0
0.0
0.0
0.0
0.0
0.0
0.0
0.0
0.0
0.0
0.0
0.0
0.0
0.0
-5.98
0.0
0.0
0.0
0.0
0.0
0.0
0.0
0.0
0.0
-6.18
0.0
-7.4
-6.19
0.0
0.0
0.0
-6.2
0.0
0.0
-7.35
-6.22
0.0
0.0
-6.29
0.0
-6.21
-6.24
-6.32
-6.23
0.0
0.0
-6.18
-6.21
-6.2
-6.2
-7.4
-7.37
0.0
0.0
0.0
0.0
0.0
0.0
-6.21
-6.24
-7.41
-7.42
0.0
0.0
-6.17
-6.18
-6.2
-7.46
-7.33
-6.19
0.0
0.0
0.0
0.0
0.0
0.0
-6.25
-6.2
-6.2
-6.08
0.0
0.0
-6.15
0.0
0.0
-6.22
-6.2
0.0
0.0
0.0
0.0
-6.22
0.0
0.0
0.0
0.0
0.0
0.0
0.0
0.0
0.0
0.0
0.0
0.0
0.0
0.0
-6.14
0.0
0.0
0.0
0.0
0.0
0.0
0.0
-6.15
0.0
0.0
0.0
0.0
0.0
-6.21
0.0
0.0
0.0
0.0
0.0
0.0
0.0
0.0
0.0
0.0
0.0
-6.18
0.0
-6.23
-7.44
0.0
0.0
0.0
-6.21
-6.19
0.0
-6.17
-7.38
-6.15
0.0
0.0
-6.23
0.0
-6.2
-6.21
-6.19
-6.23
-6.23
-6.34
0.0
0.0
0.0
0.0
-7.41
-5.98
-7.47
0.0
-6.16
-6.22
0.0
0.0
0.0
0.0
-6.19
-5.92
-7.39
-6.27
-7.39
0.0
0.0
0.0
0.0
-6.24
-6.31
0.0
-7.39
0.0
0.0
0.0
0.0
0.0
0.0
0.0
-6.19
-6.29
-6.19
0.0
0.0
0.0
-6.16
0.0
0.0
-6.25
-6.22
-6.23
0.0
0.0
0.0
0.0
0.0
-6.11
0.0
0.0
0.0
0.0
-6.19
0.0
0.0
0.0
0.0
0.0
0.0
0.0
0.0
0.0
0.0
0.0
0.0
0.0
0.0
0.0
0.0
0.0
0.0
0.0
0.0
0.0
0.0
-6.18
-6.18
0.0
0.0
0.0
0.0
0.0
0.0
-6.2
0.0
-6.2
-7.41
0.0
0.0
0.0
0.0
0.0
0.0
-7.4
-6.19
-6.2
-6.23
0.0
0.0
0.0
0.0
0.0
-6.3
-6.27
-6.23
-6.18
-6.21
-7.38
0.0
0.0
-6.2
-7.45
-6.34
-6.13
-6.27
-7.42
0.0
-6.27
0.0
0.0
-6.22
-6.19
-6.05
-6.22
-6.1
0.0
-6.21
0.0
0.0
-6.19
0.0
-6.2
-7.42
-6.21
-7.42
-7.46
-7.4
0.0
0.0
0.0
0.0
-6.21
-6.18
-6.22
0.0
0.0
-7.38
-6.23
0.0
0.0
0.0
-5.99
0.0
0.0
-6.18
-6.27
0.0
-6.25
0.0
0.0
0.0
0.0
0.0
0.0
-7.45
-6.22
0.0
0.0
0.0
0.0
0.0
-6.23
0.0
0.0
0.0
0.0
0.0
0.0
0.0
0.0
0.0
0.0
0.0
0.0
0.0
0.0
0.0
0.0
0.0
0.0
0.0
0.0
0.0
0.0
0.0
0.0
0.0
0.0
0.0
0.0
0.0
0.0
0.0
-7.4
0.0
-6.18
0.0
0.0
0.0
0.0
0.0
-7.45
-6.21
-5.97
0.0
-6.26
0.0
0.0
0.0
0.0
0.0
0.0
0.0
-6.11
-6.23
-6.19
-6.2
-7.45
0.0
0.0
0.0
0.0
-6.23
0.0
-7.38
-6.26
-6.26
-6.2
-6.21
0.0
0.0
0.0
0.0
-6.21
0.0
-6.25
-6.07
-6.25
-6.2
-6.2
-6.18
-6.19
-7.4
-7.38
-7.42
-6.22
-7.42
0.0
0.0
0.0
-6.24
-6.28
-6.23
-7.44
-7.45
-6.27
-6.19
0.0
0.0
0.0
0.0
-6.28
-7.37
-6.21
-7.41
-6.35
-6.17
0.0
-6.26
0.0
-6.19
-6.22
-7.47
-6.23
-7.33
0.0
0.0
0.0
-6.2
-7.41
-6.19
0.0
-6.18
-6.22
0.0
0.0
0.0
0.0
0.0
-6.22
-6.23
0.0
0.0
0.0
0.0
0.0
0.0
0.0
-6.18
0.0
0.0
0.0
0.0
0.0
0.0
0.0
0.0
0.0
0.0
0.0
0.0
0.0
0.0
0.0
0.0
0.0
0.0
0.0
0.0
0.0
0.0
0.0
0.0
0.0
0.0
0.0
-6.2
0.0
0.0
0.0
0.0
0.0
0.0
0.0
-6.22
-6.17
-6.21
0.0
-6.2
0.0
0.0
0.0
0.0
0.0
0.0
-7.42
-6.22
0.0
-6.14
-7.48
-6.17
0.0
0.0
0.0
0.0
0.0
-6.24
0.0
-7.53999999964
-6.09
-7.55986589314
0.0
0.0
0.0
-7.42
-6.25
0.0
-7.4799061252
-7.45
-7.46
0.0
0.0
0.0
-6.18
-6.23
-7.47
-7.42
0.0
0.0
-7.46
0.0
-6.24
-7.39
-7.47999999975
-7.46
-7.45993428764
-5.99
-7.44
0.0
-6.23
0.0
-6.11
-7.43
-6.22
-7.45
-6.8
0.0
0.0
0.0
-7.44
-6.3
-6.15
-6.24
-7.27235199
0.0
0.0
0.0
0.0
-6.21
-6.18
-6.28
-7.46
0.0
0.0
0.0
0.0
0.0
0.0
0.0
-6.2
0.0
0.0
0.0
0.0
0.0
0.0
0.0
0.0
-6.03
0.0
0.0
0.0
0.0
0.0
0.0
0.0
0.0
0.0
0.0
0.0
0.0
0.0
0.0
0.0
0.0
0.0
0.0
0.0
0.0
-6.13
0.0
0.0
0.0
0.0
0.0
0.0
0.0
0.0
0.0
0.0
0.0
0.0
0.0
0.0
0.0
-6.11
-6.05
-6.18
-6.12
0.0
0.0
0.0
0.0
0.0
-7.209646393
0.0
-6.19
-7.43
0.0
0.0
0.0
0.0
0.0
-7.2817524751
-6.25
-6.927
-7.0899
-6.26
-7.47
0.0
0.0
0.0
0.0
-7.49999999983
-6.48
-6.17
-7.50321776927
-6.29
0.0
0.0
0.0
0.0
0.0
-5.99
-7.43
-7.56525243849
-7.46999955432
0.0
0.0
0.0
0.0
-6.24
-7.48999968803
-6.17
0.0
-6.28
-7.44
0.0
-6.08
-6.2
-7.162351
0.0
-7.39995400135
0.0
-6.19
0.0
-6.02
-6.22
-7.49999999988
-7.42999978162
-7.55999999991
-6.27
-6.13
0.0
0.0
0.0
0.0
-6.17
-6.25
-7.2376457
-7.48
-7.48
0.0
0.0
0.0
0.0
-6.2
0.0
0.0
0.0
0.0
0.0
0.0
0.0
0.0
0.0
-6.22
0.0
0.0
0.0
0.0
0.0
0.0
0.0
0.0
0.0
0.0
0.0
0.0
0.0
0.0
0.0
0.0
0.0
0.0
0.0
0.0
0.0
0.0
0.0
0.0
0.0
0.0
0.0
0.0
0.0
0.0
0.0
0.0
0.0
0.0
0.0
0.0
0.0
0.0
-6.16
-6.13
-6.15
-6.01
-6.15
-5.99
0.0
0.0
0.0
0.0
0.0
0.0
-6.27
-6.19
-6.18
-7.08193
-7.47
0.0
0.0
0.0
-6.1
0.0
0.0
-6.29
-6.2
0.0
-6.14
0.0
0.0
0.0
-7.49999999994
-6.12
-7.49996780094
-6.62
-6.21
-7.52022673257
0.0
0.0
0.0
-6.16
-5.99
-6.2
-6.22
-6.22
-6.17
-6.14
0.0
-6.2
-7.55
0.0
0.0
-6.29
-7.48667670694
-7.44
0.0
0.0
-6.25
-7.52999984713
-6.13
-7.37
-6.48
-6.22
0.0
-6.01
0.0
0.0
-6.22
-6.21
-7.44
-7.49
0.0
0.0
0.0
0.0
-7.49
-6.21
-6.21
-6.19
-6.25
0.0
0.0
0.0
0.0
-6.19
0.0
-6.2
0.0
0.0
0.0
0.0
0.0
0.0
0.0
0.0
0.0
0.0
0.0
0.0
0.0
0.0
0.0
0.0
0.0
0.0
0.0
0.0
0.0
0.0
0.0
0.0
0.0
0.0
0.0
0.0
0.0
0.0
0.0
0.0
0.0
0.0
0.0
0.0
0.0
-7.51
-7.55
0.0
0.0
0.0
0.0
0.0
0.0
0.0
-6.19
-6.14
-7.51999999996
0.0
-6.03
0.0
0.0
0.0
0.0
0.0
0.0
-7.46999989299
-6.15
0.0
-6.2
-7.5899999251
-7.53997746066
0.0
0.0
0.0
0.0
-6.18
0.0
-6.21
-6.24
-7.45998422246
0.0
0.0
0.0
0.0
0.0
-5.98
-6.22
-6.2
-6.14
-6.23
-7.55998895572
0.0
0.0
-7.50999994757
-6.28
-7.52767369486
-6.23
0.0
-7.5083715864
0.0
0.0
0.0
0.0
-6.12
-6.08
-6.2
-7.47999226901
-6.19
-6.18
-6.25
0.0
0.0
0.0
-6.05
-6.21
-7.5199945883
-7.49999999997
0.0
-6.14
-7.5299999633
0.0
0.0
-6.18
-7.49999999998
-6.14
-6.2
-6.28
0.0
0.0
0.0
0.0
-6.03
-6.19
-7.52
0.0
-6.15
0.0
0.0
0.0
0.0
0.0
0.0
-6.06
-6.19
0.0
0.0
0.0
0.0
0.0
0.0
0.0
-6.06
0.0
0.0
0.0
0.0
0.0
0.0
0.0
0.0
0.0
0.0
0.0
0.0
0.0
0.0
0.0
0.0
0.0
0.0
0.0
0.0
0.0
0.0
0.0
0.0
0.0
0.0
0.0
0.0
0.0
0.0
-6.16
0.0
0.0
0.0
0.0
0.0
0.0
0.0
0.0
0.0
0.0
-7.54999997431
0.0
0.0
0.0
0.0
-5.99
-6.1
0.0
-7.54886011048
-6.06
-7.5061587128
0.0
0.0
0.0
0.0
0.0
0.0
0.0
-7.53999999999
-6.2
-6.01
-7.50999998202
-7.58999998741
-5.96
0.0
-6.26
0.0
-7.55031109896
-7.54920207734
0.0
-7.54944145414
0.0
0.0
-5.99
-7.51999621181
-6.14
0.0
-6.24
-6.18
0.0
0.0
0.0
0.0
0.0
-5.99
-6.09
-6.17
-6.23
0.0
-6.2
0.0
0.0
0.0
0.0
0.0
0.0
-7.51999999999
0.0
-7.48999999119
-7.51999734827
0.0
0.0
0.0
0.0
0.0
-6.07
0.0
-6.01
-5.98
-7.5496090179
0.0
0.0
0.0
0.0
0.0
0.0
-6.18
-6.18
0.0
0.0
0.0
0.0
0.0
0.0
-5.99
-6.05
0.0
0.0
0.0
0.0
0.0
0.0
0.0
0.0
0.0
0.0
0.0
0.0
0.0
0.0
0.0
0.0
0.0
0.0
0.0
0.0
0.0
0.0
0.0
0.0
0.0
0.0
0.0
0.0
0.0
0.0
0.0
0.0
0.0
0.0
0.0
0.0
0.0
0.0
0.0
0.0
-7.53
0.0
0.0
0.0
0.0
0.0
0.0
0.0
0.0
-7.56999999383
0.0
0.0
0.0
0.0
0.0
0.0
-7.55999814379
0.0
-6.0
0.0
-7.58999999568
-7.56999999698
0.0
0.0
0.0
-6.1
-7.52972631253
-6.13
-7.52980841877
-6.01
-6.18
0.0
0.0
0.0
-5.98
-6.27
0.0
0.0
-7.55999870065
-6.19
0.0
0.0
0.0
0.0
0.0
-6.08
-6.1
-7.54999999788
0.0
0.0
-6.13
0.0
0.0
0.0
0.0
-7.51
-6.11
-6.0
0.0
-6.16
0.0
0.0
0.0
0.0
-6.05
-7.51
-6.14
0.0
0.0
0.0
0.0
0.0
-6.07
0.0
-7.53
0.0
0.0
0.0
0.0
0.0
0.0
0.0
0.0
0.0
0.0
0.0
-6.01
0.0
0.0
0.0
0.0
0.0
0.0
0.0
0.0
0.0
0.0
0.0
0.0
0.0
0.0
0.0
0.0
0.0
0.0
0.0
0.0
0.0
0.0
0.0
0.0
0.0
0.0
0.0
0.0
0.0
0.0
-7.57
0.0
0.0
0.0
0.0
0.0
0.0
-6.06
0.0
0.0
0.0
0.0
0.0
0.0
0.0
0.0
0.0
0.0
0.0
0.0
0.0
0.0
-6.17
-7.56999999852
-6.02
0.0
0.0
0.0
0.0
0.0
0.0
0.0
-6.17
-7.55999909046
0.0
0.0
0.0
0.0
0.0
-6.08
-6.01
0.0
-7.55999936332
0.0
0.0
0.0
0.0
0.0
-6.06
0.0
-6.15
0.0
0.0
0.0
0.0
0.0
0.0
0.0
0.0
-7.57
-7.51999999999
0.0
0.0
0.0
0.0
0.0
0.0
0.0
0.0
0.0
0.0
0.0
0.0
0.0
0.0
0.0
0.0
0.0
0.0
0.0
0.0
0.0
0.0
0.0
0.0
0.0
0.0
-6.03
0.0
0.0
0.0
0.0
0.0
0.0
0.0
0.0
-6.04
0.0
0.0
-7.52999999896
0.0
0.0
0.0
0.0
0.0
-7.57
0.0
0.0
0.0
0.0
0.0
-6.01
-7.56999999927
0.0
0.0
0.0
0.0
0.0
-6.15
-6.07
0.0
0.0
0.0
0.0
0.0
0.0
-7.50999999949
0.0
0.0
-5.97
0.0
0.0
0.0
0.0
0.0
0.0
0.0
0.0
0.0
0.0
