0.0
0.0
0.0
0.0
0.0
0.0
0.0
0.0
-9.06
0.0
0.0
-9.03
-9.03
-9.04
-9.04
-9.01
0.0
-9.03
0.0
-9.18
-9.01
0.0
-9.02
-9.02
-9.04
-9.05
-9.06
0.0
0.0
0.0
0.0
-9.07
0.0
-9.05
-9.07
0.0
0.0
0.0
-8.79
-9.04
-9.06
0.0
0.0
0.0
-9.04
-9.02
0.0
0.0
-9.01
0.0
0.0
0.0
0.0
0.0
0.0
0.0
0.0
0.0
0.0
0.0
0.0
0.0
0.0
0.0
0.0
0.0
0.0
-9.03
-8.53
0.0
0.0
0.0
0.0
0.0
-8.76
0.0
0.0
-9.03
0.0
-9.17
-9.06
0.0
0.0
0.0
-9.03
-8.9
-8.65
-9.16
-9.08
0.0
-8.65
-9.1
0.0
-9.06
-9.07
-9.08
-9.09
0.0
0.0
-9.04
-9.05
-9.06
-9.09
-9.16
-9.09
0.0
0.0
0.0
0.0
-8.81
0.0
-9.06
-9.05
-9.15
-9.15
0.0
0.0
-9.03
-9.04
-9.06
-9.17
-9.18
-9.06
-8.83
0.0
0.0
0.0
0.0
0.0
-9.07
-9.06
-9.06
-9.04
0.0
0.0
-9.02
0.0
-8.62
-9.07
-9.08
0.0
0.0
0.0
0.0
-9.06
0.0
0.0
0.0
0.0
0.0
0.0
0.0
0.0
0.0
0.0
0.0
0.0
0.0
0.0
-9.01
0.0
0.0
0.0
0.0
0.0
0.0
0.0
-9.02
0.0
0.0
0.0
0.0
0.0
-9.06
0.0
0.0
-9.0
0.0
0.0
0.0
0.0
0.0
0.0
0.0
-8.88
-9.02
0.0
-9.06
-9.13
0.0
0.0
0.0
-9.04
-9.05
0.0
-9.0
-9.06
-9.05
0.0
0.0
-9.07
-8.98
-9.04
-9.06
-9.03
-9.07
-9.08
-9.13
0.0
0.0
0.0
-8.99
-9.08
-8.92
-9.13
-8.68
-9.04
-9.09
0.0
0.0
0.0
-8.71
-9.04
-8.9
-9.1
-9.11
-9.12
-8.71
0.0
0.0
0.0
-9.09
-9.11
-8.71
-9.03
-8.85
-8.65
0.0
0.0
0.0
-8.57
-8.7
-9.03
-9.1
-9.03
-8.58
0.0
0.0
-9.03
0.0
0.0
-9.06
-9.07
-9.05
0.0
0.0
0.0
0.0
-8.98
-9.04
0.0
0.0
0.0
0.0
-9.05
0.0
0.0
0.0
0.0
0.0
0.0
0.0
0.0
0.0
0.0
0.0
0.0
0.0
0.0
0.0
0.0
0.0
0.0
0.0
0.0
0.0
0.0
-9.04
-9.03
0.0
0.0
0.0
0.0
0.0
0.0
-9.04
0.0
-9.08
-9.16
0.0
0.0
0.0
0.0
0.0
-8.52
-9.1
-9.07
-9.03
-9.06
0.0
0.0
0.0
0.0
0.0
-9.06
-9.08
-9.12
-9.05
-9.08
-9.08
0.0
0.0
-9.03
-9.12
-9.11
-8.99
-9.11
-9.0699999633
-8.71
-9.09
0.0
-8.54
-9.06
-9.05
-8.95
-9.11
-8.98
-8.73
-9.07
0.0
0.0
-9.04
-8.6
-9.05
-9.11
-9.09
-9.10999997431
-9.14
-9.16999998202
0.0
0.0
0.0
-8.69
-9.05
-9.07
-9.06
-8.91
-8.82
-9.04999998741
-9.14
0.0
0.0
0.0
-8.95
-8.51
-8.77
-9.04
-9.12
-8.93
-9.08
0.0
0.0
0.0
-8.61
0.0
-8.87
-9.13
-9.06
0.0
0.0
0.0
-8.63
0.0
-9.04
-8.71
0.0
0.0
0.0
0.0
0.0
0.0
0.0
0.0
0.0
0.0
0.0
0.0
0.0
0.0
0.0
0.0
0.0
0.0
0.0
0.0
0.0
0.0
0.0
0.0
0.0
0.0
0.0
0.0
0.0
-8.74
-9.06
-8.74
-9.02
0.0
0.0
0.0
0.0
0.0
-9.11
-9.08
-8.9
-8.78
-9.12
0.0
0.0
0.0
0.0
0.0
-8.57
0.0
-8.98
-9.11
-9.08
-9.1
-9.14
0.0
0.0
0.0
0.0
-9.07
0.0
-9.14
-9.09
-9.1
-9.04
-9.09
0.0
0.0
-8.85
-8.65
-9.04
0.0
-9.08
-9.0
-9.1
-9.07
-9.05
-9.07
-9.05
-9.04
-9.06
-9.06999999119
-9.1
-9.11
0.0
0.0
-8.63
-9.08
-9.07
-9.03
-9.09
-9.08
-9.09
-9.05
0.0
0.0
0.0
-8.78
-9.08
-8.98999999383
-9.1
-9.04
-9.15
-9.05
-8.64
-9.08
-8.76
-9.07
-9.1
-9.1
-9.11
-9.16
0.0
0.0
0.0
-9.07
-9.09
-9.05
-8.91
-9.03
-9.07
0.0
0.0
0.0
0.0
0.0
-9.11
-9.13
-8.67
0.0
0.0
0.0
0.0
0.0
0.0
-9.03
0.0
0.0
0.0
0.0
0.0
0.0
0.0
0.0
0.0
0.0
0.0
0.0
0.0
0.0
0.0
0.0
0.0
0.0
0.0
0.0
0.0
0.0
0.0
0.0
0.0
0.0
0.0
-9.1
0.0
0.0
0.0
0.0
0.0
-8.66
-8.86
-9.07
-9.02
-9.11
-8.75
-9.07
-9.0
0.0
0.0
0.0
0.0
-8.72
-9.08
-9.03
-8.95
-9.09
-9.19
-9.06
0.0
0.0
-8.85
-8.69
-8.81
-9.09
0.0
-9.11
-9.0
-9.1599061252
0.0
0.0
0.0
-9.08
-9.09
-8.77
-9.03993428764
-9.12
-9.12
0.0
0.0
-8.81
-9.02
-9.06
-9.13
-9.07
-8.86
-8.76
-9.14999999568
-8.66
-9.08
-9.02
-9.0
-9.10999999698
-8.99995400135
-8.95
-9.1
-8.8
-9.09
-8.86
-8.98
-9.06
-9.07
-9.12
-7.86
-8.55
-8.75
-8.77
-9.1
-9.09
-9.08
-9.07
-8.772351
0.0
-8.5
0.0
-8.68
-9.1
-9.04
-9.09
-9.17
-8.61
0.0
0.0
0.0
-8.49
0.0
-8.92
-9.1
0.0
0.0
0.0
0.0
0.0
0.0
0.0
0.0
-8.88
0.0
0.0
0.0
0.0
0.0
0.0
0.0
0.0
0.0
0.0
0.0
0.0
0.0
0.0
0.0
0.0
0.0
0.0
0.0
0.0
-8.89
0.0
0.0
0.0
0.0
0.0
0.0
0.0
0.0
0.0
0.0
0.0
0.0
0.0
0.0
-8.56
-9.14
-9.1
-9.07
-8.94
0.0
0.0
-8.71
-8.72
-8.73
-8.7876457
-8.82
-9.1
-9.06
-9.08
0.0
0.0
0.0
-8.77
-8.83235199
-9.06
-8.16
-8.45
-9.13
-9.18
0.0
-8.67
-8.89
-8.87
-9.02
-9.15
-9.18
-9.06321776927
-9.1
-8.94
0.0
-8.76
-8.9
-8.81
-8.93
-9.08
-9.13996780094
-9.00999999788
0.0
0.0
-8.89
-8.64
-9.07
-9.06999999852
-9.03
-8.91
-8.497
-9.1
0.0
-8.99
-9.08
-8.829646393
-8.87
-8.97997746066
-9.14
-9.08
-8.45
-8.98
-9.1
-9.06
-9.00999999896
-9.14
-9.14
-9.13
0.0
0.0
-8.89
0.0
-9.1
-9.1
-8.9017524751
-9.15
-9.21
0.0
0.0
0.0
0.0
-9.12
0.0
0.0
0.0
0.0
0.0
0.0
0.0
-8.58
0.0
-9.13
-8.53
0.0
0.0
0.0
0.0
0.0
0.0
0.0
0.0
0.0
0.0
0.0
0.0
0.0
0.0
0.0
0.0
0.0
0.0
0.0
0.0
0.0
-8.72
0.0
0.0
0.0
0.0
0.0
0.0
0.0
0.0
0.0
-9.01
0.0
0.0
0.0
0.0
0.0
-9.05
-9.06
-9.0
-9.1
-9.04
-9.1
0.0
0.0
-8.55
0.0
-8.74
0.0
-9.12
-9.06
-9.11
-8.5999
-9.2
0.0
0.0
-8.57
-9.12
-8.95
-8.92
-9.14
-9.07
-8.75
-9.14
0.0
0.0
-8.64
-9.1
-9.15
-9.03998422246
-8.71193
-9.17
-9.08022673257
0.0
-8.9
-8.58
-9.09
-8.93
-9.08
-9.06
-9.14
-9.12
-9.16
0.0
-9.09
-9.14
-8.56
-8.91
-9.1
-9.06525243849
-9.04999999927
-8.65
-8.49
-9.09
-9.10999999949
-9.12
-9.01
-9.2
-9.13
-8.7
-8.97
-8.74
-8.9
-9.11
-9.13
-9.08
-9.18
0.0
-8.54
-8.71
-8.83
-9.09
-9.1
-9.09
-9.11
-9.12
0.0
0.0
-8.6
-8.75
-9.1
0.0
-9.14
-9.06
0.0
0.0
0.0
0.0
0.0
0.0
-8.59
0.0
0.0
0.0
0.0
0.0
0.0
0.0
0.0
0.0
0.0
0.0
0.0
0.0
0.0
0.0
0.0
0.0
0.0
0.0
0.0
0.0
0.0
0.0
0.0
0.0
0.0
0.0
0.0
0.0
-9.11
-9.19
0.0
-8.9
0.0
0.0
0.0
0.0
0.0
-9.01
-9.03
-9.1
-8.53
-9.22
0.0
0.0
0.0
0.0
0.0
0.0
-9.02
-9.05
-8.98
-9.17
-9.20999999964
-9.15998895572
0.0
0.0
0.0
0.0
-9.13
-8.8
-9.11
-9.12
-9.03999226901
-8.76
0.0
0.0
0.0
0.0
-8.99
-9.14
-9.12
-9.11
-9.12
-9.0999945883
-8.77
0.0
-9.0
-9.12
-9.04667670694
-9.12
-8.88
-9.06767369486
-8.65
0.0
0.0
-9.06
-9.09
-9.14
-9.09
-9.05999621181
-9.13
-9.2
-9.12
0.0
0.0
-8.61
-9.1
-9.1
-9.07999734827
-9.10999999975
-8.77
-9.16
-9.11999814379
0.0
0.0
-9.14
-9.1
-9.13
-9.11
-9.12
-8.87
0.0
0.0
0.0
-9.15
-9.16
-9.13
-8.92
-9.15
0.0
0.0
0.0
0.0
0.0
-8.82
-9.17
-9.12
0.0
0.0
0.0
0.0
0.0
0.0
0.0
-8.98
0.0
0.0
0.0
0.0
0.0
0.0
0.0
0.0
0.0
0.0
0.0
0.0
0.0
0.0
0.0
0.0
0.0
0.0
0.0
0.0
-9.05
0.0
0.0
0.0
0.0
0.0
0.0
0.0
-9.12
-9.11
-9.06
0.0
0.0
0.0
0.0
0.0
0.0
0.0
0.0
0.0
-8.99
-9.16999999983
0.0
0.0
0.0
0.0
-9.15
-9.2
-8.93
-9.11999870065
-9.01
-9.1061587128
-9.03
0.0
0.0
-8.58
0.0
0.0
-8.95
-9.12
-9.1
-9.12
-9.07999909046
-9.21999936332
-9.09
0.0
-9.11
-8.71
-9.11031109896
-9.1283715864
-8.89
-9.10886011048
0.0
0.0
-9.13
-9.06999999988
-9.09
-8.56
-9.12
-9.22
0.0
0.0
0.0
-8.64
-8.75
-9.11
-9.09
-9.16
-9.13
0.0
-9.14
0.0
0.0
0.0
-9.09
-9.1
-8.91
-9.14
-8.54
-9.04999999991
-9.05999955432
0.0
0.0
0.0
0.0
0.0
-9.17
-9.12
-9.1
-9.12
-9.11999968803
-8.81
0.0
0.0
-8.75
0.0
0.0
-9.14
-9.12
0.0
0.0
0.0
0.0
0.0
-8.86
-9.12
-9.15
0.0
0.0
0.0
0.0
0.0
-9.11
-9.12
0.0
0.0
0.0
0.0
0.0
0.0
0.0
0.0
0.0
0.0
0.0
0.0
0.0
0.0
0.0
-9.04
0.0
0.0
0.0
0.0
0.0
0.0
-9.11
0.0
0.0
0.0
0.0
0.0
0.0
0.0
-9.01
-9.18
-9.06
-9.16
0.0
-9.1
0.0
0.0
0.0
0.0
0.0
-9.05
-9.20999999994
0.0
-9.15
0.0
0.0
0.0
-9.11
-9.16999999996
-8.51
-9.15
-8.81
-9.20999999997
-9.17999978162
0.0
-9.07
-8.77
-9.12
-9.08920207734
-9.18
-9.08944145414
-9.14
-9.12
0.0
0.0
0.0
-9.15
-9.13
-9.12
-8.97
-9.1896090179
-9.08
-9.11
0.0
0.0
0.0
-9.07
-9.17
-9.06
-9.14972631253
-9.11
-9.13
-9.13
0.0
0.0
0.0
0.0
-9.10999999998
-9.14
-9.15
-9.14
-9.11
0.0
0.0
-9.12
-9.11
-9.16
-9.12999999999
-9.11
0.0
-9.13
0.0
0.0
0.0
-9.15
0.0
-9.14
0.0
0.0
0.0
0.0
-9.12
0.0
-9.08
0.0
0.0
0.0
0.0
-9.15
-9.09
0.0
0.0
0.0
0.0
0.0
0.0
0.0
0.0
0.0
0.0
0.0
0.0
0.0
0.0
0.0
0.0
0.0
0.0
0.0
-9.06
0.0
0.0
0.0
0.0
0.0
0.0
0.0
0.0
0.0
-9.16
0.0
0.0
0.0
0.0
-9.06
0.0
-9.14
0.0
0.0
0.0
0.0
-9.05
-9.13
-9.16
-9.12
-9.13
0.0
0.0
-9.11
-9.09
0.0
-9.09
-9.17999984713
-9.13
-9.15
0.0
0.0
0.0
0.0
-9.16
-9.12
-9.14
-9.16980841877
0.0
0.0
0.0
0.0
-9.1
-9.16
-9.13
0.0
-9.20986589314
0.0
0.0
0.0
0.0
0.0
-9.17
-9.09
-9.09
0.0
0.0
0.0
0.0
0.0
0.0
-9.07
0.0
-9.18999999999
-9.12999999999
-9.15
0.0
0.0
-9.09
0.0
-9.1
-9.09
-9.15
0.0
0.0
0.0
0.0
-9.1
0.0
0.0
0.0
0.0
0.0
0.0
0.0
0.0
0.0
0.0
0.0
-9.01
0.0
-9.2
0.0
-8.99
-9.01
0.0
0.0
0.0
-9.05
0.0
-9.17
-9.09
-9.11
-9.13999989299
0.0
-9.02
-9.12
-9.12
-9.11
-9.15
0.0
-9.04
-9.09
-9.11
0.0
-9.11
-9.1799999251
0.0
0.0
-9.1
0.0
0.0
-9.12
-9.19
0.0
0.0
0.0
0.0
0.0
0.0
-9.07999994757
0.0
0.0
-9.12
-9.12
-9.14
0.0
0.0
0.0
0.0
-9.07
0.0
0.0
0.0
