0.0
0.0
0.0
0.0
0.0
0.0
0.0
0.0
-1.15
0.0
0.0
-1.13
-1.12
-1.11
-1.12
-1.12
0.0
-1.15
0.0
-1.37
-1.11
0.0
-1.11
-1.11
-1.16
-1.16
-1.13
0.0
0.0
0.0
0.0
-1.18
0.0
-1.17
-1.16
0.0
0.0
0.0
-1.06
-1.16
-1.16
0.0
0.0
0.0
-1.14
-1.12
0.0
0.0
-1.1
0.0
0.0
0.0
0.0
0.0
0.0
0.0
0.0
0.0
0.0
0.0
0.0
-0.99
0.0
0.0
0.0
0.0
0.0
-1.13
0.0
0.0
0.0
0.0
0.0
0.0
-1.05
0.0
0.0
-1.15
0.0
-1.37
-1.13
0.0
0.0
0.0
-1.15
-1.06
0.0
-1.35
-1.16
0.0
-1.02
-1.19
0.0
-1.14
-1.19
-1.22
-1.19
0.0
0.0
-1.14
-1.15
-1.15
-1.13
-1.36
-1.32
0.0
0.0
0.0
0.0
-0.92
0.0
-1.13
-1.19
-1.34
-2.04
0.0
0.0
-1.12
-1.14
-1.15
-2.02
-1.34
-1.15
-0.94
0.0
0.0
0.0
0.0
0.0
-1.2
-1.16
-1.15
-1.11
0.0
0.0
-1.11
0.0
0.0
-1.15
-1.15
0.0
0.0
0.0
0.0
-1.15
0.0
0.0
0.0
0.0
0.0
0.0
0.0
0.0
0.0
0.0
0.0
0.0
0.0
0.0
-1.1
0.0
0.0
0.0
0.0
0.0
0.0
0.0
-1.1
0.0
0.0
0.0
0.0
0.0
-1.18
0.0
0.0
-1.08
0.0
0.0
0.0
0.0
0.0
0.0
0.0
-1.06
-1.12
0.0
-1.17
-1.35
0.0
0.0
0.0
-1.15
-1.12
0.0
-1.1
-1.99
-1.12
0.0
0.0
-1.18
-1.07
-1.13
-1.16
-1.12
-1.16
-1.19
-1.26
0.0
0.0
0.0
-1.08
-1.32
-1.05
-1.37
0.0
-1.12
-1.15
0.0
0.0
0.0
0.0
-1.13
-0.98
-1.35
-1.22
-1.35
0.0
0.0
0.0
0.0
-1.21
-1.2
0.0
-1.97
-0.95
0.0
0.0
0.0
-1.05
0.0
0.0
-1.15
-1.22
-1.14
0.0
0.0
0.0
-1.11
0.0
0.0
-1.19
-1.15
-1.15
0.0
0.0
0.0
0.0
-1.08
-1.14
0.0
0.0
0.0
0.0
-1.14
0.0
0.0
0.0
0.0
0.0
0.0
0.0
0.0
0.0
0.0
0.0
0.0
0.0
0.0
0.0
0.0
0.0
0.0
0.0
0.0
0.0
0.0
-1.14
-1.12
0.0
0.0
0.0
0.0
0.0
0.0
-1.15
0.0
-1.17
-1.34
0.0
0.0
0.0
0.0
0.0
0.0
-1.33
-1.15
-1.14
-1.18
0.0
0.0
0.0
0.0
0.0
-1.21
-1.18
-1.15
-1.12
-1.16
-1.32
0.0
0.0
-1.14
-1.33
-1.23
-1.08
-1.24
-1.33
0.0
-1.21
0.0
0.0
-1.15
-1.12
-1.06
-1.16
-1.07
0.0
-1.14
0.0
0.0
-1.16
0.0
-1.14
-1.34
-1.15
-1.35
-1.37
-1.38
0.0
0.0
0.0
0.0
-1.15
-1.15
-1.15
-1.02
-0.9
-2.01
-1.17
0.0
0.0
0.0
-1.05
0.0
0.0
-1.12
-1.23
-1.02
-1.21
0.0
0.0
0.0
0.0
0.0
-1.0
-1.35
-1.16
0.0
0.0
0.0
0.0
0.0
-1.16
0.0
0.0
0.0
0.0
0.0
0.0
0.0
0.0
0.0
0.0
0.0
0.0
0.0
0.0
0.0
0.0
0.0
0.0
0.0
0.0
0.0
0.0
0.0
0.0
0.0
0.0
0.0
0.0
0.0
0.0
0.0
-1.93
0.0
-1.13
0.0
0.0
0.0
0.0
0.0
-1.36
-1.2
-1.01
0.0
-1.15
0.0
0.0
0.0
0.0
0.0
0.0
0.0
-1.09
-1.17
-1.15
-1.15
-1.98
0.0
0.0
0.0
0.0
-1.2
0.0
-1.36
-1.2
-1.23
-1.13
-1.17
0.0
0.0
-0.97
0.0
-1.16
0.0
-1.2
-1.06
-1.17
-1.15
-1.15
-1.14
-1.15
-1.94
-1.33
-1.35
-1.18
-1.34
0.0
0.0
0.0
-1.18
-1.21
-1.18
-1.97
-1.35
-1.18
-1.14
0.0
0.0
0.0
-0.89
-1.19
-2.1
-1.16
-1.95
-1.25
-1.13
0.0
-1.19
0.0
-1.15
-1.17
-2.01
-1.16
-1.37
0.0
0.0
0.0
-1.17
-1.98
-1.14
-1.02
-1.13
-1.18
0.0
0.0
0.0
0.0
0.0
-1.16
-1.17
0.0
0.0
0.0
0.0
0.0
0.0
0.0
-1.16
0.0
0.0
0.0
0.0
0.0
0.0
0.0
0.0
0.0
0.0
0.0
0.0
0.0
0.0
0.0
0.0
0.0
0.0
0.0
0.0
0.0
0.0
0.0
0.0
0.0
0.0
0.0
-1.13
0.0
0.0
0.0
0.0
0.0
0.0
-0.91
-1.14
-1.12
-1.15
0.0
-1.15
-1.1
0.0
0.0
0.0
0.0
0.0
-1.35
-1.13
-1.05
-1.19
-1.39
-1.14
0.0
0.0
-0.94
0.0
-0.89
-1.17
0.0
-1.37
-1.07
-1.4
0.0
0.0
0.0
-1.93
-1.16
0.0
-1.37
-1.97
-1.98
0.0
0.0
-0.94
-1.12
-1.17
-1.34
-1.32
-0.96
0.0
-1.39
0.0
-1.17
-2.0
-1.34
-2.02
-1.35
-1.05
-1.35
0.0
-1.18
-0.96
-1.08
-1.94
-1.18
-1.35
-5.37
0.0
0.0
0.0
-1.34
-1.2
-1.17
-1.17
-6.1699
0.0
0.0
0.0
0.0
-1.13
-1.14
-1.19
-1.36
0.0
0.0
0.0
0.0
0.0
0.0
-1.02
-1.15
0.0
0.0
0.0
0.0
0.0
0.0
0.0
0.0
-1.05
0.0
0.0
0.0
0.0
0.0
0.0
0.0
0.0
0.0
0.0
0.0
0.0
0.0
0.0
0.0
0.0
0.0
0.0
0.0
0.0
-1.09
0.0
0.0
0.0
0.0
0.0
0.0
0.0
0.0
0.0
0.0
0.0
0.0
0.0
0.0
0.0
-1.21
-1.18
-1.18
-1.09
0.0
0.0
0.0
0.0
0.0
-6.18193
0.0
-1.15
-1.36
-1.15
0.0
0.0
0.0
0.0
-6.252351
-1.19
-5.66
-5.91
-1.18
-1.42
0.0
0.0
-0.94
-0.95
-1.37
-1.38
-1.3
-1.38
-1.19
-1.03
0.0
0.0
-0.99
0.0
-1.04
-1.95
-1.44
-1.34
0.0
0.0
-0.96
0.0
-1.17
-1.38
-1.14
-1.01
-5.997
-1.36
0.0
-1.07
-1.15
-6.2676457
-1.03
-1.38
-1.23
-1.17
0.0
-1.07
-1.15
-1.39
-1.36
-1.4
-1.21
-1.24
0.0
0.0
-0.99
0.0
-1.16
-1.19
-6.33235199
-1.99
-1.41
0.0
0.0
0.0
0.0
-1.16
0.0
0.0
0.0
0.0
0.0
0.0
0.0
0.0
0.0
-1.2
0.0
0.0
0.0
0.0
0.0
0.0
0.0
0.0
0.0
0.0
0.0
0.0
0.0
0.0
0.0
0.0
0.0
0.0
0.0
0.0
0.0
0.0
0.0
0.0
0.0
0.0
0.0
0.0
0.0
0.0
0.0
0.0
0.0
0.0
0.0
0.0
0.0
0.0
-1.12
-1.14
-1.1
-1.23
-1.13
-1.15
0.0
0.0
0.0
0.0
0.0
0.0
-1.2
-1.15
-1.16
-6.309646393
-1.35
0.0
0.0
0.0
-1.18
-1.04
-1.0
-1.22
-1.13
0.0
-1.27
0.0
0.0
0.0
-1.39
-1.27
-1.41
-6.3417524751
-1.31
-1.41
0.0
-0.98
0.0
-1.15
-1.04
-1.16
-1.2
-1.18
-1.26
-1.27
0.0
-1.15
-1.41
0.0
-1.01
-1.21
-1.38
-1.37
0.0
0.0
-1.15
-1.42
-1.23
-1.91
-1.42
-1.18
0.0
-1.07
0.0
-1.0
-1.17
-1.17
-1.35
-1.4
0.0
0.0
0.0
-0.9
-1.37
-1.16
-1.17
-1.15
-1.17
0.0
0.0
0.0
0.0
-1.14
0.0
-1.17
-1.15
0.0
0.0
0.0
0.0
0.0
0.0
0.0
0.0
0.0
0.0
0.0
0.0
0.0
0.0
0.0
0.0
0.0
0.0
0.0
0.0
0.0
0.0
0.0
0.0
0.0
0.0
0.0
0.0
0.0
0.0
0.0
0.0
0.0
0.0
0.0
0.0
-1.38
-1.45
0.0
0.0
0.0
0.0
0.0
0.0
0.0
-1.12
-1.11
-1.42
0.0
-1.31
0.0
0.0
0.0
0.0
0.0
0.0
-1.41
-1.14
-1.06
-1.3
-1.43
-1.42
0.0
0.0
0.0
0.0
-1.16
-0.86
-1.2
-1.17
-1.38
0.0
0.0
0.0
0.0
0.0
-1.08
-1.18
-1.21
-1.2
-1.17
-1.4
0.0
0.0
-1.39
-1.2
-1.4
-1.19
-0.91
-1.43
0.0
0.0
0.0
-1.14
-1.22
-1.22
-1.18
-1.4
-1.17
-1.3
-1.17
0.0
0.0
0.0
-1.16
-1.16
-1.42
-1.38
0.0
-1.26
-1.41
0.0
0.0
-1.15
-1.42
-1.23
-1.14
-1.2
-1.07
0.0
0.0
0.0
-1.23
-1.17
-1.39
-1.01
-1.24
0.0
0.0
0.0
0.0
0.0
-0.9
-1.26
-1.15
0.0
0.0
0.0
0.0
0.0
0.0
0.0
-1.09
0.0
0.0
0.0
0.0
0.0
0.0
0.0
0.0
0.0
0.0
0.0
0.0
0.0
0.0
0.0
0.0
0.0
0.0
0.0
0.0
-1.11
0.0
0.0
0.0
0.0
0.0
0.0
0.0
-1.16
-1.15
-1.12
0.0
0.0
0.0
0.0
0.0
0.0
0.0
0.0
0.0
0.0
-1.47
0.0
0.0
0.0
0.0
-1.25
-1.28
-1.01
-1.44
-1.11
-1.46
0.0
0.0
0.0
0.0
0.0
0.0
-1.02
-1.42
-1.17
-1.2
-1.38
-1.43
-1.15
0.0
-1.2
0.0
-1.46
-1.44
0.0
-1.43
0.0
0.0
-1.19
-1.41
-1.2
0.0
-1.16
-1.32
0.0
0.0
0.0
0.0
0.0
-1.19
-1.17
-1.26
-1.17
0.0
-1.17
0.0
0.0
0.0
-1.15
-1.19
-0.99
-1.43
0.0
-1.38
-1.4
0.0
0.0
0.0
0.0
0.0
-1.26
-1.21
-1.2
-1.19
-1.44
0.0
0.0
0.0
0.0
0.0
0.0
-1.16
-1.15
0.0
0.0
0.0
0.0
0.0
0.0
-1.22
-1.26
0.0
0.0
0.0
0.0
0.0
-1.16
-1.22
0.0
0.0
0.0
0.0
0.0
0.0
0.0
0.0
0.0
0.0
0.0
0.0
0.0
0.0
0.0
0.0
0.0
0.0
0.0
0.0
0.0
0.0
-1.17
0.0
0.0
0.0
0.0
0.0
0.0
0.0
0.0
-1.25
-1.01
-1.43
0.0
-1.17
0.0
0.0
0.0
0.0
0.0
0.0
-1.47
0.0
-1.22
0.0
0.0
0.0
-1.18
-1.46
0.0
-1.21
-0.94
-1.43
-1.46
0.0
-1.16
0.0
-1.21
-1.43
-1.28
-1.43
-1.22
-1.13
0.0
0.0
0.0
-1.26
-1.18
-1.22
-1.04
-1.46
-1.17
-1.18
0.0
0.0
0.0
-1.14
-1.25
-1.14
-1.45
-1.17
-1.2
-1.2
0.0
0.0
0.0
0.0
-1.41
-1.23
-1.22
-1.2
-1.16
0.0
0.0
-1.22
-1.19
-1.25
-1.43
-1.17
0.0
-1.17
0.0
0.0
0.0
-1.23
0.0
-1.43
0.0
0.0
0.0
0.0
-1.17
0.0
-1.14
0.0
0.0
0.0
0.0
-1.23
-1.14
0.0
0.0
0.0
0.0
0.0
0.0
0.0
0.0
0.0
0.0
0.0
0.0
0.0
0.0
0.0
0.0
0.0
0.0
0.0
-1.12
0.0
0.0
0.0
0.0
0.0
0.0
0.0
0.0
0.0
-1.44
0.0
0.0
0.0
0.0
-1.12
0.0
-1.24
0.0
0.0
0.0
0.0
0.0
-1.21
-1.24
-1.17
-1.2
0.0
0.0
-1.17
-1.13
0.0
-1.16
-1.45
-1.2
-1.17
0.0
0.0
0.0
0.0
-1.26
-1.21
-1.18
-1.46
0.0
0.0
0.0
0.0
-1.19
-1.25
-1.22
0.0
-1.48
0.0
0.0
0.0
0.0
0.0
-1.27
-1.16
-1.16
0.0
0.0
0.0
0.0
0.0
0.0
-1.14
0.0
-1.45
-1.44
-1.21
0.0
0.0
-1.15
0.0
-1.14
-1.16
-1.2
0.0
0.0
0.0
0.0
-1.13
0.0
0.0
0.0
0.0
0.0
0.0
0.0
0.0
0.0
0.0
0.0
0.0
0.0
-1.29
0.0
0.0
0.0
0.0
0.0
0.0
-1.11
0.0
-1.25
-1.15
0.0
-1.45
0.0
0.0
-1.15
-1.17
-1.18
-1.46
0.0
0.0
-1.14
-1.16
0.0
-1.18
-1.46
0.0
0.0
-1.15
0.0
0.0
-1.16
-1.27
0.0
0.0
0.0
0.0
0.0
0.0
-1.41
0.0
0.0
-1.22
-1.2
-1.22
0.0
0.0
0.0
0.0
0.0
0.0
0.0
0.0
