0.0
0.0
0.0
0.0
0.0
0.0
0.0
0.0
-8.65
-7.79
0.0
-8.64
-8.67
-8.67
-8.68
-8.66
0.0
-8.71
-8.03
-8.9499999251
-8.57
0.0
-8.61
-8.63
-8.75
-8.7
-8.51
0.0
0.0
0.0
-7.89
-8.78
-8.09
-8.73
-8.72
0.0
0.0
0.0
-8.31
-8.74
-8.73
0.0
0.0
-7.83
-8.69
-8.66
0.0
0.0
-8.47
-7.89
0.0
0.0
0.0
0.0
0.0
0.0
0.0
0.0
0.0
0.0
-7.87
-8.22
0.0
0.0
0.0
0.0
0.0
-8.62
-8.19
0.0
-7.95
-7.99
0.0
0.0
-8.24
0.0
0.0
-8.72
0.0
-8.92999994757
-8.69
0.0
0.0
-7.9
-8.68
-8.28
-8.15
-8.91999999988
-8.73
0.0
-8.23
-8.79
-7.98
-8.71
-8.76
-8.77
-8.78
0.0
0.0
-8.71
-8.7
-8.7
-8.69
-8.9099999633
-8.86999997431
0.0
0.0
0.0
0.0
-8.2
-8.12
-8.61
-8.76
-8.91995400135
-8.91996780094
0.0
0.0
-8.59
-8.72
-8.73
-8.92999998202
-8.92999998741
-8.71
-8.22
0.0
0.0
0.0
-8.07
-8.07
-8.77
-8.72
-8.72
-8.67
0.0
0.0
-8.63
-7.98
-8.11
-8.71
-8.66
0.0
0.0
0.0
0.0
-8.74
0.0
0.0
0.0
0.0
0.0
0.0
0.0
0.0
0.0
0.0
0.0
0.0
0.0
-7.99
-8.27
0.0
0.0
0.0
0.0
0.0
0.0
0.0
-8.65
-8.08
0.0
0.0
0.0
0.0
-8.74
0.0
-7.99
-8.31
-8.22
0.0
0.0
0.0
0.0
0.0
0.0
-8.26
-8.58
0.0
-8.76
-8.90999999119
0.0
0.0
-8.04
-8.75
-8.68
-7.93
-8.58
-8.85997746066
-8.68
-8.03
0.0
-8.78
-8.25
-8.67
-8.73
-8.69
-8.72
-8.78
-8.83
0.0
-7.9
-7.98
-8.29
-8.83999999991
-8.5
-8.91998422246
-8.17
-8.67
-8.72
0.0
0.0
-8.03
-8.15
-8.68
-8.29
-8.86999999383
-8.81
-8.9096090179
-8.21
0.0
0.0
-7.92
-8.77
-8.8
-8.17
-8.80999999568
-8.23
-8.16
0.0
0.0
-8.22
-8.09
-8.11
-8.69
-8.78
-8.69
-8.14
0.0
-8.03
-8.66
0.0
-8.04
-8.77
-8.77
-8.78
0.0
0.0
0.0
-7.91
-8.33
-8.66
0.0
0.0
0.0
0.0
-8.75
0.0
0.0
0.0
0.0
0.0
0.0
0.0
0.0
0.0
0.0
0.0
0.0
0.0
0.0
0.0
0.0
0.0
0.0
0.0
0.0
0.0
-7.91
-8.65
-8.31
0.0
0.0
0.0
0.0
-8.18
-7.99
-8.74
0.0
-8.76
-8.89999999994
0.0
0.0
0.0
-8.07
-7.94
-8.07
-8.85999999996
-8.64
-8.71
-8.77
0.0
0.0
0.0
-7.89
0.0
-8.78
-8.74
-8.79
-8.66
-8.71
-8.85998895572
0.0
0.0
-8.69
-8.89
-8.8
-8.59
-8.81
-8.86972631253
-8.18
-8.77
0.0
-8.1
-8.7
-8.69
-8.49
-8.71
-8.6
-8.18
-8.72
-7.85
0.0
-8.76
-8.1
-8.72
-8.84999999698
-8.72
-8.85999226901
-8.9199945883
-8.91999621181
0.0
0.0
-7.96
-8.14
-8.74
-8.72
-8.71
-8.28
-8.2
-8.83999734827
-8.74
0.0
0.0
-7.92
-8.42
-8.07
-8.18
-8.69
-8.82
-8.28
-8.77
0.0
0.0
-7.91
-8.12
-8.03
-8.24
-8.89999999997
-8.75
0.0
0.0
-7.95
-8.12
-8.04
-8.75
-8.16
0.0
0.0
0.0
0.0
0.0
0.0
0.0
0.0
0.0
0.0
0.0
0.0
0.0
0.0
0.0
0.0
0.0
0.0
0.0
0.0
-7.94
0.0
0.0
0.0
0.0
0.0
-7.89
0.0
0.0
-8.18
-8.85999999998
-8.2
-8.64
0.0
0.0
0.0
0.0
-7.96
-8.89
-8.75
-8.27
-8.2
-8.74
0.0
0.0
0.0
-7.95
-7.83
-8.13
-8.02
-8.32
-8.74
-8.71
-8.71
-8.91999814379
0.0
0.0
-7.91
-8.07
-8.75
0.0
-8.89999999999
-8.76
-8.77
-8.65
-8.72
-8.01
0.0
-8.23
-8.15
-8.72
-8.01
-8.75
-8.56
-8.71
-8.71
-8.72
-8.68
-8.71
-8.81999870065
-8.83999909046
-8.86980841877
-8.73
-8.83999999999
-7.93
-8.01
-8.1
-8.73
-8.79
-8.69
-8.84999999788
-8.84999999852
-8.76
-8.71
0.0
-7.92
-8.0
-8.2
-8.76
-8.81999936332
-8.72
-8.82999999896
-8.87
-8.69
-8.14
-8.75
-8.19
-8.67
-8.75
-8.89999955432
-8.73
-8.93999999999
0.0
-7.83
0.0
-8.76
-8.88
-8.68
-8.33
-8.65
-8.75
0.0
0.0
-8.04
0.0
0.0
-8.67
-8.71
-8.17
0.0
0.0
0.0
-8.08
-7.95
0.0
-8.72
0.0
0.0
0.0
0.0
0.0
0.0
-7.91
0.0
0.0
0.0
0.0
0.0
0.0
0.0
0.0
0.0
0.0
0.0
-8.04
0.0
0.0
0.0
0.0
0.0
-7.94
-7.95
0.0
-8.74
-8.06
0.0
0.0
0.0
0.0
-8.13
-8.21
-8.7
-8.69
-8.71
-8.16
-8.72
-8.29
0.0
0.0
0.0
-7.9
-8.2
-8.84
-8.63
-8.53
-8.69
-8.94
-8.68
0.0
-8.01
-8.21
-8.13
-8.22
-8.73
-8.03
-8.89
-8.59
-8.95
-7.81
0.0
-8.03
-8.82999999927
-8.72
-8.21
-8.84
-8.86986589314
-8.8899061252
-7.93
0.0
-8.21
-8.73
-8.73
-8.88
-8.82
-8.29
-8.22
-8.89
-8.13
-8.72
-8.81999968803
-8.81
-8.86993428764
-8.82
-8.48
-8.87
-8.21
-8.75
-8.27
-8.6
-8.83999978162
-8.74
-8.87999984713
-7.93
-8.12
-8.16
-8.19
-8.86
-8.78
-8.67
-8.79
-8.8817524751
-7.98
-8.03
-8.01
-8.12
-8.73
-8.66
-8.78
-8.95
-8.14
0.0
-7.88
-7.93
-8.11
-7.92
-8.31
-8.71
0.0
0.0
0.0
0.0
0.0
-8.06
0.0
0.0
-8.29
-7.99
0.0
0.0
0.0
-7.91
0.0
0.0
0.0
0.0
0.0
0.0
0.0
0.0
0.0
0.0
0.0
0.0
0.0
0.0
0.0
-8.29
0.0
0.0
0.0
-8.08
0.0
-7.98
0.0
-7.94
0.0
0.0
0.0
-7.94
-7.99
0.0
-8.11
-8.71
-8.64
-8.75
-8.32
0.0
0.0
-8.16
-8.19
-8.2
-8.74193
-8.27
-8.71
-8.85
-8.63
0.0
0.0
0.0
-8.2
-8.812351
-8.72
-8.23
-8.52
-8.76
-8.94
0.0
-8.16
-8.35
-8.22
-8.85
-8.87
-8.73
-8.86
-8.78
-8.39
0.0
-8.21
-8.34
-8.21
-8.45
-8.81
-8.92
-8.83
-8.05
0.0
-8.25
-8.12
-8.77
-8.83
-8.64
-8.21
-8.809646393
-8.84
-8.01
-8.54
-8.69
-8.8476457
-8.34
-8.82
-8.7
-8.77
-8.08
-8.55
-8.69
-8.92
-8.8
-8.9
-8.83
-8.72
0.0
-8.04
-8.29
-7.94
-8.69
-8.76
-8.637
-8.92999999949
-8.95
0.0
0.0
-7.93
-7.98
-8.7
0.0
-7.98
0.0
0.0
0.0
0.0
0.0
-8.08
0.0
-8.78
-8.07
-7.9
0.0
0.0
0.0
0.0
0.0
-8.03
0.0
0.0
0.0
0.0
0.0
0.0
0.0
0.0
0.0
0.0
0.0
0.0
0.0
0.0
-8.23
0.0
0.0
0.0
0.0
-8.05
0.0
0.0
0.0
0.0
-8.45
0.0
0.0
0.0
0.0
-8.02
-8.57
-8.61
-8.37
-8.69
-8.62
-8.66
0.0
0.0
-8.11
0.0
-8.17
0.0
-8.79
-8.64
-8.69
-8.6599
-8.93
0.0
-8.0
-8.17
-8.7
-8.49
-8.34
-8.81
-8.71
-8.19
-8.76
0.0
-7.91
-8.11
-8.88
-8.74
-8.87
-8.84235199
-8.74
-8.93
0.0
-8.31
-8.12
-8.68
-8.48
-8.61
-8.73
-8.78
-8.71
-8.72
-7.93
-8.74
-8.91
-8.12
-8.35
-8.77
-8.9
-8.88
-8.12
-8.08
-8.77
-8.94
-8.7
-8.8
-8.93
-8.74
-8.16
-8.57
-8.2
-8.3
-8.73
-8.74
-8.86
-8.92
-7.97
-8.07
-8.17
-8.2
-8.89
-8.68
-8.68
-8.72
-8.74
0.0
0.0
-8.12
-8.18
-8.7
-8.04
-8.71
-8.6
0.0
0.0
0.0
0.0
0.0
0.0
-8.15
0.0
0.0
0.0
0.0
0.0
0.0
0.0
0.0
0.0
0.0
0.0
0.0
0.0
0.0
0.0
0.0
0.0
0.0
0.0
0.0
0.0
0.0
0.0
0.0
0.0
0.0
0.0
0.0
0.0
-8.94
-9.0
0.0
-8.37
0.0
0.0
0.0
0.0
-8.06
-8.58
-8.38
-8.93
-8.12
-8.77
0.0
0.0
0.0
0.0
-7.94
0.0
-8.9
-8.58
-8.56
-8.76
-8.94
-8.95
0.0
0.0
0.0
0.0
-8.73
-8.21
-8.69
-8.75
-8.83
-8.21
0.0
0.0
0.0
-7.97
-8.55
-8.76
-8.7
-8.7
-8.74
-8.89
-8.24
0.0
-8.86
-8.77
-8.88
-8.76
-8.26
-8.9
-8.11
-7.91
-8.03
-8.64
-8.65
-8.72
-8.7
-8.91
-8.73
-8.78
-8.78
0.0
-7.97
-8.12
-8.67
-8.69
-8.89
-8.88
-8.27
-8.71
-8.89
-8.04
-7.96
-8.7
-8.93
-8.73
-8.72
-8.8
-8.29
0.0
0.0
0.0
-8.67
-8.7
-8.91
-8.39
-8.75
0.0
0.0
-7.84
0.0
-7.87
-8.22
-8.75
-8.69
0.0
0.0
0.0
0.0
0.0
0.0
0.0
-8.38
0.0
0.0
0.0
0.0
0.0
0.0
0.0
0.0
0.0
0.0
0.0
0.0
0.0
0.0
0.0
0.0
0.0
0.0
0.0
0.0
-8.56
0.0
0.0
0.0
0.0
0.0
0.0
0.0
-8.67
-8.65
-8.6
0.0
0.0
0.0
0.0
0.0
-8.1
0.0
0.0
0.0
-8.44
-8.99
0.0
0.0
0.0
0.0
-8.68
-8.78
-8.39
-8.97
-8.39
-8.97999989299
-8.51
0.0
0.0
-8.18
-8.04
0.0
-8.53
-8.93
-8.69
-8.67
-8.91
-9.0
-8.66
0.0
-8.78
-8.19
-8.94999999964
-8.96
-8.33
-8.92
0.0
0.0
-8.68
-8.93
-8.69
-8.15
-8.76
-8.78
0.0
0.0
0.0
-8.16
-8.2
-8.66
-8.68
-8.72
-8.69
0.0
-8.73
0.0
0.0
0.0
-8.65
-8.64
-8.37
-8.95
-8.1
-8.9
-8.91
-8.03
0.0
0.0
-8.03
0.0
-8.77
-8.66
-8.69
-8.68
-8.96
-8.26
0.0
0.0
-8.17
-7.9
0.0
-8.7
-8.69
0.0
0.0
0.0
0.0
0.0
-8.25
-8.65
-8.67
0.0
0.0
0.0
0.0
0.0
-8.66
-8.69
0.0
0.0
0.0
0.0
0.0
0.0
0.0
0.0
0.0
0.0
0.0
0.0
0.0
0.0
0.0
-8.51
0.0
0.0
0.0
0.0
0.0
0.0
-8.63
0.0
0.0
0.0
0.0
0.0
0.0
0.0
-8.53
-8.69
-8.6
-8.95
0.0
-8.63
0.0
0.0
0.0
0.0
0.0
-8.53
-9.01
0.0
-8.68
0.0
0.0
0.0
-8.65
-8.97
-8.12
-8.66
-8.27
-8.96
-8.94
0.0
-8.62
-8.21
-8.68
-8.92
-8.74
-8.94999999975
-8.7
-8.65
0.0
0.0
0.0
-8.72
-8.78
-8.67
-8.53
-8.98999999983
-8.65
-8.63
0.0
0.0
0.0
-8.63
-8.71
-8.63
-8.96
-8.62
-8.67
-8.69
0.0
0.0
0.0
0.0
-8.94
-8.71
-8.72
-8.69
-8.64
0.0
0.0
-8.66
-8.65
-8.71
-8.94
-8.64
0.0
-8.66
0.0
0.0
0.0
-8.68
0.0
-8.98
0.0
0.0
0.0
0.0
-8.64
0.0
-8.6
0.0
0.0
0.0
0.0
-8.69
-8.66
0.0
0.0
0.0
0.0
0.0
0.0
0.0
0.0
0.0
0.0
0.0
0.0
-8.3
0.0
0.0
0.0
0.0
0.0
0.0
-8.59
0.0
0.0
0.0
0.0
0.0
0.0
0.0
0.0
0.0
-8.94
0.0
0.0
0.0
-7.89
-8.61
0.0
-8.7
-8.3
0.0
0.0
0.0
-8.48
-8.66
-8.69
-8.66
-8.64
0.0
0.0
-8.63
-8.55
0.0
-8.72
-8.97
-8.69
-8.69
0.0
0.0
0.0
0.0
-8.7
-8.67
-8.7
-8.98
0.0
0.0
0.0
0.0
-8.66
-8.69
-8.69
0.0
-9.0
0.0
0.0
0.0
0.0
0.0
-8.73
-8.65
-8.68
0.0
0.0
0.0
0.0
0.0
0.0
-8.59
0.0
-9.0
-8.96
-8.67
0.0
0.0
-8.6
0.0
-8.61
-8.65
-8.67
0.0
0.0
0.0
0.0
-8.61
0.0
0.0
0.0
0.0
0.0
0.0
0.0
0.0
0.0
0.0
0.0
-8.49
0.0
-8.79
0.0
-8.5
-8.4
0.0
0.0
0.0
-8.54
0.0
-8.71
-8.63
-8.55
-8.97
0.0
-8.52
-8.66
-8.67
-8.67
-8.94
0.0
-8.55
-8.63
-8.65
0.0
-8.66
-8.99
0.0
0.0
-8.63
0.0
0.0
-8.65
-8.72
0.0
0.0
0.0
0.0
0.0
0.0
-8.94
0.0
0.0
-8.65
-8.67
-8.66
0.0
0.0
0.0
0.0
-8.57
0.0
0.0
0.0
