0.0
0.0
0.0
0.0
0.0
0.0
0.0
0.0
-7.15
0.0
0.0
-7.18
-7.19
-7.09
-7.17
-7.16
0.0
-7.2
0.0
-8.83
-7.0
0.0
-7.11
-7.13
-7.23
-7.2
-2.75
0.0
0.0
0.0
0.0
-7.23
0.0
-7.23
-7.23
0.0
0.0
0.0
0.0
-7.14
-7.29
0.0
0.0
0.0
-7.27
-7.16
0.0
0.0
-2.73
0.0
0.0
0.0
0.0
0.0
0.0
0.0
0.0
0.0
0.0
0.0
0.0
0.0
0.0
0.0
0.0
0.0
0.0
-2.72
0.0
0.0
0.0
0.0
0.0
0.0
0.0
0.0
0.0
-7.15
0.0
-8.77
-7.36
0.0
0.0
0.0
-7.22
0.0
0.0
-8.79
-7.27
0.0
0.0
-7.39
0.0
-7.28
-7.31
-7.4
-7.26
0.0
0.0
-7.13
-7.22
-7.21
-7.45
-8.77
-8.65999999994
0.0
0.0
0.0
0.0
0.0
0.0
-7.33
-7.36
-8.73999999996
-8.72999978162
0.0
0.0
-7.03
-7.21
-7.19
-8.79
-8.81
-7.24
0.0
0.0
0.0
0.0
0.0
0.0
-7.39
-7.26
-7.19
-7.16
0.0
0.0
-7.13
0.0
0.0
-7.22
-7.17
0.0
0.0
0.0
0.0
-7.25
0.0
0.0
0.0
0.0
0.0
0.0
0.0
0.0
0.0
0.0
0.0
0.0
0.0
0.0
-2.72
0.0
0.0
0.0
0.0
0.0
0.0
0.0
-7.17
0.0
0.0
0.0
0.0
0.0
-7.28
0.0
0.0
0.0
0.0
0.0
0.0
0.0
0.0
0.0
0.0
0.0
-6.6
0.0
-7.3
-8.65
0.0
0.0
0.0
-7.27
-7.29
0.0
-6.5
-8.55999999997
-2.76
0.0
0.0
-7.35
0.0
-7.45
-7.31
-7.04
-7.47
-7.33
-7.77
0.0
0.0
0.0
0.0
-8.62
-2.68
-8.67999999998
0.0
-7.26
-7.26
0.0
0.0
0.0
0.0
-7.18
0.0
-8.69
-7.39
-8.70999984713
0.0
0.0
0.0
0.0
-7.35
-7.71
0.0
-8.51
0.0
0.0
0.0
0.0
0.0
0.0
0.0
-7.21
-7.39
-7.24
0.0
0.0
0.0
-7.1
0.0
0.0
-7.35
-7.25
-7.19
0.0
0.0
0.0
0.0
0.0
-7.13
0.0
0.0
0.0
0.0
-7.21
0.0
0.0
0.0
0.0
0.0
0.0
0.0
0.0
0.0
0.0
0.0
0.0
0.0
0.0
0.0
0.0
0.0
0.0
0.0
0.0
0.0
0.0
-7.17
-6.58
0.0
0.0
0.0
0.0
0.0
0.0
-7.29
0.0
-7.29
-8.69
0.0
0.0
0.0
0.0
0.0
0.0
-8.57
-7.15
-7.2
-7.37
0.0
0.0
0.0
0.0
0.0
-7.72
-7.39
-7.58
-7.37
-7.47
-8.57
0.0
0.0
-7.36
-8.68
-7.77
-7.09
-7.41
-8.57999999999
0.0
-7.39
0.0
0.0
-7.44
-7.34
-2.71
-7.51
-7.05
0.0
-7.51
0.0
0.0
-7.21
0.0
-7.25
-8.63
-7.53
-8.61999999999
-8.71
-8.71999999999
0.0
0.0
0.0
0.0
-7.28
-7.67
-7.34
0.0
0.0
-8.51
-7.54
0.0
0.0
0.0
0.0
0.0
0.0
-7.36
-7.35
0.0
-7.42
0.0
0.0
0.0
0.0
0.0
0.0
-8.68
-7.3
0.0
0.0
0.0
0.0
0.0
-7.23
0.0
0.0
0.0
0.0
0.0
0.0
0.0
0.0
0.0
0.0
0.0
0.0
0.0
0.0
0.0
0.0
0.0
0.0
0.0
0.0
0.0
0.0
0.0
0.0
0.0
0.0
0.0
0.0
0.0
0.0
0.0
-8.57
0.0
-7.36
0.0
0.0
0.0
0.0
0.0
-8.64
-7.36
0.0
0.0
-7.53
0.0
0.0
0.0
0.0
0.0
0.0
0.0
-2.73
-7.63
-7.64
-7.48
-8.65
0.0
0.0
0.0
0.0
-7.36
0.0
-8.72
-7.36
-7.36
-7.27
-7.41
0.0
0.0
0.0
0.0
-7.28
0.0
-7.37
-7.02
-7.66
-7.37
-7.21
-7.44
-7.63
-8.53
-8.55
-8.57
-7.66
-8.61
0.0
0.0
0.0
-7.46
-7.64
-7.36
-8.58
-8.6
-7.4
-7.22
0.0
0.0
0.0
0.0
-7.74
-8.48999989299
-7.48
-8.55
-7.79
-7.39
0.0
-7.44
0.0
-7.39
-7.67
-8.62
-7.52
-8.73
0.0
0.0
0.0
-7.35
-8.58
-7.34
0.0
-6.72
-7.29
0.0
0.0
0.0
0.0
0.0
-7.52
-7.5
0.0
0.0
0.0
0.0
0.0
0.0
0.0
-2.77
0.0
0.0
0.0
0.0
0.0
0.0
0.0
0.0
0.0
0.0
0.0
0.0
0.0
0.0
0.0
0.0
0.0
0.0
0.0
0.0
0.0
0.0
0.0
0.0
0.0
0.0
0.0
-7.48
0.0
0.0
0.0
0.0
0.0
0.0
0.0
-7.44
-7.2
-7.5
0.0
-7.36
0.0
0.0
0.0
0.0
0.0
0.0
-8.56
-7.37
-2.68
-7.39
-8.79
-6.99
0.0
0.0
0.0
0.0
0.0
-7.63
0.0
-8.65
-6.95
-8.74
0.0
0.0
0.0
-8.55
-7.63
0.0
-8.5499999251
-8.62
-8.65
0.0
0.0
0.0
-7.14
-7.36
-8.72
-8.57
0.0
0.0
-8.65
0.0
-7.66
-8.54
-8.53
-8.61
-8.48
-2.7
-8.62
0.0
-7.69
0.0
-7.14
-8.57
-7.39
-8.62
-8.12
0.0
0.0
0.0
-8.63
-7.73
-7.44
-7.36
-8.582351
0.0
0.0
0.0
0.0
-7.5
-7.13
-7.71
-8.74
0.0
0.0
0.0
0.0
0.0
0.0
0.0
-7.48
0.0
0.0
0.0
0.0
0.0
0.0
0.0
0.0
0.0
0.0
0.0
0.0
0.0
0.0
0.0
0.0
0.0
0.0
0.0
0.0
0.0
0.0
0.0
0.0
0.0
0.0
0.0
0.0
0.0
-6.56
0.0
0.0
0.0
0.0
0.0
0.0
0.0
0.0
0.0
0.0
0.0
0.0
0.0
0.0
0.0
-7.41
-7.36
-7.32
-6.57
0.0
0.0
0.0
0.0
0.0
-8.5376457
0.0
-7.49
-8.56
-7.34
0.0
0.0
0.0
0.0
-8.62235199
-7.43
-8.267
-8.5299
-7.56
-8.78
0.0
0.0
0.0
0.0
-8.56
-8.75
-7.86
-8.59995400135
-7.39
0.0
0.0
0.0
0.0
0.0
0.0
-8.59
-8.69996780094
-8.51
0.0
0.0
0.0
0.0
-7.38
-8.60999994757
-7.36
0.0
-7.58
-8.61
0.0
-2.74
-7.41
-8.599646393
0.0
-8.45997746066
-7.32
-7.33
0.0
-2.74
-7.48
-8.6
-8.5299999633
-8.71
-7.73
-7.43
0.0
0.0
0.0
0.0
-7.46
-7.66
-8.6917524751
-8.69
-8.82
0.0
0.0
0.0
0.0
-7.51
0.0
0.0
0.0
0.0
0.0
0.0
0.0
0.0
0.0
-7.52
0.0
0.0
0.0
0.0
0.0
0.0
0.0
0.0
0.0
0.0
0.0
0.0
0.0
0.0
0.0
0.0
0.0
0.0
0.0
0.0
0.0
0.0
0.0
0.0
0.0
0.0
0.0
0.0
0.0
0.0
0.0
0.0
0.0
0.0
0.0
0.0
0.0
0.0
-6.89
-6.9
-6.59
-7.4
-7.39
-7.3
0.0
0.0
0.0
0.0
0.0
0.0
-8.69
-7.35
-7.41
-8.42193
-8.76
0.0
0.0
0.0
-7.41
0.0
0.0
-7.73
-7.21
0.0
-7.85
0.0
0.0
0.0
-8.63
-7.85
-8.59998422246
-7.98
-8.79
-8.6496090179
0.0
0.0
0.0
-7.44
-2.67
-7.35
-7.36
-7.53
-7.4
-7.86
0.0
-7.67
-8.75
0.0
0.0
-7.69
-8.58999997431
-8.57
0.0
0.0
-7.64
-8.64999998202
-7.68
-8.45
-8.78
-7.53
0.0
-2.71
0.0
0.0
-7.69
-7.56
-8.56
-8.72
0.0
0.0
0.0
0.0
-8.62
-7.5
-7.47
-7.5
-7.51
0.0
0.0
0.0
0.0
-7.48
0.0
-7.5
0.0
0.0
0.0
0.0
0.0
0.0
0.0
0.0
0.0
0.0
0.0
0.0
0.0
0.0
0.0
0.0
0.0
0.0
0.0
0.0
0.0
0.0
0.0
0.0
0.0
0.0
0.0
0.0
0.0
0.0
0.0
0.0
0.0
0.0
0.0
0.0
0.0
-8.67
-8.77
0.0
0.0
0.0
0.0
0.0
0.0
0.0
-6.96
-6.61
-8.68
0.0
-7.95
0.0
0.0
0.0
0.0
0.0
0.0
-8.58
-6.99
-2.67
-7.86
-8.83
-8.70999998741
0.0
0.0
0.0
0.0
-7.51
0.0
-7.7
-7.69
-8.53998895572
0.0
0.0
0.0
0.0
0.0
-6.36
-7.71
-7.72
-7.49
-7.69
-8.68
0.0
0.0
-8.56
-7.72
-8.57999226901
-7.57
0.0
-8.60972631253
0.0
0.0
0.0
0.0
-7.41
-7.4
-7.45
-8.5999945883
-7.51
-7.9
-7.71
0.0
0.0
0.0
-7.42
-7.51
-8.58999999119
-8.65
0.0
-7.87
-8.64
0.0
0.0
-7.53
-8.62999999383
-7.42
-7.55
-8.62
0.0
0.0
0.0
0.0
-7.45
-7.49
-8.66
0.0
-7.79
0.0
0.0
0.0
0.0
0.0
0.0
-7.78
-7.48
0.0
0.0
0.0
0.0
0.0
0.0
0.0
-6.49
0.0
0.0
0.0
0.0
0.0
0.0
0.0
0.0
0.0
0.0
0.0
0.0
0.0
0.0
0.0
0.0
0.0
0.0
0.0
0.0
0.0
0.0
0.0
0.0
0.0
0.0
0.0
0.0
-0.18
0.0
-7.38
0.0
0.0
0.0
0.0
0.0
0.0
0.0
0.0
0.0
0.0
-8.74999999568
0.0
0.0
0.0
0.0
-7.4
-7.9
0.0
-8.65999621181
-6.5
-8.66980841877
0.0
0.0
0.0
0.0
0.0
0.0
0.0
-8.7
-7.41
-7.42
-8.58
-8.8
-7.33
0.0
-7.73
0.0
-8.66986589314
-8.6899061252
0.0
-8.64993428764
0.0
0.0
-7.42
-8.58999999698
-7.4
0.0
-7.52
-7.9
0.0
0.0
0.0
0.0
0.0
-7.41
-7.45
-7.82
-7.54
0.0
-7.54
0.0
0.0
0.0
-7.35
-7.34
0.0
-8.7
0.0
-8.54999999788
-8.59999734827
0.0
0.0
0.0
0.0
0.0
-7.82
-7.35
-7.36
-7.38
-8.65999814379
0.0
0.0
0.0
0.0
0.0
0.0
-7.5
-7.5
0.0
0.0
0.0
0.0
0.0
0.0
-7.41
-7.43
0.0
0.0
0.0
0.0
0.0
0.0
-7.34
0.0
0.0
0.0
0.0
0.0
0.0
0.0
0.0
0.0
0.0
0.0
0.0
0.0
0.0
0.0
0.0
0.0
0.0
0.0
0.0
0.0
0.0
0.0
0.0
0.0
0.0
0.0
0.0
0.0
0.0
0.0
-7.41
0.0
-8.74
0.0
0.0
0.0
0.0
0.0
0.0
0.0
0.0
-8.80999999852
0.0
-7.45
0.0
0.0
0.0
-2.74
-8.74999999896
0.0
-7.37
0.0
-8.80999999927
-8.74999999949
0.0
0.0
0.0
-7.45
-8.63999870065
-7.83
-8.59999909046
-7.48
-7.47
0.0
0.0
0.0
-7.81
-7.77
-7.38
0.0
-8.75999936332
-7.35
0.0
0.0
0.0
0.0
-7.09
-7.44
-6.52
-8.70999999964
0.0
-7.38
-7.45
0.0
0.0
0.0
0.0
-8.68
-7.79
-7.44
-7.37
-7.36
0.0
0.0
-7.39
-7.41
-7.74
-8.7
-7.4
0.0
0.0
0.0
0.0
0.0
-7.44
0.0
-8.7
0.0
0.0
0.0
0.0
-0.13
0.0
0.0
0.0
0.0
0.0
0.0
-7.4
0.0
0.0
0.0
0.0
0.0
0.0
0.0
0.0
0.0
0.0
0.0
0.0
0.0
0.0
0.0
0.0
0.0
0.0
0.0
0.0
0.0
0.0
0.0
0.0
0.0
0.0
0.0
0.0
0.0
0.0
-8.75
0.0
0.0
0.0
0.0
0.0
0.0
-7.43
0.0
0.0
0.0
0.0
0.0
-0.16
-7.46
0.0
0.0
0.0
0.0
0.0
0.0
0.0
-7.53
-8.72999999975
-7.4
-7.44
0.0
0.0
0.0
0.0
-7.44
-7.32
-7.51
-8.75999955432
0.0
0.0
0.0
0.0
-7.39
-7.45
-7.45
0.0
-8.75999968803
0.0
0.0
0.0
0.0
0.0
-7.9
-2.7
-7.48
0.0
0.0
0.0
0.0
0.0
0.0
0.0
0.0
-8.78
-8.66
-0.18
0.0
0.0
0.0
0.0
0.0
0.0
-7.4
0.0
0.0
0.0
0.0
0.0
0.0
0.0
0.0
0.0
0.0
0.0
0.0
0.0
0.0
0.0
0.0
0.0
0.0
-7.9
0.0
0.0
0.0
0.0
0.0
0.0
0.0
0.0
-7.85
0.0
0.0
-8.66999999983
0.0
0.0
-7.48
-7.37
-0.18
-8.78
0.0
0.0
0.0
0.0
0.0
-7.46
-8.74999999988
0.0
0.0
0.0
0.0
0.0
-7.46
-7.47
0.0
0.0
0.0
0.0
0.0
0.0
-8.62999999991
0.0
0.0
-7.43
-7.37
-7.35
0.0
0.0
0.0
0.0
0.0
0.0
0.0
0.0
