0.0
0.0
0.0
0.0
0.0
0.0
0.0
0.0
-6.96
0.0
0.0
-6.94
-6.97
0.0
-6.91
-6.92
0.0
-6.97
0.0
-8.53999994757
-6.95
0.0
0.0
0.0
-7.02
-6.98
0.0
0.0
0.0
0.0
0.0
-7.06
0.0
-6.99
-6.99
0.0
0.0
0.0
0.0
-6.98
-7.04
0.0
0.0
0.0
-6.98
0.0
0.0
0.0
0.0
0.0
0.0
0.0
0.0
0.0
0.0
0.0
0.0
0.0
0.0
0.0
0.0
0.0
0.0
0.0
0.0
0.0
0.0
0.0
0.0
0.0
0.0
0.0
0.0
0.0
0.0
0.0
0.0
-6.95
0.0
-8.4999061252
-7.03
0.0
0.0
0.0
-6.98
0.0
0.0
-8.54999999949
-7.01
0.0
0.0
-7.06
0.0
-7.02
-7.08
-7.09
-7.0
0.0
0.0
-6.99
-7.01
-6.99
-7.06
-8.5399999633
-8.42999621181
0.0
0.0
0.0
0.0
0.0
0.0
-7.03
-7.08
-8.48999734827
-8.49525243849
0.0
0.0
0.0
-6.96
-7.01
-8.51993428764
-8.54999814379
-6.98
0.0
0.0
0.0
0.0
0.0
0.0
-7.06
-6.99
0.0
0.0
0.0
0.0
0.0
0.0
0.0
-7.02
0.0
0.0
0.0
0.0
0.0
-7.05
0.0
0.0
0.0
0.0
0.0
0.0
0.0
0.0
0.0
0.0
0.0
0.0
0.0
0.0
0.0
0.0
0.0
0.0
0.0
0.0
0.0
0.0
-6.95
0.0
0.0
0.0
0.0
0.0
-7.07
0.0
0.0
0.0
0.0
0.0
0.0
0.0
0.0
0.0
0.0
0.0
-6.96
0.0
-7.03
-8.40999870065
0.0
0.0
0.0
-7.01
-7.03
0.0
-6.97
-8.41031109896
0.0
0.0
0.0
-7.05
0.0
-7.04
-7.03
-7.03
-7.04
-7.05
-7.1
0.0
0.0
0.0
0.0
-8.41999997431
0.0
-8.44767369486
0.0
-6.99
-7.04
0.0
0.0
0.0
0.0
-7.0
0.0
-8.46999909046
-7.09
-8.49667670694
0.0
0.0
0.0
0.0
-7.09
-7.07
0.0
-8.37995400135
0.0
0.0
0.0
0.0
0.0
0.0
0.0
-6.96
-7.12
-6.98
0.0
0.0
0.0
0.0
0.0
0.0
-7.08
-7.02
-6.96
0.0
0.0
0.0
0.0
0.0
0.0
0.0
0.0
0.0
0.0
-7.0
0.0
0.0
0.0
0.0
0.0
0.0
0.0
0.0
0.0
0.0
0.0
0.0
0.0
0.0
0.0
0.0
0.0
0.0
0.0
0.0
0.0
0.0
-6.99
-7.03
0.0
0.0
0.0
0.0
0.0
0.0
-7.03
0.0
-7.06
-8.47999998202
0.0
0.0
0.0
0.0
0.0
0.0
-8.37999998741
-6.96
-6.98
-7.08
0.0
0.0
0.0
0.0
0.0
-7.08
-7.08
-7.08
-7.03
-7.05
-8.39996780094
0.0
0.0
-7.05
-8.46999999964
-7.91
-6.92
-7.1
-8.3883715864
0.0
-7.1
0.0
0.0
-7.05
-7.03
0.0
-7.04
-6.92
0.0
-7.04
0.0
0.0
-6.96
0.0
-7.01
-8.42999936332
-7.07
-8.46886011048
-8.47997746066
-8.50920207734
0.0
0.0
0.0
0.0
-7.02
-7.04
-7.05
0.0
0.0
-8.38944145414
-7.08
0.0
0.0
0.0
0.0
0.0
0.0
-7.03
-7.11
0.0
-7.09
0.0
0.0
0.0
0.0
0.0
0.0
-8.43999999119
-7.07
0.0
0.0
0.0
0.0
0.0
-7.06
0.0
0.0
0.0
0.0
0.0
0.0
0.0
0.0
0.0
0.0
0.0
0.0
0.0
0.0
0.0
0.0
0.0
0.0
0.0
0.0
0.0
0.0
0.0
0.0
0.0
0.0
0.0
0.0
0.0
0.0
0.0
-8.36999999975
0.0
-7.03
0.0
0.0
0.0
0.0
0.0
-8.44999999983
-7.08
0.0
0.0
-7.07
0.0
0.0
0.0
0.0
0.0
0.0
0.0
0.0
-7.06
-7.06
-7.06
-8.44999955432
0.0
0.0
0.0
0.0
-7.06
0.0
-8.49999999383
-7.07
-7.09
-7.01
-7.07
0.0
0.0
0.0
0.0
-7.0
0.0
-7.09
0.0
-7.09
-7.04
-7.03
-7.05
-7.08
-8.36999968803
-8.39998422246
-8.39998895572
-7.11
-8.42999999988
0.0
0.0
0.0
-7.05
-7.06
-7.05
-8.43999226901
-8.38999978162
-7.08
-6.98
0.0
0.0
0.0
0.0
-7.06
-8.38022673257
-7.05
-8.3896090179
-7.89
-7.04
0.0
-7.07
0.0
-7.02
-7.07
-8.44321776927
-7.08
-8.47999999568
0.0
0.0
0.0
-7.06
-8.37999999698
-7.02
0.0
-7.02
-7.05
0.0
0.0
0.0
0.0
0.0
-7.05
-7.05
0.0
0.0
0.0
0.0
0.0
0.0
0.0
0.0
0.0
0.0
0.0
0.0
0.0
0.0
0.0
0.0
0.0
0.0
0.0
0.0
0.0
0.0
0.0
0.0
0.0
0.0
0.0
0.0
0.0
0.0
0.0
0.0
0.0
0.0
0.0
-7.05
0.0
0.0
0.0
0.0
0.0
0.0
0.0
-7.05
-6.99
-7.06
0.0
-7.05
0.0
0.0
0.0
0.0
0.0
0.0
-8.40999999991
-7.03
0.0
-7.02
-8.35
-7.03
0.0
0.0
0.0
0.0
0.0
-7.08
0.0
-8.29
0.0
-8.4
0.0
0.0
0.0
-8.37999999788
-7.07
0.0
-8.27
-8.42972631253
-8.46980841877
0.0
0.0
0.0
-6.97
-7.06
-8.49
-8.39999999852
0.0
0.0
-8.34
0.0
-7.88
-8.3961587128
-8.29
-8.44986589314
-8.24
0.0
-8.41999999896
0.0
-7.08
0.0
-6.95
-8.3999945883
-7.06
-8.44999984713
-7.12
0.0
0.0
0.0
-8.43999999927
-7.08
-6.98
-7.07
-8.089646393
0.0
0.0
0.0
0.0
-7.08
-6.95
-7.08
-8.50999999996
0.0
0.0
0.0
0.0
0.0
0.0
0.0
-7.03
0.0
0.0
0.0
0.0
0.0
0.0
0.0
0.0
0.0
0.0
0.0
0.0
0.0
0.0
0.0
0.0
0.0
0.0
0.0
0.0
0.0
0.0
0.0
0.0
0.0
0.0
0.0
0.0
0.0
0.0
0.0
0.0
0.0
0.0
0.0
0.0
0.0
0.0
0.0
0.0
0.0
0.0
0.0
0.0
0.0
-7.04
-2.06
-7.05
0.0
0.0
0.0
0.0
0.0
0.0
-7.992351
0.0
-7.07
-8.28
0.0
0.0
0.0
0.0
0.0
-8.0676457
-7.07
-7.43
-7.74
-7.09
-8.4
0.0
0.0
0.0
0.0
-8.27
-8.39
-7.17
-8.31
-7.1
0.0
0.0
0.0
0.0
0.0
0.0
-8.42999989299
-8.37
-8.24
0.0
0.0
0.0
0.0
-7.06
-8.31
-7.03
0.0
-8.00235199
-8.33
0.0
0.0
-7.03
-7.777
0.0
-8.24
-2.15
-7.0
0.0
0.0
-7.06
-8.26
-8.27
-8.33
-7.95
-7.05
0.0
0.0
0.0
0.0
-7.05
-7.09
-7.9599
-8.4699999251
-8.38
0.0
0.0
0.0
0.0
-7.04
0.0
0.0
0.0
0.0
0.0
0.0
0.0
0.0
0.0
-7.05
0.0
0.0
0.0
0.0
0.0
0.0
0.0
0.0
0.0
0.0
0.0
0.0
0.0
0.0
0.0
0.0
0.0
0.0
0.0
0.0
0.0
0.0
0.0
0.0
0.0
0.0
0.0
0.0
0.0
0.0
0.0
0.0
0.0
0.0
0.0
0.0
0.0
0.0
-7.01
0.0
0.0
-6.78
-7.0
0.0
0.0
0.0
0.0
0.0
0.0
0.0
-7.08
-7.01
-7.04
-7.91193
-8.52
0.0
0.0
0.0
-7.01
0.0
0.0
-7.91
-7.03
0.0
-7.1
0.0
0.0
0.0
-8.35
-7.05
-8.3
-8.0517524751
-7.17
-8.32
0.0
0.0
0.0
-7.01
0.0
-7.03
-7.05
-7.09
-7.02
-7.05
0.0
-7.05
-8.39
0.0
0.0
-7.88
-8.26
-8.26
0.0
0.0
-7.05
-8.31
-7.03
-8.28999999999
-8.41
-7.09
0.0
0.0
0.0
0.0
-7.07
-7.07
-8.36
-8.32
0.0
0.0
0.0
0.0
-8.29
-7.05
-7.05
-7.07
-7.07
0.0
0.0
0.0
0.0
-7.03
0.0
-7.05
0.0
0.0
0.0
0.0
0.0
0.0
0.0
0.0
0.0
0.0
0.0
0.0
0.0
0.0
0.0
0.0
0.0
0.0
0.0
0.0
0.0
0.0
0.0
0.0
0.0
0.0
0.0
0.0
0.0
0.0
0.0
0.0
0.0
0.0
0.0
0.0
0.0
-8.33
-8.38
0.0
0.0
0.0
0.0
0.0
0.0
0.0
-7.03
-6.96
-8.31
0.0
-7.11
0.0
0.0
0.0
0.0
0.0
0.0
-8.22
0.0
0.0
-7.15
-8.41
-8.34
0.0
0.0
0.0
0.0
-7.05
0.0
-7.09
-7.07
-8.24
0.0
0.0
0.0
0.0
0.0
0.0
-7.09
-7.07
-7.01
-7.08
-8.33
0.0
0.0
-8.24
-7.91
-8.29
-7.09
0.0
-8.31
0.0
0.0
0.0
0.0
-7.05
-7.04
-7.06
-8.26
-7.08
-7.19
-7.09
0.0
0.0
0.0
-2.12
-7.06
-8.28
-8.3
0.0
-7.17
-8.3
0.0
0.0
-7.07
-8.3
-7.03
-7.07
-7.9
0.0
0.0
0.0
0.0
-2.15
-7.07
-8.31
0.0
-7.08
0.0
0.0
0.0
0.0
0.0
0.0
-7.05
-7.02
0.0
0.0
0.0
0.0
0.0
0.0
0.0
0.0
0.0
0.0
0.0
0.0
0.0
0.0
0.0
0.0
0.0
0.0
0.0
0.0
0.0
0.0
0.0
0.0
0.0
0.0
0.0
0.0
0.0
0.0
0.0
0.0
0.0
0.0
0.0
0.0
0.0
0.0
-7.0
0.0
0.0
0.0
0.0
0.0
0.0
0.0
0.0
0.0
0.0
-8.36
0.0
0.0
0.0
0.0
-2.15
-7.12
0.0
-8.3
0.0
-8.3
0.0
0.0
0.0
0.0
0.0
0.0
0.0
-8.34
-7.02
-6.81
-8.26
-8.42
0.0
0.0
-7.91
0.0
-8.31
-8.31
0.0
-8.32
0.0
0.0
-2.15
-8.25
-7.03
0.0
-7.07
-7.16
0.0
0.0
0.0
0.0
0.0
-2.09
-6.88
-7.13
-7.04
0.0
-7.06
0.0
0.0
0.0
-2.06
-2.08
0.0
-8.32
0.0
-8.25
-8.28
0.0
0.0
0.0
0.0
0.0
-7.05
-2.07
-2.14
-2.08
-8.32
0.0
0.0
0.0
0.0
0.0
0.0
-7.07
-7.06
0.0
0.0
0.0
0.0
0.0
0.0
-2.13
-6.95
0.0
0.0
0.0
0.0
0.0
0.0
-2.13
0.0
0.0
0.0
0.0
0.0
0.0
0.0
0.0
0.0
0.0
0.0
0.0
0.0
0.0
0.0
0.0
0.0
0.0
0.0
0.0
0.0
0.0
0.0
0.0
0.0
0.0
0.0
0.0
0.0
0.0
0.0
-2.14
0.0
-8.33
0.0
0.0
0.0
0.0
0.0
0.0
0.0
0.0
-8.35
0.0
-2.08
0.0
0.0
0.0
-2.07
-8.35
0.0
-2.15
0.0
-8.41
-8.34
0.0
0.0
0.0
-6.96
-8.3
-7.05
-8.25
0.0
-7.02
0.0
0.0
0.0
-6.99
-7.09
0.0
0.0
-8.38
-7.02
0.0
0.0
0.0
0.0
0.0
-7.0
0.0
-8.32
0.0
0.0
-6.99
0.0
0.0
0.0
0.0
-8.29
-7.08
-2.14
0.0
-7.04
0.0
0.0
-2.11
-2.14
-7.03
-8.31
-7.0
0.0
0.0
0.0
0.0
0.0
-6.98
0.0
-8.31
0.0
0.0
0.0
0.0
-2.08
0.0
0.0
0.0
0.0
0.0
0.0
-6.9
0.0
0.0
0.0
0.0
0.0
0.0
0.0
0.0
0.0
0.0
0.0
0.0
0.0
0.0
0.0
0.0
0.0
0.0
0.0
0.0
0.0
0.0
0.0
0.0
0.0
0.0
0.0
0.0
0.0
0.0
-8.37
0.0
0.0
0.0
0.0
0.0
0.0
-2.14
0.0
0.0
0.0
0.0
0.0
0.0
-2.14
0.0
0.0
0.0
0.0
0.0
0.0
0.0
-7.04
-8.37
-2.1
0.0
0.0
0.0
0.0
0.0
-2.17
0.0
-7.06
-8.36
0.0
0.0
0.0
0.0
-2.08
-6.93
-6.97
0.0
-8.36
0.0
0.0
0.0
0.0
0.0
-6.99
0.0
-7.03
0.0
0.0
0.0
0.0
0.0
0.0
0.0
0.0
-8.38
-8.28
-2.1
0.0
0.0
0.0
0.0
0.0
0.0
0.0
0.0
0.0
0.0
0.0
0.0
0.0
0.0
0.0
0.0
0.0
0.0
0.0
0.0
0.0
0.0
0.0
0.0
0.0
-7.14
0.0
0.0
0.0
0.0
0.0
0.0
0.0
0.0
-2.16
0.0
0.0
-8.29
0.0
0.0
0.0
-2.1
0.0
-8.38
0.0
0.0
0.0
0.0
0.0
0.0
-8.37
0.0
0.0
0.0
0.0
0.0
-7.01
-6.99
0.0
0.0
0.0
0.0
0.0
0.0
-8.25
0.0
0.0
-2.13
-2.09
0.0
0.0
0.0
0.0
0.0
0.0
0.0
0.0
0.0
