0.0
0.0
0.0
0.0
0.0
0.0
0.0
0.0
-0.88
0.0
0.0
-0.89
-0.91
-0.85
-0.86
-0.89
0.0
-0.9
0.0
-6.63999999964
-0.94
0.0
-0.83
-0.82
-0.95
-0.93
-0.89
0.0
0.0
0.0
0.0
-0.95
0.0
-0.92
-0.96
0.0
0.0
0.0
-0.69
-0.92
-0.99
0.0
0.0
0.0
-0.94
-0.85
0.0
0.0
-0.76
0.0
0.0
0.0
0.0
0.0
0.0
0.0
0.0
0.0
0.0
0.0
0.0
-0.57
0.0
0.0
0.0
0.0
0.0
-0.84
-0.57
0.0
0.0
0.0
0.0
0.0
-0.64
0.0
0.0
-0.89
0.0
-6.61999999975
-1.02
0.0
0.0
0.0
-0.9
-0.78
0.0
-6.61
-0.96
0.0
-0.55
-1.11
0.0
-0.96
-1.01
-1.12
-0.91
0.0
0.0
-0.91
-0.94
-0.9
-1.04
-6.61999999983
-6.56999968803
0.0
0.0
0.0
0.0
-0.58
0.0
-1.04
-1.04
-6.59999999988
-6.58999978162
0.0
0.0
-0.82
-0.91
-0.9
-6.61999999991
-6.61999999994
-0.92
-0.48
0.0
0.0
0.0
0.0
0.0
-1.1
-0.93
-0.88
-0.84
0.0
0.0
-0.82
0.0
0.0
-0.99
-0.87
0.0
0.0
0.0
0.0
-0.99
0.0
0.0
0.0
0.0
0.0
0.0
0.0
0.0
0.0
0.0
0.0
0.0
0.0
0.0
-0.79
0.0
0.0
0.0
0.0
0.0
0.0
0.0
-0.9
0.0
0.0
0.0
0.0
0.0
-1.02
0.0
0.0
-0.65
-0.54
0.0
0.0
0.0
0.0
0.0
0.0
-0.67
-0.98
0.0
-1.0
-6.57999999996
0.0
0.0
0.0
-1.01
-1.02
0.0
-0.97
-6.52999984713
-0.73
0.0
0.0
-1.07
-0.62
-1.04
-0.98
-0.99
-1.04
-0.98
-1.14
0.0
0.0
0.0
-0.81
-6.55
-0.82
-6.58999989299
0.0
-0.92
-0.98
0.0
0.0
0.0
0.0
-0.95
-0.81
-6.57999999997
-1.11
-6.59999621181
0.0
0.0
0.0
0.0
-1.1
-1.11
0.0
-6.5099999251
-0.72
0.0
0.0
0.0
-0.53
0.0
0.0
-0.94
-1.12
-0.94
0.0
0.0
0.0
-0.84
0.0
0.0
-1.05
-0.98
-1.0
0.0
0.0
0.0
0.0
-0.76
-0.85
0.0
0.0
0.0
0.0
-0.95
0.0
0.0
0.0
0.0
0.0
0.0
0.0
0.0
0.0
0.0
0.0
0.0
0.0
0.0
0.0
0.0
0.0
0.0
0.0
0.0
0.0
0.0
-0.94
-1.02
0.0
0.0
0.0
0.0
0.0
0.0
-0.98
0.0
-0.98
-6.57999999998
0.0
0.0
0.0
0.0
0.0
0.0
-6.55999999999
-0.84
-0.94
-1.01
0.0
0.0
0.0
0.0
0.0
-1.12
-1.06
-1.07
-1.0
-1.02
-6.54999994757
0.0
0.0
-0.96
-6.57
-1.13
-0.89
-1.12
-6.53999734827
0.0
-1.09
0.0
0.0
-1.04
-1.01
-0.86
-1.05
-0.87
0.0
-1.03
0.0
0.0
-0.9
0.0
-0.97
-6.55999999999
-1.04
-6.57999814379
-6.61999870065
-6.63999909046
0.0
0.0
0.0
0.0
-0.99
-1.04
-0.99
-0.82
-0.69
-6.49999936332
-1.07
0.0
0.0
0.0
-0.83
0.0
0.0
-1.01
-1.13
-0.75
-1.09
0.0
0.0
0.0
0.0
0.0
-0.75
-6.57999999999
-1.0
0.0
0.0
0.0
0.0
0.0
-0.99
0.0
0.0
0.0
0.0
0.0
0.0
0.0
0.0
0.0
0.0
0.0
0.0
0.0
0.0
0.0
0.0
0.0
0.0
0.0
0.0
0.0
0.0
0.0
0.0
0.0
0.0
0.0
0.0
0.0
0.0
0.0
-6.53
0.0
-1.04
0.0
0.0
0.0
0.0
0.0
-6.57
-0.99
-0.82
0.0
-1.06
0.0
0.0
0.0
0.0
0.0
0.0
0.0
-0.97
-1.06
-1.05
-1.01
-6.5899999633
0.0
0.0
0.0
0.0
-1.07
0.0
-6.6
-1.06
-1.07
-0.95
-1.05
0.0
0.0
-0.77
0.0
-0.96
0.0
-1.02
-0.9
-1.06
-1.03
-0.97
-1.01
-1.05
-6.48999997431
-6.52999998202
-6.55999955432
-1.05
-6.56
0.0
0.0
0.0
-1.05
-1.11
-1.0
-6.54999998741
-6.56999999119
-1.05
-0.93
0.0
0.0
0.0
-0.49
-1.1
-6.48999999383
-1.03
-6.52999999568
-1.14
-1.01
0.0
-1.07
0.0
-1.01
-1.06
-6.58999999698
-1.08
-6.62
0.0
0.0
0.0
-1.01
-6.55
-1.02
-0.8
-1.0
-1.01
0.0
0.0
0.0
0.0
0.0
-1.04
-1.03
0.0
0.0
0.0
0.0
0.0
0.0
0.0
-0.74
0.0
0.0
0.0
0.0
0.0
0.0
0.0
0.0
0.0
0.0
0.0
0.0
0.0
0.0
0.0
0.0
0.0
0.0
0.0
0.0
0.0
0.0
0.0
0.0
0.0
0.0
0.0
-1.04
0.0
0.0
0.0
0.0
0.0
0.0
-0.7
-1.03
-0.93
-1.02
0.0
-1.02
-0.77
0.0
0.0
0.0
0.0
0.0
-6.55
-1.03
-0.85
-1.0
-6.51
-1.02
0.0
0.0
-0.75
0.0
0.0
-1.05
0.0
-6.43
-0.9
-6.56
0.0
0.0
0.0
-6.51
-2.51
0.0
-6.52
-6.56999999788
-6.56999999852
0.0
0.0
0.0
-0.92
-1.02
-6.6
-6.54
-0.76
0.0
-6.56
0.0
-2.71
-6.5
-6.49
-6.56999999896
-6.48
-0.89
-6.56999999927
0.0
-2.5
-0.71
-0.91
-6.54
-1.01
-6.56999999949
-7.59
0.0
0.0
0.0
-6.55
-1.11
-1.0
-1.03
-8.512351
0.0
0.0
0.0
0.0
-1.06
-0.9
-1.09
-6.61
0.0
0.0
0.0
0.0
0.0
0.0
-0.74
-1.03
0.0
0.0
0.0
0.0
0.0
0.0
0.0
0.0
-0.84
0.0
0.0
0.0
0.0
0.0
0.0
0.0
0.0
0.0
0.0
0.0
0.0
0.0
0.0
0.0
0.0
0.0
0.0
0.0
0.0
-0.95
0.0
0.0
0.0
0.0
0.0
0.0
0.0
0.0
0.0
0.0
0.0
0.0
0.0
0.0
0.0
-1.02
-0.98
-0.99
-0.98
0.0
0.0
0.0
0.0
0.0
-8.5076457
0.0
-1.04
-6.5
-0.97
0.0
0.0
0.0
0.0
-8.55235199
-1.06
-7.91
-8.16
-1.06
-6.55
0.0
0.0
-0.75
-0.73
-6.49
-5.48
-1.05
-6.52
-1.09
-0.87
0.0
0.0
-0.78
-0.65
-0.82
-6.56
-6.56
-6.49
0.0
0.0
-0.79
0.0
-1.07
-6.52
-0.99
-0.8
-8.227
-6.53
0.0
-0.91
-1.02
-8.569646393
-0.83
-6.47
-1.03
-0.97
0.0
-0.9
-1.02
-6.51
-6.48
-5.52
-2.74
-1.01
0.0
0.0
-0.8
0.0
-1.02
-2.57
-8.6217524751
-6.59
-6.5
0.0
0.0
0.0
0.0
-1.05
0.0
0.0
0.0
0.0
0.0
0.0
0.0
0.0
0.0
-1.08
0.0
0.0
0.0
0.0
0.0
0.0
0.0
0.0
0.0
0.0
0.0
0.0
0.0
0.0
0.0
0.0
0.0
0.0
0.0
0.0
0.0
0.0
0.0
0.0
0.0
0.0
0.0
0.0
0.0
0.0
0.0
0.0
0.0
0.0
0.0
0.0
0.0
0.0
-0.99
-1.0
-1.0
-1.02
-1.02
-0.99
0.0
0.0
0.0
0.0
0.0
0.0
-2.58
-1.0
-1.02
-8.3299
-6.63
0.0
0.0
0.0
-1.0
-0.82
-0.81
-2.74
-0.99
0.0
-1.02
0.0
0.0
0.0
-6.53
-1.03
-6.51
-8.46193
-1.04
-6.54
0.0
-0.78
0.0
-1.02
-0.87
-1.02
-1.04
-1.07
-1.02
-1.02
0.0
-1.04
-5.57
0.0
-0.82
-2.73
-6.51
-6.49
0.0
0.0
-1.07
-6.54
-1.01
-6.49
-6.52
-1.07
0.0
-0.9
0.0
-0.82
-1.04
-1.06
-6.55
-6.54
0.0
0.0
0.0
0.0
-6.51
-1.04
-1.03
-1.06
-1.07
0.0
0.0
0.0
0.0
-1.02
0.0
-1.05
-0.92
0.0
0.0
0.0
0.0
0.0
0.0
0.0
0.0
0.0
0.0
0.0
0.0
0.0
0.0
0.0
0.0
0.0
0.0
0.0
0.0
0.0
0.0
0.0
0.0
0.0
0.0
0.0
0.0
0.0
0.0
0.0
0.0
0.0
0.0
0.0
0.0
-6.52
-6.59
0.0
0.0
0.0
0.0
0.0
0.0
0.0
-1.04
-1.0
-6.47
0.0
-1.06
0.0
0.0
0.0
0.0
0.0
0.0
-6.46
-1.0
-0.89
-1.05
-5.54
-6.55
0.0
0.0
0.0
0.0
-1.04
0.0
-1.03
-1.08
-6.47
0.0
0.0
0.0
0.0
0.0
-0.91
-1.09
-1.03
-1.03
-1.05
-6.54
0.0
0.0
-6.48
-2.74
-6.5
-1.08
-0.8
-6.51
0.0
0.0
0.0
-0.96
-1.0
-1.03
-1.02
-6.49
-1.06
-1.07
-1.09
0.0
0.0
0.0
-1.01
-1.03
-6.49
-6.5
0.0
-1.03
-6.46
0.0
0.0
-1.04
-6.51
-1.02
-1.03
-2.72
0.0
0.0
0.0
0.0
-1.02
-1.05
-6.47
-0.85
-1.03
0.0
0.0
0.0
0.0
0.0
0.0
-1.03
-1.03
0.0
0.0
0.0
0.0
0.0
0.0
0.0
-0.98
0.0
0.0
0.0
0.0
0.0
0.0
0.0
0.0
0.0
0.0
0.0
0.0
0.0
0.0
0.0
0.0
0.0
0.0
0.0
0.0
-0.88
0.0
0.0
0.0
0.0
0.0
0.0
0.0
-0.96
-0.99
-1.0
0.0
0.0
0.0
0.0
0.0
0.0
0.0
0.0
0.0
0.0
-6.57
0.0
0.0
0.0
0.0
-1.02
-1.04
-0.87
-6.53
-0.97
-6.54
0.0
0.0
0.0
0.0
0.0
0.0
-0.88
-6.51
-1.03
-1.01
-6.5
-5.61
-0.97
0.0
-2.73
0.0
-6.54
-6.52
0.0
-6.52
0.0
0.0
-0.99
-6.49
-1.01
0.0
-1.04
-1.06
0.0
0.0
0.0
0.0
0.0
-0.99
-1.02
-1.03
-1.06
0.0
-1.05
0.0
0.0
0.0
-0.96
-0.98
-0.79
-6.5
0.0
-6.5
-6.53
0.0
0.0
0.0
0.0
0.0
-1.04
-0.98
-1.03
-1.0
-6.54
0.0
0.0
0.0
0.0
0.0
0.0
-1.05
-1.04
0.0
0.0
0.0
0.0
0.0
0.0
-0.99
-1.03
0.0
0.0
0.0
0.0
0.0
-0.97
-1.01
0.0
0.0
0.0
0.0
0.0
0.0
0.0
0.0
0.0
0.0
0.0
0.0
0.0
0.0
0.0
-0.87
0.0
0.0
0.0
0.0
0.0
0.0
-0.94
0.0
0.0
0.0
0.0
0.0
0.0
0.0
0.0
-0.99
-0.93
-6.49
0.0
-0.94
0.0
0.0
0.0
0.0
0.0
0.0
-6.51
0.0
-0.99
0.0
0.0
0.0
-0.98
-6.51
0.0
-0.99
-0.74
-5.58
-5.56
0.0
-0.92
0.0
-1.02
-6.52
-1.03
-6.49
-1.04
-1.02
0.0
0.0
0.0
-1.03
-2.74
-0.99
-0.89
-6.54
-1.02
-0.97
0.0
0.0
0.0
-0.97
-1.01
-0.99
-6.51
-0.96
-0.99
-1.0
0.0
0.0
0.0
0.0
-6.52
-1.02
-1.03
-1.01
-1.01
0.0
0.0
-0.99
-0.98
-1.03
-6.47
-1.01
0.0
-0.99
0.0
0.0
0.0
-1.01
0.0
-6.54
0.0
0.0
0.0
0.0
-0.99
0.0
-0.93
0.0
0.0
0.0
0.0
-1.0
-0.95
0.0
0.0
0.0
0.0
0.0
0.0
0.0
0.0
0.0
0.0
0.0
0.0
0.0
0.0
0.0
0.0
0.0
0.0
0.0
-0.93
0.0
0.0
0.0
0.0
0.0
0.0
0.0
0.0
0.0
-6.5
0.0
0.0
0.0
0.0
-0.92
0.0
-1.02
0.0
0.0
0.0
0.0
-0.86
-0.98
-1.01
-0.98
-0.96
0.0
0.0
-0.96
-0.89
0.0
-1.03
-6.51
-0.99
-1.01
0.0
0.0
0.0
0.0
-1.02
-0.99
-1.04
-6.53
0.0
0.0
0.0
0.0
-0.97
-1.03
-1.0
0.0
-6.54
0.0
0.0
0.0
0.0
0.0
-1.04
-0.98
-1.0
0.0
0.0
0.0
0.0
0.0
0.0
-0.91
0.0
-5.57
-6.48
-0.99
0.0
0.0
-0.92
0.0
-0.93
-0.96
-1.0
0.0
0.0
0.0
0.0
-0.92
0.0
0.0
0.0
0.0
0.0
0.0
0.0
0.0
0.0
0.0
0.0
0.0
0.0
-1.04
0.0
0.0
0.0
0.0
0.0
0.0
-0.9
0.0
-1.02
-0.92
-0.91
-6.5
0.0
0.0
-1.0
-0.97
-1.0
-5.56
0.0
0.0
-0.96
-0.97
0.0
-1.0
-6.54
0.0
0.0
-0.95
0.0
0.0
-1.01
-1.05
0.0
0.0
0.0
0.0
0.0
0.0
-6.47
0.0
0.0
-0.99
-0.98
-0.98
0.0
0.0
0.0
0.0
-0.91
0.0
0.0
0.0
