0.0
0.0
0.0
0.0
0.0
0.0
0.0
0.0
-9.03
0.0
0.0
-9.03
-9.04
-9.04
-9.03
-9.02
0.0
-9.07
0.0
-9.34
-9.01
0.0
-9.0
-9.02
-9.08
-9.07
-9.04
0.0
0.0
0.0
0.0
-9.1
0.0
-9.08
-9.09
0.0
0.0
0.0
-8.95
-9.06
-9.1
0.0
0.0
0.0
-9.06
-9.04
0.0
0.0
-9.04
0.0
0.0
0.0
0.0
0.0
0.0
0.0
0.0
0.0
0.0
0.0
0.0
-8.93
0.0
0.0
0.0
0.0
0.0
-9.05
-8.88
0.0
0.0
0.0
0.0
0.0
-8.94
0.0
0.0
-9.07
0.0
-9.33
-9.02
0.0
0.0
0.0
-9.04
-8.98
-8.75
-9.32
-9.1
0.0
-8.94
-9.16
0.0
-9.09
-9.09
-9.17
-9.09
0.0
0.0
-9.05
-9.06
-9.07
-9.01
-9.32
-9.27
0.0
0.0
0.0
0.0
-8.81
0.0
-8.97
-9.09
-9.31
-9.3
0.0
0.0
-9.01
-9.07
-9.05
-9.33
-9.33
-9.08
-8.86
0.0
0.0
0.0
0.0
0.0
-9.12
-9.08
-9.07
-9.06
0.0
0.0
-9.02
0.0
-8.66
-9.08
-9.08
0.0
0.0
0.0
0.0
-9.06
0.0
0.0
0.0
0.0
0.0
0.0
0.0
0.0
0.0
0.0
0.0
0.0
0.0
0.0
-9.01
0.0
0.0
0.0
0.0
0.0
0.0
0.0
-9.02
0.0
0.0
0.0
0.0
0.0
-9.09
0.0
0.0
-8.99
-8.9
0.0
0.0
0.0
0.0
0.0
0.0
-8.96
-8.99
0.0
-9.1
-9.27
0.0
0.0
0.0
-9.08
-9.01
0.0
-8.98
-9.2099999633
-9.03
0.0
0.0
-9.11
-8.98
-8.99
-9.09
-9.03
-9.03
-9.11
-9.23
0.0
0.0
0.0
-8.98
-9.24
-8.92
-9.3
-8.78
-9.08
-9.1
0.0
0.0
0.0
-8.77
-9.07
-8.87
-9.27
-9.18
-9.28999997431
-8.73
0.0
0.0
0.0
-9.12
-9.21
-8.81
-9.17
-8.84
-8.71
0.0
0.0
-8.91
-8.64
-8.71
-9.07
-9.2
-9.06
-8.71
0.0
0.0
-9.01
0.0
0.0
-9.11
-9.11
-9.03
0.0
0.0
0.0
0.0
-9.01
-9.06
0.0
0.0
0.0
0.0
-9.05
0.0
0.0
0.0
0.0
0.0
0.0
0.0
0.0
0.0
0.0
0.0
0.0
0.0
0.0
0.0
0.0
0.0
0.0
0.0
0.0
0.0
0.0
-9.03
-9.0
0.0
0.0
0.0
0.0
0.0
0.0
-9.08
0.0
-9.11
-9.3
0.0
0.0
0.0
0.0
0.0
0.0
-9.24
-9.07
-9.05
-9.12
0.0
0.0
0.0
0.0
0.0
-9.18
-9.17
-9.13
-9.0
-9.05
-9.22
0.0
0.0
-9.07
-9.29
-9.19
-8.98
-9.19
-9.2
-8.74
-9.21
0.0
-8.59
-9.04
-9.02
-8.94
-9.07
-8.96
-8.8
-9.06
0.0
0.0
-9.08
-8.67
-9.08
-9.27
-9.08
-9.26
-9.3
-9.34
0.0
0.0
0.0
-8.74
-9.08
-9.17
-9.12
-8.9
-8.86
-9.18
-9.06
0.0
0.0
0.0
-8.91
0.0
-8.79
-9.02
-9.15
-8.88
-9.16
0.0
0.0
0.0
-8.62
0.0
-8.87
-9.28
-9.12
0.0
0.0
0.0
-8.66
0.0
-9.07
-8.78
0.0
0.0
0.0
0.0
0.0
0.0
0.0
0.0
0.0
0.0
0.0
0.0
0.0
0.0
0.0
0.0
0.0
0.0
0.0
0.0
0.0
0.0
0.0
0.0
0.0
0.0
0.0
0.0
0.0
-8.77
-9.21
-8.84
-9.02
0.0
0.0
0.0
0.0
0.0
-9.27
-9.11
-8.89
-8.78
-9.07
0.0
0.0
0.0
0.0
0.0
-8.72
0.0
-8.98
-9.2
-9.15
-9.04
-9.27
0.0
0.0
0.0
0.0
-9.12
0.0
-9.3
-9.15
-9.16
-9.04
-9.06
0.0
0.0
-8.87
-8.69
-9.06
0.0
-9.16
-8.95
-9.2
-9.07
-9.09
-9.07
-9.12
-9.19
-9.22
-9.24
-9.2
-9.27
0.0
0.0
-8.63
-9.03
-9.19
-9.11
-9.25
-9.23
-9.15
-9.08
0.0
0.0
0.0
-8.8
-9.21
-9.16
-9.04
-9.22
-9.24
-9.06
-8.77
-9.15
-8.8
-9.01
-9.21
-9.27
-9.09
-9.31
0.0
0.0
0.0
-9.11
-9.24
-9.0
-8.87
-9.04
-9.12
0.0
0.0
0.0
0.0
0.0
-9.05
-9.09
-8.75
0.0
0.0
0.0
0.0
0.0
0.0
-9.03
0.0
0.0
0.0
0.0
0.0
0.0
0.0
0.0
0.0
0.0
0.0
0.0
0.0
0.0
0.0
0.0
0.0
0.0
0.0
0.0
0.0
0.0
0.0
0.0
0.0
0.0
0.0
-9.01
0.0
0.0
0.0
0.0
0.0
-8.71
-8.83
-9.03
-9.03
-9.04
-8.76
-9.02
-9.0
0.0
0.0
0.0
0.0
-8.77
-9.23
-8.99
-8.9
-9.23
-9.39
-9.02
0.0
0.0
-8.84
-8.75
-8.82
-9.2
0.0
-9.32
-8.97
-9.36999998202
0.0
0.0
0.0
-9.22
-9.2
-8.77
-9.26999998741
-9.26
-9.28
0.0
0.0
-8.83
-9.03
-9.11
-9.3
-9.23
-8.84
-8.72
-9.29
-8.74
-9.19
-9.18
-9.24
-9.24
-9.22999999119
-8.92
-9.27
-8.65
-9.23
-8.84
-8.98
-9.24
-9.14
-9.28
-7.97
-8.62
-8.81
-8.78
-9.24
-9.21
-9.13
-9.1
-8.83193
0.0
0.0
0.0
0.0
-9.13
-9.05
-9.21
-9.34
-8.63
0.0
0.0
0.0
0.0
0.0
-8.89
-9.05
0.0
0.0
0.0
0.0
0.0
0.0
0.0
0.0
-8.91
0.0
0.0
0.0
0.0
0.0
0.0
0.0
0.0
0.0
0.0
0.0
0.0
0.0
0.0
0.0
0.0
0.0
0.0
0.0
0.0
-8.93
0.0
0.0
0.0
-8.64
0.0
0.0
0.0
0.0
0.0
0.0
0.0
0.0
0.0
0.0
0.0
-9.24
-9.1
-9.09
-8.96
0.0
0.0
-8.75
-8.71
-8.79
-8.8876457
-8.78
-9.08
-9.26
-8.97
0.0
0.0
0.0
-8.77
-8.93235199
-9.16
-8.27
-8.56
-9.18
-9.38
0.0
-8.67
-8.84
-8.85
-9.24999999383
-9.37
-9.34
-9.27980841877
-9.2
-8.88
0.0
-8.79
-8.87
-8.8
-8.9
-9.24
-9.31986589314
-9.24999999568
0.0
0.0
-8.83
-8.61
-9.13
-9.26999999698
-9.03
-8.86
-8.587
-9.26
0.0
-8.96
-9.08
-8.929646393
-8.84
-9.1999061252
-9.29
-9.12
-8.64
-8.94
-9.03
-9.28999999788
-9.22999999852
-9.34
-9.25
-9.28
0.0
0.0
-8.87
0.0
-9.13
-9.2
-8.9817524751
-9.32
-9.39
0.0
0.0
0.0
0.0
-9.03
0.0
0.0
0.0
0.0
0.0
0.0
0.0
-8.61
0.0
-9.07
0.0
0.0
0.0
0.0
0.0
0.0
0.0
0.0
0.0
0.0
0.0
0.0
0.0
0.0
0.0
0.0
0.0
0.0
0.0
0.0
0.0
0.0
-8.85
0.0
0.0
0.0
0.0
0.0
0.0
0.0
0.0
0.0
0.0
0.0
0.0
0.0
0.0
0.0
-9.02
-9.01
-8.94
-9.15
-9.01
-8.99
0.0
0.0
0.0
0.0
-8.74
0.0
-9.26
-9.05
-9.13
-8.822351
-9.32
0.0
0.0
-8.69
-9.14
-8.92
-8.86
-9.24
-9.09
-8.75
-9.31
0.0
0.0
-8.61
-9.30999999896
-9.3
-9.25993428764
-8.7699
-9.34
-9.32321776927
0.0
-8.82
-8.59
-9.06
-8.93
-9.01
-9.13
-9.2
-9.25
-9.29
0.0
-9.18
-9.36999999927
-8.56
-8.87
-9.24
-9.29995400135
-9.27
-8.65
0.0
-9.17
-9.31996780094
-9.28
-9.17
-9.38
-9.19
-8.72
-8.95
-8.79
-8.88
-9.24
-9.08
-9.25
-9.36
0.0
0.0
-8.7
-8.71
-9.29
-9.09
-9.07
-9.07
-9.17
0.0
0.0
0.0
-8.76
-9.05
0.0
-9.05
-8.87
0.0
0.0
0.0
0.0
0.0
0.0
0.0
0.0
0.0
0.0
0.0
0.0
0.0
0.0
0.0
0.0
0.0
0.0
0.0
0.0
0.0
0.0
0.0
0.0
0.0
0.0
0.0
0.0
0.0
0.0
0.0
0.0
0.0
0.0
0.0
0.0
-9.32
-9.38
0.0
0.0
0.0
0.0
0.0
0.0
0.0
-9.0
-8.97
-9.32999999949
-8.64
-9.36
0.0
0.0
0.0
0.0
0.0
0.0
-9.22999999964
-8.98
-8.94
-9.33
-9.41997746066
-9.33998422246
0.0
0.0
0.0
0.0
-9.15
-8.81
-9.2
-9.21
-9.22525243849
-8.72
0.0
0.0
0.0
0.0
-8.95
-9.15
-9.22
-9.24
-9.2
-9.32667670694
-8.82
0.0
-9.26999999975
-9.23
-9.27998895572
-9.2
-8.83
-9.28022673257
0.0
0.0
0.0
-9.0
-9.25
-9.29
-9.19
-9.30767369486
-9.18
-9.36
-9.2
0.0
0.0
-8.62
-9.15
-9.14
-9.29999226901
-9.30999999983
-8.81
-9.33
-9.3199945883
0.0
0.0
-9.08
-9.30999999988
-9.28
-9.1
-9.2
-8.9
0.0
0.0
0.0
-9.29
-9.01
-9.34
-8.88
-9.3
0.0
0.0
0.0
0.0
0.0
-8.81
-9.3
-9.03
0.0
0.0
0.0
0.0
0.0
0.0
0.0
-8.96
0.0
0.0
0.0
0.0
0.0
0.0
0.0
0.0
0.0
0.0
0.0
0.0
0.0
0.0
0.0
0.0
0.0
0.0
0.0
0.0
0.0
0.0
0.0
0.0
0.0
0.0
0.0
0.0
-9.05
-8.98
-9.0
0.0
0.0
0.0
0.0
0.0
0.0
0.0
0.0
0.0
0.0
-9.37999621181
0.0
0.0
0.0
0.0
-9.16
-9.35
-8.87
-9.33999734827
-8.96
-9.3083715864
0.0
0.0
0.0
0.0
0.0
0.0
-8.92
-9.34999999991
-9.05
-9.22
-9.27999814379
-9.39999870065
-9.09
0.0
-9.25
-8.7
-9.32886011048
-9.3461587128
-8.69
-9.33031109896
0.0
0.0
-9.21
-9.27999909046
-9.16
-8.69
-9.06
-9.37
0.0
0.0
0.0
0.0
-8.72
-9.13
-9.16
-9.29
-9.06
0.0
-9.09
0.0
0.0
0.0
-9.12
-9.12
-8.84
-9.36999999994
0.0
-9.27999936332
-9.28920207734
0.0
0.0
0.0
0.0
0.0
-9.31
-9.26
-9.16
-9.08
-9.32944145414
-8.82
0.0
0.0
-8.73
0.0
0.0
-9.05
-9.02
0.0
0.0
0.0
0.0
0.0
-8.76
-9.26
-9.31
0.0
0.0
0.0
0.0
0.0
-9.08
-9.26
0.0
0.0
0.0
0.0
0.0
0.0
0.0
0.0
0.0
0.0
0.0
0.0
0.0
0.0
0.0
0.0
0.0
0.0
0.0
0.0
0.0
0.0
-8.96
0.0
0.0
0.0
0.0
0.0
0.0
0.0
0.0
-9.3
-8.78
-9.36
0.0
0.0
0.0
0.0
0.0
0.0
0.0
0.0
-9.38999999996
0.0
-9.3
0.0
0.0
0.0
-9.07
-9.36999999997
0.0
-9.27
-8.81
-9.39999955432
-9.37999968803
0.0
0.0
-8.69
-9.2
-9.27999978162
-9.33
-9.3096090179
-9.0
-9.03
0.0
0.0
0.0
-9.31
-9.26
-9.09
-8.85
-9.38972631253
-9.06
-8.89
0.0
0.0
0.0
-8.99
-9.31
-8.99
-9.33999984713
-8.97
-9.18
-9.28
0.0
0.0
0.0
0.0
-9.30999999998
-9.29
-9.29
-9.15
-9.05
0.0
0.0
-9.27
-9.26
-9.31
-9.34999999999
-9.02
0.0
-9.02
0.0
0.0
0.0
-9.29
0.0
-9.34999999999
0.0
0.0
0.0
0.0
-9.13
0.0
-8.79
0.0
0.0
0.0
0.0
-9.27
-8.86
0.0
0.0
0.0
0.0
0.0
0.0
0.0
0.0
0.0
0.0
0.0
0.0
0.0
0.0
0.0
0.0
0.0
0.0
0.0
-8.85
0.0
0.0
0.0
0.0
0.0
0.0
0.0
0.0
0.0
-9.36
0.0
0.0
0.0
0.0
-8.8
0.0
-9.28
0.0
0.0
0.0
0.0
0.0
-8.98
-9.29
-9.02
-9.02
0.0
0.0
-8.98
0.0
0.0
-9.07
-9.36999999999
-9.18
-9.04
0.0
0.0
0.0
0.0
-9.31
-9.09
-9.06
-9.35999989299
0.0
0.0
0.0
0.0
-9.15
-9.32
-9.28
0.0
-9.3599999251
0.0
0.0
0.0
0.0
0.0
-9.33
-9.01
-9.06
0.0
0.0
0.0
0.0
0.0
0.0
0.0
0.0
-9.39
-9.33
-9.16
0.0
0.0
-8.86
0.0
-8.81
-9.0
-9.07
0.0
0.0
0.0
0.0
0.0
0.0
0.0
0.0
0.0
0.0
0.0
0.0
0.0
0.0
0.0
0.0
0.0
0.0
-9.33
0.0
0.0
0.0
0.0
0.0
0.0
0.0
0.0
-9.32
0.0
0.0
-9.33
0.0
0.0
-9.14
-9.15
-9.09
-9.39
0.0
0.0
-8.73
-9.01
0.0
-9.15
-9.37999994757
0.0
0.0
0.0
0.0
0.0
-9.04
-9.33
0.0
0.0
0.0
0.0
0.0
0.0
-9.31
0.0
0.0
-9.27
-9.24
-9.25
0.0
0.0
0.0
0.0
0.0
0.0
0.0
0.0
