0.0
0.0
0.0
0.0
0.0
0.0
0.0
0.0
0.0
0.0
0.0
0.0
0.0
0.0
0.0
0.0
0.0
0.0
0.0
-8.62
0.0
0.0
0.0
0.0
0.0
0.0
0.0
0.0
0.0
0.0
0.0
0.0
0.0
0.0
0.0
0.0
0.0
0.0
0.0
0.0
0.0
0.0
0.0
0.0
0.0
0.0
0.0
0.0
0.0
0.0
0.0
0.0
0.0
0.0
0.0
0.0
0.0
0.0
0.0
0.0
0.0
0.0
0.0
0.0
0.0
0.0
0.0
0.0
0.0
0.0
0.0
0.0
0.0
0.0
0.0
0.0
0.0
0.0
0.0
-8.68999226901
0.0
0.0
0.0
0.0
0.0
0.0
0.0
-8.64
0.0
0.0
0.0
-8.35
0.0
-8.08
-8.21
-8.32
0.0
0.0
0.0
0.0
0.0
0.0
-8.26
-8.64
-8.6
0.0
0.0
0.0
0.0
0.0
0.0
0.0
-8.26
-8.64
-8.6799061252
0.0
0.0
0.0
0.0
0.0
-8.6899945883
-8.69999978162
0.0
0.0
0.0
0.0
0.0
0.0
0.0
-8.31
0.0
0.0
0.0
0.0
0.0
0.0
0.0
0.0
0.0
0.0
0.0
0.0
0.0
0.0
0.0
0.0
0.0
0.0
0.0
0.0
0.0
0.0
0.0
0.0
0.0
0.0
0.0
0.0
0.0
0.0
0.0
0.0
0.0
0.0
0.0
0.0
0.0
0.0
0.0
0.0
0.0
0.0
0.0
-8.15
0.0
0.0
0.0
0.0
0.0
0.0
0.0
0.0
0.0
0.0
0.0
0.0
0.0
0.0
-8.64999621181
0.0
0.0
0.0
0.0
0.0
0.0
0.0
-8.56972631253
0.0
0.0
0.0
-8.22
0.0
0.0
-8.22
0.0
-8.3
-8.2
-8.37
0.0
0.0
0.0
0.0
-8.65999984713
0.0
-8.67993428764
0.0
0.0
-8.1
0.0
0.0
0.0
0.0
0.0
0.0
-8.62999999998
-8.33
-8.67995400135
0.0
0.0
0.0
0.0
-8.29
-8.38
0.0
-8.55996780094
0.0
0.0
0.0
0.0
0.0
0.0
0.0
0.0
-8.32
0.0
0.0
0.0
0.0
0.0
0.0
0.0
-8.24
0.0
0.0
0.0
0.0
0.0
0.0
0.0
0.0
0.0
0.0
0.0
0.0
0.0
0.0
0.0
0.0
0.0
0.0
0.0
0.0
0.0
0.0
0.0
0.0
0.0
0.0
0.0
0.0
0.0
0.0
0.0
0.0
0.0
0.0
0.0
0.0
0.0
0.0
0.0
0.0
0.0
0.0
0.0
-8.18
0.0
-8.19
-8.62999999999
0.0
0.0
0.0
0.0
0.0
0.0
-8.56999999999
0.0
0.0
-8.25
0.0
0.0
0.0
0.0
0.0
-8.38
-8.35
-8.4
-8.28
-8.33
-8.58999998741
0.0
0.0
-8.27
-8.62
-8.41
0.0
-8.31
-8.57997746066
0.0
-8.37
0.0
0.0
-8.34
0.0
0.0
-8.32
0.0
0.0
-8.32
0.0
0.0
0.0
0.0
-8.1
-8.62999999999
-8.39
-8.62999734827
-8.64999999119
-8.69998422246
0.0
0.0
0.0
0.0
0.0
-8.37
-8.11
0.0
0.0
-8.55998895572
-8.36
0.0
0.0
0.0
0.0
0.0
0.0
-8.29
-8.35
0.0
-8.35
0.0
0.0
0.0
0.0
0.0
0.0
-8.58
-8.2
0.0
0.0
0.0
0.0
0.0
0.0
0.0
0.0
0.0
0.0
0.0
0.0
0.0
0.0
0.0
0.0
0.0
0.0
0.0
0.0
0.0
0.0
0.0
0.0
0.0
0.0
0.0
0.0
0.0
0.0
0.0
0.0
0.0
0.0
0.0
0.0
0.0
-8.55999999975
0.0
0.0
0.0
0.0
0.0
0.0
0.0
-8.62
-8.27
0.0
0.0
-8.41
0.0
0.0
0.0
0.0
0.0
0.0
0.0
0.0
-8.45
-8.41
-8.37
-8.64999999383
0.0
0.0
0.0
0.0
-8.29
0.0
-8.65
-8.33
-8.31
-8.2
-8.32
0.0
0.0
0.0
0.0
-8.18
0.0
-8.36
0.0
-8.46
-8.34
0.0
-8.38
-8.4
-8.56999814379
-8.54999999568
-8.60999870065
-8.46
-8.61999999983
0.0
0.0
0.0
-8.34
-8.44
-8.31
-8.62999999698
-8.57
-8.35
0.0
0.0
0.0
0.0
0.0
-8.38
-8.5696090179
-8.35
-8.56999909046
-8.39
-8.2
0.0
-8.35
0.0
-8.3
-8.45
-8.62980841877
-8.37
-8.67
0.0
0.0
0.0
-8.25
-8.57999989299
-8.28
0.0
0.0
-8.23
0.0
0.0
0.0
0.0
0.0
-8.34
-8.33
0.0
0.0
0.0
0.0
0.0
0.0
0.0
0.0
0.0
0.0
0.0
0.0
0.0
0.0
0.0
0.0
0.0
0.0
0.0
0.0
0.0
0.0
0.0
0.0
0.0
0.0
0.0
0.0
0.0
0.0
0.0
0.0
0.0
0.0
0.0
-8.34
0.0
0.0
0.0
0.0
0.0
0.0
0.0
-8.29
0.0
-8.39
0.0
-8.29
0.0
0.0
0.0
0.0
0.0
0.0
-8.58
0.0
0.0
-8.38
-8.69
0.0
0.0
0.0
0.0
0.0
0.0
-8.43
0.0
-8.55
0.0
-8.62
0.0
0.0
0.0
-8.56999999788
-8.46
0.0
-8.56
-8.5999999251
-8.64999936332
0.0
0.0
0.0
0.0
-8.29
-8.64
-8.57999999988
0.0
0.0
-8.66999955432
0.0
-8.43
-8.56986589314
-8.56
-8.64999968803
-8.53
0.0
-8.60999999852
0.0
-8.43
0.0
0.0
-8.58999999896
-8.31
-8.63999994757
-7.71
0.0
0.0
0.0
-8.61999999991
-8.39
-8.33
0.0
-8.69235199
0.0
0.0
0.0
0.0
-8.39
0.0
-8.38
-8.63
0.0
0.0
0.0
0.0
0.0
0.0
0.0
-8.34
0.0
0.0
0.0
0.0
0.0
0.0
0.0
0.0
0.0
0.0
0.0
0.0
0.0
0.0
0.0
0.0
0.0
0.0
0.0
0.0
0.0
0.0
0.0
0.0
0.0
0.0
0.0
0.0
0.0
0.0
0.0
0.0
0.0
0.0
0.0
0.0
0.0
0.0
0.0
0.0
0.0
0.0
0.0
0.0
0.0
-8.38
-8.31
-8.26
0.0
0.0
0.0
0.0
0.0
0.0
-8.55193
0.0
-8.36
-8.6399999633
0.0
0.0
0.0
0.0
0.0
-8.642351
-8.37
-8.01
-8.7176457
-8.42
-8.73999997431
0.0
0.0
0.0
0.0
-8.57
-8.73
-8.44
-8.59
-8.38
0.0
0.0
0.0
0.0
0.0
0.0
-8.61999999994
-8.64
-8.56
0.0
0.0
0.0
0.0
-8.31
-8.58
-8.27
0.0
-8.2
-8.65999998202
0.0
0.0
-8.33
-8.669646393
0.0
-8.5
-8.34
-8.22
0.0
0.0
-8.4
-8.57
-8.52
-8.53
-8.46
-8.4
0.0
0.0
0.0
0.0
-8.4
-8.47
-8.7617524751
-8.63999999996
-8.76999999927
0.0
0.0
0.0
0.0
-8.35
0.0
0.0
0.0
0.0
0.0
0.0
0.0
0.0
0.0
-8.38
0.0
0.0
0.0
0.0
0.0
0.0
0.0
0.0
0.0
0.0
0.0
0.0
0.0
0.0
0.0
0.0
0.0
0.0
0.0
0.0
0.0
0.0
0.0
0.0
0.0
0.0
0.0
0.0
0.0
0.0
0.0
0.0
0.0
0.0
0.0
0.0
0.0
0.0
-8.21
0.0
0.0
-8.36
-8.24
-8.32
0.0
0.0
0.0
0.0
0.0
0.0
-8.44
-8.29
-8.36
-8.347
-8.62
0.0
0.0
0.0
-8.37
0.0
0.0
-8.46
0.0
0.0
-8.42
0.0
0.0
0.0
-8.61
-8.4
-8.56
-8.5099
-8.46
-8.6
0.0
0.0
0.0
-8.34
0.0
-8.32
-8.33
-8.4
-8.39
-8.41
0.0
-8.41
-8.58
0.0
0.0
-8.45
-8.59
-8.60999999949
0.0
0.0
-8.4
-8.57
-8.39
-8.49999999997
-8.75
-8.44
0.0
0.0
0.0
0.0
-8.45
-8.39
-8.6
-8.72999999964
0.0
0.0
0.0
0.0
-8.58
-8.38
-8.32
-8.42
-8.43
0.0
0.0
0.0
0.0
-8.36
0.0
-8.35
0.0
0.0
0.0
0.0
0.0
0.0
0.0
0.0
0.0
0.0
0.0
0.0
0.0
0.0
0.0
0.0
0.0
0.0
0.0
0.0
0.0
0.0
0.0
0.0
0.0
0.0
0.0
0.0
0.0
0.0
0.0
0.0
0.0
0.0
0.0
0.0
0.0
-8.59
-8.6
0.0
0.0
0.0
0.0
0.0
0.0
0.0
0.0
0.0
-8.57
0.0
-8.44
0.0
0.0
0.0
0.0
0.0
0.0
-8.5
0.0
0.0
-8.47
-8.47
-8.57
0.0
0.0
0.0
0.0
-8.39
0.0
-8.38
-8.45
-8.54
0.0
0.0
0.0
0.0
0.0
0.0
-8.4
-8.39
-8.39
-8.45
-8.59
0.0
0.0
-8.54
-8.48
-8.58
-8.42
0.0
-8.59
0.0
0.0
0.0
-8.24
-8.36
-8.39
-8.41
-8.56
-8.4
-8.45
-8.47
0.0
0.0
0.0
-8.35
-8.39
-8.56
-8.58
0.0
-8.45
-8.53
0.0
0.0
-8.4
-8.58
-8.4
-8.4
-8.42
0.0
0.0
0.0
0.0
-8.36
-8.4
-8.56
0.0
-8.43
0.0
0.0
0.0
0.0
0.0
0.0
-8.39
-8.33
0.0
0.0
0.0
0.0
0.0
0.0
0.0
0.0
0.0
0.0
0.0
0.0
0.0
0.0
0.0
0.0
0.0
0.0
0.0
0.0
0.0
0.0
0.0
0.0
0.0
0.0
0.0
0.0
0.0
0.0
0.0
0.0
0.0
0.0
0.0
0.0
-8.32
-8.31
0.0
0.0
0.0
0.0
0.0
0.0
0.0
0.0
0.0
0.0
0.0
-8.6
0.0
0.0
0.0
0.0
-8.37
-8.45
0.0
-8.55
0.0
-8.6
0.0
0.0
0.0
0.0
0.0
0.0
0.0
-8.6
-8.35
-8.35
-8.56
-8.62
-8.32
0.0
-8.44
0.0
-8.57
-8.6
0.0
-8.56
0.0
0.0
-8.34
-8.57
-8.39
0.0
-8.44
-8.48
0.0
0.0
0.0
0.0
0.0
-8.35
-8.36
-8.46
-8.37
0.0
-8.42
0.0
0.0
0.0
-8.31
-8.34
0.0
-8.59
0.0
-8.55
-8.58
0.0
0.0
0.0
0.0
0.0
-8.42
-8.34
-8.35
-8.32
-8.57
0.0
0.0
0.0
0.0
0.0
0.0
-8.42
-8.38
0.0
0.0
0.0
0.0
0.0
0.0
-8.34
-8.38
0.0
0.0
0.0
0.0
0.0
-8.3
-8.33
0.0
0.0
0.0
0.0
0.0
0.0
0.0
0.0
0.0
0.0
0.0
0.0
0.0
0.0
0.0
0.0
0.0
0.0
0.0
0.0
0.0
0.0
-8.25
0.0
0.0
0.0
0.0
0.0
0.0
0.0
0.0
-8.36
0.0
-8.57
0.0
0.0
0.0
0.0
0.0
0.0
0.0
0.0
-8.6
0.0
-8.36
0.0
0.0
0.0
-8.33
-8.58
0.0
-8.36
0.0
-8.53
-8.56
0.0
0.0
0.0
-8.36
-8.59
-8.46
-8.56
-8.38
-8.33
0.0
0.0
0.0
-8.4
-8.47
-8.33
0.0
-8.65
-8.3
0.0
0.0
0.0
0.0
0.0
-8.39
-8.28
-8.6
0.0
-8.34
-8.38
0.0
0.0
0.0
0.0
-8.56
-8.42
-8.37
-8.33
-8.31
0.0
0.0
-8.35
-8.35
-8.4
-8.58
-8.31
0.0
-8.29
0.0
0.0
0.0
-8.38
0.0
-8.58
0.0
0.0
0.0
0.0
-8.31
0.0
0.0
0.0
0.0
0.0
0.0
-8.36
0.0
0.0
0.0
0.0
0.0
0.0
0.0
0.0
0.0
0.0
0.0
0.0
0.0
0.0
0.0
0.0
0.0
0.0
0.0
0.0
0.0
0.0
0.0
0.0
0.0
0.0
0.0
0.0
0.0
0.0
-8.59
0.0
0.0
0.0
0.0
0.0
0.0
-8.38
0.0
0.0
0.0
0.0
0.0
-8.33
-8.36
-8.29
0.0
0.0
0.0
0.0
0.0
0.0
-8.35
-8.6
-8.35
-8.34
0.0
0.0
0.0
0.0
-8.38
-8.35
-8.39
-8.61
0.0
0.0
0.0
0.0
-8.33
-8.38
-8.36
0.0
-8.63
0.0
0.0
0.0
0.0
0.0
-8.39
-8.29
-8.35
0.0
0.0
0.0
0.0
0.0
0.0
0.0
0.0
-8.62
-8.57
-8.35
0.0
0.0
0.0
0.0
0.0
0.0
-8.35
0.0
0.0
0.0
0.0
0.0
0.0
0.0
0.0
0.0
0.0
0.0
0.0
0.0
0.0
0.0
0.0
0.0
0.0
-8.42
0.0
0.0
0.0
0.0
0.0
0.0
0.0
0.0
-8.39
0.0
0.0
-8.58
0.0
0.0
-8.34
-8.34
-8.3
-8.66
0.0
0.0
0.0
-8.28
0.0
-8.34
-8.61
0.0
0.0
0.0
0.0
0.0
-8.34
-8.43
0.0
0.0
0.0
0.0
0.0
0.0
-8.54
0.0
0.0
-8.35
-8.34
-8.29
0.0
0.0
0.0
0.0
0.0
0.0
0.0
0.0
