0.0
0.0
0.0
0.0
0.0
0.0
0.0
0.0
-5.45
0.0
0.0
-5.46
-5.47
-5.47
-5.46
-5.47
0.0
-5.52
0.0
-6.56
-5.47
0.0
-5.44
-5.45
-5.56
-5.52
0.0
0.0
0.0
0.0
0.0
-5.55
0.0
-5.54
-5.55
0.0
0.0
0.0
0.0
-5.51
-5.57
0.0
0.0
0.0
-5.51
-5.41
0.0
0.0
0.0
0.0
0.0
0.0
0.0
0.0
0.0
0.0
0.0
0.0
0.0
0.0
0.0
0.0
0.0
0.0
0.0
0.0
0.0
-5.5
0.0
0.0
0.0
0.0
0.0
0.0
0.0
0.0
0.0
-5.52
0.0
-6.54
-5.48
0.0
0.0
0.0
-5.53
0.0
0.0
-6.53
-5.55
0.0
0.0
-5.62
0.0
-5.54
-5.57
-5.66
-5.56
0.0
0.0
-5.51
-5.55
-5.53
-5.51
-6.52
-6.5
0.0
0.0
0.0
0.0
0.0
0.0
-5.49
-5.57
-6.54
-6.54
0.0
0.0
-5.48
-5.51
-5.53
-6.54
-6.56
-5.53
0.0
0.0
0.0
0.0
0.0
0.0
-5.58
-5.54
-5.53
-5.45
0.0
0.0
-5.47
0.0
0.0
-5.53
-5.52
0.0
0.0
0.0
0.0
-5.55
0.0
0.0
0.0
0.0
0.0
0.0
0.0
0.0
0.0
0.0
0.0
0.0
0.0
0.0
0.0
0.0
0.0
0.0
0.0
0.0
0.0
0.0
-5.47
0.0
0.0
0.0
0.0
0.0
-5.55
0.0
0.0
0.0
0.0
0.0
0.0
0.0
0.0
0.0
0.0
0.0
-5.47
0.0
-5.56
-6.5
0.0
0.0
0.0
-5.55
-5.48
0.0
-5.46
-6.46999999998
-5.47
0.0
0.0
-5.58
0.0
-5.49
-5.57
-5.51
-5.54
-5.58
-6.27
0.0
0.0
0.0
0.0
-6.49
-5.37
-6.53
0.0
-5.54
-5.55
0.0
0.0
0.0
0.0
-5.52
0.0
-6.52
-5.61
-6.54
0.0
0.0
0.0
0.0
-5.6
-5.67
0.0
-6.44
0.0
0.0
0.0
0.0
0.0
0.0
0.0
-5.51
-5.63
-5.53
0.0
0.0
0.0
-5.47
0.0
0.0
-5.58
-5.56
-5.51
0.0
0.0
0.0
0.0
0.0
-5.51
0.0
0.0
0.0
0.0
-5.51
0.0
0.0
0.0
0.0
0.0
0.0
0.0
0.0
0.0
0.0
0.0
0.0
0.0
0.0
0.0
0.0
0.0
0.0
0.0
0.0
0.0
0.0
-5.51
-5.47
0.0
0.0
0.0
0.0
0.0
0.0
-5.55
0.0
-5.58
-6.52
0.0
0.0
0.0
0.0
0.0
0.0
-6.5
-5.52
-5.53
-5.57
0.0
0.0
0.0
0.0
0.0
-6.1
-5.62
-5.54
-5.5
-5.54
-6.48
0.0
0.0
-5.56
-6.51
-5.8
-5.46
-5.63
-6.49
0.0
-5.64
0.0
0.0
-5.53
-5.52
-5.39
-5.56
-5.45
0.0
-5.54
0.0
0.0
-5.52
0.0
-5.54
-6.51
-5.56
-6.53
-6.54
-6.55
0.0
0.0
0.0
0.0
-5.55
-5.57
-5.54
0.0
0.0
-6.46999999999
-5.54
0.0
0.0
0.0
-5.42
0.0
0.0
-5.5
-5.63
0.0
-5.62
0.0
0.0
0.0
0.0
0.0
0.0
-6.52
-5.57
0.0
0.0
0.0
0.0
0.0
-5.56
0.0
0.0
0.0
0.0
0.0
0.0
0.0
0.0
0.0
0.0
0.0
0.0
0.0
0.0
0.0
0.0
0.0
0.0
0.0
0.0
0.0
0.0
0.0
0.0
0.0
0.0
0.0
0.0
0.0
0.0
0.0
-6.47
0.0
-5.48
0.0
0.0
0.0
0.0
0.0
-6.49
-5.57
-5.32
0.0
-5.56
0.0
0.0
0.0
0.0
0.0
0.0
0.0
-5.44
-5.61
-5.59
-5.53
-6.5
0.0
0.0
0.0
0.0
-5.59
0.0
-6.52
-5.58
-5.63
-5.52
-5.54
0.0
0.0
0.0
0.0
-5.56
0.0
-5.63
-5.45
-5.69
-5.55
-5.55
-5.53
-5.58
-6.47
-6.48
-6.48
-5.63
-6.51
0.0
0.0
0.0
-5.56
-6.21
-5.59
-6.52
-6.51
-5.59
-5.54
0.0
0.0
0.0
0.0
-5.65
-6.47999999997
-5.55
-6.44
-6.25
-5.53
0.0
-5.63
0.0
-5.52
-5.63
-6.48999999999
-5.56
-6.53
0.0
0.0
0.0
-5.57
-6.46
-5.51
0.0
-5.5
-5.56
0.0
0.0
0.0
0.0
0.0
-5.53
-5.55
0.0
0.0
0.0
0.0
0.0
0.0
0.0
-5.49
0.0
0.0
0.0
0.0
0.0
0.0
0.0
0.0
0.0
0.0
0.0
0.0
0.0
0.0
0.0
0.0
0.0
0.0
0.0
0.0
0.0
0.0
0.0
0.0
0.0
0.0
0.0
-5.53
0.0
0.0
0.0
0.0
0.0
0.0
0.0
-5.54
-5.52
-5.54
0.0
-5.49
0.0
0.0
0.0
0.0
0.0
0.0
-6.47
-5.49
-5.39
-5.62
-6.48
-5.5
0.0
0.0
0.0
0.0
0.0
-5.62
0.0
-6.49
-5.46
-6.51
0.0
0.0
0.0
-6.44
-5.69
0.0
-6.47
-6.51
-6.52
0.0
0.0
0.0
-5.51
-5.57
-6.5
-6.49
0.0
0.0
-6.49
0.0
-5.66
-6.44
-6.43
-6.48999999999
-6.46
-5.42
-6.5
0.0
-5.63
0.0
-5.48
-6.49
-5.58
-6.52
-7.9
0.0
0.0
0.0
-6.48
-5.67
-5.6
-5.59
-8.6799
0.0
0.0
0.0
0.0
-5.55
-5.51
-5.63
-6.54
0.0
0.0
0.0
0.0
0.0
0.0
0.0
-5.52
0.0
0.0
0.0
0.0
0.0
0.0
0.0
0.0
0.0
0.0
0.0
0.0
0.0
0.0
0.0
0.0
0.0
0.0
0.0
0.0
0.0
0.0
0.0
0.0
0.0
0.0
0.0
0.0
0.0
0.0
0.0
0.0
0.0
0.0
0.0
0.0
0.0
0.0
0.0
0.0
0.0
0.0
0.0
0.0
0.0
-5.6
-5.58
-5.57
0.0
0.0
0.0
0.0
0.0
0.0
-8.69193
0.0
-5.56
-6.46
-5.57
0.0
0.0
0.0
0.0
-8.802351
-5.67
-8.17
-8.4
-5.58
-6.5
0.0
0.0
0.0
0.0
-6.44
-6.49
-5.75
-6.47
-5.64
0.0
0.0
0.0
0.0
0.0
-5.39
-6.46
-6.49
-6.45
0.0
0.0
0.0
0.0
-5.6
-6.47
-5.54
0.0
-8.507
-6.47
0.0
-5.46
-5.55
-8.7976457
0.0
-6.41
-5.64
-5.57
0.0
-5.42
-5.54
-6.45
-6.46
-6.47
-6.21
-5.65
0.0
0.0
0.0
0.0
-5.54
-5.68
-8.88235199
-6.51
-6.51
0.0
0.0
0.0
0.0
-5.51
0.0
0.0
0.0
0.0
0.0
0.0
0.0
0.0
0.0
-5.54
0.0
0.0
0.0
0.0
0.0
0.0
0.0
0.0
0.0
0.0
0.0
0.0
0.0
0.0
0.0
0.0
0.0
0.0
0.0
0.0
0.0
0.0
0.0
0.0
0.0
0.0
0.0
0.0
0.0
0.0
0.0
0.0
0.0
0.0
0.0
0.0
0.0
0.0
-5.48
-5.48
-5.41
-5.6
-5.51
-5.55
0.0
0.0
0.0
0.0
0.0
0.0
-5.68
-5.53
-5.56
-8.799646393
-6.52
0.0
0.0
0.0
-5.58
-5.42
0.0
-5.98
-5.54
0.0
-5.73
0.0
0.0
0.0
-6.46
-5.7
-6.47
-8.8717524751
-6.21
-6.52
0.0
0.0
0.0
-5.56
-5.42
-5.52
-5.61
-5.57
-5.67
-5.66
0.0
-5.57
-6.48
0.0
0.0
-6.2
-6.47
-6.45
0.0
0.0
-5.56
-6.48
-5.67
-6.45
-6.5
-5.57
0.0
-5.44
0.0
0.0
-5.58
-5.56
-6.49
-6.49
0.0
0.0
0.0
0.0
-6.46
-5.54
-5.55
-5.54
-5.55
0.0
0.0
0.0
0.0
-5.53
0.0
-5.53
-5.55
0.0
0.0
0.0
0.0
0.0
0.0
0.0
0.0
0.0
0.0
0.0
0.0
0.0
0.0
0.0
0.0
0.0
0.0
0.0
0.0
0.0
0.0
0.0
0.0
0.0
0.0
0.0
0.0
0.0
0.0
0.0
0.0
0.0
0.0
0.0
0.0
-6.46
-6.51
0.0
0.0
0.0
0.0
0.0
0.0
0.0
-5.47
-5.46
-6.48
0.0
-5.74
0.0
0.0
0.0
0.0
0.0
0.0
-6.44
-5.51
-5.44
-6.24
-6.51
-6.52
0.0
0.0
0.0
0.0
-5.56
0.0
-5.59
-5.59
-6.47
0.0
0.0
0.0
0.0
0.0
-5.48
-5.62
-5.6
-5.64
-5.63
-6.48
0.0
0.0
-6.44
-5.94
-6.47
-5.59
0.0
-6.47
0.0
0.0
0.0
-5.51
-5.67
-5.65
-5.58
-6.48
-5.59
-5.86
-5.61
0.0
0.0
0.0
-5.57
-5.55
-6.46
-6.48
0.0
-5.73
-6.48
0.0
0.0
-5.55
-6.48
-5.66
-5.54
-6.23
0.0
0.0
0.0
0.0
-5.58
-5.51
-6.48
-5.37
-5.72
0.0
0.0
0.0
0.0
0.0
0.0
-5.69
-5.52
0.0
0.0
0.0
0.0
0.0
0.0
0.0
-5.37
0.0
0.0
0.0
0.0
0.0
0.0
0.0
0.0
0.0
0.0
0.0
0.0
0.0
0.0
0.0
0.0
0.0
0.0
0.0
0.0
-5.47
0.0
0.0
0.0
0.0
0.0
0.0
0.0
-5.55
-5.53
-5.48
0.0
0.0
0.0
0.0
0.0
0.0
0.0
0.0
0.0
0.0
-6.51
0.0
0.0
0.0
0.0
-5.59
-5.73
-5.3
-6.48
-5.46
-6.49
0.0
0.0
0.0
0.0
0.0
0.0
-5.4
-6.49
-5.54
-5.6
-6.46
-6.52
-5.57
0.0
-5.92
0.0
-6.48
-6.5
0.0
-6.49
0.0
0.0
-5.6
-6.46
-5.64
0.0
-5.56
-6.24
0.0
0.0
0.0
0.0
0.0
-5.61
-5.57
-5.75
-5.55
0.0
-5.56
0.0
0.0
0.0
-5.56
-5.56
0.0
-6.48
0.0
-6.46
-6.48
0.0
0.0
0.0
0.0
0.0
-5.7
-5.59
-5.59
-5.6
-6.48
0.0
0.0
0.0
0.0
0.0
0.0
-5.56
-5.55
0.0
0.0
0.0
0.0
0.0
0.0
-5.61
-5.65
0.0
0.0
0.0
0.0
0.0
-5.53
-5.61
0.0
0.0
0.0
0.0
0.0
0.0
0.0
0.0
0.0
0.0
0.0
0.0
0.0
0.0
0.0
-5.46
0.0
0.0
0.0
0.0
0.0
0.0
-5.54
0.0
0.0
0.0
0.0
0.0
0.0
0.0
0.0
-5.66
-5.5
-6.48
0.0
-5.53
0.0
0.0
0.0
0.0
0.0
0.0
-6.52
0.0
-5.65
0.0
0.0
0.0
-5.57
-6.51
0.0
-5.63
0.0
-6.51
-6.5
0.0
-5.55
0.0
-5.6
-6.48
-5.74
-6.47
-5.64
-5.52
0.0
0.0
0.0
-5.65
-5.69
-5.65
-5.43
-6.52
-5.54
-5.51
0.0
0.0
0.0
-5.56
-5.64
-5.51
-6.51
-5.55
-5.63
-5.65
0.0
0.0
0.0
0.0
-6.47
-5.7
-5.64
-5.59
-5.54
0.0
0.0
-5.6
-5.61
-5.66
-6.49
-5.52
0.0
-5.56
0.0
0.0
0.0
-5.66
0.0
-6.49
0.0
0.0
0.0
0.0
-5.59
0.0
-5.51
0.0
0.0
0.0
0.0
-5.63
-5.51
0.0
0.0
0.0
0.0
0.0
0.0
0.0
0.0
0.0
0.0
0.0
0.0
0.0
0.0
0.0
0.0
0.0
0.0
0.0
-5.5
0.0
0.0
0.0
0.0
0.0
0.0
0.0
0.0
0.0
-6.47
0.0
0.0
0.0
0.0
-5.5
0.0
-5.62
0.0
0.0
0.0
0.0
-5.47
-5.61
-5.64
-5.56
-5.57
0.0
0.0
-5.55
-5.51
0.0
-5.55
-6.5
-5.6
-5.59
0.0
0.0
0.0
0.0
-5.65
-5.62
-5.56
-6.52
0.0
0.0
0.0
0.0
-5.63
-5.62
-5.63
0.0
-6.51
0.0
0.0
0.0
0.0
0.0
-5.71
-5.54
-5.55
0.0
0.0
0.0
0.0
0.0
0.0
-5.52
0.0
-6.49
-6.47
-5.61
0.0
0.0
-5.54
0.0
-5.52
-5.55
-5.61
0.0
0.0
0.0
0.0
-5.48
0.0
0.0
0.0
0.0
0.0
0.0
0.0
0.0
0.0
0.0
0.0
0.0
0.0
-5.7
0.0
0.0
0.0
0.0
0.0
0.0
-5.47
0.0
-5.67
-5.54
-5.49
-6.48
0.0
0.0
-5.55
-5.58
-5.57
-6.48
0.0
-5.46
-5.51
-5.53
0.0
-5.6
-6.51
0.0
0.0
-5.53
0.0
0.0
-5.52
-5.72
0.0
0.0
0.0
0.0
0.0
0.0
-6.47
0.0
0.0
-5.62
-5.61
-5.61
0.0
0.0
0.0
0.0
-5.47
0.0
0.0
0.0
