0.0
0.0
0.0
0.0
0.0
0.0
0.0
0.0
0.0
0.0
0.0
0.0
0.0
0.0
0.0
0.0
0.0
-4.22
0.0
-8.0599945883
0.0
0.0
0.0
0.0
-4.27
0.0
0.0
0.0
0.0
0.0
0.0
-4.26
0.0
-4.24
-4.26
0.0
0.0
0.0
0.0
0.0
-4.3
0.0
0.0
0.0
-4.25
0.0
0.0
0.0
0.0
0.0
0.0
0.0
0.0
0.0
0.0
0.0
0.0
0.0
0.0
0.0
0.0
0.0
0.0
0.0
0.0
0.0
0.0
0.0
0.0
0.0
0.0
0.0
0.0
0.0
0.0
0.0
0.0
0.0
0.0
-7.99999621181
-4.3
0.0
0.0
0.0
0.0
0.0
0.0
-8.03
-4.26
0.0
0.0
-4.4
0.0
-4.27
-4.33
-4.4
-4.27
0.0
0.0
0.0
-4.25
-4.24
-4.37
-8.03999999988
-7.99999734827
0.0
0.0
0.0
0.0
0.0
0.0
-4.35
-4.34
-8.01999814379
-8.01986589314
0.0
0.0
0.0
0.0
-4.25
-8.01999870065
-8.05999909046
0.0
0.0
0.0
0.0
0.0
0.0
0.0
-4.37
-4.27
0.0
0.0
0.0
0.0
0.0
0.0
0.0
-4.3
0.0
0.0
0.0
0.0
0.0
-4.28
0.0
0.0
0.0
0.0
0.0
0.0
0.0
0.0
0.0
0.0
0.0
0.0
0.0
0.0
0.0
0.0
0.0
0.0
0.0
0.0
0.0
0.0
0.0
0.0
0.0
0.0
0.0
0.0
-4.31
0.0
0.0
0.0
0.0
0.0
0.0
0.0
0.0
0.0
0.0
0.0
-4.23
0.0
-4.29
-7.99999936332
0.0
0.0
0.0
-4.27
-4.24
0.0
0.0
-7.9399061252
0.0
0.0
0.0
-4.36
0.0
-4.34
-4.28
-4.26
-4.36
-4.3
-4.37
0.0
0.0
0.0
0.0
-7.95999999991
0.0
-8.00998895572
0.0
0.0
-4.29
0.0
0.0
0.0
0.0
-4.26
0.0
-8.01999955432
-4.38
-8.03993428764
0.0
0.0
0.0
0.0
-4.36
-4.41
0.0
-7.89999968803
0.0
0.0
0.0
0.0
0.0
0.0
0.0
0.0
-4.4
-4.21
0.0
0.0
0.0
0.0
0.0
0.0
-4.34
-4.28
0.0
0.0
0.0
0.0
0.0
0.0
0.0
0.0
0.0
0.0
0.0
-4.25
0.0
0.0
0.0
0.0
0.0
0.0
0.0
0.0
0.0
0.0
0.0
0.0
0.0
0.0
0.0
0.0
0.0
0.0
0.0
0.0
0.0
0.0
-4.23
-4.3
0.0
0.0
0.0
0.0
0.0
0.0
-4.3
0.0
-4.29
-7.97999999994
0.0
0.0
0.0
0.0
0.0
0.0
-7.95999999996
0.0
-4.14
-4.35
0.0
0.0
0.0
0.0
0.0
-4.38
-4.4
-4.37
-4.32
-4.33
-7.95999978162
0.0
0.0
-4.32
-8.01
-4.4
0.0
-4.39
-7.95999984713
0.0
-4.4
0.0
0.0
-4.35
-4.3
0.0
-4.36
0.0
0.0
-4.36
0.0
0.0
-4.22
0.0
-4.27
-7.95999999997
-4.38
-7.97999989299
-8.0199999251
-8.01999994757
0.0
0.0
0.0
0.0
-4.29
-7.75
-4.31
0.0
0.0
-7.93995400135
-4.38
0.0
0.0
0.0
0.0
0.0
0.0
-4.31
-4.38
0.0
-4.39
0.0
0.0
0.0
0.0
0.0
0.0
-7.99999999998
-4.32
0.0
0.0
0.0
0.0
0.0
-4.26
0.0
0.0
0.0
0.0
0.0
0.0
0.0
0.0
0.0
0.0
0.0
0.0
0.0
0.0
0.0
0.0
0.0
0.0
0.0
0.0
0.0
0.0
0.0
0.0
0.0
0.0
0.0
0.0
0.0
0.0
0.0
-7.93
0.0
-4.29
0.0
0.0
0.0
0.0
0.0
-7.99
-4.35
0.0
0.0
-4.37
0.0
0.0
0.0
0.0
0.0
0.0
0.0
0.0
-7.78
-7.69
-4.38
-7.98999999383
0.0
0.0
0.0
0.0
-4.36
0.0
-7.99999999999
-4.38
-4.37
-4.27
-4.36
0.0
0.0
0.0
0.0
-4.25
0.0
-4.38
0.0
-7.78
-4.33
-4.3
-4.34
-4.38
-7.92999999568
-7.9799999633
-7.95999997431
-7.79
-7.97999999999
0.0
0.0
0.0
-4.36
-4.38
-4.34
-7.96999999698
-7.96999999788
-4.38
0.0
0.0
0.0
0.0
0.0
-4.38
-7.96972631253
-4.34
-7.95999998202
-4.44
-4.28
0.0
-4.35
0.0
-4.3
-7.78
-8.01996780094
-4.4
-8.01999999999
0.0
0.0
0.0
-4.35
-7.94
-4.33
0.0
-4.25
-4.3
0.0
0.0
0.0
0.0
0.0
-4.35
-4.35
0.0
0.0
0.0
0.0
0.0
0.0
0.0
0.0
0.0
0.0
0.0
0.0
0.0
0.0
0.0
0.0
0.0
0.0
0.0
0.0
0.0
0.0
0.0
0.0
0.0
0.0
0.0
0.0
0.0
0.0
0.0
0.0
0.0
0.0
0.0
-4.34
0.0
0.0
0.0
0.0
0.0
0.0
0.0
-4.37
-4.21
-4.36
0.0
-4.31
0.0
0.0
0.0
0.0
0.0
0.0
-7.93
-4.31
0.0
-4.33
-8.0
-4.28
0.0
0.0
0.0
0.0
0.0
-7.77
0.0
-8.01
0.0
-8.01
0.0
0.0
0.0
-7.96
-7.8
0.0
-7.99
-7.96999999852
-7.96999999896
0.0
0.0
0.0
0.0
-4.35
-7.99
-7.96
0.0
0.0
-7.96
0.0
-7.8
-7.91997746066
-7.99
-7.97999998741
-7.95
0.0
-7.98
0.0
-7.77
0.0
0.0
-7.96999999927
-4.35
-7.96999999949
-7.67
0.0
0.0
0.0
-7.98
-4.4
-4.29
-4.31
-8.23
0.0
0.0
0.0
0.0
-7.73
0.0
-4.4
-8.01
0.0
0.0
0.0
0.0
0.0
0.0
0.0
-4.31
0.0
0.0
0.0
0.0
0.0
0.0
0.0
0.0
0.0
0.0
0.0
0.0
0.0
0.0
0.0
0.0
0.0
0.0
0.0
0.0
0.0
0.0
0.0
0.0
0.0
0.0
0.0
0.0
0.0
0.0
0.0
0.0
0.0
0.0
0.0
0.0
0.0
0.0
0.0
0.0
0.0
0.0
0.0
0.0
0.0
-4.27
0.0
-4.25
0.0
0.0
0.0
0.0
0.0
0.0
-8.599646393
0.0
-4.37
-7.93
0.0
0.0
0.0
0.0
0.0
-8.6317524751
-4.38
-8.317
-8.4399
-4.38
-7.97
0.0
0.0
0.0
0.0
-7.96
-7.76
-4.31
-7.98
-4.41
0.0
0.0
0.0
0.0
0.0
0.0
-7.96
-8.03999999119
-7.95
0.0
0.0
0.0
0.0
-4.36
-8.0
-4.31
0.0
-7.95
-7.95
0.0
0.0
-4.35
-8.5676457
0.0
-7.90999999964
0.0
-4.25
0.0
0.0
-4.36
-8.01
-7.96
-8.01
-7.83
-4.3
0.0
0.0
0.0
0.0
-4.36
-7.8
-8.61235199
-8.0
-7.98
0.0
0.0
0.0
0.0
-4.35
0.0
0.0
0.0
0.0
0.0
0.0
0.0
0.0
0.0
-4.37
0.0
0.0
0.0
0.0
0.0
0.0
0.0
0.0
0.0
0.0
0.0
0.0
0.0
0.0
0.0
0.0
0.0
0.0
0.0
0.0
0.0
0.0
0.0
0.0
0.0
0.0
0.0
0.0
0.0
0.0
0.0
0.0
0.0
0.0
0.0
0.0
0.0
0.0
-4.25
0.0
0.0
0.0
0.0
0.0
0.0
0.0
0.0
0.0
0.0
0.0
-7.82
-4.3
-4.33
-8.45193
-8.0
0.0
0.0
0.0
-4.29
0.0
0.0
-7.82
-4.25
0.0
-4.34
0.0
0.0
0.0
-7.99
-4.31
-7.96999999975
-8.562351
-4.35
-8.02
0.0
0.0
0.0
-4.29
0.0
0.0
-4.36
-4.39
-4.32
-4.33
0.0
-7.77
-8.05
0.0
0.0
-7.85
-7.96
-7.95
0.0
0.0
-7.79
-8.04
-4.3
-7.89
-7.74
-4.39
0.0
0.0
0.0
0.0
-7.77
-4.37
-7.99
-7.98
0.0
0.0
0.0
0.0
-7.99
-4.36
-4.35
-4.39
-7.78
0.0
0.0
0.0
0.0
-4.34
0.0
-4.35
0.0
0.0
0.0
0.0
0.0
0.0
0.0
0.0
0.0
0.0
0.0
0.0
0.0
0.0
0.0
0.0
0.0
0.0
0.0
0.0
0.0
0.0
0.0
0.0
0.0
0.0
0.0
0.0
0.0
0.0
0.0
0.0
0.0
0.0
0.0
0.0
0.0
-7.99
-8.03
0.0
0.0
0.0
0.0
0.0
0.0
0.0
-4.25
0.0
-8.01
0.0
0.0
0.0
0.0
0.0
0.0
0.0
0.0
-7.93
0.0
0.0
-4.35
-8.08
-8.03
0.0
0.0
0.0
0.0
-7.79
0.0
-4.37
-7.77
-7.92
0.0
0.0
0.0
0.0
0.0
0.0
-4.39
-4.37
-4.27
-7.79
-8.03
0.0
0.0
-7.94
-7.82
-7.98999999983
-7.81
0.0
-7.98
0.0
0.0
0.0
0.0
-4.32
-4.3
-4.37
-7.96
-4.38
-4.36
-7.79
0.0
0.0
0.0
0.0
-4.38
-7.99
-8.0
0.0
-4.34
-8.03
0.0
0.0
-4.37
-7.98
-4.34
-4.35
-7.81
0.0
0.0
0.0
0.0
0.0
-4.35
-8.01
0.0
-4.34
0.0
0.0
0.0
0.0
0.0
0.0
-4.29
-4.32
0.0
0.0
0.0
0.0
0.0
0.0
0.0
0.0
0.0
0.0
0.0
0.0
0.0
0.0
0.0
0.0
0.0
0.0
0.0
0.0
0.0
0.0
0.0
0.0
0.0
0.0
0.0
0.0
0.0
0.0
0.0
0.0
0.0
0.0
0.0
0.0
0.0
0.0
-4.25
0.0
0.0
0.0
0.0
0.0
0.0
0.0
0.0
0.0
0.0
-8.0
0.0
0.0
0.0
0.0
0.0
-4.33
0.0
-8.04999226901
0.0
-8.0896090179
0.0
0.0
0.0
0.0
0.0
0.0
0.0
-8.02
-4.3
0.0
-8.01
-8.07
0.0
0.0
-7.8
0.0
-8.06980841877
-8.03
0.0
-8.02
0.0
0.0
0.0
-7.99
-4.31
0.0
-7.77
-4.36
0.0
0.0
0.0
0.0
0.0
0.0
0.0
-4.36
-4.37
0.0
-4.36
0.0
0.0
0.0
0.0
0.0
0.0
-8.01
0.0
-7.99
-8.0
0.0
0.0
0.0
0.0
0.0
-4.34
0.0
0.0
0.0
-8.01
0.0
0.0
0.0
0.0
0.0
0.0
-4.38
-4.35
0.0
0.0
0.0
0.0
0.0
0.0
0.0
-4.2
0.0
0.0
0.0
0.0
0.0
0.0
0.0
0.0
0.0
0.0
0.0
0.0
0.0
0.0
0.0
0.0
0.0
0.0
0.0
0.0
0.0
0.0
0.0
0.0
0.0
0.0
0.0
0.0
0.0
0.0
0.0
0.0
0.0
0.0
0.0
0.0
0.0
0.0
0.0
0.0
-8.03
0.0
0.0
0.0
0.0
0.0
0.0
0.0
0.0
-8.04
0.0
0.0
0.0
0.0
0.0
0.0
-8.02
0.0
0.0
0.0
-8.08
-7.99
0.0
0.0
0.0
0.0
-8.03998422246
-4.34
-7.99
0.0
-4.31
0.0
0.0
0.0
-4.21
-7.8
0.0
0.0
-8.01
-4.2
0.0
0.0
0.0
0.0
0.0
-4.24
0.0
-8.0
0.0
0.0
-4.29
0.0
0.0
0.0
0.0
-8.01
-4.34
0.0
0.0
0.0
0.0
0.0
0.0
0.0
-4.23
-8.01
-4.24
0.0
0.0
0.0
0.0
0.0
-4.23
0.0
-8.0
0.0
0.0
0.0
0.0
0.0
0.0
0.0
0.0
0.0
0.0
0.0
0.0
0.0
0.0
0.0
0.0
0.0
0.0
0.0
0.0
0.0
0.0
0.0
0.0
0.0
0.0
0.0
0.0
0.0
0.0
0.0
0.0
0.0
0.0
0.0
0.0
0.0
0.0
0.0
0.0
0.0
0.0
-8.04
0.0
0.0
0.0
0.0
0.0
0.0
0.0
0.0
0.0
0.0
0.0
0.0
0.0
0.0
0.0
0.0
0.0
0.0
0.0
0.0
0.0
-4.34
-8.03
0.0
0.0
0.0
0.0
0.0
0.0
0.0
0.0
-4.33
-8.02
0.0
0.0
0.0
0.0
0.0
-4.23
0.0
0.0
-7.99
0.0
0.0
0.0
0.0
0.0
-4.22
0.0
-4.33
0.0
0.0
0.0
0.0
0.0
0.0
0.0
0.0
-8.06
-7.99
0.0
0.0
0.0
0.0
0.0
0.0
0.0
0.0
0.0
0.0
0.0
0.0
0.0
0.0
0.0
0.0
0.0
0.0
0.0
0.0
0.0
0.0
0.0
0.0
0.0
0.0
0.0
0.0
0.0
0.0
0.0
0.0
0.0
0.0
0.0
0.0
0.0
0.0
-8.02
0.0
0.0
0.0
0.0
0.0
-8.02
0.0
0.0
0.0
0.0
0.0
0.0
-8.04
0.0
0.0
0.0
0.0
0.0
-4.28
-4.25
0.0
0.0
0.0
0.0
0.0
0.0
-8.01
0.0
0.0
0.0
0.0
0.0
0.0
0.0
0.0
0.0
0.0
0.0
0.0
0.0
