0.0
0.0
0.0
0.0
0.0
0.0
0.0
0.0
-1.06
0.0
0.0
-1.06
-1.08
-1.01
-1.03
-1.04
0.0
-1.08
0.0
-8.08999999996
-1.05
0.0
-0.94
-0.11
-1.08
-1.09
-0.91
0.0
0.0
0.0
0.0
-1.11
0.0
-1.09
-1.07
0.0
0.0
0.0
0.0
-1.08
-1.09
0.0
0.0
0.0
-1.08
-0.97
0.0
0.0
-0.12
0.0
0.0
0.0
0.0
0.0
0.0
0.0
0.0
0.0
0.0
0.0
0.0
0.0
0.0
0.0
0.0
0.0
0.0
-0.97
0.0
0.0
0.0
0.0
0.0
0.0
0.0
0.0
0.0
-1.06
0.0
-8.00999999997
-1.1
0.0
0.0
0.0
-1.05
-0.09
0.0
-8.04
-1.1
0.0
0.0
-8.1
0.0
-1.09
-1.11
-8.09
-1.11
0.0
0.0
-1.06
-1.04
-1.09
-1.06
-8.02999999998
-7.92999999999
0.0
0.0
0.0
0.0
-0.03
0.0
-1.09
-1.81
-8.01999999119
-7.99999999383
0.0
0.0
-0.92
-1.07
-1.08
-8.00999999999
-8.06999999999
-1.1
0.0
0.0
0.0
0.0
0.0
0.0
-1.85
-1.09
-1.07
-0.14
0.0
0.0
-0.86
0.0
0.0
-1.11
-1.07
0.0
0.0
0.0
0.0
-1.06
0.0
0.0
0.0
0.0
0.0
0.0
0.0
0.0
0.0
0.0
0.0
0.0
0.0
0.0
-0.08
0.0
0.0
0.0
0.0
0.0
0.0
0.0
-1.06
0.0
0.0
0.0
0.0
0.0
-1.09
0.0
0.0
0.0
0.0
0.0
0.0
0.0
0.0
0.0
0.0
-0.07
-1.04
0.0
-1.09
-7.93999999568
0.0
0.0
0.0
-1.08
-1.06
0.0
-1.05
-7.86999734827
-0.09
0.0
0.0
-1.88
-0.05
-1.09
-1.09
-1.07
-1.69
-1.14
-8.06
0.0
0.0
0.0
-0.92
-7.92
-0.92
-7.97999999698
0.0
-1.07
-1.13
0.0
0.0
0.0
0.0
-1.06
-0.92
-7.95
-1.92
-7.96999814379
0.0
0.0
0.0
0.0
-1.87
-8.11
-0.01
-7.81999999788
-0.05
0.0
0.0
0.0
0.0
0.0
0.0
-1.08
-1.9
-1.04
0.0
0.0
0.0
-0.99
0.0
0.0
-1.8
-1.1
-1.08
0.0
0.0
0.0
0.0
-0.09
-0.99
0.0
0.0
0.0
0.0
-1.09
0.0
0.0
0.0
0.0
0.0
0.0
0.0
0.0
0.0
0.0
0.0
0.0
0.0
0.0
0.0
0.0
0.0
0.0
0.0
0.0
0.0
0.0
-1.05
-1.08
0.0
0.0
0.0
0.0
0.0
0.0
-1.07
0.0
-1.26
-7.97
0.0
0.0
0.0
0.0
0.0
0.0
-7.89
-1.08
-1.05
-1.18
0.0
0.0
0.0
0.0
0.0
-8.1
-1.87
-6.03
-1.1
-5.92
-7.90999870065
0.0
0.0
-1.77
-7.99
-8.12
-0.99
-1.99
-7.86999909046
0.0
-2.68
0.0
0.0
-5.94
-1.11
-0.95
-5.97
-0.99
0.0
-1.81
0.0
0.0
-1.06
0.0
-1.11
-7.91
-5.95
-7.90999936332
-7.98999955432
-8.00999968803
0.0
0.0
0.0
0.0
-1.08
-5.98
-1.08
-0.89
-0.05
-7.82999978162
-6.03
0.0
0.0
0.0
-0.95
0.0
-0.03
-1.76
-2.0
-0.83
-1.88
0.0
0.0
0.0
0.0
0.0
-0.87
-7.93
-1.19
0.0
0.0
0.0
0.0
0.0
-1.04
0.0
0.0
0.0
0.0
0.0
0.0
0.0
0.0
0.0
0.0
0.0
0.0
0.0
0.0
0.0
0.0
0.0
0.0
0.0
0.0
0.0
0.0
0.0
0.0
0.0
0.0
0.0
0.0
0.0
0.0
0.0
-7.88
-0.05
-1.08
0.0
0.0
0.0
0.0
0.0
-7.96
-1.8
-0.91
0.0
-5.99
0.0
0.0
0.0
0.0
0.0
0.0
0.0
-1.05
-6.01
-5.99
-5.99
-7.97999999852
0.0
0.0
0.0
0.0
-1.93
0.0
-7.99
-1.9
-1.9
-1.06
-1.62
0.0
0.0
-0.85
0.0
-1.07
0.0
-1.84
-0.99
-5.99
-1.65
-1.08
-5.97
-5.98
-7.81999999896
-7.84999984713
-7.88999989299
-6.0
-7.93
0.0
0.0
0.0
-5.98
-8.06
-1.83
-7.91999999927
-7.91
-1.84
-1.05
0.0
0.0
0.0
-0.05
-8.03
-8.74022673257
-6.01
-7.84999994757
-8.15
-1.51
0.0
-8.05
-0.07
-5.9
-6.01
-7.9299999633
-6.05
-8.02
0.0
0.0
0.0
-1.8
-7.89
-1.12
-0.82
-1.06
-1.11
0.0
0.0
0.0
0.0
0.0
-6.03
-5.94
0.0
0.0
0.0
0.0
0.0
0.0
0.0
-0.85
0.0
0.0
0.0
0.0
0.0
0.0
0.0
0.0
0.0
0.0
0.0
0.0
0.0
0.0
0.0
0.0
0.0
0.0
0.0
0.0
0.0
0.0
0.0
0.0
0.0
0.0
0.0
-1.77
0.0
0.0
0.0
0.0
0.0
0.0
-0.06
-1.28
-1.04
-5.94
0.0
-1.16
-0.08
0.0
0.0
0.0
0.0
0.0
-7.88
-1.07
-0.97
-5.96
-8.02
-5.96
0.0
0.0
-0.06
0.0
-0.08
-5.98
0.0
-7.9
-1.01
-8.02
0.0
0.0
0.0
-7.83
-5.96
0.0
-7.81
-7.92999997431
-7.92999998202
0.0
0.0
-0.03
-1.04
-1.84
-8.01
-7.89
-0.75
0.0
-8.80972631253
0.0
-8.0
-8.64980841877
-7.81
-7.92999998741
-7.76
-0.99
-7.93999999964
0.0
-8.03
-0.74
-1.01
-7.87999999975
-1.79
-7.93999999983
-8.1
0.0
0.0
0.0
-7.93
-8.07
-1.6
-1.12
-8.562351
0.0
0.0
0.0
0.0
-6.02
-1.05
-8.06
-8.06
0.0
0.0
0.0
0.0
0.0
0.0
-0.8
-1.73
0.0
0.0
0.0
0.0
0.0
0.0
0.0
0.0
-0.97
0.0
0.0
0.0
0.0
0.0
0.0
0.0
0.0
0.0
0.0
0.0
0.0
0.0
0.0
0.0
0.0
0.0
0.0
0.0
0.0
-1.03
0.0
0.0
0.0
0.0
0.0
0.0
0.0
0.0
0.0
0.0
0.0
0.0
0.0
0.0
0.0
-6.04
-1.56
-1.06
-1.06
0.0
0.0
0.0
0.0
0.0
-8.549646393
-0.07
-5.98
-7.84
-1.5
0.0
0.0
0.0
0.0
-8.6617524751
-8.02
-8.267
-8.5099
-6.01
-8.01
0.0
0.0
-0.86
-0.82
-7.82
-7.98
-7.98
-7.85
-8.07
-0.92
0.0
-0.02
-0.81
-0.01
-0.92
-7.91
-7.97
-7.76
0.0
0.0
-0.86
0.0
-1.88
-7.85
-1.44
-0.88
-7.56
-7.85
0.0
-0.99
-1.52
-8.5576457
-0.9
-7.75
-1.6
-1.09
0.0
-0.96
-5.91
-7.85
-7.79
-7.96
-8.1
-6.0
0.0
0.0
-0.9
0.0
-6.02
-7.99
-8.66235199
-7.99
-8.04
0.0
0.0
0.0
0.0
-1.77
0.0
0.0
0.0
0.0
0.0
0.0
0.0
0.0
0.0
-6.01
0.0
0.0
0.0
0.0
0.0
0.0
0.0
0.0
0.0
0.0
0.0
0.0
0.0
0.0
0.0
0.0
0.0
0.0
0.0
0.0
0.0
0.0
-0.86
0.0
0.0
0.0
0.0
0.0
0.0
0.0
0.0
0.0
0.0
0.0
0.0
0.0
0.0
0.0
-1.32
-1.0
-1.04
-1.57
-1.6
-1.51
0.0
0.0
0.0
0.0
0.0
0.0
-8.04
-1.5
-5.93
-8.40193
-8.06
0.0
0.0
0.0
-6.03
-0.93
-0.88
-8.03
-1.1
0.0
-8.0
0.0
0.0
0.0
-7.88
-6.03
-7.84
-7.96
-7.98
-7.89999999988
0.0
-0.08
0.0
-5.9
-0.99
-1.32
-1.87
-5.96
-5.99
-6.0
0.0
-6.02
-7.99
0.0
-0.9
-8.02
-7.85
-7.82
0.0
0.0
-6.02
-7.9
-5.97
-7.74
-8.04
-5.99
0.0
-0.97
-0.05
-0.92
-6.0
-6.05
-7.88
-7.99
0.0
0.0
0.0
0.0
-7.87
-6.03
-5.97
-6.02
-6.04
0.0
0.0
0.0
0.0
-5.97
0.0
-6.03
-0.85
0.0
0.0
0.0
0.0
0.0
0.0
0.0
0.0
0.0
0.0
0.0
0.0
0.0
0.0
0.0
0.0
0.0
0.0
0.0
0.0
0.0
0.0
0.0
0.0
0.0
0.0
0.0
0.0
0.0
0.0
0.0
0.0
0.0
0.0
0.0
0.0
-7.89
-8.01
0.0
0.0
0.0
0.0
0.0
0.0
0.0
-1.09
-1.04
-7.92
0.0
-6.07
0.0
0.0
0.0
0.0
0.0
0.0
-7.83
-1.05
-0.93
-8.0
-8.06
-7.94
0.0
0.0
0.0
0.0
-6.05
-0.1
-6.02
-6.04
-7.78
0.0
0.0
0.0
0.0
0.0
-0.95
-6.05
-6.02
-6.02
-6.03
-7.9
-0.06
0.0
-7.8
-8.0
-7.81
-6.05
0.0
-7.83
0.0
0.0
0.0
-1.52
-5.96
-6.01
-5.97
-7.84
-6.06
-8.02
-6.04
0.0
0.0
0.0
-6.03
-5.97
-7.84
-7.9
-0.85
-6.0
-7.88
0.0
0.0
-6.06
-7.86
-6.02
-6.01
-7.98
-0.97
0.0
0.0
0.0
-6.05
-6.1
-7.91
-0.91
-7.97
0.0
0.0
0.0
0.0
0.0
-0.06
-6.03
-6.02
0.0
0.0
0.0
0.0
0.0
0.0
0.0
-0.99
0.0
0.0
0.0
0.0
0.0
0.0
0.0
0.0
0.0
0.0
0.0
0.0
0.0
0.0
0.0
0.0
0.0
0.0
0.0
0.0
0.0
0.0
0.0
0.0
0.0
0.0
0.0
0.0
-1.55
-1.51
-1.46
0.0
0.0
0.0
0.0
0.0
0.0
0.0
0.0
0.0
0.0
-7.96
0.0
0.0
0.0
0.0
-6.05
-6.06
-0.92
-7.9
-1.02
-7.89999999991
0.0
0.0
0.0
0.0
0.0
0.0
-0.96
-7.93
-5.97
-1.63
-7.85
-8.06
-1.55
0.0
-8.01
0.0
-7.91999999994
-7.9
0.0
-7.86
0.0
0.0
-1.59
-7.83
-5.98
0.0
-6.03
-8.01
0.0
0.0
0.0
0.0
0.0
-1.58
-1.56
-7.94
-6.07
0.0
-6.02
0.0
0.0
0.0
-1.54
-1.54
-0.88
-7.93
0.0
-7.8
-7.84
0.0
0.0
0.0
0.0
0.0
-6.04
-1.57
-1.56
-1.59
-7.89
-0.06
0.0
0.0
0.0
0.0
0.0
-6.06
-6.05
0.0
0.0
0.0
0.0
0.0
0.0
-1.57
-6.02
0.0
0.0
0.0
0.0
0.0
-1.5
-1.52
0.0
0.0
0.0
0.0
0.0
0.0
0.0
0.0
0.0
0.0
0.0
0.0
0.0
0.0
0.0
0.0
0.0
0.0
0.0
0.0
0.0
0.0
-1.47
0.0
0.0
0.0
0.0
0.0
0.0
0.0
0.0
-6.03
-0.02
-7.94
0.0
-1.51
0.0
0.0
0.0
0.0
0.0
0.0
-8.02
0.0
-1.6
0.0
0.0
0.0
-1.55
-7.98
0.0
-1.58
-0.83
-8.06
-8.0
0.0
-0.43
0.0
-5.9
-7.87
-6.04
-7.85
-1.62
-5.98
0.0
0.0
0.0
-6.04
-8.01
-1.59
-0.92
-8.01
-1.5
-1.57
0.0
0.0
0.0
-1.54
-6.03
-1.45
-7.9
-1.53
-1.61
-6.03
0.0
0.0
0.0
0.0
-7.87
-5.99
-6.04
-1.6
-1.5
0.0
0.0
-1.56
-6.03
-6.05
-7.91
-5.97
0.0
-1.54
0.0
0.0
0.0
-6.04
0.0
-7.91
0.0
0.0
0.0
0.0
-1.55
0.0
-1.51
0.0
0.0
0.0
0.0
-6.04
-0.82
0.0
0.0
0.0
0.0
0.0
0.0
0.0
0.0
0.0
0.0
0.0
0.0
0.0
0.0
0.0
0.0
0.0
0.0
0.0
-0.77
0.0
0.0
0.0
0.0
0.0
0.0
0.0
0.0
0.0
-7.98
0.0
0.0
0.0
0.0
-1.49
0.0
-6.0
0.0
0.0
0.0
0.0
0.0
-1.57
-6.02
-1.56
-1.55
0.0
0.0
-1.55
0.0
0.0
-5.97
-7.97
-1.62
-1.64
0.0
0.0
0.0
0.0
-6.05
-1.57
-6.07
-7.96
0.0
0.0
0.0
0.0
-1.58
-6.05
-6.0
0.0
-8.0
0.0
0.0
0.0
0.0
0.0
-6.03
-1.57
-5.99
0.0
0.0
0.0
0.0
0.0
0.0
0.0
0.0
-8.02
-7.91
-1.58
0.0
0.0
-1.53
0.0
-1.51
-1.52
-1.56
0.0
0.0
0.0
0.0
-1.5
0.0
0.0
0.0
0.0
0.0
0.0
0.0
0.0
0.0
0.0
0.0
0.0
0.0
-6.06
0.0
0.0
0.0
0.0
0.0
0.0
0.0
0.0
-6.05
-1.52
0.0
-7.89
0.0
0.0
-1.58
-1.61
-1.59
-8.01
0.0
0.0
-1.5
-1.53
0.0
-1.62
-7.99
0.0
0.0
-1.51
0.0
0.0
-6.02
-6.08
0.0
0.0
0.0
0.0
0.0
0.0
-7.84
0.0
0.0
-6.0
-1.59
-1.55
0.0
0.0
0.0
0.0
0.0
0.0
0.0
0.0
