0.0
0.0
0.0
0.0
0.0
0.0
0.0
0.0
0.0
0.0
0.0
0.0
0.0
0.0
0.0
0.0
0.0
0.0
0.0
-6.45
0.0
0.0
0.0
0.0
0.0
0.0
0.0
0.0
0.0
0.0
0.0
0.0
0.0
0.0
0.0
0.0
0.0
0.0
0.0
0.0
-2.83
0.0
0.0
0.0
0.0
0.0
0.0
0.0
0.0
0.0
0.0
0.0
0.0
0.0
0.0
0.0
0.0
0.0
0.0
0.0
0.0
0.0
0.0
0.0
0.0
0.0
0.0
0.0
0.0
0.0
0.0
0.0
0.0
0.0
0.0
0.0
0.0
0.0
0.0
-6.49
-2.82
0.0
0.0
0.0
0.0
0.0
0.0
-6.45
0.0
0.0
0.0
-2.99
0.0
0.0
-2.9
-3.0
0.0
0.0
0.0
0.0
0.0
0.0
-2.93
-6.43
-6.48
0.0
0.0
0.0
0.0
0.0
0.0
-2.86
-2.9
-6.5
-6.51
0.0
0.0
0.0
0.0
0.0
-6.5
-4.54
0.0
0.0
0.0
0.0
0.0
0.0
0.0
-2.96
0.0
0.0
0.0
0.0
0.0
0.0
0.0
0.0
-2.88
0.0
0.0
0.0
0.0
0.0
-2.86
0.0
0.0
0.0
0.0
0.0
0.0
0.0
0.0
0.0
0.0
0.0
0.0
0.0
0.0
0.0
0.0
0.0
0.0
0.0
0.0
0.0
0.0
0.0
0.0
0.0
0.0
0.0
0.0
-2.91
0.0
0.0
0.0
0.0
0.0
0.0
0.0
0.0
0.0
0.0
0.0
0.0
0.0
-2.89
-6.49
0.0
0.0
0.0
-2.81
0.0
0.0
0.0
-6.51
0.0
0.0
0.0
-2.93
0.0
0.0
-2.82
-2.71
-2.89
-2.83
-3.55
0.0
0.0
0.0
0.0
-6.47
0.0
-6.53
0.0
0.0
0.0
0.0
0.0
0.0
0.0
0.0
0.0
-6.5
-2.97
-6.51
0.0
0.0
0.0
0.0
-2.95
-2.98
0.0
-6.49
0.0
0.0
0.0
0.0
0.0
0.0
0.0
0.0
-2.98
0.0
0.0
0.0
0.0
0.0
0.0
0.0
-2.94
-2.87
0.0
0.0
0.0
0.0
0.0
0.0
0.0
0.0
0.0
0.0
0.0
0.0
0.0
0.0
0.0
0.0
0.0
0.0
0.0
0.0
0.0
0.0
0.0
0.0
0.0
0.0
0.0
0.0
0.0
0.0
0.0
0.0
0.0
0.0
0.0
0.0
0.0
0.0
0.0
0.0
0.0
0.0
-2.88
0.0
-2.82
-6.44
0.0
0.0
0.0
0.0
0.0
0.0
-6.49
0.0
0.0
-2.91
0.0
0.0
0.0
0.0
0.0
-3.02
-2.95
-2.96
-2.85
-2.89
-6.47
0.0
0.0
-2.86
-6.48
-3.58
0.0
-2.97
-6.51
0.0
-2.97
0.0
0.0
-2.93
-2.82
0.0
-2.93
0.0
0.0
-2.9
0.0
0.0
0.0
0.0
-2.82
-6.49
-2.94
-6.5
-6.52
-6.44
0.0
0.0
0.0
0.0
-2.87
-2.94
-2.88
0.0
0.0
-6.47
-2.97
0.0
0.0
0.0
0.0
0.0
0.0
-2.87
-3.0
0.0
-2.96
0.0
0.0
0.0
0.0
0.0
0.0
-6.5
-2.9
0.0
0.0
0.0
0.0
0.0
-2.92
0.0
0.0
0.0
0.0
0.0
0.0
0.0
0.0
0.0
0.0
0.0
0.0
0.0
0.0
0.0
0.0
0.0
0.0
0.0
0.0
0.0
0.0
0.0
0.0
0.0
0.0
0.0
0.0
0.0
0.0
0.0
-6.5
0.0
0.0
0.0
0.0
0.0
0.0
0.0
-6.51
-2.93
0.0
0.0
-2.95
0.0
0.0
0.0
0.0
0.0
0.0
0.0
0.0
-2.95
-2.94
-2.91
-6.47
0.0
0.0
0.0
0.0
-2.95
0.0
-6.44
-2.96
-2.98
-2.79
-2.86
0.0
0.0
0.0
0.0
-2.79
0.0
-2.95
0.0
-2.98
-2.86
-2.87
-2.89
-2.94
-6.5
-6.49
-6.5
-2.98
-6.46
0.0
0.0
0.0
-2.94
-2.98
-2.94
-6.48
-6.51
-2.96
0.0
0.0
0.0
0.0
0.0
-2.97
-6.81022673257
-2.95
-6.52
-3.03
-2.85
0.0
-2.96
0.0
-2.86
-2.97
-6.52
-2.98
-6.34
0.0
0.0
0.0
-2.93
-6.48
-2.84
0.0
-2.82
-2.89
0.0
0.0
0.0
0.0
0.0
-2.94
-2.86
0.0
0.0
0.0
0.0
0.0
0.0
0.0
0.0
0.0
0.0
0.0
0.0
0.0
0.0
0.0
0.0
0.0
0.0
0.0
0.0
0.0
0.0
0.0
0.0
0.0
0.0
0.0
0.0
0.0
0.0
0.0
0.0
0.0
0.0
0.0
-2.89
0.0
0.0
0.0
0.0
0.0
0.0
0.0
-2.92
0.0
-2.9
0.0
-2.85
0.0
0.0
0.0
0.0
0.0
0.0
-6.49
0.0
0.0
-2.89
-6.43
-2.84
0.0
0.0
0.0
0.0
0.0
-2.96
0.0
-6.54
0.0
-6.6099999251
0.0
0.0
0.0
-6.49
-2.99
0.0
-6.52999994757
-6.47
-6.52
0.0
0.0
0.0
0.0
-2.94
-6.47
-6.51
0.0
0.0
-6.8261587128
0.0
-2.99
-6.52
-6.50999999999
-6.51
-6.50998422246
0.0
-6.47
0.0
-2.97
0.0
-2.68
-6.52
-2.92
-6.47
-5.63
0.0
0.0
0.0
-6.49
-3.0
-2.87
-2.89
-6.337
0.0
0.0
0.0
0.0
-2.94
0.0
-2.99
-6.48
0.0
0.0
0.0
0.0
0.0
0.0
0.0
-2.87
0.0
0.0
0.0
0.0
0.0
0.0
0.0
0.0
0.0
0.0
0.0
0.0
0.0
0.0
0.0
0.0
0.0
0.0
0.0
0.0
0.0
0.0
0.0
0.0
0.0
0.0
0.0
0.0
0.0
0.0
0.0
0.0
0.0
0.0
0.0
0.0
0.0
0.0
0.0
0.0
0.0
0.0
0.0
0.0
0.0
-2.88
-2.79
-2.79
0.0
0.0
0.0
0.0
0.0
0.0
-6.5276457
0.0
-2.89
-6.36
-2.78
0.0
0.0
0.0
0.0
-6.59235199
-2.95
-6.3799
-6.49193
-2.93
-6.42
0.0
0.0
0.0
0.0
-6.51999999896
-6.38
-3.64
-6.55999734827
-2.96
0.0
0.0
0.0
0.0
0.0
0.0
-6.45
-6.58998895572
-6.49999999927
0.0
0.0
0.0
0.0
-2.95
-6.54999998202
-2.83
0.0
-5.93
-6.38
0.0
0.0
-2.86
-6.589646393
0.0
-6.49999870065
-2.84
0.0
0.0
0.0
-2.94
-6.53999999949
-6.52999998741
-6.55
-3.04
-2.89
0.0
0.0
0.0
0.0
-2.93
-2.99
-6.6417524751
-6.52
-6.42
0.0
0.0
0.0
0.0
-2.88
0.0
0.0
0.0
0.0
0.0
0.0
0.0
0.0
0.0
-2.95
0.0
0.0
0.0
0.0
0.0
0.0
0.0
0.0
0.0
0.0
0.0
0.0
0.0
0.0
0.0
0.0
0.0
0.0
0.0
0.0
0.0
0.0
0.0
0.0
0.0
0.0
0.0
0.0
0.0
0.0
0.0
0.0
0.0
0.0
0.0
0.0
0.0
0.0
-2.79
-2.72
0.0
-2.87
-2.73
-2.82
0.0
0.0
0.0
0.0
0.0
0.0
-3.01
-2.82
-2.86
-6.482351
-6.47
0.0
0.0
0.0
-2.87
0.0
0.0
-3.07
0.0
0.0
-2.91
0.0
0.0
0.0
-6.55
-2.88
-6.53999909046
-6.18
-3.68
-6.57995400135
0.0
0.0
0.0
-2.85
0.0
0.0
-2.95
-2.97
-2.89
-2.9
0.0
-2.97
-6.59
0.0
0.0
-3.03
-6.52999226901
-6.73031109896
0.0
0.0
-2.96
-6.56999999568
-2.88
-6.47
-6.24
-2.96
0.0
0.0
0.0
0.0
-2.96
-2.91
-6.49
-6.78321776927
0.0
0.0
0.0
0.0
-6.54
-2.93
-2.9
-2.95
-2.96
0.0
0.0
0.0
0.0
-2.88
0.0
-2.88
0.0
0.0
0.0
0.0
0.0
0.0
0.0
0.0
0.0
0.0
0.0
0.0
0.0
0.0
0.0
0.0
0.0
0.0
0.0
0.0
0.0
0.0
0.0
0.0
0.0
0.0
0.0
0.0
0.0
0.0
0.0
0.0
0.0
0.0
0.0
0.0
0.0
-6.54
-6.59
0.0
0.0
0.0
0.0
0.0
0.0
0.0
0.0
0.0
-6.55
0.0
-2.89
0.0
0.0
0.0
0.0
0.0
0.0
-6.48
0.0
0.0
-3.68
-6.57
-6.61999936332
0.0
0.0
0.0
0.0
-2.93
0.0
-2.93
-2.98
-6.51999955432
0.0
0.0
0.0
0.0
0.0
-2.71
-2.96
-2.9
-2.9
-2.98
-6.55
0.0
0.0
-6.50999999698
-3.01
-6.55996780094
-2.96
0.0
-6.53999968803
0.0
0.0
0.0
-2.78
-2.89
-2.88
-2.91
-6.51999978162
-2.96
-2.94
-2.97
0.0
0.0
0.0
-2.85
-2.93
-6.5699945883
-6.57
0.0
-2.9
-6.57
0.0
0.0
-2.94
-6.55999999964
-2.9
-2.95
-3.02
0.0
0.0
0.0
0.0
-2.85
-2.94
-6.55
0.0
-2.9
0.0
0.0
0.0
0.0
0.0
0.0
-2.89
-2.84
0.0
0.0
0.0
0.0
0.0
0.0
0.0
0.0
0.0
0.0
0.0
0.0
0.0
0.0
0.0
0.0
0.0
0.0
0.0
0.0
0.0
0.0
0.0
0.0
0.0
0.0
0.0
0.0
0.0
0.0
0.0
0.0
0.0
0.0
0.0
0.0
-2.76
-2.8
-2.7
0.0
0.0
0.0
0.0
0.0
0.0
0.0
0.0
0.0
0.0
-6.59
0.0
0.0
0.0
0.0
-2.85
-2.88
0.0
-6.58999621181
0.0
-6.5999061252
0.0
0.0
0.0
0.0
0.0
0.0
0.0
-6.56
-2.83
-2.85
-6.53
-6.63
-2.8
0.0
-3.01
0.0
-6.58993428764
-6.57999984713
0.0
-6.57999999975
0.0
0.0
-2.83
-6.49999999983
-2.88
0.0
-2.97
-3.69
0.0
0.0
0.0
0.0
0.0
-2.85
-2.89
-2.91
-2.96
0.0
-2.91
0.0
0.0
0.0
-2.79
-2.79
0.0
-6.56
0.0
-6.51
-6.52999999788
0.0
0.0
0.0
0.0
0.0
-2.88
-2.82
-2.86
-2.83
-6.53999999988
0.0
0.0
0.0
0.0
0.0
0.0
-2.96
-2.93
0.0
0.0
0.0
0.0
0.0
0.0
-2.83
-2.88
0.0
0.0
0.0
0.0
0.0
-2.78
-2.82
0.0
0.0
0.0
0.0
0.0
0.0
0.0
0.0
0.0
0.0
0.0
0.0
0.0
0.0
0.0
0.0
0.0
0.0
0.0
0.0
0.0
0.0
-2.74
0.0
0.0
0.0
0.0
0.0
0.0
0.0
0.0
-2.8
0.0
-6.56
0.0
0.0
0.0
0.0
0.0
0.0
0.0
0.0
-6.57
0.0
-2.84
0.0
0.0
0.0
-2.79
-6.59999989299
0.0
-2.83
0.0
-6.63
-6.59999999991
0.0
0.0
0.0
-2.86
-6.55997746066
-2.89
-6.51999999994
-2.84
-2.85
0.0
0.0
0.0
-2.87
-3.0
-2.81
0.0
-6.59999999996
-2.78
0.0
0.0
0.0
0.0
-2.78
-2.87
-2.7
-6.55999999997
0.0
-2.81
-2.88
0.0
0.0
0.0
0.0
-6.54
-2.9
-2.86
-2.83
-2.81
0.0
0.0
-2.83
-2.83
-2.88
-6.54
-2.72
0.0
-2.79
0.0
0.0
0.0
-2.86
0.0
-6.56
0.0
0.0
0.0
0.0
-2.79
0.0
0.0
0.0
0.0
0.0
0.0
-2.84
-2.75
0.0
0.0
0.0
0.0
0.0
0.0
0.0
0.0
0.0
0.0
0.0
0.0
0.0
0.0
0.0
0.0
0.0
0.0
0.0
0.0
0.0
0.0
0.0
0.0
0.0
0.0
0.0
0.0
0.0
-6.56
0.0
0.0
0.0
0.0
0.0
0.0
-2.86
0.0
0.0
0.0
0.0
0.0
-2.79
-2.85
-2.8
-2.77
0.0
0.0
-2.74
0.0
0.0
-2.89
-6.59
-2.83
-2.82
0.0
0.0
0.0
0.0
-2.85
-2.82
-2.83
-6.59999999998
0.0
0.0
0.0
0.0
-2.8
-2.86
-2.84
0.0
-6.56
0.0
0.0
0.0
0.0
0.0
-2.86
-2.78
-2.88
0.0
0.0
0.0
0.0
0.0
0.0
0.0
0.0
-6.6
-6.56
-2.81
0.0
0.0
0.0
0.0
0.0
-2.76
-2.81
0.0
0.0
0.0
0.0
0.0
0.0
0.0
0.0
0.0
0.0
0.0
0.0
0.0
0.0
0.0
0.0
0.0
0.0
-2.83
0.0
0.0
0.0
0.0
0.0
0.0
0.0
0.0
-2.85
0.0
0.0
-6.55
0.0
0.0
-2.79
-2.82
-2.79
-6.61
0.0
0.0
-2.75
-2.77
0.0
-2.83
-6.58
0.0
0.0
0.0
0.0
0.0
-2.78
-2.89
0.0
0.0
0.0
0.0
0.0
0.0
-6.51
0.0
0.0
-2.82
-2.81
-2.78
0.0
0.0
0.0
0.0
0.0
0.0
0.0
0.0
